{"layers": [[{"inputs": 80, "activation": -1.440736401221844, "output": 0.19143133851627586, "weights": [-1.9869765461407112, 2.4182655567140663, 1.6804704727397304, 0.9341148292847864, 4.190193899273628, 4.219154396652848, -0.22055339693564432, -1.8180360077656452, -3.391884404582879, -2.819380789335531, -5.319861881595028, 2.082618624122822, 0.9984431937394066, 3.2917290386288958, 5.651465056947253, 4.5424372384102005, 2.381967463140684, -5.809901654958054, -2.674890616316162, -2.0296852481077545, 3.4114601687492403, 3.9708205237147784, -1.3238670992953585, -2.704323832100503, 2.280890044077031, -2.785230381228661, -0.6773795596741048, -3.8765854733047416, 1.78497003807458, 5.0126042520440075, 5.837639249346782, 4.42111547286339, 0.95672746386752, -3.270076356938234, -2.273815157811151, -1.733939196629782, -3.1351381212208307, -5.635344996611148, -2.9176133085374065, 1.1285792807530357, 2.2966905375518563, 2.0195508482030813, 1.8920778414250232, 1.8340511342175068, -0.3002559898910062, -2.152094702132955, -2.328059431261183, 1.1373187367301143, 3.464042839504667, 0.44405732021795213, -3.9907517856745045, -2.339132347176323, -5.586161898398942, 1.561072012846211, 0.09334074383832708, -2.3197845901100864, 1.8927600450510387, 8.042069889857594, 1.5468728331134352, 2.3013063834510312, -7.500830680219941, -4.969931989357365, -0.3596955229348873, -0.1331617618739325, 2.888170119370971, -2.876794182541922, -4.4411675039899245, -0.6754585814346823, -0.9979009765852116, 5.136403070470737, -1.1846985153430523, 0.9928784054779586, -6.676837164636662, -3.6094410486188435, -4.757691416475753, 0.5328097466768423, 8.93856896527387, 10.825146689644814, -3.162177007367896, -1.1483859263201655, -1.589653044005318], "delta": -1.0759550919098733e-05}, {"inputs": 80, "activation": 8.061700027416478, "output": 0.9996847092622603, "weights": [0.0071703836702948, -0.35022150693389936, 0.5945992189883693, 0.5380450306417343, 0.30889531502991197, 0.5006600123655583, -0.20845149599696494, 0.6549721705674872, 0.7125724591931015, 0.4826266568188252, 0.3565744411263816, 0.08393434204268778, 0.46315521277774324, 0.15849455845204624, 0.98808692788112, 1.034896522513359, 0.6751592916657421, 0.16550086492000038, 0.16593401700316984, 0.4590356128886969, 0.5873057089944359, 0.8170545738219144, 0.6869863339672866, 0.12228818831547886, 0.5342099973506542, 0.13256539541692203, 0.49136873677980036, 0.8320042232203363, 0.5240481871510999, 0.9104610493427311, 0.49085998772604766, 0.22918904472464893, 0.23935546328261773, 1.0977712374408084, 0.25969041121444625, 0.19236120007667923, 0.7406604774185549, 0.3941353784514718, 0.6709663720163924, 0.6888680404346669, 0.1746509392897756, 0.27829358435090384, 0.8040881407293978, 0.7971667664723899, 0.7371087109678849, 0.3196925259750574, 0.4737469911760768, 0.5421404451015308, 0.9117814001459559, 0.04558740091205251, 0.28253036841793344, 0.0793384464121675, 0.9462240984288852, 0.7126928411018635, 0.7001179899429647, 0.8100651790519627, 0.6026977521142738, 0.9528115546902708, 0.06994783499080917, 0.2859119596517902, 0.7171115915978062, 0.5630361620559965, 0.5757921107139939, 0.4322926074422773, 0.11601974731169737, 0.8937087911355514, 0.7697212848253567, 0.7468255646845888, 0.29156031784061254, 1.0622066304258373, 0.8080118120677298, 0.6090265459558646, 0.5145044618602841, 0.44818328848707994, 0.9868410021112592, 0.8939508507583322, 0.15198899683989484, 0.3611789848792423, 0.5415739341646761, 0.6848846523241992, 2.5613715790432536], "delta": 8.727741684407064e-09}, {"inputs": 80, "activation": 5.913739092186146, "output": 0.9973052167723845, "weights": [-1.8016240438668685, -0.3980756248670217, -1.0155158389159518, -1.2317965514260332, -0.5249691136736933, -0.9762164191497753, -0.8907503581833237, 0.5162684910276177, 0.017555245293971327, -0.18366220675550635, -0.1403525948447578, 0.1435558065023322, 0.5633500144319187, 0.7976106040738108, 0.1930991945958129, 0.8630704285997464, 0.7490719040437892, 0.8528570394165419, 0.5154295240127045, 0.907962831637785, 0.6284861280131281, 0.6286198776414449, 0.33146750255592755, 0.8681580175113296, 0.2535473248750682, 0.2456585025210202, 0.4419908279078305, 0.9625256776236025, 0.5075499902361835, 0.11056138933549538, 0.2689207198721324, 0.7959055863813828, 0.47838917570755957, 0.5094134455753693, 0.1516707153332649, 0.7978298174157612, 0.4136003541009635, 0.6160617480518473, 0.5732554642602765, 0.37064680394406446, 0.5210361431538892, 0.2620243065763394, 0.12754865660638293, 0.5266866544316182, 0.13370069014868405, 0.32390339497722237, 0.7378019458598964, -0.10618298756718395, 0.6143997877382427, -0.04640902749020843, 0.1415960927834756, 0.1440707460043997, 0.29257972616438094, 0.5077656582137391, 0.3844332115708115, 0.1789547759266481, 0.6434460472922285, 0.8796675686240703, 0.5337573905423071, 0.8721615526982144, 0.6373627294227493, 0.7203410411051321, 0.2504681942921042, 0.795508334760023, 1.0632207411727597, 0.7000027927233209, 0.6624882037249642, 0.6998382743549313, 0.6956319011736289, 0.5300752480928378, 0.9975209170616973, 1.8883937702818236, 1.1489929697368324, 1.4353968245353044, 0.9919006031824916, 0.5279871869391705, 0.6722421569092845, 0.9318640074885034, 0.7927920426705952, 0.5182225353589333, 1.4643713413674422], "delta": 6.529559363448709e-08}, {"inputs": 80, "activation": 2.868958272951506, "output": 0.9462904269753021, "weights": [1.3747403519929173, 1.1260274033289672, 0.7166688511647739, 0.9587050689848838, 0.6252989406835664, 0.6158465966146135, 0.38402201313999534, -0.1953500915806243, 0.02019846480220458, 0.44042958678767796, 0.23129793218214476, 0.7145857603673709, 0.24073746716455946, 0.11100240785457671, -0.06524854859414995, 0.33216853954079045, 0.23551190456200927, 0.5657496593796467, 0.09846038305717947, 0.517116553287461, 0.6302342717749487, 0.2354517380818159, 0.5757645133371444, 0.3792995630718467, 0.17773384537410652, -0.2515343338067259, 0.19539103007421282, 0.401349581161143, 0.052088715277882724, 0.042400922554032716, -0.03225273228057109, 0.18324114373544706, 0.5106851955986198, -0.12635163973289307, 0.2635975302337662, 0.05972415319151933, 0.5166837101698707, -0.17108032514053756, 0.3477816307895355, 0.17847391382823255, 0.507142307158744, 0.14049557839304383, 0.3209143443003903, 0.8791313238359111, 0.6062595873852239, 0.04180565822950479, 0.3397606199420113, 0.7198278756842108, 0.2422231163016176, 0.50023389470326, 0.7462900639796295, 0.4043051759560747, 0.3635830258789879, 0.38330644390223645, 0.01769310112321572, 0.10308329350164559, 0.1746568596904718, -0.030832946696968518, -0.10416318374100218, 0.5879302156964916, 0.8095757863935513, 0.6738225467341721, 0.05159679152542072, -0.05225916815887054, 0.43840840872204423, 0.5064510329961421, 0.06384811572043711, 0.4996208152468708, 0.09346838595832284, 0.2276774106332674, 0.017989624543496573, -0.04340470089653815, 0.0001656324602739602, 0.1278397685856347, -0.015286260603189524, 0.7180583487840378, 0.5288470877226358, -0.18298420869418838, 0.7263864456198121, -0.21972544558796983, -0.48804669008768964], "delta": 5.91483754210533e-08}], [{"inputs": 4, "activation": -10.437266505301842, "output": 2.9318383246860076e-05, "weights": [27.96514397607081, -7.809448854708113, -6.87761339619144, 1.5003067255466125, -2.544286718365981], "delta": -2.616486441151385e-06}, {"inputs": 4, "activation": 6.92719724878581, "output": 0.9990202151135096, "weights": [1.3403066878709893, 2.387590829953407, 1.7330254597814305, 1.5261871768132065, 1.1112110764461347], "delta": 1.3090358551958853e-06}, {"inputs": 4, "activation": 8.589847330653221, "output": 0.9998140501041778, "weights": [1.238670910642382, 2.688953931402564, 2.6242137210754963, 2.0120319385634082, 1.1435124578383982], "delta": 1.5364713292890156e-06}], [{"inputs": 3, "activation": -2.4603372102081584, "output": 0.07868588783913008, "weights": [15.645513505207733, -0.23470610962161198, -1.4490572210090356, -0.7781067495659767], "delta": -0.005704287714063902}]], "configuration": [80, 4, 3, 1], "name": "L3_Bound"}