{"layers": [[{"inputs": 80, "activation": 28.549925642571626, "output": 0.999999999999601, "weights": [2.3949718981951174, 3.7732026855868708, -2.0959551677596497, -0.959083295634627, 0.4976701972563078, 0.22491337004292256, -0.07955442241698352, 0.6642083834345094, -0.25448644639176005, -0.0192113703298834, 0.21515114193749632, 0.5320948920511298, 0.15575500337997253, -0.46101113830680907, 0.19193910621792, 0.24020269284988036, -0.15976838686418113, 0.42044332421934855, 0.6231952266836658, -0.18940584918116213, -0.0775581474589333, 0.32089341420388023, 0.5124004792327624, 0.47277526862751523, -0.07275184349098636, -0.09643757264961796, 0.00828531768667948, -0.25540655529991685, 0.587288377180649, 0.238001156653537, 0.3465492202687407, -0.20539563067388097, 0.5826469787586879, 0.5612554590581874, 0.4085932931416869, -0.25846948141248227, 0.486472787413115, 0.31256060715505635, 0.10474009956936678, -0.2826396500095922, -0.6017695558253963, 0.3159340148867171, -0.23688915463616256, 0.055553214731509724, -0.41593913998418014, -0.12424493558957704, -0.27618730055596513, 0.14058813338203502, 0.18416006690986564, 0.9128378620507936, 0.34927640511381547, 1.2808644891007133, 1.0955376081835964, 0.4033189195914352, 0.39614149512549873, -0.23048195885739034, -0.24087879633359305, 0.5543619639026571, 0.4277954646651495, 0.8965355113315637, 0.4083701789734075, 0.8679914089406348, 0.8271298566363807, 0.617413556968239, 0.6295970859089025, 4.628156700532237, 0.4156203121850181, 0.6677691240881406, 0.18013556902610972, 0.11343783327105403, 2.8002514898806155, 1.4793419253773248, -0.537433379670275, -0.30638030349640244, 1.1685558486664016, 0.8196177214409993, 0.3883773259473157, 0.7537221710123021, 4.576208118006532, 3.0587475370967865, -3.4860931730993046], "delta": -5.826767303746519e-19}, {"inputs": 80, "activation": 2.840240173550582, "output": 0.9448119867554992, "weights": [-2.00623961594716, 1.7978472170133866, 0.19545799189143806, 0.831667672236534, 1.5453456343813285, 4.1932037889776215, 4.264396613161677, 1.2898866363214794, 0.551896135330791, 0.9801830759524651, 0.029860806824158738, 2.776238847037935, 1.2034200048235875, 0.6455541432617471, -3.3541126942567168, -1.8815066796121285, -1.60416521936346, -2.17605246688374, -3.101712554586323, 1.8048735243484804, 1.390317522861245, 0.47857992233725194, 0.052321794875690615, -1.5616658815603128, -1.536517947575947, -0.4650763541464854, 0.3194233649940409, 2.3134584317118163, 6.6205255462112405, 1.7268096491373839, -1.3913575609772524, -3.0686556105471023, -1.6988958798826908, -0.7625910676853481, -1.3594775139078312, -0.20006108657920046, 1.551381828272181, 2.909634026336204, 2.8719803358588454, 2.372271172559798, 0.07116392221606371, 0.5287372432680013, 0.5265629141249885, -0.2759482524816662, -1.2449587793832126, -2.6536335258520634, -1.082920491973261, 0.9619738695161467, 2.3131763174112434, 2.090708955049883, 2.335236158804628, 1.1878749460662967, 2.7716540793281808, 2.7612703620767856, 1.6029839226303442, 1.363093253796351, -1.3398236333600515, -0.33009134610167307, 0.15672475935803198, 1.8866093974131477, 5.171119896640836, 1.8395435941901457, 1.0859725890969743, -0.29451250180194316, -2.5465684323113975, -1.9862854001055827, -1.9038996271238682, -2.1335507502684794, -2.8334630140757353, -1.001382118531674, 1.6967250741988338, -1.2739438107615237, -2.4986358089438885, -2.232920932549794, -1.5821849911652344, -2.0848179490562586, -3.3324106744557715, -3.2694031694461265, -1.6921652243699856, -2.0062843502077783, -5.0429431953610955], "delta": 4.5932275045729756e-08}, {"inputs": 80, "activation": 1.4560443906355325, "output": 0.8109269289763003, "weights": [5.194219426584793, 1.9414384762466685, -1.623077166785313, -5.110119049674977, -6.398958708489892, -5.337340455833603, -4.852914013370836, -2.8229764940324378, -1.0651840721519614, 3.4192807150288096, 3.6949960283490486, -0.5161491480205619, -0.471645181170507, -0.5408071706922662, -1.986470746725466, -0.9890362362933106, -0.03219471801884315, 1.8754122954914452, 2.8519769297516318, 4.461617706426311, 4.457763736071246, 2.419179716213402, -0.04897426877916023, 0.5897945484191216, 1.192724000104711, 1.9831017241465942, 3.3799541131494033, 2.955702580468051, 0.9578761725515474, 2.784220769857485, -4.739077414647728, -6.221706673446965, -4.746736142279564, -1.487753093599392, -3.2183891880016597, -2.768406594207066, -3.741144336850717, -3.755584539688101, -3.895556696570717, -2.467597306461822, 0.11833294961193039, 2.272718243525271, 2.639090396861871, 2.6045985746740796, 1.011872462481365, -0.09287156262582673, 0.9767487856323999, 0.8252040262563118, 2.180234358313566, 2.1345404898231317, 0.3687866324385637, -1.3776659808605982, -1.7957191415041394, -1.8673307470567357, -1.4507999723953087, -2.276506185462607, -1.9974594692206284, -1.187379363111786, -0.5504821238258394, 4.629333269524513, 5.834204978064289, 1.1092074226377733, -1.0158893503621094, 1.7423603718744483, -0.08479460890555549, -0.47212780222989553, 1.708426414571877, 2.9659396013905113, -0.6882199756952272, -0.9237042746226708, 2.0874037408576127, -2.061211168058875, -1.964901627888326, -0.239507254712178, 1.0570653172023283, 3.762147394703756, 5.176002343920746, 2.4012559374191156, 4.625636239267394, -0.32743566430096666, -4.464838905600417], "delta": 1.312872274217133e-07}, {"inputs": 80, "activation": 32.790583979565056, "output": 0.9999999999999942, "weights": [0.9621632498598796, 1.0355758618786255, 0.4677032131155428, 0.7243532158136405, 0.5393527656058875, 0.5604310464375027, 0.1262946372596639, 0.001659804241592227, 0.2023244345135158, 0.6108030286497567, 0.3728419201371148, 0.8720669419696737, 0.43059230690367023, 0.316832910476594, 0.15539540831840543, 0.5836545149822486, 0.5037150309443259, 0.8380050715636446, 0.3980347298677539, 0.8083851959661588, 0.8215194280594215, 0.4032846245646923, 0.8461003310278219, 0.6008055477838886, 0.3784778042290828, -0.011287082043934613, 0.4044897303262829, 0.6224543993915695, 0.28839883646779646, 0.29197913832713124, 0.20371774376191562, 0.42221456120829265, 0.7519700500524448, 0.12580888356063477, 0.4808530446610103, 0.24018771028113453, 0.6960579179622571, -0.02474725860730883, 0.4119557424119578, 0.2645233837867322, 0.570197747061801, 0.1469609698288199, 0.3399803625150548, 0.9107261591648057, 0.6225016899493405, 0.06157274171723625, 0.36958999843910223, 0.7409839594651224, 0.2660163489431345, 0.5513342095497591, 0.8098108886638227, 0.4962071250832812, 0.4712912367209374, 0.4675815423531344, 0.12134848074549938, 0.20543598617845021, 0.27035246773922744, 0.01754693456015155, 0.01531021346415409, 0.7124962047681213, 0.9393987424121404, 0.8138786529515846, 0.23167541350955387, 0.13029807202925567, 0.5825053239582547, 0.9290453317044044, 0.2506386583300588, 0.675657716693584, 0.29638847645950445, 0.4812211717270952, 0.6699306759216287, 0.5627280672127024, 0.4999380443854125, 0.5477820293962486, 0.4523691968001333, 1.0471454241473521, 0.8587392665984037, 0.08914069460077696, 1.2925150651939592, 0.3530211717982199, 0.11520932085663406], "delta": -1.9383569772909573e-22}], [{"inputs": 4, "activation": -0.835232742553103, "output": 0.3025397724671174, "weights": [5.703628021777895, -4.406295398464837, -4.204154634341316, 1.0479066678285893, -0.014384587657483234], "delta": -8.165984162815349e-08}, {"inputs": 4, "activation": -4.0360547904836075, "output": 0.017360329704010947, "weights": [-1.9870418305604123, -0.7350850576385677, -1.1501768294183954, -0.9206857972867896, 0.4988993755266911], "delta": 9.37674063299333e-10}, {"inputs": 4, "activation": 1.736941554693554, "output": 0.8502981692725905, "weights": [-12.470711523393675, 6.554942529944239, 6.457760175877011, 0.6640676894608051, 2.1136255828372263], "delta": 7.960013449636363e-08}], [{"inputs": 3, "activation": -8.453525853049397, "output": 0.0002131021397395483, "weights": [8.523609568161753, -1.2106443492933785, -13.773121682482099, 0.7000205766724167], "delta": -4.540284445597299e-08}]], "configuration": [80, 4, 3, 1], "name": "load_core"}