{"layers": [[{"inputs": 80, "activation": 21.36336680249892, "output": 0.9999999994727609, "weights": [2.3118597031148167, 4.768710545554186, -2.612992346633849, 0.2856127681817675, 2.219726000385429, 0.7332779279096766, -0.5911838698846812, -0.5702592550863944, -0.40755083957613697, 0.10772518660049205, 0.4864651983250701, 0.3099057994857573, -0.2658878197921358, -1.2489506919184368, -1.4465767707771866, -1.7524616968416975, -2.056601863963753, -1.0643795881470162, -0.8813982841934327, -1.518190417872637, -0.452160552696221, 1.3305074797003795, 1.3098754641758579, 0.35781550169035164, -0.38135401289804366, -0.18770784525827694, -0.4691902263350379, -2.700770635592016, -2.4741838782399808, -1.7982474334029481, 0.47191241860073896, 0.38927188350036745, 1.0857271669595778, 0.8282456465688929, 0.0712073742301345, -0.2399517272548956, 0.9708013199221688, 0.5531330243042378, 0.8670218020549635, -0.31917542981685154, -1.708388647885297, -1.7304574889646993, -1.5803807531465996, -1.0387686448087388, -1.1168990046701952, -0.8419731309020371, -0.42000560331649156, -0.1489110683094212, -0.10330170985458041, 0.014975008185288914, -0.27030531278553305, 0.6822080883150339, 0.3623083552224755, -0.6035752730275812, -1.0748046299342342, -2.1498406063304976, -1.4002356402161606, -0.5270918646808044, -0.5282856407942729, 1.058542883643175, 0.9459871453112787, 0.2828980899216173, 0.1934876811187667, 0.9268261281315966, 2.313879750142393, 3.178905501644375, 1.964901062125013, 2.592530774661882, 2.5553364434893218, 2.549853953950223, 4.449529689439316, 5.203033240007349, 2.9609405702141847, 2.610285052934396, 4.233455117149182, 2.3382826221936086, 2.5290870378317085, 2.8476404896862504, 6.365447417208868, 5.120997500672063, -4.106245348591794], "delta": 3.311436736886691e-11}, {"inputs": 80, "activation": 32.416729721092246, "output": 0.9999999999999916, "weights": [0.7034641450046949, 0.06427959398190859, 1.0723332931941143, 0.9852489962316754, 0.8299305056329661, 0.8478262116719659, 0.3731878102873386, 0.7263003043930389, 0.7950279321728374, 0.5807017118890603, 0.48782760922101187, 0.20975587550552066, 0.540596615157611, 0.20500136191850382, 1.0173142552931171, 1.0425572521945632, 0.6603270349960929, 0.14341280005648735, 0.12593323296032205, 0.42937600055644354, 0.6056907907425616, 0.831402375841768, 0.6494682732799469, 0.11072015919022259, 0.5337167035477398, 0.10696188529243762, 0.4879061441080001, 0.8318864525488648, 0.5250690120197059, 0.898864893680348, 0.47885915538659113, 0.218963878945051, 0.22866270181632964, 1.0806391350323628, 0.26637516549897017, 0.20827385310951393, 0.7574207715850005, 0.4359147376569718, 0.7299708393306722, 0.7474537797918871, 0.241340365216903, 0.37131276322492696, 0.8901408225716535, 0.8800132421573251, 0.8121493953927003, 0.3798410600819047, 0.4962495133519478, 0.5515458072736281, 0.910169964773759, 0.021886468045034604, 0.24739996099936393, 0.017393784498146804, 0.9349426399513668, 0.8108809475097487, 0.8721048646591889, 1.061920018650945, 0.867823969213166, 1.2129417868997654, 0.3065120008978836, 0.5080849873969331, 0.8874519374796461, 0.6864392352281603, 0.6162547478911302, 0.4114954968831361, 0.14124899419541273, 0.9514191229361053, 0.8943046613058893, 0.9146319673340245, 0.3567757373161358, 0.9272474335428995, 0.27690207694014574, -0.1528832047798498, -0.03777369360754916, 0.12336679232167257, 0.7854034777137628, 0.9651395422483363, 0.299133509316606, 0.6266067042453529, 0.6918256254440466, 0.9692437711344608, 1.725894847278279], "delta": 5.287974296924499e-16}, {"inputs": 80, "activation": 19.319996061712637, "output": 0.9999999959315187, "weights": [-5.178157192364253, -4.34813051672138, 3.6970444882270876, 9.63122812614474, 2.023917385259062, -7.46278351777919, -2.4003595560660997, 0.5303488571459862, 1.5793257242884524, 3.7061658607071615, -10.945686664291479, 0.3611532995804389, 6.06579836276346, -0.08053872166805279, 5.7583297367881325, 1.8929076774390519, -2.215329290627232, -2.369370652767227, 2.7722512681781115, 5.841583254860642, 4.609717259752977, 2.376113630550184, -5.171547771686312, 3.04092101348598, 0.6600345977472367, -5.012016444068196, -1.6698104765645747, 0.4015026403045833, 7.0513144793929845, 0.3338922666495476, 14.089584127828918, -5.672748579890869, -9.627627381663387, 0.5668583184087177, 1.9588371099938948, -3.33107309438034, -8.91147868149365, -0.40228860355772994, 2.122304850645332, -1.1611168882190916, 1.6118979093669228, 3.3563562034233385, 5.399211430645246, -2.70217508994225, -0.22183305453301444, 3.018125650505379, 0.2360273918433554, -1.0666132517428326, 0.6983259890437612, -3.223259697810075, -2.612463479530798, -0.8272754443078147, 0.887700968745335, 10.58068164597086, 9.1789915267234, -3.597420564543694, 0.9702961338647004, 11.97400676358533, 0.4569121143889128, 0.9500830232016572, 2.6777112671630703, -2.597384768132712, -2.094224917311903, 3.6068957485805475, 0.6844609693132737, 2.7617756413613708, 0.19204932096435712, -6.911065037632964, 3.3601293902639915, -1.729280440604068, -7.42918012967519, 0.8466161869239923, 4.961852736439906, -1.574871743631571, -6.018816730063324, 2.680760119523936, 2.12361510034655, -2.018180178376879, 3.9972010492846555, -4.239780594859597, -2.7013235673496365], "delta": -6.545635566424012e-10}, {"inputs": 80, "activation": 31.561970999291418, "output": 0.9999999999999805, "weights": [0.9475430022803849, 0.9233007698493092, 0.7485159924608671, 0.8850515192334124, 0.6133938638470303, 0.6357024954166208, 0.19691043591855886, 0.06749579420488495, 0.25657155723937447, 0.6774953632912492, 0.4533821653748112, 0.96637392463014, 0.518775709048795, 0.392437510497998, 0.2277565919572644, 0.6545501085469906, 0.5632773664922748, 0.8957225227524822, 0.47834759672402904, 0.9014364685126778, 0.9124429171082645, 0.47057991001178895, 0.9080751830666111, 0.672658340562181, 0.44041815296952175, 0.043525153043172095, 0.4648356566179069, 0.7044754898317676, 0.38048044709282114, 0.36692974546288915, 0.25545441053956014, 0.4802821877022021, 0.8074903128388937, 0.17877637590914888, 0.5428053721726713, 0.3076816414059853, 0.7739450603489901, 0.044626989762558154, 0.4774789959157251, 0.3225957164514411, 0.6355537464771677, 0.2178290396326513, 0.40591084037382724, 0.9754970845853909, 0.67650382298972, 0.0890853469579123, 0.3478761882647908, 0.6835968306113853, 0.17358042798728354, 0.4235950452580895, 0.6466563276164737, 0.2990602716588659, 0.41001984896516275, 0.6497255359327522, 0.5391022993919509, 0.8555808356322836, 0.932519438764151, 0.6125313602373145, 0.5473601562905742, 1.1544812448759982, 1.2501970987067845, 1.006922600276214, 0.28230947963835895, 0.046116402829182127, 0.5757886114399854, 0.8106896743931579, 0.5178405900445775, 1.1039905955492124, 0.6048404954569739, 0.6113407852845165, 0.40452513612175994, 0.2279748769877734, 0.35558130719608616, 0.48246616357703404, 0.3692900848379722, 1.1064504537748925, 0.9661106360149745, 0.311419713030908, 1.2775998889939861, 0.4261555132523988, 1.4234387689254373], "delta": 1.057898442582581e-15}], [{"inputs": 4, "activation": -18.34924912694968, "output": 1.0740446902583362e-08, "weights": [-14.864130269800091, 8.866484124373205, -22.99317288657229, 8.393441079878068, 2.2481287310070135], "delta": -1.0823657153889515e-08}, {"inputs": 4, "activation": 4.031886608418907, "output": 0.982568422263504, "weights": [6.369247982703059, 6.355303717047777, -16.31379154370145, 5.490304591567731, 2.1323888375773854], "delta": 0.009861741364135158}, {"inputs": 4, "activation": -16.67879161278188, "output": 5.708116298686528e-08, "weights": [-13.858279966694516, 2.063128469426181, -7.386298048834861, 1.0600910217636923, 1.4425668683907633], "delta": 9.42102434796865e-08}], [{"inputs": 3, "activation": -0.43570067537621954, "output": 0.3927658877086261, "weights": [10.757912200028013, -6.149955803367684, -17.619016164899005, 5.602755577469997], "delta": -0.09367499616894956}]], "configuration": [80, 4, 3, 1], "name": "Sys_Utilization"}