{"layers": [[{"inputs": 80, "activation": 6.226968254318051, "output": 0.9980284628031733, "weights": [4.479895579424407, 2.954078224384105, -0.5755519999932178, -2.0494050946239275, -3.4297882300651805, -3.5073926217042084, -4.002545240366875, -3.8106199959555638, -4.051039766443923, -2.901862288084404, -0.9625704422231337, -0.37638380615850403, 0.2135624916377017, 0.02524618429491145, 0.7953351748963167, 0.8820218757015003, 0.5796976914012832, 1.4048667884496981, 2.022343188833823, 1.8121142548102127, 1.4921005549832596, 2.221985381812036, 1.6834298713216405, 1.4364274980325524, 1.0286168525154402, 2.009710633790123, 1.1424206565204909, 1.658119841117934, 1.8451632023640259, 1.787079747641349, 1.4682021030088217, 1.2974488273745346, 1.6373410557570989, 1.1902893032783548, 0.6074416359152992, 0.8361640759768156, 0.5331468647017871, 0.8642659903914428, 0.5423941278779584, 0.5407338284498452, 0.27983256881933166, -0.4294669734675211, -0.0252271319642667, 0.0925178620607704, -0.22462734289533834, -1.6759062451763322, -1.428292783008016, -1.2117595986680083, -0.6643975792899228, 0.3494276481184807, 1.8142949783002806, 2.531619905164, 2.8205419885898797, 1.9292189654530205, 1.3148055309747386, 0.30216453403645455, 0.21720569386250035, -0.23812095173068284, 0.7328982644064207, 1.2577798725035367, 1.4914245178291283, 1.51720197348369, 2.4992763481621214, 1.9996432277550722, 0.9288752319997529, 9.929415663407756, 1.396994098312535, 0.01768725566679334, -0.09384013130738894, -0.14714408885109687, 5.07217910885333, 3.509893472611759, -0.554858197724806, 0.09308220712338673, 0.021463278635310362, 0.1130676105015238, 1.1600539223713295, -0.033214073092825876, 11.238793372481673, 3.99932523652656, -2.025283094020927], "delta": -1.447443643297445e-08}, {"inputs": 80, "activation": 5.251952118244455, "output": 0.9947900016295042, "weights": [2.448322194111186, 1.76106209266766, -0.07519705697649122, 0.1206307484945928, -0.4699276373209639, -0.5458694727836465, -0.8453702698882842, -1.219725885471418, -1.102809303489468, -1.031553427111349, -0.06548088642003852, 0.20057857855380107, 0.34770747153613557, 0.09810104729998098, 0.4917471328809963, 0.015018944996596558, 0.1521570673941823, 0.32799241626025344, 0.3754678253669965, -0.26323558604604075, 0.32430691728656386, 0.47256205694407394, 0.13006143138925202, 0.3510156816295378, 0.10705202534627532, 0.3653380298307809, -0.28827113514215147, -0.25454977371654514, -0.06754491753844759, 0.378247440236087, -0.017426356227126166, 0.12922471425187987, 0.4907077988460992, 0.5490935001839032, 0.37064165271113697, 0.27535274563899076, -0.09570930384327267, 0.894736647573844, 0.7560126025382464, 0.9723374791508453, 1.0363696562178943, 0.9401347662189854, 0.8818173378154156, 0.5816631713393892, 0.8739553156989247, 0.4379676292198488, 0.16811996855300426, 0.5832821508218526, 0.323602427607151, 0.8776567083152577, 1.4971108452132171, 1.797176337015616, 0.9939035085520331, 0.7816702176482738, 0.959197011579572, 1.108486334030897, 0.9971311981773039, 1.22581783420051, 0.8214584962833918, 1.2907217830463218, 0.7329200066774313, 1.307193912656494, 1.0532840023840087, 1.472722171094284, 0.719344100496953, 4.578936114842146, 1.3165528001773235, 0.8367718476752848, -0.08610007505819767, 0.26767475586178285, 2.1184402262368627, 1.8440888626138325, -0.2499320655161452, 0.08252581287028657, 0.5974745927555413, 0.9923063886102294, 0.7592698773629994, 0.6160584401041737, 5.397514542142407, 2.6700037240907064, -1.3177937686990606], "delta": 2.4092574324245635e-09}, {"inputs": 80, "activation": 5.434254963294572, "output": 0.9956544804450982, "weights": [2.2360987646321573, 2.0742401335419265, 1.023893479087361, 1.8849891819950753, 1.8383931111147163, 1.054618466495968, 0.9592080555319649, 1.3343343643264105, 0.6421920048023102, 0.43303869692163, 0.7565209739797761, 1.2385245052277831, 0.9071236674146325, 0.7053385922852013, 0.8050951247316124, 0.43863937172268747, 0.6807605117710609, 0.1041484143847742, -0.07075160883802241, 0.11194992794847396, 0.4945052873825535, 0.4283809361931421, 0.231100138100067, 0.48330997011339144, -0.3462021515863741, -1.1050157863343752, -0.6986689272871871, -0.8615341283195662, -0.20732997882179932, -0.29438180226811367, 0.4422861341270983, -0.18299588906610356, 0.11617546353953599, 0.1696587377779416, 0.6520982897425904, 0.5029953872045216, 0.9425956212075227, 1.6318539760845336, 0.8350459268998692, 0.9653625019772601, 1.6824772927257996, 2.210495230235355, 2.8057944592111834, 2.650160444423536, 2.1768815051720303, 2.4618276137805712, 2.1773324330038992, 1.6529454111469322, 1.5349932387399274, 1.7088769590389916, 1.3529366411089507, 1.9509936247285644, 1.0713446677505785, 1.3535564921210308, 1.1964820726690188, 1.326773640368693, 1.2317352180812624, 1.8347979031346606, 1.3987766505983599, 1.791203514306786, 1.1364787277574802, 0.8934321913397045, 0.5254422920611571, 0.23092116138911373, 0.20370496545254926, 1.9839057511849287, 0.7982966090969711, 0.48928510212617016, 0.30005460476324264, 0.21719010823033036, 0.5514637875426063, -0.15697918614246942, -0.010182741688544767, -0.08917987633876372, 0.049409484783596434, 0.05452522745287716, 0.12777217649274095, 0.5153919759538905, 2.0163788814032357, 1.2450181744583164, -3.739100377514967], "delta": 1.4550761244170519e-08}, {"inputs": 80, "activation": 5.035409267858067, "output": 0.9935384867991393, "weights": [1.0279983513292863, 1.2700750595145718, 1.5171640383439595, 1.4506087324216117, 1.965527992374411, 1.6306366685076505, 1.914395279104932, 1.413475351888871, 1.5467854815250581, 1.1469047732485296, 1.0562775797304471, 0.5846039835664174, 1.2630615575207258, 1.2411874993465306, 0.4098407057569741, 0.5957435353621134, 0.07118613654264289, -1.0249528450670373, -1.446814160453304, -1.8747552127672802, -0.5641457042386437, 0.6692238272676899, 1.302711005702257, 1.8665872846282339, 1.0200341329695033, -0.14065762690366465, -0.515670701153097, -0.5476042405579581, -0.9572127788364035, 0.347354035211338, 0.28864420526897905, -0.09035854439374513, 0.6240532405560929, 0.15798756847456563, 1.1960690464032637, 1.2840063260151366, 1.8626158084478925, 2.6140038961405967, 4.0739273644003, 5.490773740783939, 6.21353381134296, 6.046445662278969, 5.127091598557208, 4.945389268580927, 4.065945552550739, 4.23609631382161, 3.5654813244768904, 2.6854406881055355, 2.156396248372398, 1.5023027990976188, 1.3967792817893163, 0.23436745812849213, 0.2928614555308652, -0.24125079472370775, 0.05578544650791793, -0.04867840883244024, -0.2320003069231479, 0.41692911344846306, 0.03524968988468241, -0.9194815857880436, 0.4542268822646299, 0.933600402148136, 2.918161101985458, 3.9831783760619794, 2.9486487766668508, 2.7251992387912005, 0.5865391427939127, -1.3881708356373357, -1.708657045906367, -2.769521821780357, -2.9371641363765963, -2.5263602472023505, -3.312609879631741, -3.468891797483744, -3.081816934464438, -3.655900083609125, -3.177606698997806, -2.6963402942116277, -1.047096431310667, -0.5529371576584649, -2.629989137695498], "delta": 4.862054204922481e-08}], [{"inputs": 4, "activation": -14.58787420720029, "output": 4.619197468270954e-07, "weights": [-15.524273918530087, -5.496779420605677, -2.420951801988195, -0.8593131442465857, 9.638127411204358], "delta": 3.968340277988107e-07}, {"inputs": 4, "activation": -11.789339946432865, "output": 7.584927288830822e-06, "weights": [-0.22851382325977784, -2.77375464162061, -2.975915794321678, -4.282305398582895, -1.584356175680975], "delta": -8.191698586298071e-07}, {"inputs": 4, "activation": -14.663394563540985, "output": 4.283201136389557e-07, "weights": [4.854905866280901, -1.3129991905228064, -6.621441383725591, -15.470999635135056, 3.761130305062818], "delta": -2.8483249992525665e-07}], [{"inputs": 3, "activation": -0.925603740358937, "output": 0.2838174708158977, "weights": [-14.891573996872747, 1.8720774492043828, 11.527079394127005, -0.9544610937908206], "delta": -0.05769019058203172}]], "configuration": [80, 4, 3, 1], "name": "back_end_bound"}