{"layers": [[{"inputs": 80, "activation": 47.76834282804576, "output": 1.0, "weights": [3.6654104730334014, 1.4773784030865396, -4.971042172930001, -4.907744822232417, -0.5610930852770858, -0.728887810832948, 3.9799867660883828, 0.106097864471613, 1.7362804844417787, 1.5956733281538498, 1.9207241988017336, 1.4080363773249762, 1.665548295254224, -1.1479798338447988, -1.2697247579042192, 1.0302514141129862, 2.024335555170052, 3.394492371539807, 3.4988405336531736, 5.030583417202913, 3.571199188581019, 3.3373263574525818, 2.519904491498758, 0.39972926790196067, -2.2216266479600817, -1.2721672592598816, 0.3510706919512876, 2.5793463729784634, 5.47375251912509, 3.4777217698963314, 4.363685877721637, 4.869911656073084, 4.290440534165222, 2.681896702307738, -1.0795566206473262, -1.219082998196114, -0.41339349107099194, 3.3698505785634802, -2.122673411431636, -2.2351812706038223, -0.021824163158526085, 3.3828844775774045, 2.9704018637376888, 0.056843500688414796, -2.2377859805075864, -5.79599750302007, -4.665787749531826, -1.7662543119159675, 0.46478390827770966, 2.8961378198393026, 1.6579973098783034, -2.7650831444277775, -0.6920758444379232, 2.1461335133349224, 3.712384084758463, 3.640663948180767, 1.7953746602352656, 1.656192198408434, 2.4937967302379405, 4.576787292913532, 6.669469801145181, -1.9573868228695095, -3.3641018567000724, -4.862795042951479, -5.222395249273532, -0.03864542061734039, 0.20909069266038222, -2.005411988250696, -3.4522251735201, -2.5059636701257535, 0.7677000433584145, 2.99990000215123, 5.632795502515431, 2.8129370668469122, 1.4158582364658445, -0.3385500669524894, -0.641939896213022, -0.812819099880106, 4.3601740671608455, 3.4476332256937288, -0.851748927790855], "delta": -0.0}, {"inputs": 80, "activation": -20.684623726932763, "output": 1.0393984257072902e-09, "weights": [7.317885651826699, 7.016909614372859, 6.840328960003329, 7.463229094418754, 13.562090338997454, 5.803307621165635, -4.611950723377519, -13.009539761382108, -10.092066753979577, -6.300482770704188, -1.9335350654222871, -1.3732864045630526, -2.4331328140255257, -2.3897221050933704, 0.4783867938081763, 2.1314357335820016, 2.539648907614598, 2.8177186156946683, 0.7676087020655229, 0.7191548366660734, 1.1163640136764243, 1.5496595343390118, 5.648036214934498, 8.339395865651836, 10.052192859379153, 2.307227823246471, -5.637232897992306, -9.522517770890248, -10.508219151060295, -7.568647584240473, -7.665444437092363, -5.711694584701233, -8.752432356094939, -9.151546029037805, -8.466130631952426, -4.286523880551192, 1.2238484727154273, 3.561607910585376, 3.362102707694564, -1.1332647096483952, -4.334607950850986, -4.877473999172329, -3.19973911208106, 1.2443233194840166, 2.1254195492015295, -0.5996022856404601, -0.8047414018876317, 0.032268327880981953, -0.6678213365416986, 1.428146671751022, 4.143355714883371, 4.622327026512484, 5.368582696119399, 2.8400361772662115, -0.3879323165391583, 1.0496012946925626, 2.0635812525500326, 3.91813453920233, 4.716490494959826, 5.108781948650204, 5.063627190982073, 7.360858470559796, 10.419130787655588, 11.00793496574329, 9.461584164033278, 5.081430072451019, -2.245521383897671, -4.996889902074507, -8.282190915319491, -3.755604052465179, -1.5603531176657985, 0.42147220572804295, -2.314991850659552, -3.452261058243254, 8.76959664100886, 0.7322332862178922, -3.3360496733129734, -10.663873645639475, -9.801437452786896, 0.36242659689561213, -18.237226501744615], "delta": -3.647986988838762e-13}, {"inputs": 80, "activation": 12.27543235263478, "output": 0.9999953350666806, "weights": [10.50789140655529, -4.209383494310304, -4.835854229882811, 5.222507532109459, -4.242963407084843, 1.8482339451472438, 5.76922311546078, -3.781464446617079, 4.064847991397722, 3.763376360543487, 2.932621027138081, -1.036681982978163, 0.038086505950728655, -3.15278402269901, -5.569600036616053, -1.869745468284865, 1.0660224705463568, 2.096991118823848, 2.7051583091860056, 6.485387470867024, 3.6333105025050827, 3.14047928175069, 2.3853322876101193, -0.7625739396774106, -2.4123577410748784, -3.4619571646916087, -0.9474672602061637, 0.931531470046997, 5.318033700471156, 2.932490910496422, 6.427393470054674, 6.196799903201757, 4.3277654606698475, 2.345557250236022, -3.6139670571653295, -4.553692673866804, -2.031371992292546, 2.7089058257845697, -3.8240744080206985, -3.1583432355753547, 0.40832458577381076, 7.450571488105672, 6.75321551636178, 1.7331609788110582, -2.3958202546215186, -6.113910467624551, -5.263256709457772, -1.5897796515051716, 0.35584766039986443, 3.7761092363763242, -0.9344091419697867, -5.83049629349846, -4.744163219319394, -1.1944145214314268, 0.8454941395497796, 2.1034369119700655, 0.02812752298749516, 3.272546802624845, 5.001271064581285, 8.118728696775092, 6.812671580748195, -2.028915279161876, -4.520134364075001, -7.778285910783959, -8.891653601907516, -2.816711247145325, -2.466998853607306, -5.280754712587177, -7.374478636515745, -6.058160514409409, 0.9905941059263755, 2.729314551110529, 9.0470465462579, 3.034226328078447, 0.11370941222979744, -1.9517391116115252, -2.231933651941886, -0.867292717338823, 5.664905590702573, 4.383393642273263, -4.912165799977291], "delta": 5.925129679791016e-09}, {"inputs": 80, "activation": 19.558392438416156, "output": 0.999999996794483, "weights": [-0.6848417146067879, 5.275517010402429, 8.034036245835258, -7.356097087336359, -5.76662841899562, -4.829765872426547, -5.081308825196672, 7.628261409741309, 9.253400217143785, 1.6921988956039757, -1.154500994562856, 4.983990908407025, 4.040678072718093, 2.8453807282724615, 2.1211231530048735, 2.5381827815998315, 2.7541943767024835, 3.220238638306802, 3.6346719780578987, 3.10723951876759, 2.25086650575212, 2.4104935176780473, 3.1972033899833376, 3.121531591588922, 2.229466432981312, 2.0260754116275175, 2.311713139423126, 0.4526790354716447, -1.145798777802143, 0.9598666791782116, -0.06129119962004622, -0.30443908972559325, 0.038175907489218126, -0.47218720404752346, 0.8049703232827015, 1.6444287001958462, 1.6159189573108652, -1.4268495068593867, 1.9114255552731962, 2.299019023314798, 1.2505192982639546, -1.2072993251166158, -3.7231572323766198, -3.1461983764774017, -3.358285238331571, -2.197448077693506, 0.24348438290140734, 1.5414605645665482, 0.9284539641883927, -0.8487799994904115, -1.8056867029616657, -2.2775729215825478, -1.4843753689145498, -1.4601833611981234, -0.9618029894712244, -0.1766828427150831, -0.7836307464207345, -0.6189424639985921, -0.646460778546103, -1.755943799694203, -0.1784892152331518, 2.0405720867565376, 2.108545678607909, -0.4573504027122668, -2.1488416793812912, -2.737137519839012, -2.1007437631351458, -1.122860658264448, 0.5057568191082555, -0.5218204788764288, -1.3530752576841112, -1.2224115469445431, -1.331407734874734, -1.2100344250206556, -0.9267414970858174, -3.200755601736555, -2.12025443645186, 0.8582957299981129, 0.14520882453868633, 3.92323327462912, 0.0919503831525049], "delta": -5.659593868057623e-12}], [{"inputs": 4, "activation": -3.220155873243666, "output": 0.0384142273518627, "weights": [2.1683245089810796, 3.4689883836515203, -12.55414264127848, 17.450898525474507, -10.285497124999667], "delta": -0.00010117357318481244}, {"inputs": 4, "activation": 11.84772945992334, "output": 0.9999928452680908, "weights": [8.085996398726735, -1.2511206823322785, 7.034509196275423, -4.988657606511591, 1.7159142739172815], "delta": 8.294962372276626e-10}, {"inputs": 4, "activation": 19.846312991507784, "output": 0.9999999975964355, "weights": [14.98440511513171, -0.8024828542073369, 18.627647988367688, -15.082222201848884, 1.316568939097503], "delta": 8.344215235585668e-12}], [{"inputs": 3, "activation": 4.22333634545382, "output": 0.9855618282246262, "weights": [-13.33148551302922, 0.5644102983752468, 16.89756331435855, -12.72620614639193], "delta": 0.000205451011315508}]], "configuration": [80, 4, 3, 1], "name": "C6res"}