{"layers": [[{"inputs": 80, "activation": 20.535759430139656, "output": 0.999999998793762, "weights": [0.8590762677865064, 2.542923977576415, -3.6502126841205396, -1.9196474403272812, -0.0875412134237245, 0.690053160532407, 0.28286316285140023, 0.3677215546691396, 0.07372760983535562, -0.02308848669894721, 0.6185439825318088, 0.23658178566479895, 0.4895298568608743, 0.004576643839081528, 0.7325045785319283, 0.6365550558129864, 0.12116322672070448, 0.32821119786361697, 0.556715815169431, 0.18828924019860976, 0.02721560416991662, 0.9824553547074122, 0.6754304280333074, 0.5030580028784964, 0.018498243374447318, 0.8902382130918683, 0.20323262109104484, 0.8128723984226572, 0.9214911511638924, 0.7305237195982768, 0.4737062500670099, 0.384455827157742, 0.7900291631126534, 0.39411904668746045, -0.009375755896502557, 0.3566970304966243, 0.25180212658311535, 0.6346614997247348, 0.1704650226405761, 0.2855648010343047, 0.4003750246116257, 0.15365036820650435, 0.6086191120575586, 0.4988639903915605, 0.8297623661675282, 0.0062470125643537145, 0.23077561832141666, 0.241787809134302, 0.10186780114321779, -0.011602260702073592, 0.6799513703939517, 0.5141859743112095, 1.1343379800336522, 1.5026150842822696, 2.345968833455985, 2.884423558434604, 2.7748513214682493, 1.6635719451613924, 1.9534437652323478, 1.5840340509212254, 1.3036082441479497, 0.8600336025620055, 1.674178579831863, 1.2456316046298637, 0.859548002233525, 2.7137116710512816, 1.2968054786347492, 1.2895618517332954, 1.5006503341908255, 1.216235118751724, 1.6832607776159227, 9.158316336507207, 0.3031701923376528, 0.8585038342454849, 2.117518590716021, 0.9303339664757747, 1.5457345697568874, 0.6808607900567719, 2.476537195283105, 3.7245468058621842, -4.280588903114473], "delta": -4.170911810498478e-14}, {"inputs": 80, "activation": 6.077374086432318, "output": 0.9977110581716335, "weights": [3.1000554138132794, 4.72025111181093, -4.051843534961186, -7.625496662690079, -5.057160177953377, -8.254399814223754, -6.373002059802798, -1.5406044711922808, 0.39721913966120465, 0.9014300295652774, 1.755703719047145, 0.9394341806359414, 1.5320629755407529, 0.49331160735253954, 0.3705284984995052, 0.49630897923990636, 0.8548019932392694, -0.5027138040461924, -1.8098469927510423, -2.8943428180314585, -2.1999767343324557, -1.154126472882701, -1.110623981749612, 0.04157379970101613, 0.9960306006433043, 2.9164438757262157, -0.12266933470348415, -1.4598939424943203, -4.388427608693921, -3.3927434940026076, -3.7902605521877533, -2.5293930925577577, -1.665701352032303, 0.8087030064991395, 1.759383485116759, 3.572657995509271, 5.616212354483631, 9.736023195206391, 9.952731510258278, 7.215053311380321, 3.358347247995389, 0.5170538584061515, 0.6445570904034953, -1.376463045003501, 0.5178414919188455, 1.5817747406339278, -1.332342126162113, -2.0090670795446726, -2.130912838363349, -2.703761322681128, -1.9649538638495976, -1.6857745044516084, -3.4305351147978045, -4.3482485221339635, -4.19948935734422, -3.22872307476575, -1.9892085616373982, -0.30425833579389283, 0.15535880968621285, 0.5531091659082482, 0.8744564886566065, -1.9576783356969516, -4.373382461623404, -3.626890648728246, -3.366943058263031, 1.4751786573344252, 1.4269766426103612, 1.2491123304964977, 1.685013101405861, 3.0192907316833586, 2.2763471190088698, 10.119761703387601, 0.4637046360374441, 1.0041751272797108, 4.00956152763374, 9.706585269956152, 8.928157678457627, 8.01525533769066, 7.819928182747954, 4.936401791112449, -5.175169176237593], "delta": -6.325454195461354e-07}, {"inputs": 80, "activation": -7.824966598576575, "output": 0.0003994722924712749, "weights": [1.7333282429733812, 1.299926759623558, 0.2127294060627522, -0.2868596251077456, -0.6398483821645751, -1.6506564456009718, -1.9790228766945095, -2.2320453877759134, -1.9522003468223899, -2.3475464137408695, -1.9036666329127625, -1.810011083199214, -2.9969046919469973, -3.7947615704855178, -2.3934692459096287, 0.6234505541038471, 1.9913558626234569, 1.3266787880071091, 1.1215182923653149, -0.35500645693925714, -1.693852214158209, -2.236214819102347, -1.6171859009709784, -0.7142829994916009, -2.305792236977642, -3.1894358391808266, -1.9703635986595553, -1.751615328286965, -1.0768818415412733, -1.221568910233513, -1.08500492774139, -3.0357465585024257, -3.340547098372549, -2.989486311374941, -2.055422007417592, -0.9322841604215281, 0.526143089493003, 2.317165306735445, 1.7187937044956874, 0.4739063962995942, 0.004955888236734962, 0.0002975971293261472, 0.05838754936008867, -1.0286225975556587, -0.1724518951807109, 1.8396939549295237, 0.10154007130792, -1.3120005635105059, -1.7172829683845399, -2.263178693800849, -2.2334184379368587, -1.258252981376821, -0.8307945847113749, 0.6167581391067265, -0.7924243757576233, -1.583766130201218, -2.5622287136641155, -0.9549164889512884, 0.16882296854133524, 1.6383644996689994, 2.2818874898662393, 2.674327552983812, 2.034671374267574, 1.3478515176942736, -1.4836162275335372, -0.6087068295667445, -2.083098213039679, -3.1799203965122165, -1.6565759614510334, 0.14605139941521456, 1.1463560633024732, 3.4025052211570905, 2.2586388707665597, 2.9576386628209423, 0.15243636511578032, 4.449479561954231, 6.01165558787888, 9.065547537940487, 7.831114389677205, 8.50705939792147, -4.389369685207152], "delta": -6.104253671370735e-08}, {"inputs": 80, "activation": -5.207275213373609, "output": 0.005446746356782064, "weights": [1.6968718714208297, 0.6619142070206585, 1.8876156368316357, -2.796239831395885, -0.2938252082740803, 0.2626933230131074, 3.741278614158355, 2.1879585545465017, -2.1630722904647177, 1.8951226350794101, 1.6442706025583274, -2.9775446352862502, -3.248565565317085, -5.732184661375664, -4.699660003133726, -2.3214043643610185, -0.850464613705848, -2.0237945374728805, -2.144197527815137, -6.7373297355408175, -7.9800328355173225, -4.819362527521484, -4.262607815896554, -1.7457804956163177, -0.8657228422659927, 1.5442911239717858, 1.813748911108457, 0.004264266891706813, -1.8882641772722681, -1.6102201323689358, 1.2394290834878592, 2.4834174110005285, 3.3372703643033566, 2.3019782540268836, 0.35938921555086406, -0.04296705160323388, 0.2858136845589513, 1.2384970415345222, 3.443520058674352, 2.785384484922532, 0.5742209772685051, -0.8052655867143799, -2.1107966536264207, -3.455169458156174, -0.7019344716197159, 2.6465098183082545, 3.0057588003559563, 2.9962220673614848, 0.7739321394753926, -2.9952250908296336, -2.4728308971838575, -2.298607532497744, -0.4373175760248773, -0.2812106182019647, -2.4304696524996574, -3.383174590466996, -4.346416985407449, -0.5702761859877193, 2.264075716768402, 3.2251383125969344, 3.4627481393552753, 0.4236831903909801, 0.26193846011913924, -0.3585531111515314, -1.6858709459248011, 0.25743958755185753, -0.47939249640630166, -1.9523188305497599, -1.5177788682066176, -1.4615308345589013, 0.10237190397223664, 0.4770441616788365, 2.1348055706431293, 0.2934292051608322, 1.8589538074323777, 1.128187949779509, 2.4879341822439676, 2.861040787998445, 8.352392467531788, 9.649592277999135, -4.247062894800391], "delta": 1.8433597547703194e-06}], [{"inputs": 4, "activation": -17.076224587166, "output": 3.836099589239159e-08, "weights": [-9.998141941247331, -10.721229493458855, -8.245155438775603, 16.879898990291853, 3.5299596249680674], "delta": -8.191709151409179e-08}, {"inputs": 4, "activation": -11.488387905326613, "output": 1.0248305801653467e-05, "weights": [-2.3864066653830984, -17.47711232760947, -1.6078049210574719, 13.369805213747629, 8.262980365191456], "delta": 2.2058850468169147e-05}, {"inputs": 4, "activation": -11.94143478164569, "output": 6.514752766746301e-06, "weights": [-2.3670159962374226, -14.778024235642125, 16.20737489482793, -6.416465286787755, 5.198242959651488], "delta": -7.285454611705201e-06}], [{"inputs": 3, "activation": -1.295821882101947, "output": 0.21486902709944947, "weights": [-16.12228630797053, 16.250893031565273, -8.443130209112319, -1.229706876400091], "delta": 0.132451852881157}]], "configuration": [80, 4, 3, 1], "name": "CPU_Utilization"}