{"layers": [[{"inputs": 80, "activation": -27.839740045964188, "output": 8.116233265259637e-13, "weights": [25.38364786865533, 18.252131571760188, 2.5735569974250563, -6.971591926969244, 32.942634564506754, -3.307838804213811, -12.135219033089479, -3.6244315745283644, -12.28532071423477, 3.002678584106061, 11.892474623508045, -0.20835442104491214, -10.852203308968, -6.6905230854909306, -7.096833586013698, -11.687443596120946, -9.517829935186782, -5.550619680543554, 2.682992418486034, -13.011837764970398, -1.8259336234533785, -3.627921392514873, 1.9647876962963062, -0.5931709902218014, -0.2985700385957737, 7.665447292431728, 12.747476165838941, 16.15686253837393, 11.12918021134422, 2.0855375546649246, -15.890101300344993, -6.522441738889598, 5.269092560359229, 17.097638362527242, 13.14055484293052, 1.7419005104585499, -12.668771589313213, -19.728972625211977, -26.430253635330153, -25.360568157371233, -24.74568790118394, -16.04790064288261, -6.796533730525463, 2.651967595932453, 0.28628278599520607, -9.061551366695115, -12.457475400455287, -14.310837075178048, -11.087113005191602, -2.909968022014723, 9.326404065472726, 10.398425449388053, 20.522994605007003, 23.622790285945335, 23.71673239974453, 21.70835197921625, 6.985826369260454, 3.928875889330823, 9.963908843266115, 8.888073906436032, 9.166758368297517, 9.52139422707529, 16.051653622428635, 9.763881652792595, -1.2210188147903454, -7.456861728427349, -8.713914296187026, -17.101080725846373, -19.834203292864238, -18.332591620503706, 0.5685379317970691, 7.235525522715544, 8.026659200185623, 3.9227370843680047, -2.1077011904234997, -12.593563305264128, -12.04460334887031, -4.616195888823832, 5.225118877736817, 9.85680442093696, -29.532845467378905], "delta": -1.2262112251556531e-21}, {"inputs": 80, "activation": -9.482650838599596, "output": 7.615597657385903e-05, "weights": [6.612742840653349, 17.23339747992913, -12.81695908474185, -9.912686252281796, -2.07113496317392, -9.30649038745954, -5.943961910476594, -23.38117598463913, -8.710398318449219, 1.0485982509160348, -2.4296866581791563, -3.1628110393340307, -2.1899859953932874, -1.8120000707744282, 6.0102930695864245, 6.702936962418724, 10.566520465402036, 11.343806437120111, 10.276790642883876, 8.080497646531942, 15.467127959583152, 14.307243692477698, 10.53367437245936, 6.015435661883178, 0.9569266787381248, -6.600273287616671, -16.778895821099887, -19.836358701785205, 1.0561870368765112, -15.129351050446193, 7.631179719884623, 2.8144489583162082, 9.130640596579783, 11.980123347471972, 3.313440228416769, -4.28655822198805, -12.868592308231575, -5.770715907369806, -13.936685994874091, -10.06138862392114, -10.183367467818275, -10.592045131946666, -7.475088305931933, -6.553216113107818, -3.5361109834919437, 0.07149419711661406, 1.6217040208900215, 0.40308716094381025, -6.617709499058343, -7.735976019818829, -2.8831698537135706, -4.858966901027934, 3.625467578193636, 6.505426369709948, 7.100232601992345, 4.811846566118102, -3.9430822098710974, -11.847003316602148, -19.9184802822711, -17.2571308260504, -14.073721495902292, -11.958647987013475, -9.938122195110807, -15.706579392255174, -7.889209943002664, 6.58118993678953, 7.108703949357646, 9.608866434225328, 9.403851654514098, 8.369130285844703, 15.92364995599254, 6.915076184521646, -5.295784606082093, -6.366566349549917, 9.832577695119, 11.713142445219964, 12.543549803556278, 5.724365893799252, 26.871605043808536, 11.905111066880217, -8.068331292430704], "delta": -4.303667276808814e-13}, {"inputs": 80, "activation": -17.2248794707172, "output": 3.306205774403459e-08, "weights": [-3.0593263348375563, -1.065386404171447, 1.1825638102027596, 7.134706340358888, -2.1785723980548948, 4.077317067654844, 6.929723343701268, 3.01673600446324, 4.883121534939699, -2.082094655564904, -7.659832988418262, -3.05047758797578, 0.7857095213733857, -2.2078952650689816, -1.3360422621683348, 3.665884006938168, 4.069269783503582, 4.1577438084697205, 1.0931989225455632, 9.855323918284023, 3.158163568763955, 1.3393376064220512, -3.1530018250503766, 1.3018124791079624, 3.3255306391336203, 0.6321642537091803, -4.204291351807075, -8.014142357787422, -3.972605250495724, 2.1123758250416937, 17.43909394453868, 15.645699794832087, 9.011532601980257, -0.9203867971464983, -1.3140912427786149, 4.170230444413711, 12.817130662477288, 16.255885828891675, 19.034874012636255, 17.91939186415756, 16.319243429510575, 12.030738661235091, 3.5370019447809518, -1.3443250060308578, -2.6907032877657864, 0.20947034533075629, 5.216238457919513, 8.841109017490757, 8.252946970374442, 3.727321730577995, -6.944851859143647, -7.778046440710056, -10.882016870618086, -8.959516303615406, -7.065780788990764, -7.513029532270889, -1.5255125952356074, -2.800226131364841, -7.915881085577283, -5.95378202957814, -6.389917850312828, -5.01416266792238, -8.635156042252168, -1.0290914420238728, 8.000461594653625, 19.633530552203265, 17.257722784431014, 20.049696412377696, 18.77152305136814, 18.75322965793216, 10.881741396181772, 3.3453089907597424, 0.13883596006007795, 1.3638568936902273, 1.091937284245784, 5.806118466489447, 2.748219190223731, -2.103787139662834, -5.6083181926579115, -13.093055636880642, -21.72060045183343], "delta": -5.360223303221096e-17}, {"inputs": 80, "activation": 8.722010147581827, "output": 0.9998370672621576, "weights": [3.563437010822388, 6.38079138078459, 10.15414113732731, -2.977789205262561, -21.943240624741744, 18.054332824828546, 42.60506593777526, 13.50078936784069, 29.183697807190644, 15.702400071519142, 5.4676674895140485, -5.679166443045615, -4.843708586852961, -15.275995430375046, -15.542764355373752, 5.342186734426283, 9.0291079232464, 7.937887155258837, -1.9019093123728632, 11.946592022378374, -0.7462909046515579, -0.15630376863303697, -5.5510955556965875, -4.784406491249156, 5.552915187664668, 9.640044826024008, 12.992519031982775, 17.49582975958652, 15.193527054125994, 17.345729940316325, 17.705836489318585, -7.834543824094145, -21.775021911209578, -42.34780801628954, -32.587330709205254, -3.862498506920853, 15.795113767211971, 21.766431130488613, 21.53773372045163, 23.158341168428358, 22.47749285810036, 16.716696588668704, 3.778774454161326, -8.831350357762892, -7.085567192448097, 3.3082996512033267, 7.159537371128995, 5.6461868154367325, -4.516161667553501, -11.265685703496679, -18.84036029664461, -16.427877217286813, -21.186905481146972, -22.78603298964597, -16.147437319997195, -22.7325513501754, 2.506939594345122, 4.84432400791967, 11.433740794241993, 11.405269551874351, 16.690754565951725, 16.149168352983462, 7.2279009660197735, -0.3958984982201191, -1.8235099577275662, -9.198613034667519, -18.08192510839846, -15.23106371401771, -12.783104265423331, -6.862168071579421, -12.723946972911646, -7.477035742375089, -2.4908239755664066, -4.904255012984834, -12.486342553696097, 21.05131818543473, 19.496236881262078, 14.435589870213756, -12.763427534118302, -24.516434982443272, 6.181197283670821], "delta": 9.346309171011032e-13}], [{"inputs": 4, "activation": 30.47693329201452, "output": 0.9999999999999418, "weights": [-19.40074143259601, -37.639442504755294, 5.0667010296340225, 18.092834415706402, 12.389913092356547], "delta": -7.723815758366188e-14}, {"inputs": 4, "activation": -33.62962680972366, "output": 2.4822107267852913e-15, "weights": [40.90023794956487, 5.554176121171578, -1.7704767759342572, -44.04661113798457, 10.409384768111362], "delta": 5.249504040031537e-15}, {"inputs": 4, "activation": 22.769567020556206, "output": 0.999999999870788, "weights": [-7.9382987852579125, -29.676852878432147, -8.50687730120296, 30.119676963092555, -7.342942109941411], "delta": 1.9053532905471751e-10}], [{"inputs": 3, "activation": -1.9806774408662609, "output": 0.12124664082796498, "weights": [-14.1335273081361, 22.58790303049776, 15.796396071791404, -3.5031048605347173], "delta": 0.09362756130583055}]], "configuration": [80, 4, 3, 1], "name": "front_end_bound"}