{"layers": [[{"inputs": 80, "activation": 5.342970007579947, "output": 0.9952411072811149, "weights": [3.1024921386051605, 5.198627066334631, -6.819003035153878, -3.9753534070439493, -2.0297484284624367, -0.2636171855127109, -0.08186466221692587, 0.6042482277726392, 0.24564416814445825, -0.0673547950157626, 1.1487011948529446, 0.9107574008622076, 0.8676329852578304, 0.2704366766620792, 1.3987631800505391, 0.846469660958443, 0.21068362233652918, 0.6222877686512411, 1.0387990222919923, 0.9932995361022006, 0.5618107007136708, 1.359598675628994, 1.6101238819725436, 2.773461529126288, 3.097047997206335, 3.821150025595872, 2.371892183319344, 2.143652845178308, 1.8546226404119168, 1.2675527090711487, 0.53598172656623, 0.15813637119826088, 0.7680978124491676, 0.9432570334992806, 1.1422783724404342, 2.6815192712276525, 2.8740871460076156, 3.6510818572430805, 2.5964144288520234, 1.3168331638168047, 0.25735926626988154, -1.1080406512106018, -1.3585865603780822, -1.877341336777361, -2.515171915554507, -4.165025403562194, -3.5792254042216607, -3.313857360241951, -2.1483334939255667, -0.8673775223096362, 0.42269681808290566, 1.7641579794982087, 2.138525820061702, 1.4275755779482098, -0.003655577270254518, -1.4215441203434918, -1.152744827286206, -1.3707187957924072, -0.10375193900106497, 0.2520013226485741, 0.3710010464806213, 0.4556499237474689, 2.1494345401283894, 2.5227637344737164, 1.9369123020348553, 6.388559385975879, 1.0672125705461135, -0.4298796254185242, 0.21338985951282438, 0.05789844259478025, 4.051681759267117, 1.544159031212898, -1.7883776084154805, -1.353702137834421, 1.39890517116923, -1.40655052986724, 0.2635409910654245, -0.6763831190455609, 6.9282926539759, 7.44667802340727, -2.362642777977163], "delta": 0.00028330020788702677}, {"inputs": 80, "activation": -14.539200734662225, "output": 4.849591290201129e-07, "weights": [-4.713148891279058, -0.5566260581057583, -5.9589556922177565, 2.982282850884712, 7.013327825356288, 6.752349579766389, 6.435187641532363, 1.6008959946270234, 1.1922453764101302, -3.275549170994155, -1.77298500419003, 0.7345444660849109, -1.74084891349456, -3.1455817814967846, 1.6740531859526553, 1.4746174926307114, 0.19446078329523026, -3.136340081849538, -6.868086275618951, -9.50419896825771, -10.732068384347066, -11.209830179314958, -10.06116965178106, -5.0765027533310425, -5.236027957695053, -5.781121918563294, -6.198697589576661, -9.449931878063412, -9.255764561429316, -8.21620997131522, -9.794846916947797, -7.618240956938421, -5.368607354776095, -1.644511646196476, 0.5549819567828834, 1.0218744642833755, 1.2238874965152922, 1.7622993543029843, 1.0687712836536543, -0.6365996086650966, -0.5952211639064765, 2.1024900908839346, 2.1180394666840745, 6.44432183077458, 5.291275543212153, 1.1232521927260868, 0.6452247847258731, 1.2400699397250214, 2.8189587555971, 6.699536837593432, 4.691146882989322, 2.1858194834603633, 0.09054786768057582, -1.3732681435780012, -1.2703560000310812, -4.049030812212851, -2.7513725121983312, -4.571515365456424, -5.500573158940903, -2.8654245706858297, -2.8642807744052083, -1.1843029225578467, -2.6594990166949404, 1.3435351739972037, 2.377871225101962, 5.490123338619461, 4.273863624488224, 3.1596485126550458, 1.0107948533872646, 2.0699926845059764, 1.3058482051207485, 1.5230857913789342, -0.3004970904015263, 0.38382203905476636, 2.637265754361407, 3.56683696284899, 2.823770791166966, 2.758371495574103, 3.432476761422793, 1.7449224477138177, -5.150782695710547], "delta": -2.1251876800405548e-08}, {"inputs": 80, "activation": 8.99313469946914, "output": 0.9998757554741762, "weights": [-3.630009599747009, -2.467851311104962, 0.24985371735185008, 8.682019669042145, 16.999943815312168, 14.455985035909539, 2.8484526835476616, -4.502222969688199, 8.13311881876144, 5.12619477878627, 7.3498817640281535, 5.052663017683539, -0.5505946142063152, -4.871198499651395, -8.599272595974345, -5.4833646344635625, -2.3865833314150033, -3.6568702353179896, -1.2647843167679107, 6.882897385052049, -2.4316697481563185, -2.427883921990788, -3.252646777881223, -3.325070349737935, -5.6438952936524664, -7.819138376434057, -7.3869100684578815, -9.07056589661598, -4.430307285092276, 1.2138541961580889, 2.3776033595292234, -2.566475978941221, -2.565177824929885, -10.906815015876058, -6.673276757952789, -0.9939313217975897, 3.4222632474768773, 5.92225691826307, 6.2719086995775335, 1.5944613523917737, 3.3230222274485635, 12.469318224760801, 9.470602607949694, 8.043661512212575, 7.748522874744059, 8.642698271971302, 6.8406771753387305, 1.791257045401029, -4.889510393168544, -8.74004135740417, -10.019576378915968, -10.100115872342451, -2.1518290490859937, 3.3283176662703324, 11.297713118915294, 3.6542602542607585, -0.5319180384436001, -3.9099628155864345, -9.469408230516533, -7.769125802334249, 11.199066514291578, 5.508189280555715, 6.999013203285935, 4.325493249505099, 4.471625393216469, 12.123114445512376, 9.538213661602235, 8.512067649790408, 0.9747095921582741, -4.184280555354469, -6.9571665918744685, -6.744305988490336, -4.665730965611187, -9.256059125877874, -5.125677694863663, 1.4747492911977236, 4.941751887541488, 5.458011654420383, 13.653105610715832, 9.792150802899371, -3.825008832023661], "delta": 4.451697255824629e-06}, {"inputs": 80, "activation": 19.065480576190005, "output": 0.9999999947523244, "weights": [2.0923127533897046, 2.0654746222227556, 2.8241599072554315, 2.4338707567682216, 2.6348511874414986, 2.1666260784487608, 2.4199471708677667, 1.9561564182379407, 2.0939554796387174, 1.8881440789615704, 1.7989055923575965, 1.4221161911897624, 2.0187752653445354, 2.0881632940824293, 1.3012724159010867, 1.7714399253707578, 2.049895792955573, 1.7459579123465088, 1.836896694635984, 1.2053588365189305, 1.9554639266659055, 1.9611033866503271, 1.9281313484891176, 1.9771711160811232, 1.1259750018429657, 1.1448797665532733, 1.3149954622272844, 1.6328928816387407, 1.144811649772703, 2.0635659846170618, 1.900457822888757, 1.5014120850765953, 1.9906783202530105, 1.174108473653525, 1.8985458489066829, 1.8626835019142336, 2.0071880057434104, 1.4502095906323764, 1.8742243291529221, 2.002050897770473, 2.1253981430196216, 2.004080573908076, 1.2072812860287883, 1.8298470188360159, 1.2919614233404464, 1.6606294078974686, 1.7724265826637686, 1.8900165682285117, 1.7043586455681055, 1.127009854229343, 1.0311155583725338, 0.07967749815692368, 0.6118720576182723, 0.21783829013856895, 0.9719173627796727, 1.3720708918065607, 1.3975465861247598, 1.8230722654255274, 1.6057168233600727, 0.694279714803808, 1.0622400232144669, 0.40702644819583095, 0.8218671844842595, 0.6612357042451114, 0.7129952150062292, 0.8253736606093293, 1.3260491425320564, 1.4132957671111754, 2.0609864900848804, 1.4457800297432104, 1.0726239549417855, 1.9577287915095045, 1.662320067017889, 1.774388999337216, 1.3665537568289923, 1.2722233046356084, 1.3075497838747976, 2.181721854646834, 1.1956032487596981, 1.0422353776045206, -0.8580663052900486], "delta": -2.8158221163200206e-10}], [{"inputs": 4, "activation": -8.308553151333028, "output": 0.0002463395913666104, "weights": [-11.747916545514578, -8.67928121878893, -3.1113073707682557, 1.4298526899045332, 5.0636415090975735], "delta": -0.0004446557034634237}, {"inputs": 4, "activation": 4.630141007700905, "output": 0.9903408259278194, "weights": [8.95175373516011, -7.836482599251767, 5.67130808839885, -8.68588069298126, -1.2515687949067187], "delta": 0.006096103794121208}, {"inputs": 4, "activation": -12.876145414391791, "output": 2.5583501682809274e-06, "weights": [7.8994621675075125, 18.209999329129978, -20.696032492150287, -10.833608047527608, 10.78905533165034], "delta": 4.98092295246932e-06}], [{"inputs": 3, "activation": -1.2626437258183305, "output": 0.22051912527513903, "weights": [-13.475315029003182, 4.82265923893009, 14.530941823582063, -5.902740353249442], "delta": 0.13398531104485775}]], "configuration": [80, 4, 3, 1], "name": "ips"}