{"layers": [[{"inputs": 80, "activation": -3.565345387854568, "output": 0.027509059102179503, "weights": [3.5731393768332262, 1.4898517765777535, -0.6214844669550451, 0.7373011505754845, -2.312197123595463, 1.148352226311966, 2.8169853790276256, 0.22047524216138698, -0.05712038658486837, -0.3012313090855038, 0.40735697088536704, 0.07796948332435315, 0.2212834785063246, -0.09474504196847575, 0.5927248946115705, 0.525849229844918, -0.0199630105725164, 0.3505347479815152, 0.9319661214645267, 0.02806212891074408, 0.27643646582530484, 0.9992115728371805, 0.579293242347326, 0.40629844460188996, -0.5648302697557908, 0.5818517402276897, -0.19104385497545182, 0.2559684767109685, 0.5293597070708236, 0.3724422140365687, 0.0745619299713492, 0.050193156658341107, 0.44911296767507836, 0.1553652088702435, -0.31184584684558087, 0.42708646591378985, -0.01912697553541583, 0.5492200396815258, -0.012517418330706298, 0.0919707691182427, 0.09339646472358266, -0.20976597589495521, 0.6598799882648957, 0.5587302232604707, 1.0578153721097132, 0.06972189602268535, 0.23938772290150775, 0.013947662174253653, 0.3124402199660428, 0.1074965371754005, 0.8406113566800885, 0.73946349443856, 0.8861496549850062, 0.683180266686807, 1.0305619112828246, 1.0586251418312242, 1.1152849552363007, 0.3287063608818326, 1.0190261089990578, 0.8455039787918891, 0.7475120485334465, 0.2922206019289766, 1.2347966933130579, 0.5262488864458629, 0.21938759151218626, 0.42682115208073906, 0.7544775726389346, 0.31621782213522226, 0.7187212086847932, 0.9654250868088587, 0.7137905458102342, 1.1745374199850274, 0.4113099462584444, 1.207944114107954, 0.49263212343535173, 0.29178164221610925, 1.0130466304488417, 1.098885399174431, 0.6309570528329272, 0.3420020542827257, -4.199490834440016], "delta": 5.088246642343005e-09}, {"inputs": 80, "activation": -2.517167651253873, "output": 0.0746633930723288, "weights": [21.650055135575762, 7.179777823829373, -9.5267353394943, 5.0806295355656275, -11.037479746937931, 4.815834107693767, 12.889863845192325, -2.566493671486043, -1.9013604464230724, -3.3542197779742837, -2.3133142499631014, -0.6052267108602937, -1.0171406249542534, 0.031643248940659036, 1.18637388017345, 1.9519790070751095, 0.16292762512876788, 1.0553924579354268, 3.3018491879655465, 1.4194289500313642, 4.408115282472536, 3.8208192224628803, 3.277918959380552, 2.99242644207374, -1.2453229408472726, 0.12646457689387627, -1.0913876416756971, -2.9294135664581016, -2.2530212732087906, -1.6230974931656563, -1.7182764184217953, -0.5733426194398734, 0.008267922811183877, -0.22044168884369, -1.6046626340298602, -0.34587635813277046, -3.419142334818049, -1.3429119890719432, -2.2586861230250856, -2.3338028850417887, -2.7183637598152037, -2.7327673533768295, 0.16622495940801937, -1.2565203459315017, 0.8834262452941525, 0.9851919396083276, 0.052207543010954933, -0.9197030989519562, 2.4347200370847406, 0.7378362219398504, 0.9104790089160045, 1.9829166078003575, -0.5873634833406179, 0.38783834719297694, 1.569164143609118, 3.2825702480904995, 3.6901069174031567, 4.073712267408775, 3.71867460995583, 2.2389971737267818, 1.7079760647147681, 0.6524715973071687, 1.7997125595510879, 0.9305290692801798, 0.2626653081170519, 2.1116689133239457, 2.7508121205791163, -0.25367584002601823, -1.3391866830160681, 1.4485666346438044, 0.6718050597074351, 2.901189477904895, 1.254446476914068, 1.5265565355001447, 0.3802810017828294, 1.4196327698044324, 0.37246052142265573, 1.0093638961885247, -1.969008099519876, -3.4739977147278718, -3.601183287808311], "delta": 5.6259711145230475e-09}, {"inputs": 80, "activation": -2.2550154813264895, "output": 0.09491771693447104, "weights": [-1.7633582536605614, -0.2682591247253156, 0.763677611386822, 0.46651350647636164, 0.98426650883517, 0.08206198741196984, -0.4897325994722939, 0.8257956368840089, 0.22639165626864102, 0.48022865541163834, 0.7396681100843504, 0.49839740532220717, 0.18489796457317045, -0.2686745094664365, -0.5442983673331889, -0.9874150738014121, 0.625670367155322, 0.599298622537156, 0.6871514010319419, -0.3843251462166545, -0.6835241956139165, -1.3421698428195166, -1.2791390791697765, -0.34371840524075037, 0.0034675244925428126, -0.06589729418959049, 0.34621216682168254, 0.3744673131999256, 0.7037627286475369, 0.15806694254134807, 0.6152586413790108, -0.3463046359159992, -0.2807284428547789, -0.1698041208010631, 0.4187550938354006, 0.6234588709718215, 1.1529449551314437, 1.2792317784130791, 0.4444483663287314, 0.5293876955798795, 0.9515434987980694, 0.8928870250131068, 0.6403764264155861, 0.5013407161004154, 0.36190855523301596, 0.6541526133511213, 0.5407840938643301, 0.6497169356642749, 0.04214106294890652, 1.0186382958002618, 0.9272686296613416, 1.2604771683662679, 1.1204495628256503, 1.0891182879906032, 0.7541645172041905, 0.6529958987922542, 0.5685911414387471, 0.8544580545306656, 0.6053241715470211, 1.4425502208741605, 1.0833294070673287, 1.6453812159636192, 1.0433075279712825, 0.7150087512275274, 1.0737131151967443, 0.6911692997496255, 0.8758502749535839, 1.2678294002299575, 1.7085920762987263, 1.3104620175910233, 1.2547070482836036, 0.5204362984053501, 0.9998020258149765, 1.5777054649631868, 2.0583084492445107, 1.6832632136916237, 1.3956192614340026, 2.0303409443159475, 1.6699416885883474, 1.9483187058399074, -2.9127007469244024], "delta": 3.9542940784942315e-08}, {"inputs": 80, "activation": -7.894872054482423, "output": 0.0003725107600052198, "weights": [-2.2659193043696013, 4.8077708593778095, 7.885862578126814, -0.9870046836581832, 4.719607821065652, 0.2064425635710011, -1.0015515609966978, 3.032445251911048, 3.7758856997245545, 4.461875347106989, 5.133687680607636, 3.796902953792957, 3.751910145566798, 2.5492458185223925, 1.3089296985955483, 2.319751053262434, 3.5052540637830414, 3.7992882752691806, 2.4976829123185222, 2.062383114951454, 1.1350603672115396, 1.1317242428908123, 1.1949928332404618, 1.3069653897818916, 1.569777593809526, 1.9649411231985376, 2.9717460661160913, 4.467764390889414, 3.6040480740292757, 3.7870354388454692, 2.718429027625646, 1.3917097419431645, 1.8794204497895235, 1.1464018541982244, 2.504494250820843, 1.884028321651224, 2.298353513120487, 0.6920325253655193, 0.6885724891260677, 0.8530773816681942, 0.912577010757258, 0.8677310199949505, -0.01017536466025094, 1.5294930351486173, 1.2547337531729348, 2.0853097360876687, 1.3136968839523622, 1.4636809921334566, 0.3117328951330299, 0.4900494879715921, 0.998681286346256, 0.08876319154334224, 1.0984874323898934, 0.22544436961454842, 0.010380236039537739, 0.08569500896116088, -0.14950688782769023, 0.5845987242400755, 0.2918956474024018, 0.39641208247223286, 0.868037334354913, 0.9675978646592478, 1.3476303564430179, 1.6015731784551088, 1.3271094976247089, 0.5843124296695873, 0.4350686450569254, 1.216219879009207, 2.1897425135585658, 0.6670817145260206, 0.6423507152601079, 0.7907129221934708, 0.6155948948109792, 0.6684525418121777, 1.5566440794660121, 0.73091444594206, 0.9726403142553902, 1.4644735620185465, 2.019085168389444, 3.0775108283615493, -9.966751819345317], "delta": -3.918070887435592e-11}], [{"inputs": 4, "activation": -1.0944863964809965, "output": 0.25077440246179716, "weights": [-2.975550006871743, -3.930867269044283, -6.381369057009682, 4.4577666407855805, -0.11509553881166969], "delta": -5.3427092791653796e-08}, {"inputs": 4, "activation": -4.6509449685727535, "output": 0.009462182615743274, "weights": [-2.50862298658299, -15.288956284922392, 0.9943937097124915, 13.3584779323073, -3.5397715173263933], "delta": -4.129577470552865e-09}, {"inputs": 4, "activation": 3.8890925215820116, "output": 0.9799464655187853, "weights": [1.513912975994288, -13.911541898294312, 8.958489247305089, 13.649625568543055, 4.030725149110231], "delta": 1.3781411978548732e-08}], [{"inputs": 3, "activation": -8.527252913864864, "output": 0.00019795894595950203, "weights": [7.257740686300324, 11.245504584332155, -17.89930431219935, 7.086644440671381], "delta": -3.917998672084377e-08}]], "configuration": [80, 4, 3, 1], "name": "L1L2_Bound"}