{"layers": [[{"inputs": 80, "activation": -1.8012554746416582, "output": 0.1416983055084647, "weights": [6.335941223166253, 8.412650477868496, 1.5183863134164015, -1.1440131155363942, -8.830689344543625, -10.305545179543792, 19.426759172615004, -2.9794838315651497, 1.1534758224664168, -2.1007824010601936, -1.7298786934307107, 5.489568105808242, -0.5443122454534689, 5.648093219119811, -1.667862183737822, 0.4204754260598433, -0.04923262272103901, 2.054575793537189, 2.2243082079758567, -0.9624792825734229, 8.19092770161369, -2.7132233165160877, -5.231955334615813, 1.1524027850055454, 0.41899410368521506, -3.3895960638777867, -6.706423676534635, -8.406890254245546, -0.027478963170586547, 3.388771870502791, 4.821435115820539, 3.629249499435007, 2.70294564239387, -4.431106905816659, -2.3611359218051033, -2.4194116329080306, 0.6667576979507608, 3.1183412542294517, -3.5196542365253105, 0.020988928129786186, -1.265323313600864, -3.8530160718626343, 1.746963312261589, 3.0350023289616477, 2.533254187243426, -0.45451852026702455, -2.146419974000571, -3.4594029352481317, -6.239546540612624, -5.988069486271396, -0.09700167868399268, 3.2760094966565534, -0.06312082194603974, 4.749705159191798, 3.3042909339866835, 3.8251246995157713, 0.5248285711379457, -1.2278168615113008, -1.5419098981860933, 1.5609184057913457, 2.27124471618895, 0.4193446238746362, 0.053204904342296806, -1.6535511645574248, 4.5442264933517205, 1.8807663784845425, 0.332507544725698, 5.359538680089481, 4.267406324951595, 5.509937964950464, 0.6062483146416321, -0.20199853259914788, -0.9051245261877469, 2.3463838721746684, -4.946500256818385, 0.522570234439674, 3.2027979617277738, -2.4436913581832895, -2.096880277312696, -7.588867861990842, -2.671365804392238], "delta": -1.1271733009674893e-12}, {"inputs": 80, "activation": -1.3994565246886135, "output": 0.1979023669290681, "weights": [-3.0241435726883763, 7.622970515948748, 0.5906850626524024, 6.013747897407439, 2.300790605370399, 5.766257647686228, -1.0595108576301149, 4.057622184771113, -1.4202752065774094, -4.220825027549993, -5.133579185067819, -3.8008112366038755, -1.4013793269332637, 0.920101310452211, -0.5688326735910412, 1.1107172805734509, 0.3961763352365605, 1.6529840560129798, 0.8295867311152849, -2.3574833732460805, 1.5790460351805473, -0.04150755516241149, -0.8239546028144438, 0.3270891142286763, 1.096919966406695, -3.670438051671552, -4.238990653642392, -2.960145700891348, -1.7593850925268593, -2.10937336532001, 0.04172087126038952, 1.652522990945942, 4.0216583663229555, 3.2014915212221857, 3.0676851374748733, -1.780889821246899, -10.106456104722827, -9.148920542834233, -6.137623347261216, -4.024357730806268, -2.9500571506597515, -1.7116607027165494, 3.460438960024714, 5.374986327005067, 7.610560379737101, 7.10610958702436, 3.8789511198956004, 0.10737152236248633, 0.03374007141711448, -3.742169907170386, -3.166775357450955, -4.659474506008944, -8.487955921878807, -4.003826285155878, 2.1642002431410194, 6.403599467506517, 10.04907633113563, 12.74116881901133, 6.11993286658929, 2.6031628714400137, -4.24185452820996, -2.202254634891488, 3.3352170004897768, 2.3172037523851015, 1.674074527613091, -0.9185126813176089, -2.0807124848213006, 1.5347535420419902, 1.143320341246746, 3.7619441547290835, 0.36437031653334023, 0.7035410762744542, -2.9154869092942004, -0.2957765324585257, 0.08986674077003273, -1.2618111128006473, 2.8226827003956823, 0.6802355293187998, -2.8642466489564757, -4.639612802592077, -1.9422020939189883], "delta": 8.220611148505988e-13}, {"inputs": 80, "activation": -4.545704770212067, "output": 0.010501244117344705, "weights": [-4.332348134686134, -5.818026379350885, -7.644669991120401, -7.262276396312123, -6.816805560553791, -4.598769493276274, -9.470966042567554, -1.8247869058331418, -2.4260311501416187, 1.2070752000471447, 8.19598139906471, 10.096198862800254, 10.719684158761083, 11.231213855623825, 8.292537681687643, 5.383266575341087, 3.285333258640979, 3.885105712804545, -1.6286650911367855, -2.817487037920669, -5.592198872026727, -4.96669742011775, -3.4992622819813506, 1.0843550778502171, 2.9266793228763426, 0.1782275934120475, 3.1733039882680507, 0.7820753452534474, 2.9102777037325325, 4.221422002689512, 5.7975452435212915, 1.4721085295275198, 1.1129250465487868, -1.7981500443292875, 1.9484151862887802, 0.9098148485297607, 0.05973349308454343, 2.910329634307122, 0.5433414877302244, -0.8670987242107958, -1.0964273868614147, 2.05417915653207, 4.0659533275351825, 4.987936364411811, 4.11080976852756, 1.8365847098662615, -3.282112307157203, -5.419306290474126, -4.887252678931252, -4.803409100144334, -2.9127690580955434, -2.5606547389953476, -2.3010866834573642, 3.268030213785317, 1.0973975724407652, 1.4867997697426159, 0.6365524337906814, 2.4334387859145856, -0.8869001798530628, -0.9324844490093848, -2.7475071283344787, -0.7979274700879652, -0.5220486781906, 1.9541613731791645, -0.37612888054402777, -4.9137665920465174, -9.715262664228627, -12.449929808781876, -11.02740392356869, -5.364764818396578, -3.1801093915237115, 2.7522694563977366, 0.5064365236957216, 1.4933793352163556, -3.7454327548040602, -2.317567223458389, -2.0896734033067252, 0.565552928563028, 1.268702673082612, 0.03210084097483224, -2.8982914006842964], "delta": -4.7454441109723816e-14}, {"inputs": 80, "activation": -1.3257969146221207, "output": 0.20985545471095035, "weights": [2.7108584390899786, 1.3075125353968757, 3.1328039835199073, -3.2610123033778624, 1.8551256710549429, 3.654740780162079, -3.9012049465374097, 0.34704173491899726, 1.2168316818276994, 2.22573047759058, 2.2167301642201265, 1.7446102060351876, 3.780665494912365, 1.3872022671517708, 1.398665090778032, 1.5622666627572348, 1.2408850530132134, 1.0669684025006312, 2.0416131587520585, 2.458185937790141, 1.9057427679120336, 2.453686371157393, 1.346365291595664, -1.0322316425040992, -3.27101088239274, -2.018331632977954, -1.680681793726682, -0.08842033048834563, -1.6260964091741485, -1.2729118670918476, -1.361908331034394, -0.36936345770320933, 1.4286061800126413, 2.7191866875559128, 3.312698692018498, 4.201257112613507, 3.6515158735479565, 0.907230489849465, 1.3779807137128148, -0.3873687011714538, -1.139929313803212, -1.2407268578639088, -2.922230012856822, -2.236503079523592, -2.3350229210530387, -2.303211861342585, -0.8988200642487805, -0.7478194158680723, 0.12343479397167148, -0.03227449091845498, -0.861998982505322, -2.0850830218728715, -1.079039664765939, -2.9882431761743917, -2.372044356976578, -1.730973362176881, 0.2036813766222315, 2.1711495013631716, 3.669022478940649, 3.0667387276315576, 4.066607910269356, 4.3019072377982095, 5.021143120480201, 3.4458610211608223, 2.091690796725201, 0.9598751634065187, 1.4912264155342863, 0.5790046094583547, 1.47664255137573, 0.5712668179457306, 0.5108814033548379, 0.3426030597533018, -0.061777584195741794, -1.4291488638747305, 0.6981276755627366, -1.7995831268363944, -1.6825336854035076, -1.0076942211162028, -1.9157980137481163, -1.002667016952907, -2.7461809538879227], "delta": 7.141157443081049e-13}], [{"inputs": 4, "activation": 9.945805120188208, "output": 0.9999520740308638, "weights": [5.704290210842796, -32.58239857235888, -4.1170952487665025, 11.546570529847545, 13.205774474247816], "delta": 1.1889769608954852e-16}, {"inputs": 4, "activation": -1.3648975891766186, "output": 0.20344546863299806, "weights": [19.608942918968513, -10.667979268764928, 9.123132400146712, -8.785766885186659, -0.28429636174166534], "delta": -4.836771188311945e-13}, {"inputs": 4, "activation": -4.411149227994399, "output": 0.011995576383155005, "weights": [18.40878290999735, 1.9437838592416419, -13.120890915840612, 4.763933666888643, -8.26627378669007], "delta": 1.1718205676183321e-14}], [{"inputs": 3, "activation": -15.01672014977382, "output": 3.0083001961333385e-07, "weights": [-27.414550955408473, 32.97993502600703, -10.925438921398818, 5.817955536960894], "delta": -9.049867347583293e-14}]], "configuration": [80, 4, 3, 1], "name": "L3_Bound"}