{"layers": [[{"inputs": 80, "activation": -29.081415487599205, "output": 2.344777984561858e-13, "weights": [2.8937360677388524, 13.933641609808321, -11.368333473614982, -9.046541463023534, -6.908019430235101, -12.33617634497593, -13.770553713217003, -1.4139721263209493, -5.114028859579954, 9.123624572995308, 8.407872455305844, -6.400955369547741, -4.643569285060393, -0.37643797350492697, -1.8042261548296488, 0.3541275650211663, 1.54673174090987, 4.41178130000571, 4.905108973783273, -0.436931551027584, 5.307526602296374, 7.373017823251051, 4.300837783132015, -1.011076026602791, -1.4668754761003184, 2.64447617631127, 2.5543618328717157, 7.025942198577213, 7.6984608878889285, 3.2211759732423686, 2.84371165758417, 0.42115826331716827, 0.4162454629236141, -0.6520927901710565, -1.663533565838343, -0.4397498977736122, 0.7652027643036038, 4.295562713373371, -0.6688373672407466, 0.40475857396882287, 1.415699691855579, 4.676840973594537, 5.776058730303694, 5.775060229580039, 4.2915221792731515, 0.34898123350890337, 1.304988374271467, 0.28843522528713483, -2.544129078237064, -2.5182666741768895, 1.071090356696081, 4.448232550032382, 8.061841312578675, 5.927792430040188, 2.947160712982803, -0.8049148072432019, -3.8246919793111203, -4.682380408358094, -2.991880529540783, 0.5061915912184415, 13.77927953074676, -1.370085258097106, -1.7734669399244858, -4.966846597436266, -6.597890356502959, 7.54858641586193, -4.514753760168621, -7.267761174625708, -10.661784321102356, -9.952875352590931, 2.959862400297167, -2.7784279369308176, -7.798429906360761, -5.32797928118091, -3.4407685609425456, -2.0789241755233885, -2.459820160834815, -3.241899105448008, 12.05073937107853, 1.3650023569517633, -27.677864850938345], "delta": 3.386275105300755e-16}, {"inputs": 80, "activation": -6.614738626297291, "output": 0.00133867067125682, "weights": [3.4499274013426344, 3.5664004389214785, -0.48471257195834494, 2.8277956398468227, 6.757114841223107, 7.096989357148325, 8.42851887629746, 1.9996609676289852, 3.056536778021354, 3.6657886899541654, 5.544171292467449, 3.8523131514251387, 2.290900131034335, -0.04637442675243489, 1.2374814453821479, 0.34967719766310895, 0.6796694249037185, 1.687398143865934, 1.733816499927318, 1.5390290626442844, 1.161797303992351, -0.0861210424699414, -0.9041959826985109, -0.009595827473368417, 0.4501326178756517, 1.635086801520549, 0.4392602175201148, 2.364694962809252, 3.2277785992402572, 1.9634145307077189, 0.6468428626101274, -0.3971731511558995, 0.17026226697210592, 0.22394491302157496, 0.20323084745280753, 0.562524739021082, 0.21133336544524395, 1.3343625822284009, -0.4667285821100638, -0.7219876484986516, 0.7208902496446568, 0.8357983359435128, 0.588208537660964, -0.28259209806225416, -0.1600089189867333, -0.7320657568721786, -0.25816852582018607, 0.1574527769511867, 0.3856492267881225, 2.0360303637267743, 3.3316241261013326, 3.355819789416415, 2.841192014107953, 2.7285427419318338, 2.4046393665791808, -0.6306114421510243, -1.2976774574532675, -2.1208544746661393, -3.3045535968534305, -4.919252403707441, -1.0585455760544715, -3.609458763512779, -3.1779456703355553, -1.7780245362538063, -3.1889060583161024, 0.19187908787394772, -2.95063525475174, -1.8202016654379285, -2.497723503257676, -1.4521441201267045, -1.059423113793834, -0.274358014344734, -4.292758756245691, -5.381677365152195, -5.959657079114986, -6.957960763342783, -9.126251457890664, -8.75282498224476, -6.870977988600864, -6.72498975898052, -10.552158163225707], "delta": 6.486215835957266e-07}, {"inputs": 80, "activation": -20.03894744615276, "output": 1.982420135177468e-09, "weights": [-2.2931272042574595, -2.1395181324373485, -2.413644727680734, 1.753302818533251, 7.3791846615886545, 6.030926020803955, 5.937213558093328, -3.6699251170331566, 0.053136338526623, 0.7805050888671695, 1.5012591515046196, 0.30842723847284476, 0.5641106453333121, -3.008283237142437, -3.1691179015445217, -2.8417649408071286, -1.7719443456703874, -1.16390363911032, -1.010216690535457, 3.760294439886026, 0.011528280255583879, -0.19410772268362908, -0.4585784291169242, -1.605766751100429, -2.1267547503620814, -1.0477046601901605, -0.15108598060279482, 1.4526037750480303, 4.060074421866469, -0.7495141212444766, 2.4857398211986106, -1.3106648397840308, -0.0023641798375797275, -0.21370739447109524, -0.24727342570836078, 0.2215523871054253, 1.3629769003651033, 3.344779636910077, -0.014511767076617003, -0.264410662972997, 1.3387333496066605, 3.4112378125425997, 2.378949842778953, 1.1601815012114853, 0.7519500347267694, 0.5556288480574239, 1.654599192751468, 1.0353350037328017, -0.0486314326432935, 0.6390256279304365, 1.494132596099058, -1.115041131713911, -2.6818079138029276, -2.8598074499961283, -3.2571585198830495, -3.951352913940988, -3.9847227390498547, -1.6262138242479276, -1.0163521641437014, 1.3482743373571011, 1.669958849717944, -1.8077272259716712, -1.4043842045322554, -1.9939463569133389, -4.564784211128803, 1.2160023283362233, -0.7475523108930416, -0.712677198091058, -2.856833926701781, -2.4119453593228517, 0.9429836055147444, 1.0266891502985216, 1.4643620674036066, 1.273324247349478, 1.7601437357043173, 2.1746149107143236, -0.09758915648897533, -0.16727761704001592, 7.532540278125124, 5.7461345913378, -24.20120559978818], "delta": 1.8471501017426865e-14}, {"inputs": 80, "activation": -12.558139687607799, "output": 3.5161525076094284e-06, "weights": [-3.201614642362869, -6.155666794406138, 5.415503472435357, 2.0302961105420696, -0.13797404485822135, -0.15018329428442448, 0.474620943047041, 0.3312563907396564, 0.578159409293223, 0.28815241642730166, 0.28581473041409355, -0.12113839985380238, 0.4436272822855759, 0.3933561622931057, -0.5823458868127197, -0.012637635684677996, 0.007784107742203711, -0.45696695387374436, -0.32919969845966823, -0.8444151811170153, -0.10300503902423232, 0.002974666025384434, 0.02588223211984304, 0.13838259319348, -0.6117039888674124, -0.4453868430127503, -0.1696017515336972, 0.003292961397945934, -0.4910204094780931, 0.3423483924203873, 0.1606579376892242, -0.2765544426292787, 0.26150652646626693, -0.6127756506841443, 0.27028044791400485, 0.5095750047868338, 0.5862443068575314, 0.2398125049794531, 0.4812912460471737, 0.4658527973099204, 0.5558687167842518, 0.4067097900342961, -0.3565091900680775, -0.20543004084496908, -0.5912823788119258, -0.15526375911850748, 0.06629152809172158, 0.15378410823453095, 0.0518229102997321, -0.659356483349856, -0.716552258630403, -1.73808798052304, -1.4304555782027277, -1.3548181001077086, -1.023266427620258, -0.39944559722839545, -0.6522500337285747, -0.2693524700316607, -0.5342926616372585, -1.4485622800124307, -1.0231838469383296, -1.7933596965524343, -1.2886062272503462, -1.769676954742259, -1.6124504657998253, -8.63769285514077, -1.8810898753682934, -1.176817559857013, -0.04731989725505426, -0.5683409871908688, -6.54132352792241, -2.7272901497119224, -0.026360292525026394, -0.24786866344658598, -1.6419328593286597, -1.7866998240495917, -1.9243676665594374, -0.9119487943186934, -7.8164693770375235, -4.812054850666911, 2.9361397668234748], "delta": -2.0041620693381916e-09}], [{"inputs": 4, "activation": 9.996685781934794, "output": 0.9999544514301238, "weights": [-29.018078966050158, -12.673062652068248, -3.503992110571502, 5.666970806780382, 10.013608804212259], "delta": -4.4231979604004025e-05}, {"inputs": 4, "activation": 10.720399062278451, "output": 0.9999779107866376, "weights": [7.468392648963593, -3.5041354943878766, -6.771055782355293, -14.843659868519863, 10.72515290826375], "delta": 2.1513116761761286e-05}, {"inputs": 4, "activation": 20.576170737222572, "output": 0.9999999988415358, "weights": [-18.04135247766032, 6.292529779549791, -4.305349252279006, 5.433086423178378, 20.567728017641713], "delta": 1.0084808625213808e-09}], [{"inputs": 3, "activation": -1.6975612358197365, "output": 0.1547840501760723, "weights": [-8.727248407409844, 8.863161070462414, 7.927983786746379, -9.54051453319716], "delta": 0.1105761778895861}]], "configuration": [80, 4, 3, 1], "name": "load_core"}