{"layers": [[{"inputs": 80, "activation": -0.18873915419133103, "output": 0.4529547841670706, "weights": [2.2385113805234047, 2.7637036785490343, 0.7960497222019607, 1.5951912973443112, 1.0539399864003471, 0.8278607987249674, 6.196316189031388, 1.240464500079578, 0.9835054239734397, 0.5350436143124031, 1.3140035819434195, 0.933937300756312, 1.1853007050452915, 0.4668086769339233, 1.1355616785382499, 0.829610849648196, 0.2597109193651026, 0.9107503429503575, 1.0112256993820254, 0.6987133734887544, 0.382200779612423, 1.3683731867744067, 1.0899978379318316, 1.2708160975087863, 0.8105863298963596, 1.604735167408803, 1.0021713963296495, 1.313199723745748, 1.1924052645164807, 0.7754222297856372, 0.5690753756443763, 0.3918230832184711, 0.6401997706858695, 0.23028229973954176, -0.1701834144604961, 0.02303212521479656, -0.4173088010176098, -0.4719364371176782, -0.9540667232246277, -1.0080333536401098, -0.9385218198165698, -0.819615647655175, -0.48662974957644906, -0.47259380965661313, -0.06840068498809396, -0.9444284845797873, -0.7063219212152545, -0.960334539498298, -1.0351552376439384, -1.2491862457235368, -0.6194418796208674, -0.40586540041279406, -0.10558707832552983, 0.24639866912864386, 0.1617135419251788, -0.20298713785139041, -0.9460058410127667, -1.8651700051424418, -1.2176348846797436, -1.836049478281701, -2.242988146884518, -2.7181771995033155, -1.6295699472444962, -1.6061433530846083, -1.5144305491812393, -1.2857716042510687, -0.43266091044291566, 0.17232170321834778, 1.1803661260020015, 1.177267080223345, 0.3888077734774238, 0.5087417577046547, -0.11067035515869322, 0.7441820549201401, 0.027280529629445577, -0.005811639943443258, 0.6545997834248212, 0.3904614056265802, -0.09619911500123282, -0.6463572408666096, -1.9607243423864078], "delta": -0.0006862536507830149}, {"inputs": 80, "activation": -1.2670748345142615, "output": 0.2197584033791883, "weights": [-2.0037100460694806, -2.521814429286041, -5.041700592852007, 1.6334659247323877, -7.985376517573212, -3.108157837546584, 10.004295477698044, 5.413555285243355, 2.342826274399742, -1.7049813881630727, -1.3092230130620088, -2.7697173261154555, -1.1868674920483446, -3.3470707653807694, 1.1311234109359236, -2.2488299788679753, -4.297903622588472, -3.927852896606585, -2.0086105066507867, 1.7050811026204171, 1.9630042423924507, 5.359582964230921, 4.8352109306731, 4.502623090115002, 4.45181160402025, 3.843963300723845, 2.411312758483855, 2.5127362359152143, -1.5398221431319232, -3.061293222974063, -0.9820160054081866, -0.3574552370443323, -0.28929375190584333, 4.277195475530006, 4.875669547245784, 5.307507619952632, 3.9703170231848004, 2.313483754586835, 0.9377575033757464, -0.8592581013420211, -0.6977564875345277, 3.6077453627450073, 2.3641088233612826, 3.5262835871052087, 2.4761845202196944, 3.4911345136937357, 1.2938001535056458, 2.1429870198299703, 4.229918445093041, 2.477868424345367, -0.3317938377713327, -0.8381573335225131, -4.402577153957795, -2.9056487286428085, -5.773097602147701, -5.941693375880539, -6.448877911537682, -5.7838344333494875, -3.0356647974602198, -1.46106502756972, 1.8634940587041364, 2.8199018260579467, 2.218443418052036, 0.629447566271972, 0.7671082953050514, 0.21374968985440815, 0.8309135300781703, -0.979307939543834, -1.8399305076107062, -1.5349359882965767, -2.7935192885728415, -2.4799620674966727, -4.855632316623324, -1.97507422678316, -2.089661019436396, 3.503578724402242, 1.1043906392068812, -2.062592565292383, -2.258616901285414, -5.350322027007337, -1.1160269974633215], "delta": 0.0005254687263880452}, {"inputs": 80, "activation": -1.2391254209457885, "output": 0.22458825556171058, "weights": [-0.98001278291863, 7.077010900206453, -1.3520633768817456, 4.442637632368466, -3.6051706061193944, -5.891780128181198, 6.7879300801129725, 2.0094975905517476, -0.9451726460407391, -3.3825667959611057, -1.0264455549483897, 0.3796063419742827, 1.5958772878429754, 0.8005777479789071, 1.165781916845093, -2.955027376259626, -1.6549406604448873, 3.092294592774509, 3.7722932174570336, 3.728402841199245, -0.9599130830453021, -2.781525277094882, -2.838365043450975, -1.2237441679594019, -0.4533429801777114, -1.8434152138403515, -0.23611530456368537, -0.5351384720884971, -0.7797192078264025, -0.3633427178913492, 2.652740218272582, 4.124468452586961, 3.9345846542588023, 3.4057579463788907, 3.993394493433693, 0.9873642783136478, 0.2854625519248198, -1.1766533183634802, -1.1637888819535396, -1.9726050664699233, -3.3287789314609895, -2.4172612392455926, -1.772501178737584, 0.9505108705133943, 1.6517242394962195, 1.4118723411408571, 0.07808715707150529, -1.7824500763552034, 0.8534315235188223, -0.5188117228914303, -4.3977775371377135, -3.5886893763061725, -4.368323256787061, 1.8702597338050784, 0.8312981751319912, 3.3606510322670164, 0.25315957147155194, 0.23524627275336155, 2.997459662082161, 2.129115381844488, 4.722780496582316, 5.883733498327987, 3.2358388389561656, -0.42635944620466293, -1.3241702024473119, -3.275307496978503, -3.1849785688985306, -1.1006906999086858, 1.3172275749450435, 3.8608759300025337, 1.384765880883988, -0.6569381198797672, -2.909156270065786, -1.5361268644787522, -0.6640484258301494, 4.0766765740592446, 4.547163022762873, 2.299601608442377, 0.24406932564961137, -3.659635201505837, -2.7251767598089898], "delta": 0.0007303702183020903}, {"inputs": 80, "activation": 1.1645378916613949, "output": 0.7621562953129687, "weights": [4.060500193330471, -7.178580757414911, -2.6754063712781475, -7.421020097327521, 0.03899598098322265, 0.15396524404494918, -6.261291078894296, -0.6023408010672827, 1.2066667114466878, 4.249240127875259, 4.474033009556484, 1.070250223207425, 1.6272449780208393, -0.30647767596899117, -0.32561021514643385, -0.09896407967526047, 0.1051309791801076, -1.6240257441199861, -1.1078867671257278, 2.06118447911637, 4.142566147789378, 4.433236861611751, 2.417724621707582, 1.9180417188169667, 1.2335682870107791, 3.726792447914624, 3.8494463259375395, 6.018574253870854, 3.1359500701328895, 3.297159068949584, 2.505473019858993, 0.0651904008325591, -0.0926243112014046, -0.20718032263091665, 1.705689919480078, 4.472834319748849, 2.568096074418685, 1.461859848626385, 1.9643974642981454, 0.5165525308367115, 2.3746214218873165, 4.714668341634173, 1.398251796809146, 0.4156265191793804, 1.5654784010966676, 4.040675522268319, 4.804633063205199, 4.155945695282413, 2.697990308368251, 2.7218026073033537, 1.3082991613872688, -0.11952998358024368, -0.1812883999535681, -4.4044126906332615, -3.947234991417661, -5.083963186719286, -2.259669731501314, 0.20432971677557055, -1.217048062637099, -1.6289452010207512, -2.7699458215129034, -4.391965755761824, -3.4778826151085984, -1.4781404616292437, -2.6841979835439114, -2.126834333662746, -1.936911051105908, -2.09255269256734, -1.1216046744734827, -1.2003751762066321, -2.599868379458802, -1.4265610056634344, -2.2300350243904905, -1.9300733693088015, -0.5620719957200032, -0.291737787140416, -0.6265505690431784, 1.8321757329404016, -0.12382982571414772, -0.020940112637744646, -0.8073015598878545], "delta": -0.0004605109815520066}], [{"inputs": 4, "activation": 10.423719300853211, "output": 0.9999702817439612, "weights": [-1.782965324795562, -11.524580394895679, -11.20707983781876, 16.330074210450537, 3.8348551222631233], "delta": 1.1889819281348349e-07}, {"inputs": 4, "activation": -9.260586234725475, "output": 9.509051507073725e-05, "weights": [2.85603293615416, -3.9645039206779296, 2.745407172141771, -8.984080818949487, -3.4523196463779193], "delta": -2.4135002444849067e-07}, {"inputs": 4, "activation": 1.2743942404133062, "output": 0.7814940413647108, "weights": [-4.529536434521895, 5.014625167888296, 6.864933338302737, -4.162783498726134, 3.8555476742992774], "delta": 0.0006112209146474667}], [{"inputs": 3, "activation": -3.9209692236579676, "output": 0.019436603700434717, "weights": [-10.800798172593673, 6.852278542949415, -9.66271832423251, 14.429729627781711], "delta": -0.0003704387728744654}]], "configuration": [80, 4, 3, 1], "name": "Mem_Utilization"}