{"layers": [[{"inputs": 80, "activation": -24.997435096955194, "output": 1.3923610815857628e-11, "weights": [-7.665662561851213, -7.130582660042011, -6.442387630842803, -0.6239590330711503, -0.46602657322655233, 1.8233795209102925, 2.0247458132261866, -2.6639233684109334, -2.0332399806978914, -1.2931240774215869, -1.5604519662313128, -2.666419893195235, -0.8859613881765832, 0.8254058706890262, 0.46345431093087053, 2.257070888628494, 1.8074496457326377, 5.210780796503362, 2.4887257502004885, 6.634900297162366, 4.137073496712251, 3.943159048411337, 3.6294112888823604, 2.9640671213285184, 2.2599906815350765, -0.10160952302210084, -1.6833268969299586, -4.071891407057893, -1.7855315579130642, -5.8712552774707305, -2.8680714809109604, -3.7673873070591997, -4.604966591483931, -6.0945305221213255, -5.6679379875154865, -4.4205896098633675, -2.179537431604609, 1.1911126795648856, 1.1376807265294426, 1.7823044667679642, 1.997050481957408, 3.4131285944890957, 4.7547307017864355, 4.305067748090507, 3.4216916059097517, 2.536987395173492, 0.48335039964560034, 0.3117344737382656, -0.4126388069046886, -0.4454871453025541, 0.34470366486363563, 0.7240141396790291, 3.271734895447569, 3.606370131101538, 2.9894161526827037, 1.0628872948386985, -0.4563640316329179, 1.4493792262338085, 3.6849478115678376, 4.362343301810487, 5.419953840482335, 1.4029723480326615, 0.6747630661951173, 0.9742415651287151, 2.1504077734095093, 1.8152706614949115, 1.1954845454365537, -1.0208152843643472, -5.493977450900514, -4.433054105102375, -3.0531389459628886, -0.19890605651880702, 3.804074662001936, 4.196998925685338, 4.003307218192619, 3.49674845457216, 1.4687057251265523, -2.2725001615830123, 0.7549160323455052, -2.6972298334860456, -9.534875491473937], "delta": 1.9389578044839062e-22}, {"inputs": 80, "activation": 30.867482517636095, "output": 0.9999999999999607, "weights": [1.5386873364445883, 4.4027540447867155, 8.408566382659785, -5.95817048386803, -4.065054180718149, -3.6272411035509142, -4.255599425186112, 0.8688660973443365, 1.8822759716193265, -0.24396129082622411, -0.8260534822478953, -0.7130429299930855, 2.7734172609070735, 3.282448813472223, 5.435868370938251, 3.385462126235158, 4.0557876139635365, 4.065747087196602, 4.8941101583008555, -0.7831115255215378, 0.4526738518328952, 1.508169907854193, 1.4698061655702441, 0.691816258316334, -1.394859266155752, -0.9136353762622766, -0.2117505262837454, 0.09456278236362138, -1.8547443046641, 0.6037389675427935, -0.40713791177207465, -0.24089336075841833, -1.2014751366775664, -1.0177314553510504, 0.4070986928163429, -0.36757502343923765, 0.09841365406683882, -1.4722584140700816, -0.5671215715489539, -0.008460595083344902, 1.9054932496196553, 2.944919197468715, 2.9045029583758653, 2.696843210459169, 2.3487940395876064, 2.3913382272344763, 1.8874188965098102, 1.3666949728840203, 0.5419755375640337, -0.585204177231927, -1.5058108775921073, -0.4897711044817385, 0.8784981454099684, 1.4355325341359249, 2.262194280444018, 3.5790771834510315, 2.565102765938854, 2.014855630397539, -0.06195408319069722, -0.7560011821406265, -0.8338180427911366, 0.43502927408293596, 0.6568205189173087, -0.26294916472758423, -1.6246976264871544, -2.5084584568020096, -0.8864639344474177, -2.5397411217270465, 0.5563802199267337, -0.1600557667819811, -0.02718786796508692, -2.0923291507093715, -1.9680308643512539, -1.0883766999285558, -0.7807928991504635, -0.5307614573926336, 0.06574711757379284, 1.427180497453205, -1.3767399141907664, -0.03689898936050902, -0.7196362086310947], "delta": -4.237608948219554e-25}, {"inputs": 80, "activation": 27.339577333144295, "output": 0.9999999999986617, "weights": [5.896625878105919, -0.58891424068048, -6.840244049706328, 5.071559007594516, 0.2377588676868301, 1.7899726711910786, 5.113895042098002, -7.535295197566936, -4.833019804796738, -0.2532059291322444, 2.6770391716488264, 2.352519927781943, 2.2562268406508266, 1.439286568023091, 0.8415531423322966, 0.7859830515984466, -0.10442542077947933, -0.005155589463557608, -1.2333894523112467, 2.385754415504527, 1.6439516720264755, -0.4147892426019035, -0.2674279764807408, -0.5094528208630625, 2.2054835056114106, 1.952310229701148, 0.49787547325974163, 0.09383949191058348, 1.8749959890234262, -1.0752572248917416, -0.3594222784766115, 0.5199046002295444, 1.1168941405064798, 0.43889871109530576, 0.5659669665741054, 0.6986649183256272, 2.031159822798595, 2.7910780344299457, 1.7046780172514748, 1.7004570973049804, 0.20842561994236936, -0.17289874639931951, 0.06704016487686386, 0.02364931142650114, -0.4474503956251237, -1.0452680744730456, -0.3912610226016532, -0.08475327586934271, 1.4531220528161866, 2.1429946762063765, 2.468969165897988, 1.773331396456299, 1.554788457770066, 0.7510443355661952, 0.38190869604754707, -0.47277252001812303, 1.3967594010141466, 3.1361514343451202, 4.179009216821026, 2.824797447048997, 1.9395487865588343, -1.665781043968618, -3.1800570277340756, -1.0237279816618159, 1.3577473513768252, 0.8711160701154268, 0.08308209881511715, 1.6334167401880537, -1.098289504130655, 0.38225178077923455, -0.7045759045753756, 0.6909601864484282, 1.1776730037214822, 1.1129086598961884, 0.6604854188093393, 1.134994001949168, 0.8613030607124897, -0.6094304342971172, 1.540381911065505, 0.03799743347722357, -0.9002321397542795], "delta": 1.5959515495909577e-23}, {"inputs": 80, "activation": 43.4236309396943, "output": 1.0, "weights": [8.468597369879111, 7.060532386598369, -0.46708188489198743, -4.184254778150145, -7.864125569342904, -3.1542833827357732, 1.5074045676617451, 6.166532150515353, 4.946855842490731, 6.743852379235719, 4.188166248694717, 1.3972528359732252, -0.005720165097325168, -1.765415105914236, -3.665678441106167, -1.5170361683870797, -1.2463800408799637, 1.1592582700547798, 1.2338223517087847, 6.363907176225291, 2.3813271210220615, 1.5739446293302004, 2.6371482461792093, 1.611877877284199, 4.122796522818133, 2.2489867453682124, -0.031259354313663265, 1.8163723544303814, 6.177502263418716, 2.856943794386332, 4.3954007573337694, 5.70109752817354, 5.0120390422289605, 2.6441346856468604, -2.606151279175016, -3.8630442068035125, -2.731379852628893, -1.0795685219499098, -0.40231493728082535, 0.6476104311712403, -0.9971200406092245, 0.8756321349895225, 1.6564236545660522, -0.25347617299770403, -1.0265206939812312, -2.9874517289253544, -1.1199025180549549, 0.41624897237517483, 1.0435511509969237, 2.0743772999219723, 0.12366600465828444, -0.9508984235624017, 0.6406638208266151, 1.430906300855888, 1.0355829572001238, 1.2574962552573015, -1.4638356478048347, -0.6923726704262939, 0.13410477681931782, 1.8437501533260778, 4.301416219112878, 0.8290284066359108, -0.9404425108478324, -4.281362253487233, -6.178755820997683, -5.440927551023299, -4.796754309813761, -3.75802562371506, -4.654309355175335, -3.4182714573394763, -0.022414108762350962, 2.023455865268234, 5.079301772402748, 2.7380082904897765, -0.3763961291965968, -2.324384885790578, -3.01399747403183, -2.6782728535915132, 0.939453695108932, 0.5267521783382166, -12.12971899836279], "delta": 0.0}], [{"inputs": 4, "activation": 14.268690016619624, "output": 0.9999993643963453, "weights": [12.06789548866252, -8.638452603612668, 9.34991382851158, 16.649106954859942, -3.091878163295084], "delta": 1.776823528413657e-17}, {"inputs": 4, "activation": -4.8712824613116315, "output": 0.007605247750915236, "weights": [13.624501362191122, 0.4581703030723331, -4.628098248497559, 1.631458580724809, -2.3328130968073943], "delta": -1.5123768619456788e-13}, {"inputs": 4, "activation": 2.5008128922533626, "output": 0.9241987871025149, "weights": [12.126192548949481, -8.126164699738506, 8.515060972451415, 4.656787201399734, -2.5448705820144086], "delta": 1.3183038166879623e-12}], [{"inputs": 3, "activation": 13.510241580412593, "output": 0.9999986430118877, "weights": [15.18122055700421, -10.882049626343106, 10.219330940442914, -11.032901904060171], "delta": 1.841414238202873e-12}]], "configuration": [80, 4, 3, 1], "name": "back_end_bound"}