{"layers": [[{"inputs": 12, "activation": 1.8338141962504417, "output": 0.8622154794745515, "weights": [-5.544097767324647, 0.3053413191469257, -2.0063673955959875, -1.8196519617838987, -0.459385015627991, 0.922066177755901, -2.330501597135732, -1.8388596829961994, 0.8254542002976368, -1.7267844189747317, -0.4509591148993558, -0.24035731312324948, 1.8338143224497943], "delta": 1.2619935258784203e-05}, {"inputs": 12, "activation": 0.7523821813324075, "output": 0.6796975428553568, "weights": [4.055977343108382, 0.14421646875452315, -0.6239133100696982, 6.1768628831645636, -1.5952677778284763, 0.3883903404387986, -0.5300625926185152, -1.9072678536056384, 0.5508401564486983, 2.492326492869536, -2.461372534580039, 1.8966104579821903, 0.7523820029590098], "delta": -1.7837339773424628e-05}, {"inputs": 12, "activation": -0.09737448122040883, "output": 0.47567559656454395, "weights": [2.8099301758305906, 0.17510980334477488, 0.6677502030291795, 1.0689892563016483, 0.17497383357976176, 0.39744231217447656, 1.0528837910841544, 0.7294413212539977, 0.212775941198758, 0.38791944942209644, 0.5148778305808395, 0.7913494311875915, -0.09737447029059466], "delta": 1.0929814161658278e-06}, {"inputs": 12, "activation": 0.1993025010452993, "output": 0.5496613487676213, "weights": [2.2479788523094637, 0.39169992818495936, 1.1901288579077507, 0.7435387810912235, 0.9341760582710614, 0.12165218136885539, 0.8271272401868335, 0.2031088406689651, 0.037675356603362894, 0.2616574755935191, 0.5385869355313924, 0.7364750498099993, 0.19930254378165047], "delta": 4.2736351143474344e-06}], [{"inputs": 4, "activation": -5.711231757213776, "output": 0.0032976839491336385, "weights": [-9.800706274857296, 7.559109494640063, -0.40431258181334395, -1.592865963486473, -1.3309596883285437], "delta": -1.083885804066335e-05}]], "configuration": [12, 4, 1], "name": "jobber"}