{"layers": [[{"inputs": 12, "activation": 0.4206971955152301, "output": 0.6036500705855025, "weights": [3.1682613816104466, 0.9432427729003021, -0.603486589457229, 7.135967555830367, -1.853535254978607, 0.4992747868725214, -4.3736451269922965, -3.4568456482341916, 0.8857370628322166, 2.762094078325741, -0.13631957455768354, 5.327401226373311, 0.4206970283894299], "delta": -1.6712580019441322e-05}, {"inputs": 12, "activation": 1.6871523614200603, "output": 0.8438493005082676, "weights": [-5.519574185705535, 0.11716213634319836, -2.0990149891611667, -1.6028948234655518, -0.7543524283791245, 0.331490129667715, -2.0995413337316204, -2.066968375867945, 0.04989862596803456, -1.7998614866494222, -0.607560314888093, -0.05564417015664498, 1.6871524768337327], "delta": 1.1541367235176893e-05}, {"inputs": 12, "activation": -0.7649137189016241, "output": 0.3175803966187184, "weights": [-1.9679485606497997, 0.2947781367374734, 0.8719274568931642, -1.5075001973072792, 0.8571958351335599, 0.24822699469174966, -3.1061155151902042, 0.25089911258555125, -0.2368423248534257, -1.8689698121695097, 3.859834788799823, 1.7110115940246322, -0.7649135604536569], "delta": 1.584479672103713e-05}, {"inputs": 12, "activation": -0.8611624382308335, "output": 0.29709653622282756, "weights": [4.181208943209795, 0.7862945423027273, 1.0222751621015815, 1.5710759321427514, 1.0137384345989562, 0.8760590393919638, 1.0965710870920589, 1.5116801635947013, 0.5074793336417674, 0.9303910232838131, 0.34170939213953605, 0.923016870249956, -0.861162519065254], "delta": -8.083442045334976e-06}], [{"inputs": 4, "activation": -5.781067219656944, "output": 0.0030759302893883485, "weights": [7.405674287114186, -9.286100697147052, -7.751151664347211, 4.103820782307243, -1.1730466159638235], "delta": -9.432244700914422e-06}]], "configuration": [12, 4, 1], "name": "jobber"}