{"layers": [[{"inputs": 80, "activation": 0.1598510726072433, "output": 0.5398778897583579, "weights": [1.4345501893063648, -0.3423485459483832, -1.1441228130201035, 1.186184205279435, 1.1696060598721398, 1.5469369511372237, 1.2693993690843617, 1.413412637650131, 0.9328425699130174, 1.5674668024870473, 1.1185803208202731, 1.0394309494672593, 1.02191521585265, 0.9865410448326245, 0.8977058613326147, 0.4561200562968606, -0.30638956457973776, 0.14129838394387495, 0.3132085408698467, 0.9505935021465918, 0.42854523680873596, 0.4270161706347867, 0.8676454547262206, 0.5000509231933471, 1.1966142438467329, 0.19730356449871594, -0.5082964271770373, -0.7434452309696116, -0.07129824176305614, 0.7668544816154563, 0.906848431800652, 1.4936790634397756, 1.562690976255474, 1.0044616246307614, 0.7847846573327216, 0.5843566813822864, 0.5139306574083323, -0.9396573623963816, -1.4639316034125673, 0.34439178730097625, 0.5772983773057975, 0.2923025855762771, 0.6452998615732454, 0.8732419782188265, 1.006787981717326, 0.8309900809814427, 0.3257399543435612, -0.19171726759622304, -0.32186440779994224, 0.4006443143696339, 0.4151458966444589, 1.0108988559123075, 0.7790626161781363, 0.947991309639837, 0.6319354857879728, 0.7986489631148701, 0.7111864569029609, 0.5239138917111852, -0.08419709204428034, 0.3163677993248274, 0.24176429412388278, 0.845266054213863, 0.6794390721603996, 1.2774410045779765, 0.23832707757248153, 0.041824249461274644, 0.8276309992122194, 1.2542740201905007, 0.9636292540517756, 1.0896774578090598, 0.8844332868946487, 0.22756404567196423, -1.2877374588751516, -1.4162127527385011, -1.4497675576362454, -0.17454819585671658, 0.8898996495664516, 0.19579402122128362, 1.1321045905957414, 0.5262085712310605, -0.8921484229965795], "delta": -0.0004510951120003338}, {"inputs": 80, "activation": -0.16688877629716792, "output": 0.45837437371372847, "weights": [0.6128127221942961, -0.24124457947146472, -0.6479107834436577, -0.08769766600373223, -0.12785565108120658, -0.04197631335521054, 0.34459226951424693, -0.014125413514955698, 0.35544049482166534, 0.2830458043942956, 0.09063627205451331, 0.6108310894769368, 0.8396794277505104, 0.20832229368662708, 0.5735014519776868, -0.1828419226428339, -0.1744050883280845, 0.27876341637919777, 0.6836457161559256, -0.014989002206135598, 0.7481629464730973, 0.03129682639716324, 0.8077429081629348, 0.6403281523412964, 0.522512932690885, -0.10151692129442266, -0.015547011343658082, -0.18538498368837877, 0.750234490033002, -0.05588259851950111, 0.7764056156085638, 0.43492250022507406, 1.1605972715415709, 1.0830582758318759, 1.0126322571046105, 0.4291840914596029, -0.0286812982786146, 0.1276032292936616, 0.06707830882054122, 0.4952036461423966, 0.7306210483656196, 0.7503070399461418, 0.9716992789024184, 0.29860633454222707, 0.651546389518809, 0.3124082480944353, 0.8249929020102149, 0.6682897600747132, 0.6417054280684645, 0.6606956473855086, 0.9318958629526306, 0.7879672750390984, 0.6339178080288823, 0.7137799893738245, 0.47381223883123685, 0.6617436935365876, 0.20803997804285107, 0.3921138083294745, 0.90195887682988, 0.71558359621332, 0.2962686624492726, 0.2876627870126641, 1.0643881634668682, 0.8356717888175702, -0.04379634961173804, 0.5952620782997922, 0.3209358803134082, 0.8236991694647011, 0.42063951635092267, 0.23310370936274138, 0.7471474003051907, 0.40946723403322005, -0.23274182340754113, -0.1318387813351833, 0.07809545791155804, -0.13590158736592936, 0.8621193515276703, 0.5530346262433192, 0.7204066160609949, 0.15901932795486076, -2.024451275423633], "delta": -0.0001906378910500324}, {"inputs": 80, "activation": -0.8734239919123288, "output": 0.29454234032149834, "weights": [-1.1289103720120428, 0.32801822569662975, 0.7092533599815191, -0.030583209603640266, 0.04255977038067904, 0.741728543335871, 0.5910686851833851, -0.5646357936473966, -1.0128105867204462, -0.6734218131153374, -0.11807984426430958, -0.748194808082537, 0.03626506723709005, 0.3773854511932726, 1.804577749282259, 3.1702899408897967, 3.5963673501997664, 2.47959924993879, 0.8277063687256863, 0.017205820308023125, -0.07368868408091388, 0.39870134037118526, 0.8162578271261501, 0.20859786439430336, 0.5850328513999015, -2.2309273982867364, -4.796153259797005, -4.786424378003719, -4.041856736167281, -2.204077470704361, -0.1624924608715941, -0.2984861004077469, 0.10721407889715466, 0.6634150326275332, 0.2426698107651458, -0.3496064196076932, 0.049232239422738446, 0.5322332027151601, 1.5251709920317855, 1.361593311095208, -1.015077732460725, -1.4535065665671518, -0.3858863542061472, 0.38637516419090717, 0.717861705332051, 1.713209740509241, 2.7360659708351562, 3.941354339339833, 3.435692524177836, 1.6965667353075715, 0.7573045297071364, 0.21655806561061128, -0.28671375253970116, -0.759200315493769, -0.44582493729938005, -1.5399973375110316, -1.0210114589947998, 0.3043456177344169, 1.6169447347335664, 1.625425928543827, 1.4076045142077334, 0.8932967139841204, -0.029415695735088874, -0.38604040844798115, -0.001298487285851097, -0.36746501097694534, -0.2815314890629404, -1.4860980684745797, 0.14600720419345806, 1.1613356913733608, 0.10913359813209422, 0.06249623550484764, 0.8333797855233857, -0.12015064970282016, -0.7807335756490004, -1.1662331211343668, -1.4555902362046482, -0.2621572562170325, 0.036668821574234685, 1.7869319084440112, -4.607998076387761], "delta": 0.00031461401206548306}, {"inputs": 80, "activation": 1.720361907731028, "output": 0.8481754464709886, "weights": [-0.9678894926309847, 1.777571504599314, 3.38537815920407, -0.4353792014478306, -1.5106912666555676, -1.040857976735853, -0.1468999664947213, -0.8140501684932364, -0.7747904350389445, -1.1380925063328093, -0.6704432533656572, -0.5365307312558255, 0.22801443161675145, 0.10130719324649713, 0.637707987213634, 1.0596760932927407, 1.713074992373773, 1.7388589309675273, 0.566370696474511, 0.3234014482546171, 0.17116852639329772, 0.11982092113114819, -0.02590529490576667, -0.15194455058117334, -0.19059336050414274, 2.2773443491091867, 3.517405951698552, 2.7944291595017714, 1.6885229598481204, 0.5369430818090761, 0.17338334590680285, -0.5823602615908702, -0.3056614782667176, -0.42989229742512824, -0.559244048218517, -0.4199136825908555, 0.3437485468393769, 3.127724584582563, 4.616617856572905, 1.6192339435742926, -0.4327937966529338, 0.28339020499896855, 0.30038640981988834, -0.09995375101175102, 0.09736420112420538, 0.3659786844474324, 1.7068832449300941, 2.986483496334484, 1.9185779167946857, 1.0544604197348417, 0.9555997782321991, -0.1949185338248444, -0.6561129011533119, -0.5634098735697387, -0.6393336526566081, -0.89142370527295, -0.8717767023534054, -0.060144803926285136, 1.0121754148461026, 1.5700929079651325, 0.5226865795980077, -0.824325134567501, -0.44852514243500297, 0.2960063578564391, 1.039075054315343, 1.6282689937759924, 0.10262647782714626, 0.4629742812043474, 0.0700137926126739, 0.08996771020531409, 0.22389427505494006, 2.0963236666428626, 3.4376525349121207, 4.323225861837415, 4.227976392599802, 1.8983059715543096, 0.7083654962101584, 0.021677723650721882, 0.45726237807795445, -0.11571591556815386, -0.2400829322053263], "delta": 0.000297755595803937}], [{"inputs": 4, "activation": -0.7488596226025805, "output": 0.32106983410670814, "weights": [4.96701821523635, 2.1990664789733363, -3.312288279659357, -5.909985730484523, 1.5496599137922908], "delta": -0.0001866407544538117}, {"inputs": 4, "activation": 1.7739586659941091, "output": 0.8549492793570093, "weights": [-5.099060794301947, -1.6197612275191442, 5.357117247207208, 7.37820154616417, -2.5664668215265762], "delta": 0.000133927867918254}, {"inputs": 4, "activation": 0.10901846730014642, "output": 0.5272276553820476, "weights": [-2.2043836109124793, -1.5036861680981655, 1.9099455350734056, 2.3661139824097766, -0.580964157944745], "delta": 9.343228196676056e-05}], [{"inputs": 3, "activation": 4.506418617444709, "output": 0.9890825850696632, "weights": [-7.262874708631405, 9.160958472340972, 3.1796459583371965, -2.6701190423599144], "delta": 0.00011788870263499039}]], "configuration": [80, 4, 3, 1], "name": "C6res"}