{"layers": [[{"inputs": 80, "activation": 27.2482640082262, "output": 0.9999999999985336, "weights": [5.179546652760871, 0.24198205999804398, -4.402721391019217, -4.7723403846120345, -0.5122533656628326, 2.9723186807534088, 1.3637181688690427, -2.6772212856620943, -2.1416416814224024, -0.28968546997885025, -0.2143644313407483, -0.7775187209362201, -0.06164379007371145, 1.6662929539830529, 3.0688964507529852, -0.4488619428020371, -3.0397889120593007, -0.822417537721147, 2.362189817080949, 3.008264605334074, -0.8762468701167275, -3.6957496435956463, -1.0850133421881458, 0.8778164191371648, 1.443980154291932, -0.7183473635337707, -2.0137160742351923, -2.5716546458563148, -1.0313301620827888, -1.8226066621810957, -3.134355201187941, -0.7213714522986219, 1.7561580605538647, 1.0374565797805848, -1.6312481523103632, -2.720986351222955, 1.5449009909944498, 4.526983339699389, 1.4552140778199945, -2.5169576241215075, -2.1600587276743592, 3.630965327100827, 8.414630512133597, 4.472342520797647, -0.5917712650965826, -1.6141384453355452, -1.294591668018571, -0.14805442896492615, 0.9084242496680083, 1.7200780659201724, 0.18073353959998525, -0.668275318277892, -1.7851155976112556, -0.760733471474639, 0.05750187974557775, 1.1881299566566073, 1.1789908811719667, 0.8349745611548007, 0.24666609605712914, 4.183477581856979, 7.299078520218087, 8.379799170239382, 7.242367907445557, 7.33774985483472, 6.662341594338584, 6.126889787954536, 5.417954298264649, 4.863419095022206, 6.069672419824472, 8.203990502538353, 9.155993236355702, 7.786227580147625, 5.475245433194137, 6.928706537668657, 9.695542159124312, 10.432339720012857, 9.769152739534881, 6.048745702360533, 4.132786819882119, 0.4366597900750969, -0.8022391006796222], "delta": 1.2031020133651986e-22}, {"inputs": 80, "activation": 16.587605538532184, "output": 0.9999999374691374, "weights": [3.1404027383086683, 0.4368610332739345, -2.0128699013080693, -2.455722889995912, -0.22855616686563465, 1.1851081275101472, 0.6550795578494589, -1.8095253677611758, -0.826789925931176, -0.3314892428777743, -0.3250654676639625, -0.11611789514142928, 0.46034678295308284, 0.7099088863505536, 1.806995062432454, -0.5372127131077512, -1.5219263399670069, -0.16406797094256806, 1.7844110722289963, 1.121864372610637, 0.24066398081308518, -1.8625355014949196, 0.008572599546484642, 1.018037125039156, 0.8223093863314116, -0.6281828279585779, -1.0530441847985457, -1.2939524782250782, 0.2423192853116297, -1.2541687993936526, -1.1353097941636348, -0.6237322137590501, 1.2981140970984286, 1.272866856199167, 0.043586601746522284, -1.0270920178318603, 0.6042160195747613, 2.626189492789145, 1.1623874854397407, -0.9420855602865995, -0.47471296106329963, 2.566929810852444, 4.989557818913747, 2.2360753499315673, -0.09760789582426342, -1.0429022324341108, -0.4066144108868605, -0.05850990887935397, 0.5951999004108812, 1.0258908754190899, 0.7821324100525745, 0.07070858575204629, -0.367541518398363, 0.12797606746337742, 0.43974820685174826, 1.1215180003711507, 0.5876932317301317, 0.5128760070188373, 0.7354756570059666, 2.1512566237150534, 3.588234771470426, 4.060043310265666, 4.490887664129679, 4.0331550746116145, 3.2250229379142157, 3.6893620691088413, 2.7489516983494684, 2.761137134703938, 2.9529780312214418, 3.681354051909636, 4.789340402713778, 3.8735113135558246, 2.6226395961028914, 3.535494290693472, 5.174517835362795, 4.9684298254178545, 5.326283640462706, 3.59327013112473, 2.3572730736870113, 0.2801600013739446, -0.8065860865172622], "delta": 2.6006792523863066e-18}, {"inputs": 80, "activation": 20.68649656861554, "output": 0.9999999989625463, "weights": [3.47518959841675, 0.7456737713749206, -2.5080808800778565, -3.1770206964594165, 0.44220995914669226, 2.2910154512893004, 0.9199686903621619, -2.1156162384543706, -1.1902956009345647, -0.47389532201110773, 0.16617247544913608, -0.744357040298486, -0.1568972622395626, 1.130108734567658, 1.791631251720532, -0.5228412801456328, -1.771189872127738, -0.3322029517050814, 1.6680289997030384, 2.057736525105831, -0.18237180535136907, -2.256193653133166, -0.595958045520725, 0.5797129151689097, 1.1906230182686666, -0.45044005344774296, -1.3213564388523333, -1.0486285505760662, -0.6531392161905858, -1.6317959213252295, -2.2488007472985676, -0.6699986718736871, 0.8885309709027769, 1.5043811227600172, -0.2338565641256761, -1.5613862964099923, 1.1945115540130453, 2.801328401741233, 0.7762169507007078, -1.4280441289227142, -1.5967639495274955, 2.6445560870229015, 5.891913815123002, 3.3737808704358043, -0.4129114983736305, -0.7824929336063122, -0.16847490814042396, 0.3811862935333829, 1.1206675908227146, 0.8531833581741272, 0.5603811618594364, -0.28182109878435957, -0.455539719428867, -0.18289232360234745, 0.9388764923499746, 0.8706064726417254, 0.7474320432667387, 0.9621376894076923, 0.7177551173033531, 2.417278956677922, 5.595289931682245, 6.205771010661889, 5.388265562442912, 4.74604868532734, 4.710646775649546, 4.266989059548718, 4.124795770765108, 2.652056600751897, 4.079464256484969, 5.810329090627366, 6.032561502080363, 4.704446657009539, 3.604829844924693, 4.991229593072783, 6.659459261826526, 7.443381418277595, 6.006488216900549, 4.9458067787374524, 2.343769046620527, 1.0260984557415287, -0.7796961010429775], "delta": 5.79917485235022e-20}, {"inputs": 80, "activation": 14.981266214564444, "output": 0.9999996883130525, "weights": [2.259374130219015, 0.6031678511425007, -0.9632526519150042, -2.195643457270344, 0.4316658164419943, 1.392207446371066, 0.8933639130940224, -1.5400041019349453, -0.35536479492650963, 0.0022468883803233516, 0.14466370362399758, -0.5280413467339428, 0.3944425015347976, 0.9678332979627046, 1.5917011470443114, -0.22963316279130366, -1.1424235431763008, 0.15281837287227445, 1.0793077752398827, 1.2853374191528455, -0.01529887923139995, -1.1361425423923406, -0.2453924440320246, 0.7116522206170488, 0.47488261861384395, 0.1375689194230497, -0.9806313713915186, -1.0786368022305606, -0.2474482079395314, -0.8431115296803166, -1.1566423170452218, -0.5627889504382957, 1.0591676438560704, 1.0347194792214922, -0.16428161048444007, -0.7996087597274183, 1.0979832948612314, 2.1166560620382007, 1.046164379602829, -0.7729119447027933, -0.9654513251498082, 2.339096382059426, 4.230449594263298, 2.04097296327972, -0.19920914652219088, -0.780840408304984, -0.1285963790933179, 0.8105611271157795, 0.4315779921714722, 0.6882390101104668, 0.8544352555355998, -0.46655614927216144, -0.7920648979338798, -0.26172312596980524, 0.4194523721786989, 0.9146083213588355, 0.6815547716420297, 0.719609015427882, 0.7819128294030987, 2.3363030202281636, 3.6070307277438127, 3.37804572381283, 3.4714489659630585, 3.5905931856599884, 3.188812978878563, 3.4070256638195855, 2.3302865455277373, 2.5993450985460225, 2.4699701188083187, 3.1829908459785377, 3.945083556740258, 3.3043496237044265, 2.2554791362300284, 3.6244507683181983, 4.5605487549725074, 4.135592190862713, 4.1240179329396085, 2.9364116073426794, 2.261030180331431, 0.5054993418228579, -0.8605289847867967], "delta": 1.1142025234680223e-17}], [{"inputs": 4, "activation": 21.807992780474642, "output": 0.9999999996620059, "weights": [10.723453537242962, 5.549030331252284, 7.509838943759463, 4.830883487679118, -6.805211658929281], "delta": 5.635964694032951e-12}, {"inputs": 4, "activation": -24.65093451260812, "output": 1.96895217485009e-11, "weights": [-14.163747615063125, -6.7797021443163485, -8.900096851506387, -5.6014823858506, 10.794092305020861], "delta": -1.4822777047704739e-12}, {"inputs": 4, "activation": 28.597892381025854, "output": 0.9999999999996196, "weights": [18.408154271358654, 7.999131646621104, 11.41000065117784, 6.531918503455737, -15.751310143616717], "delta": 3.335273288929851e-14}], [{"inputs": 3, "activation": -2.2637128069889485, "output": 0.09417317191415708, "weights": [-2.0796928648513293, 9.37119193475648, -10.91928112218855, 10.72321107405408], "delta": -0.0080334034053194}]], "configuration": [80, 4, 3, 1], "name": "front_end_bound"}