{"layers": [[{"inputs": 80, "activation": 13.154117661018786, "output": 0.9999980625145755, "weights": [0.21008870117911527, -0.26110715778363625, -0.313452657174484, 0.6974258721965522, -0.10299021805478384, 0.4982964769132301, 0.7392206689163598, 1.1787461467038598, 0.5218580349521544, 0.9138230960080734, 0.3982642018979973, 0.1623934822904409, -0.08935386774168955, -0.20324513860653065, -0.07550098367138773, -0.08067639032800253, -0.3027355103682099, -0.19461974963269418, -0.22381959709667748, 0.3398599018865978, -0.26554047550304777, -0.21260925431557925, 0.6731120357688704, 0.7406414045663249, 2.2781962733085637, 2.391307466805541, 1.9192422627830013, 1.2701007982922803, 1.380552310873973, 2.0182420737429654, 1.1468475542477163, 1.087166484210454, 1.1183772262468994, 1.0472412644993203, 0.5505795671330062, -0.013146426878149865, 0.0014009859626534543, -0.023610956066935404, 0.06708200492971059, 0.42005343581272797, 0.039009900906801405, 0.11352873262368328, 0.7630954712155937, 0.5153236253835735, 0.35646938450638377, -0.1543520508509938, -0.5649729337979529, -0.7743903430155572, -0.8425283070742814, -0.020870831396524334, 0.3176661346474499, 0.7447857482908122, 0.520780821447076, 1.043331784373156, 0.22579728747890424, -0.4363505296633351, -0.7763102403923643, -0.6538591135412256, -0.8871274395529894, 0.13738747431617437, 0.13972604869921562, 0.8685595984806097, 1.436996396559657, 2.7770841258028023, 2.0404703974578293, 1.6945149858157909, 1.7111573118743337, 1.7867717684495956, 1.3881907485014522, 1.2957416527427221, 1.0691728165674061, 1.2264630960858534, 0.6976556930455209, 0.5062145282845133, -6.891664588140399, -14.9585904206672, 2.11230038623932, 3.8833063133450696, 5.120902161328476, 6.4902667944115064, 0.6393614985177641], "delta": -6.288831660394509e-11}, {"inputs": 80, "activation": 40.39526137570508, "output": 1.0, "weights": [1.4273193146221195, 1.0134178056921956, 0.8384268742507578, 1.010236016157564, 0.7240837538547685, 0.7642998645048892, 1.0696331787799707, 0.8114491941146661, 1.1048977541577227, 0.7824591670442363, 0.5616505302750872, 1.0397306342116268, 1.1533229705060173, 0.4727616302211518, 0.903726932504975, 0.30714600800330655, 0.5222311979387789, 1.0947744370356753, 1.7139474340286667, 1.1884096243801068, 1.9211468031930194, 1.2319723897291253, 2.0811127421692235, 1.9757764698396225, 1.767567506730674, 1.3006037325659507, 1.7250578705558133, 1.618406960298351, 2.4111051261983976, 1.4573712499790945, 2.1138821953696905, 1.4225686345506559, 2.0555469291698447, 2.1456444254672005, 2.1019290924470444, 1.4513050031777257, 1.0306813728177926, 1.5543418172660701, 1.6989378106101138, 1.739360273356225, 1.802282242512818, 2.0290266622176785, 2.445198092677601, 1.5542840987598765, 1.6516614648936012, 1.0482859874426103, 1.3816041668507257, 1.059471559512422, 1.1106124720022765, 1.409719400480729, 1.8363677232337121, 1.7510459343331644, 1.9619188571551174, 2.3104992911249536, 2.0473497359138353, 2.253527811506348, 1.79948457142378, 1.9774752568317095, 2.4496604123250236, 2.229774117079902, 1.842950710709355, 1.7588699976825908, 2.4846589583948298, 2.269535243265038, 1.5038376229870012, 2.095736924629222, 1.6809285110782575, 2.0907590009583, 1.4880527994015897, 1.1295384864982296, 1.6693843479622097, 1.6063635304092996, 1.2334326439409222, 1.5631103088790195, 1.0363114622177343, -0.18826068074700833, 2.988584877605013, 2.881663215398185, 3.1083593217402994, 2.847137355699635, -0.8042189840395184], "delta": -0.0}, {"inputs": 80, "activation": 1.1281934459577723, "output": 0.7555053518752359, "weights": [-4.442479910086918, 0.11139429616868363, 0.4507254245748265, -0.7068056735438036, -0.2503378985511945, -1.5141568501875864, -0.8525571437538783, -1.2964103499688775, -3.8076327019142546, -4.169523625391688, -1.862134184626036, -1.028675573043557, -0.8742794705256673, -0.19022717105402154, -0.5403778322339745, -0.329609199551903, -0.7149278252115391, 0.05331698450446408, 1.8291078013711826, 2.428924939029175, 1.2372245219095714, 1.4987856690982575, 1.020844762028495, -0.5666409152046221, -1.6906275465233485, -1.2497315706018821, -0.9099072937822528, -0.6371678278196338, -0.8472226548744061, 0.2722606863817714, -0.923108832212453, -0.7751151726056061, -1.185908619654523, -1.3021781201689446, 0.5223435148490029, -0.6205697421392458, -0.9197776993911758, -0.8073722513008017, -1.2788865145314856, 0.6639390774373573, 0.5131225069342908, -0.24163179497496115, 0.6163817014987699, 0.9201823537894793, 1.7870690138204937, 3.8919506771597563, 2.696550159929171, 3.039991394424086, 1.8983109423887663, -0.41034924346318596, -1.4348809889864553, 0.28755078031366715, 2.4362887719976354, 1.9748869063208354, 0.17088789163817175, 3.1725586315828047, 2.090903792921461, 0.18584384216300717, 0.9128471685043799, 0.7685678947171788, 0.8045939696643096, -0.7169323413679266, -2.532671654982129, -2.569037724216869, -0.207395300645264, -0.4509478340697256, -0.9270629738465026, -0.8215849948963527, -0.2087596206212568, 0.3271319564682688, 0.23028003088262355, 0.5956417893792884, -0.5085375376573634, 1.142709487469879, 5.167100591854318, 6.4142093601916965, 1.1919407516078593, 2.2237037713871715, 1.1313404870026174, -0.09672903342949, -1.8759767560307485], "delta": 5.35216460338283e-06}, {"inputs": 80, "activation": 0.7402549202892469, "output": 0.6770515977716783, "weights": [-4.260789833704718, -0.0910582229025691, 0.7698988754434154, -1.1334868206946207, -0.4274744302804338, -1.7674808849398804, -0.6975154097524463, -1.5376030962854177, -3.260525584598944, -3.662702962238643, -1.9598837014879098, -1.2067876970375508, -0.5885908616413064, -0.2596810576457028, -0.3356880698155057, -0.47171206627224577, -0.9531830757241017, 0.1532251744764157, 1.6057185025225946, 2.080424971498079, 1.1126596914458309, 1.604698881921205, 0.9922831821444071, -0.08794434212334232, -1.9219302973920391, -0.7394814988693948, -1.0145168301364162, -1.1082799247068826, -0.5588376375985877, 0.5521724449726514, -0.5688578903758748, -0.884957204932605, -0.5496980943140759, -1.2308477838649168, 0.30096613893994395, -0.42678120526265967, -0.5605476512739118, -0.3686580453861739, -0.6450718082317679, 0.5233012740364652, 0.5578296064175117, 0.5032537000425817, 1.085456431694604, 0.6365765577280028, 1.6276765386535788, 3.109560881448982, 2.1908975644323228, 3.185813716363462, 1.3036045980121087, -0.1976121407551024, -0.8960304189103887, -0.15942848154732062, 1.530572733266359, 1.6121637772982702, -0.1553794800604097, 3.35583503289631, 2.1878199672569876, 0.1496710075469222, 0.9959140274433806, 1.5011782706750127, 0.6308830599522441, -1.358492969203099, -2.3181821266113305, -1.7359213299617897, 0.038767840552668104, 0.34121172668358424, -1.2535667483690833, 0.2876165763857114, -0.3277956774920063, -0.341035273841672, 0.3556860664693322, 0.9144953584473191, -0.4508025829367575, 1.4584182668397638, 4.127382108900867, 3.0484673513282825, 1.5338698188639222, 2.11508455313953, 2.3511235659673035, 0.38182969876684464, -2.3439633715407817], "delta": 5.486873552670816e-06}], [{"inputs": 4, "activation": -1.6488047925805756, "output": 0.16127055070927368, "weights": [9.68367373694084, -2.876430991316157, -8.580252846785227, -7.029056164125882, 2.785429511372541], "delta": -1.1741020406443586e-06}, {"inputs": 4, "activation": 0.5935490138706228, "output": 0.6441790393074481, "weights": [-6.590927410011692, 2.172323206498065, 6.277653921341326, 5.271730266558127, -3.299890936614375], "delta": 1.5638978618884534e-06}, {"inputs": 4, "activation": -0.4042359013426262, "output": 0.4002950458538152, "weights": [5.034313479533489, 10.47447686089995, -4.241277670522712, -4.01411060605061, -9.99095282404685], "delta": -2.1416287478366942e-06}], [{"inputs": 3, "activation": 6.902589086553336, "output": 0.9989958298111378, "weights": [-8.61689009976205, 6.773169838019459, -8.856211968221574, 7.474204241418138], "delta": 1.007345205389073e-06}]], "configuration": [80, 4, 3, 1], "name": "L3_Bound"}