{"layers": [[{"inputs": 80, "activation": 28.476198387664656, "output": 0.9999999999995706, "weights": [1.8556960948802326, 1.164463722382747, 0.6903966008404263, 1.223868438458067, -0.31054173286457365, -0.28358621464908335, -0.7629191791618479, -1.0493981304793578, -0.360851230726387, 1.3219083513021455, 0.9521357855133179, 0.26155022256928245, -0.21560896188231657, -0.17137129274196278, 0.6014645805047363, 1.403768033686604, 1.4457294460680146, 0.9069710922979622, -0.2565717738130251, -0.4406525990587639, -0.39710976718670626, -0.03284635225360015, 1.12420663921921, 0.945146946134892, 1.4594121966211846, 1.2628126689605665, 1.428180544170973, 1.1656247853337856, 0.695137358931137, 1.0552673389986804, 0.7829613047699951, 1.8985382456204793, 1.337562361500487, 0.6900976645118362, 0.45723360411757796, 0.11768853513202003, 0.1746445622504826, -0.13545228948249977, -0.407769438915968, -0.08878583201634704, -0.09666162804741751, -0.13893891642366343, 0.71096065284177, 1.7864621862920453, 2.981846721215074, 1.9342382349028118, 0.12513212952200684, -1.3037049445228617, -1.5164273113954283, 0.18303213132720508, 0.938933551081311, 1.7097360781145945, 0.7695247907358796, 0.4856200567569114, 0.8482980466355917, 0.05430272659169821, -0.6938165227534837, -0.8335356547262336, -0.21983177388091854, 0.9488403292625144, 1.1821805224664084, 0.3036749903916918, -0.6934927648750072, -0.7727807206609012, -0.48231684456866974, 0.6145944899502388, 1.2550274569693045, 1.663850103291159, 1.6894496821381086, 1.62301815027415, 1.1742907319685063, 1.0998843996009557, -0.10920923163734472, -0.33874497088564204, 0.37569892220580736, 1.2929360637089904, 4.824974193859163, 4.093290123412878, 3.9375964640041246, 1.8382973824004774, -2.0703115524015083], "delta": -9.902273987458494e-18}, {"inputs": 80, "activation": 14.39956430070751, "output": 0.9999994423670343, "weights": [2.727116900927796, 0.6740704890993692, -0.5671622668560372, 0.06850758020087502, -0.5960840549582558, -1.1807770757081424, -0.4813151498899662, -0.4742347056836523, -0.0059835975623975125, 0.676014990199213, 1.1165065142390438, 1.177150538671321, 0.9829988974154149, 0.5446541741448804, 1.219961828656076, 0.4570487838810951, 0.8824768696045187, 1.0999425625832417, 0.5345475234299186, -0.495489782147136, 0.9286067868070126, 0.20484169420788922, 1.2490470488068888, 1.3008463277427036, 0.727103863820673, -0.556216449219325, 0.07055651552985208, 0.6001142572015039, 0.46683387749966354, -0.47906648972223065, 0.9345589816897659, 0.9964050776242287, 1.150214659160846, 1.3425976789691614, 0.9123116624915042, -0.4274685990297356, -0.4742465216040379, 0.5729558476531392, 0.516512448037715, 0.23803208126157802, 0.6260735612352752, 0.7528878703980033, 1.2776963212688126, 1.259179510941235, 1.933185955716227, 0.5878582510257903, 0.3047084880506648, -0.016193548548132847, -0.373754950175976, -0.03372911882687257, 0.8393202591640732, 0.7781148016257091, 0.2508230117893525, 0.5495925253776871, 0.7714626259641747, 0.22886211657800037, -0.6640039492348169, -0.5995695359443058, -0.3481335639598083, -0.7913191497554659, 0.13505655949635917, -0.4363833874916568, -0.4479098704241493, -0.2835776020185063, -0.021568998581111942, 1.1626168676107094, 0.7428362778078315, 0.9890997081206525, 0.23464185018185574, -0.035784136050591914, 0.8379962086354471, 0.5969732499792751, -0.7222335038323803, -0.9433707083503049, -0.04332227330202239, -0.7876164594950871, 0.8084914925728053, 1.1269500675186075, 1.2969047869308779, 0.4382659248326807, -3.29004310768902], "delta": -1.2675082518120377e-11}, {"inputs": 80, "activation": 0.8739550970459298, "output": 0.7055680044572313, "weights": [-4.0046304508382455, 2.3512545403215883, 4.911511118449517, 3.7641527541882085, 5.823574347596184, 6.334853922225506, 0.7820294765709864, -4.108574863592068, 1.600806705457517, 3.6421152596313773, -0.07113746595012428, -3.38148089543269, -2.8671722434774987, -1.5912106744911063, -1.1535267827953655, 0.9918761780053835, -0.6639673729554989, -0.7357559497867358, 2.2058265023090784, 1.9210868902622233, -3.191440661374131, -2.3573459540156403, -4.091749300980484, -4.576151860048357, -0.2907805921202363, 5.681537432420613, 2.8762865308229606, -0.8933627725632741, 0.6262922418239845, -0.08369265045438566, -1.10085880098359, -1.4136884695817507, 0.7083992201263482, 0.23981913293782708, 1.9557708099125002, 4.618932858675392, 2.5137698943150846, -1.5192142381865879, -2.4779839572162734, -0.9219735985576195, -1.388689824167696, 1.3105638048199837, 1.9379445057449978, 0.3084634464886839, -2.894381624086506, -2.429806550001078, -1.9646525012350036, -5.014868458736677, -5.142887332628745, -2.4307543129549436, -2.1784850286687267, -1.273275668026286, 1.5366228155012285, -1.4000928486139335, -0.780647189066418, -0.7889696386278331, -0.856287800008139, -1.541183692095477, -0.49259698252105194, 3.834184452728115, -0.05945520345647499, 1.8314495325794247, 5.721091986187062, 2.1930911789543677, 0.34152612547764855, 1.005550535915125, 1.446906983293398, 0.7484925388452682, 1.3207233665255862, 2.888168232657965, 1.1937318941582296, -2.219777101059752, 0.4996167731543796, 1.61081925400569, -0.9354062286894357, 1.90288686526242, 0.3056274522358399, -1.7099604430480344, -2.3323614539298134, 0.6927036150831135, -3.117011590948707], "delta": 6.049986394667316e-06}, {"inputs": 80, "activation": 14.304347113629852, "output": 0.9999993866608106, "weights": [-3.304775968231632, -0.5149058176296578, 1.673443242758208, 0.20487285969927355, 1.8746141369533087, 3.3225972277806375, 3.4728005018236723, 2.568759222127111, 1.768431724401847, -0.7484238805947059, -1.3069324453396451, 0.16352002358733958, 2.1265902009266044, 1.6319995990182128, 0.777419021033695, 0.025548318331829616, -0.8751820051520518, 0.5514806381416745, 2.043423323626975, 3.0543369117176598, 1.385268389566015, 0.3362742685354284, -0.0893200205137241, -0.6465156140388948, -0.24513398835505043, 1.343074022374574, 0.0912038392769565, -1.4206620666443734, 0.7570918002885967, 0.3979584114923137, -0.6946196761229578, -2.2554059730597253, -0.3787682360292354, -0.33961138373732996, 0.06176464316915274, 1.1742118086683009, 1.581511612889741, 1.2862477721317849, 2.00139617092457, 2.0621784359148183, 0.2797818411295953, 0.5775448083371576, -0.1292374264950119, -2.055203696345742, -3.6009576775985757, -1.4491401857611945, 1.0209339114598848, 2.4137383510795334, 2.4261572509293536, 0.8032755011945183, -0.384778737288323, -1.753211488072033, -0.6600301353076883, -0.26670721681914544, -0.8597924266643474, 1.4493373315212146, 2.382485929068161, 2.689298981562715, 2.263157605632939, 2.0928178712077194, -1.0130916725763155, 0.29342779420305287, 3.2203931100606478, 3.9632289233789706, 1.6646464870682474, 0.27197771186455033, -0.9019668615412137, -0.25655534451497913, -0.5769223245314313, -0.45819172130044733, -0.7322361158106786, -0.18742367826177864, 1.0653903148918586, 2.567597772706074, 0.5285278905871876, 0.7653157861909681, -0.11386196839435679, -0.7801083499680038, 0.5847727622783165, 0.8436117350978595, -3.075144060404756], "delta": 1.7688458992143847e-11}], [{"inputs": 4, "activation": -2.153643403715872, "output": 0.10399125129049332, "weights": [2.0426197718486434, 5.885899681322207, -6.9681638721521795, -10.020217183628262, 4.854561326186334], "delta": -1.6074178921158533e-06}, {"inputs": 4, "activation": 1.3950217427031175, "output": 0.8013927257585861, "weights": [-8.604071767903449, -5.742761846499402, 7.797297598193365, 5.5565732898937865, 4.683763513336557], "delta": 2.1997009377213504e-06}, {"inputs": 4, "activation": -2.2033307555016313, "output": 0.09945178466867582, "weights": [2.8108609711084505, 2.1076171678464264, -2.549366924873119, -1.6886985412546036, -3.6343591592441067], "delta": -3.0209596554670816e-07}], [{"inputs": 3, "activation": 6.693853133273157, "output": 0.9987630305323052, "weights": [-11.288580192283325, 9.043628292171308, -2.2072165357613636, 0.8397816792322192], "delta": 1.528200785111468e-06}]], "configuration": [80, 4, 3, 1], "name": "Mem_Utilization"}