{"layers": [[{"inputs": 80, "activation": 32.936764262075144, "output": 0.9999999999999951, "weights": [0.7811058074092475, 0.310118916620253, 0.17276926785316402, 0.9288913038935285, 0.09960774493572337, 0.7957508435685675, 0.8361990970726978, 0.9864430645200476, 0.23060858417437075, 0.7670648398142418, 0.5329619954873884, 0.6862748085006688, 0.7289947868259087, 0.7306000458731962, 0.9648437767689794, 0.9731367615555856, 0.5097763829346575, 0.6932147896159516, 0.46051177203828897, 0.8912664763589125, 0.2547894506732734, 0.2023616406623917, 0.5931308446020674, 0.18921451549913204, 0.9406596647009359, 0.8388087197004332, 0.9527888148644401, 0.4262020278974145, 0.5107123541115209, 0.8815164101595077, 0.7100368178957719, 0.9581586916090563, 0.8667155259207444, 0.338741878859087, 0.19150734180207873, 0.15238980532932112, 0.367781290818737, 0.4552005109839916, 0.5614922242212018, 0.8409100211383973, 0.3098015244589608, 0.012605343534645526, 0.3613183765621546, 0.6014634820836786, 0.7708382099718035, 0.6780888867338043, 0.4415758612242889, 0.1747115121586304, 0.03288371048246865, 0.5190406155492402, 0.28252029631518605, 0.783809192242907, 0.4009590107059497, 0.539640898345161, 0.1076407246788254, 0.13243790592064553, 0.1859436434954633, 0.31465019997368815, 0.18166977964728426, 0.8170269647202139, 0.2879107402371525, 0.4681802463513017, 0.21140775051011515, 0.965443980140805, 0.4627406468512341, 0.35596785424863614, 0.6874377895865666, 0.9787427363584182, 0.7919342135332559, 0.9395577014516809, 0.6706566601273097, 0.9564075202548462, 0.3066414270014672, 0.21699655177910843, 0.20955824728767364, 0.6452542442528106, 0.9851558418994926, 0.013020001724420352, 0.9033650736188767, 0.23940194340780013, 0.31271114380569465], "delta": 1.4428441579975252e-17}, {"inputs": 80, "activation": -6.037189475622338, "output": 0.0023825715533156984, "weights": [9.662964605154482, -7.160581796136656, -14.913620160529945, -22.186133408994028, -26.199003411388244, -23.720361659275625, -7.712571505274908, 18.58342195256831, -12.247463425677317, -13.18499566103176, 8.674374733224475, 13.662454422070004, 5.497194914768017, 2.981258409854007, 1.1591270350543357, -3.437437612564308, 0.38512129522315636, 8.752854856782694, -9.172197172602651, -9.432454159195192, 0.39782355225749494, -10.266488306277939, -15.198876259495522, 15.827411998075991, 26.72444841773309, 18.68231585991438, 20.702260906748847, 25.380331535819867, 9.476691780205227, -7.29847883652746, -2.573620109114878, -4.782419814547106, 0.8829247353576215, 13.609995764202624, 14.847175521162931, 2.001810143146145, -0.9157711998908374, 0.614201725984068, -11.870414254182958, -10.64762860379739, 4.823364747893012, 7.660319897383148, 6.665383226660675, -0.9359403895248601, -5.58084054848509, -11.424198471954291, -3.1068317371783585, 12.56056418200354, 12.69076097741827, 11.57701885027902, 11.80535736946528, 1.8461640822002632, -0.41448044796231404, 20.569603362332508, -9.472282104736292, -12.873479412742267, 0.7392486919338586, 25.54836115328008, 11.277334885051909, -5.973075467421422, 0.7601613157290318, -4.9741046395809745, -18.6008460055516, -12.755887152694982, -9.825326025806287, -19.92292951302605, -11.160406372597512, 3.943391640123149, -2.0254364317037266, -8.147073147881226, -4.543330450341168, -5.060744450716374, -10.337775949771592, -10.622264908270504, -3.479879284352625, 4.484585282881587, 9.80958363385693, 18.939004907454265, 9.224488750264609, -5.220523481507756, -3.3348323628411314], "delta": -2.2624659652709533e-05}, {"inputs": 80, "activation": 7.512542239193945, "output": 0.9994541073868963, "weights": [0.383108143244562, -0.09164834044915565, 0.6902152590254242, -0.22491126226196584, -0.18104087804197813, -0.779777680978939, 0.4285607543703685, 2.124169461544574, -0.3106058263571154, -1.1438163493600844, 0.755113083085223, 1.2939276111073512, 0.13569984311045347, 1.0936256145900718, 2.325960965535638, 1.8039168696894965, -1.0132152936740106, 1.1123193104217708, -0.38040502545710164, 0.3973643738771727, 0.41829052439652276, 1.135021592956561, 1.1045343526797315, -0.6313124097948094, 1.2699537520335167, 0.588870341488749, -0.5686890327119543, 0.048492527496987445, -0.7034684410859915, -0.5122962451833346, 0.22224631756961208, 0.6090032534447758, 1.9075516739641376, 2.1778194538387, 2.323302898737199, 2.1262040332334817, 0.5421174234400611, 0.17511851060430828, 0.8722905833040584, 2.0048576234352327, 0.8796237495226834, 0.7042209300434816, 2.1071356762266458, 1.533146847616586, 0.6791931621041613, 1.0273795529565228, 1.4204603370139914, 1.6024104067813982, 2.4409353533775757, 0.8627522319810413, 0.3485659433592873, -0.03579630427786896, 0.30109129961449627, 0.5403141943282105, -1.1472854506698325, -1.937113906345853, -0.6186658318128666, 0.6374095596234779, 1.162507520197126, -0.11897256200667669, 1.3853889763910692, -0.0946307763183868, -2.2057903582362144, -1.2554093821838548, -0.9588787963331196, -3.1997715790229795, 0.22813823616186624, 0.12345676166378312, -1.2844078130663044, 0.9562393499176554, -0.5235830918470864, -0.9605980202955423, 0.8425256614320187, -0.24535440878584905, -0.9268646922902206, -0.777395521905433, -3.625820998816228, -0.5935193983049202, -1.3006748425047405, -0.4876492087968173, -6.888204239508868], "delta": -4.171093388013697e-06}, {"inputs": 80, "activation": 20.728553587267136, "output": 0.9999999990052737, "weights": [0.34044251405089365, 0.5537065311862464, 0.8715206255270046, 0.09691057256896668, 0.5849292516533036, 0.37843799814074486, 0.589281721642042, -0.07613508305916544, 0.5516499629221153, 0.34287710660696563, 0.36641895730074614, 0.01468441469411426, 0.6546867343910243, 0.4907634659686369, 0.6153865570827388, 0.2807737106516445, 0.2683762197095503, 0.7070676269636865, 0.19283988004718233, 0.30367021122164367, 0.3723431191765077, 0.4181875923947006, 0.3723339991778366, 0.33003780864772947, 0.17170240325920866, 0.7018749622237093, 0.17004853967188252, 0.07397413105367553, 0.29176576964944423, 0.19626477592948385, 0.3742867064700584, 0.056279155677669446, 0.5915548468637414, 0.6453323287704922, 0.5131817444272304, 0.3276295305304039, 0.5203651500229243, 0.31483910712493673, 0.5800426831334938, 0.5506638855860019, -0.0181872974295974, 0.7212712718099585, 0.7463829045917022, 0.3238068978896506, 0.2910591706884845, 0.09634559517803297, 0.5112144636398759, 0.857149516929403, -0.02395402218508044, 0.09747228156930235, 0.8082644408187433, 0.0498071152570147, 0.03397019190061027, 0.20162330739227766, 0.36105327668188636, 0.38995393949185897, 0.17843081648011586, 0.4131894377361275, 0.669148115429063, 0.8273695753443212, 0.5563910320022094, -0.056763739753010786, 0.4061198725428043, 0.8020714050307958, 0.47233768022675643, 0.8674655010995411, 0.2311388500788959, 0.858783212796108, 0.14604778349113806, 0.024940170681931755, 0.27629627139345847, 0.33327099397274645, -0.01632140780940428, 0.7035614095077323, 0.4750571406385023, -0.06788168168071552, 0.35652920301092483, 0.3248935311618615, 0.8222737786270242, 0.32564422924308195, -1.972557840242118], "delta": 4.788438680247821e-13}], [{"inputs": 4, "activation": 2.1425420684242567, "output": 0.8949698020290765, "weights": [1.6364512827661306, -14.892003392961314, -2.1240693542529168, 0.16428102112517773, 2.500874558818917], "delta": 0.00033693645440214766}, {"inputs": 4, "activation": 8.124116068364122, "output": 0.9997037812425035, "weights": [2.6928837818690394, -15.353897185976592, -1.1664383957326687, 2.2427636062348713, 4.390855364598546], "delta": 1.639350379843891e-06}, {"inputs": 4, "activation": -1.5708221940077514, "output": 0.17209921306413598, "weights": [2.7313954012516493, -5.097417455764849, -7.889154512028302, 0.4815210795911162, 3.1150097760582933], "delta": 0.0008780422212112698}], [{"inputs": 3, "activation": 3.4154637231290677, "output": 0.968184335117646, "weights": [3.6579473266326423, 5.649181105224611, 6.288165819377871, -6.58659802951969], "delta": 0.0009800315536254473}]], "configuration": [80, 4, 3, 1], "name": "Sys_Utilization"}