{"layers": [[{"inputs": 80, "activation": -0.8658386257518476, "output": 0.29612093456349475, "weights": [1.3306757605862427, 1.0750633632719044, -1.1372930613163825, -0.7618267245204948, -2.675072058448649, -1.013772629999811, -0.2639122505352093, -0.27482648349264754, 0.2434446727855082, -0.15692432520967553, -0.7036210442337419, -0.26897468578268746, 0.305583998280721, 1.4869812939239595, -1.1085167996237941, -0.0336413853802696, -0.0070517663522594665, 0.7375607496089713, 0.5931345035642857, 2.997572329672232, 0.6480487761406581, 0.4762208483875281, 0.95514146719659, -0.43680886896543075, 0.714134032068927, -0.08365896929719224, -0.42448620495716205, 0.05340451172080728, 1.4150812626846727, -1.2244714505118999, 0.5126914822016553, -0.06257947710161513, -0.25500285603024303, -1.0829075014712715, -1.6660863218015478, -2.3597323466995457, -1.5467662540578104, -0.5206851916791143, -0.7297932227100487, -0.30222360024472705, -0.6260049047911922, 1.1619146630719146, 0.8750166093316247, 0.7784718026217152, 1.282817936184194, 0.6292363444426133, -0.46361720898665243, -0.12444814020644282, 0.4004299634734121, 1.3090334041968164, 1.046190031125413, 0.3935670434054766, 0.2847756737335977, 0.6808166373091659, 1.1481248252368064, 1.8337298960919906, -0.13115061629111208, 0.0028211111747073444, 0.6331682614389595, 1.3524735877392706, 2.86153652232187, 0.25486089438219034, 0.10913896506087314, -1.1738492584699471, -0.659981161807019, -0.5759559966532094, 0.7467643347152353, -0.3160432050871473, -1.0555460690210208, -1.7929411681223557, -0.05429137495650361, -0.7242094435774763, 0.9561852945659859, 1.1789046301684691, -0.2741786713618081, 0.0091344351665238, -0.3328772302293652, -0.4969389365457177, 0.6924810002895712, -0.49551327179678584, -1.440239555776312], "delta": -0.021782133685484276}, {"inputs": 80, "activation": 1.4670146495679184, "output": 0.8126032033394782, "weights": [1.1577321575359631, -0.4330125065344752, 0.336310088683231, -0.7011845291693364, -1.0871715004918245, -1.9030886687696906, -1.2031255298814656, -0.37530221413699083, 0.5126873184260323, -0.9177737947742383, -1.3814586022157345, 0.799099037102602, 1.278030202243859, 0.911231509837674, 1.792449069860159, 1.3805677543492705, 1.0972732594435157, 1.3958185875684679, 0.6380574476892096, -0.10161289535939476, 0.2803591034743689, 0.5632357801587357, 0.6436046030678191, 0.02834658777207905, -1.0423061265488784, -1.0511703588967738, -0.5788473601488521, -0.3742914772658294, -1.4616875061555956, -0.5183143044578675, -0.7042471591186212, -1.6707040202323176, -1.5648593253753327, -0.852270903348216, -0.3787600695596744, -0.019411046169701972, -0.9686191710661927, -1.0584370596228965, -1.155070837965342, -0.751237585679294, 0.13198757724434113, 0.3821857822367394, 0.05408072310212651, 0.9956688218647336, 0.6711952012492731, 1.7860065421005447, 1.5247936369055881, 1.0201445335708035, 0.20308252412263086, -0.3454661293418916, -0.05133266173880302, 0.7224265824489553, 1.2909513288824337, 1.2059437000379074, 2.2420625490424455, 2.5657830052585897, 3.0653376254734575, 2.471005705757299, 2.4895156208286813, 1.2759061595570962, -1.0382239010527707, 1.3258422660704317, 1.0077230731956457, 0.9733183237735322, 0.40866974174122783, 0.3470249257498254, -0.4835787554639012, -0.8194562344897744, -0.22930759900259506, -0.6643374277073955, -0.30686339246833677, -0.42881675489035476, -0.021553566709506825, -0.3984224728543199, -0.4291493017299519, -0.936545342218566, -1.2681922482563415, -0.7240012004743442, -0.6494705126987804, -0.1858985104427689, 0.542458594887003], "delta": 0.015928092283983977}, {"inputs": 80, "activation": 3.655119550304868, "output": 0.974793396662848, "weights": [-0.5567179971848798, 0.07683905096943243, 0.17489248538059657, 0.3003416180002672, 0.7133677400380438, 0.8907108672844559, 0.7640831266430536, 0.6053298326467628, 0.17475235115276985, 0.7361534665853524, 0.8050980525050411, 0.6158582498605756, 0.3365881603903822, 0.044484393582916906, -0.33272835481414975, -0.10010432450603718, 0.024199605247838655, 0.21285987374550594, 0.193662296157075, 0.7253832418158519, 0.1499975961967784, 0.6784881030463514, -0.23696779125001596, 0.3621367053695617, 0.7318115669877833, 0.22691518397025914, 0.6035514349950509, -0.011623815878782804, 0.35373578537678513, 0.674898743941688, 0.49858454209942155, 0.5361966045152129, 0.36446518608197304, 0.011274859167933148, 0.16392486749942206, 0.5469237887255505, 0.38897743398753104, 1.4035104997358332, 1.1488769715670535, 0.5124109384320279, 0.6168591169893279, -0.028953615452427268, 0.08904971015599988, 0.2508103439368814, 0.7308457004700363, -0.28299058457334036, -0.24564556852821368, 0.004561409304086061, 0.7653846246037076, 0.8700411126829284, 0.886930715659215, 1.5179891742061415, 0.8405563447367959, 0.2977889925703116, 0.46170513277926145, 0.027130988370446835, 0.3172952101876369, 0.4182823269213183, 1.010879412711025, 0.3756410580006849, 1.5974416736489745, 0.04703374835230696, 0.010842543220197355, 0.10328527659081235, 0.5514286677748641, 0.4146255513402873, 0.885887738598248, 1.2777020909019707, 0.16562556097885803, 0.7420421392112831, 0.5472963590860588, 1.013523772556202, 0.09531032583456371, 1.0825782999508633, 0.16315288065686406, 1.2549770386728927, 0.9011042743899451, 0.36899431067550176, 1.1942820445273794, 0.9556192471731327, -0.13146536699281378], "delta": -0.00024382596727671852}, {"inputs": 80, "activation": 3.2250105410456382, "output": 0.9617646958656544, "weights": [-0.13921470832370514, 0.34416564847998166, 0.18725876324616086, 0.4426402612614548, 0.8073026663028346, 0.6284603321087304, 1.2414540643920373, -0.4071504805023275, -0.11341504969019739, -0.013859263393268387, 0.7801366787568078, 0.6673402588125185, -0.5755484614570622, -0.616843696905897, -1.4234017647438046, -0.978675421298395, -0.2959416849191835, -0.9391545498676291, -0.40961505441972823, 1.4321305079155908, 0.17432786263676434, -0.23455915133551733, -0.4663021351616172, -0.005069319795617415, 0.6004234173931119, 0.6060176997178743, -0.50228899715637, 0.6977508930244857, 0.8179367748143082, 0.22767102739294814, 0.35883796522277334, 0.4097679727038733, 0.0944737135933243, 0.9286113580038403, 0.09791343718218563, 0.8343225373117295, 0.684101640347875, 1.1644519026988251, 1.503175966278504, 0.995039173764957, 0.09806974429653575, 0.42308011794822725, 0.30322128640224416, 0.0732100342130913, 0.22922640367945132, 0.03770177779488586, -0.10749087263604, 0.3904098059021408, 0.9006954788800748, 1.6903552069725392, 1.999553248982506, 1.43502089411753, 0.8413604540719363, 1.040202247182693, 0.04892353977791967, -0.07907480457477194, 0.6628487819208502, 0.14214935616166613, 0.6343983591642866, 1.164628857921336, 2.1494212150828647, 0.23800704292109284, -0.05623213347470895, 0.02478359206542414, 0.5293163087177657, 0.7711818305288515, 1.3861119968239997, 1.334372146858944, 0.9199678830633743, 0.6559612619452242, 0.1562362385630064, 1.0753491871814613, 0.953778513782001, 0.3760948677267407, 0.36690545367680166, 1.1758649901766318, 1.219711011955882, 0.4068396197930749, 0.9909502072904335, 1.2146881963228908, -0.5336014624359161], "delta": -0.0018639670160069054}], [{"inputs": 4, "activation": 4.41854140263005, "output": 0.9880917180192823, "weights": [0.8437956408238563, 1.504358910972621, 0.8558343457814834, 1.3279164274443018, 0.8348241901799354], "delta": 7.02990303006081e-06}, {"inputs": 4, "activation": -0.546066268243572, "output": 0.3667775454651737, "weights": [5.98985528780081, -5.938337154339134, 0.3594095842084224, 2.8899848014133687, -0.6241270502466083], "delta": -0.008348669240498468}, {"inputs": 4, "activation": 0.5856474131623606, "output": 0.6423658381619948, "weights": [-6.385035663489062, 6.444484996922313, -0.811691168362012, -3.1126638172488965, 1.0244781596125014], "delta": 0.00853600715711952}], [{"inputs": 3, "activation": -2.720015252955519, "output": 0.06180258184521088, "weights": [-0.1667244891265381, 10.031150545776635, -10.368739012224088, 0.4260406379922686], "delta": -0.0035835005074386006}]], "configuration": [80, 4, 3, 1], "name": "C6res"}