{"layers": [[{"inputs": 12, "activation": 1.0551022937166847, "output": 0.7417534753152121, "weights": [-3.4776440916499833, 0.8745435272883365, -1.5180154337177805, -0.7695053689073641, -0.5429378325334239, 0.897583685750557, -1.0999378364170367, -1.298565939720913, 0.9152589782734253, -1.3941766253417505, -0.22652164948514208, -0.7264779485323365, 1.0551023393485142], "delta": 4.563182948446353e-05}, {"inputs": 12, "activation": -0.30045232124471427, "output": 0.4254469132255057, "weights": [1.8949743125373366, 0.015587782131563435, 0.7479479933372187, 0.8475987024816406, -0.11077030135307277, 0.5349217705266439, 0.674129700930191, 0.8760774921444819, 0.3780675391550326, 1.042880546082836, 0.02016747074603169, 0.7085943794382854, -0.30045234021474077], "delta": -1.897002648643186e-05}, {"inputs": 12, "activation": -0.8119116117889035, "output": 0.3074832924783261, "weights": [3.2799938261648696, 0.4741294522298511, 1.4052191941864638, 0.7743270987084858, 0.5268203083171928, 0.04306693733740632, 1.4576706747943065, 0.9689481489059734, 0.8095232624634284, 0.9619868465773384, 0.6390813111237624, 0.6014552863861569, -0.8119116466763009], "delta": -3.488739746133713e-05}, {"inputs": 12, "activation": 0.7748818382511548, "output": 0.6845759860119832, "weights": [-1.1771635059621535, 0.38406505978684635, 1.1692808188566102, -0.4778596737603386, 0.9897775044936209, 0.7403309284821368, 0.001579258956231828, 0.6635901275239852, 0.10138577020912493, -0.21180611562879542, 0.5353926751436592, -0.0539214836388687, 0.7748818599935662], "delta": 2.1742411432651918e-05}], [{"inputs": 4, "activation": -5.100426739450921, "output": 0.0060572317473045045, "weights": [-6.532269123376114, 2.128055923347931, 4.492698076640342, -2.7610945359990655, -0.6517165122217153], "delta": -3.6467816265871466e-05}]], "configuration": [12, 4, 1], "name": "jobber"}