{"layers": [[{"inputs": 80, "activation": 1.0885295035026468, "output": 0.748104716403731, "weights": [1.3120960420952228, 1.5566576276750104, 0.4274082351038837, 0.7445526243728063, -0.0537244616763511, 1.0228200946939747, 1.3157251480852785, -0.20785608286783513, 0.9008779353046326, 0.2656937407936939, 0.5715839265595898, 0.4814443719666232, 0.24937276756022264, -0.2542540104136149, -0.32040036008317435, -0.06825109743088947, -0.23387179081854287, -0.5069405365365, -0.09396102861036262, -0.5710763421516462, 0.8105837461836267, 0.5354384468627096, 0.45417154995250464, -0.2596302014461642, 0.6355424574058207, -0.25544133560667964, 0.4616931955837742, 0.13329877259871278, 0.21480597051815764, -0.7894088372810474, -0.22431787667125586, -0.6694189725764659, -0.0691813431200584, -0.7077135648225132, -0.02342737963611168, -0.4610546915388088, -0.010072360977546555, 0.22452218866987123, -0.20171481550217488, 0.12911551480599, 0.2681181171324673, 1.0984573662812458, 0.34393315891586296, 0.25548573029517074, 0.8334061683282715, 0.9142155965174124, 0.1725949161248321, 0.3827021639781673, 1.0497534609658383, 0.937945847730187, 0.8703578806850252, 0.7603969661752803, 0.3190291244411881, 0.8166417504418468, 0.8254686483858679, 0.4276263432508513, 0.32800434523464556, 0.7051011291535927, 0.5718315609584591, -0.19058239662689194, -0.5685663068062456, -0.34893153349386236, -0.28992756543007925, -0.6113497497414813, 0.1900202721449399, -0.598033116461502, -0.17378760996159962, -0.2061571129290644, 0.28252861538470075, -0.37181858391270706, -0.3769419606981644, -0.6938638045048146, -0.6250463836874366, 0.2974785435154542, -0.4903555721278319, 0.7723474523312492, 0.7091245069420298, 1.1710057149193143, 1.065045206329415, 0.879656727867454, -1.3392600505411887], "delta": -0.00014563497774030938}, {"inputs": 80, "activation": 5.3650592923475315, "output": 0.9953445912868952, "weights": [-1.416515700686749, -1.2823873835916413, -0.6576232966636151, -1.012339643165701, -0.28910615211285523, -0.9440355486007838, -0.6258162003599007, 0.6146268335183885, 0.47851168130939886, 0.4059762251316128, -0.27938861820526945, 0.4641170537416484, 0.8853800740194195, 0.9025425989711419, 0.748193838558025, 0.4869753064854163, 0.2846793485452815, 1.1753812320866623, 0.40725664176229454, 0.7848675771285393, 0.5091854339369476, 0.6923111608569784, 1.2087443821337664, 0.6939883290181377, 0.35943574684253665, 0.29934454545874806, 0.3177999608783784, 1.0209346797419958, 1.1199542285009265, 1.0567753958996933, 1.2432201739181654, 0.6367016854951074, 0.6635995380164218, 1.2387987149250934, 1.0302213437686814, 1.2890678278937127, 0.5552438607646832, 1.0519385480922505, 0.47574991514535186, 0.5046499103844926, 0.6852431967436956, 0.6253226816042291, -0.02080886824210694, 0.6375246873780852, 0.01585315830717836, 0.7776839001272886, 0.41251938013800393, 0.4289126203236496, 0.08713237317545905, 0.29329742066057807, 0.5599352638190488, 0.8816094403968336, 0.94081949543372, 0.24301753673072207, 0.8664418458887742, 0.8502603809951477, 0.802827370169567, 0.39369192948942494, 0.8838297685148009, 0.875508265209315, 0.11462935139036232, 0.6266953651737392, 0.19894856945448436, 0.33930613791264963, 0.21955461849680094, 0.7293714604931364, 0.557650769601428, 0.3898498708573059, 0.5224432415018593, 0.37787056398883123, 0.9340905759406878, 0.7813699411436192, 1.182383649430612, 0.6440649252027351, 0.4998586527284159, -0.08700147995796435, -0.6269186267857205, -0.7788450126637905, -0.2808190081690193, -0.7784881986675741, 0.8293979519023824], "delta": 4.559953659469313e-06}, {"inputs": 80, "activation": -0.5973838030596188, "output": 0.3549424662341469, "weights": [-0.9916492420577405, 1.934112419838527, 0.32058161798290236, -1.5877405073793684, 0.31067347125399813, 1.4332286827966856, 0.25187814493279936, -0.6720742558976248, -0.547510632251366, -0.5799305391960716, -1.0997652567792366, 1.3746215690617476, -0.7586552954668149, -1.4359837426551785, 1.905209662161075, 0.7603803314528398, 0.21333080521533238, -0.6440153907659845, -0.06631771238369279, -3.122611769022593, 2.6106186317940034, 2.1665558300707697, -1.1322542086346563, -0.4598713773531515, 2.0127154462348322, -2.0701588326318734, -1.1478779435748876, -1.5767574593728813, -1.5694518856682231, 0.48130213688954304, -0.19751943142720826, 2.0535194146282447, 2.7068436882684255, -0.2935180293311558, 1.9940050622752168, 1.9392272851129588, 0.951991109144407, 1.5027085484277574, -1.2105510145343072, -0.9079113492042047, 0.048977769224267505, -2.306326526886368, -1.8371191010432288, -0.24753459946748144, 0.8286088638893316, 0.290957232228793, -0.081203585082424, -0.24768021705671778, 1.713573111735393, 0.09918274676433761, -0.24664363396125263, -0.28142615156722484, -2.391624744007778, 0.9508981383069663, -0.5103401802518058, -3.650265440462201, 0.6333820260654943, 2.4742474079127863, 2.4085838277603084, 0.9974348347765113, -2.7322201979215777, -2.2040257544346566, -1.5949894779907727, 0.25166610634677206, 2.1467558139389156, -0.4684926715975372, -0.7689084156188425, 0.6135982485278328, 0.3090441226981555, 1.7616669123401933, -2.403193228720791, 0.6482676370067685, -1.7741515335023206, 0.5741414593664445, -2.5043038672404196, 0.8957287266241706, 3.0566151441547955, 2.978912694085561, -1.3300459050864977, -2.3791608792836842, -0.40900650198607164], "delta": -0.00037544663104280995}, {"inputs": 80, "activation": 4.983138679014303, "output": 0.9931941165531455, "weights": [1.4425331223732638, 0.5471022495173955, 1.2406056233302698, 0.3703978552095348, 0.708125477913887, 0.6126775899070479, 1.2338626891352438, 0.10675068810313933, 0.5699194893766472, 0.12807293638851183, 0.9774124197139373, 0.6797664850587105, 0.4066314775852778, 0.19457182092478945, 0.5513074328871556, 0.23272051222188064, 0.659050129909367, -0.049143906504921994, 0.742979720249097, 0.16745297609740972, 0.6057681874967652, 0.5480335819599306, 0.1678990731505544, 0.2911258082845728, 0.5056537749565848, 0.473512989294423, -0.046041645235508924, 0.7017398802934344, -0.07037565188020829, 0.7817770365138653, 0.768157112598287, 0.3352853223048498, -0.05422145311154943, 0.7690335904839807, 0.14132159452031098, 0.7826054583393924, 0.34764991965093633, -0.048451144715276, 0.8181821117108562, 0.535536799061647, -0.13711873567251165, 0.15644826251349436, 0.1677126668861317, 0.01019434569429594, 0.2982160262679084, 0.23634792677395253, 0.13870523910090413, 0.17555135769690458, 0.10611057651613015, 0.2109055020628389, 0.6068468201482804, 0.5801317493936352, 0.3122236752073328, 0.867552702768131, 0.08057011560058215, 0.043602847753351694, 0.8353854397484815, 0.24728723135467828, 0.6426871326874463, 0.726314518138555, 0.5240927838926347, 0.6036144220224359, 0.6788036882294666, 0.6697399831364207, 0.893693433260365, 0.8666877543949185, 0.9125310534981605, 0.7731429513678052, 0.8286541358319209, 0.38645959033893296, 0.0496834524770404, 0.9118318925577579, 0.45919029988846577, 0.2272377313818075, 0.07635375428001455, 0.6548073254520753, 0.8534162346981139, 0.39145867064455314, 0.2473120279923263, 0.9781810270069188, -0.12041783579807601], "delta": 8.437480818707939e-07}], [{"inputs": 4, "activation": 4.540692006107615, "output": 0.9894465403973276, "weights": [0.9007134918794426, 1.3699208462544286, 0.8660818098259925, 1.392112531526733, 0.8132734105226993], "delta": -1.5405538189365176e-06}, {"inputs": 4, "activation": 1.7421445341730986, "output": 0.8509592563508153, "weights": [1.2283683881557383, -0.2193132715650825, 1.1686078846635415, 0.634143349738289, -0.003129828747459812], "delta": -4.070190955920173e-05}, {"inputs": 4, "activation": 1.5926551396878306, "output": 0.8309893347599178, "weights": [-5.434755399195752, 7.361897499766437, -11.98456026945074, 1.1509218322018124, 1.441578928717755], "delta": 0.00013274610124598335}], [{"inputs": 3, "activation": -4.80530617455245, "output": 0.00811972458377609, "weights": [2.256043773525309, 4.907485568553461, -14.453411701925269, 0.7970166094873548], "delta": -6.539459446474043e-05}]], "configuration": [80, 4, 3, 1], "name": "L3_Bound"}