{"layers": [[{"inputs": 80, "activation": 33.972577086599046, "output": 0.9999999999999982, "weights": [0.9238217284047778, 1.5777402885667764, -0.7245050998342155, 0.4570827323527919, -0.047803987809380756, 0.7591381520707745, 0.6194386096330393, 0.09764516442097645, 0.8540210935844048, 0.10651709914429494, 0.27143498225404583, 0.17737179163866398, 0.40275826800370934, 0.10741851283527025, -0.13989623869025816, 0.527484066286051, 0.41198676443524035, -0.03497192531109251, 0.42023876165427926, 0.18851872598658265, 0.7452530099770167, 0.24188868332823146, 0.5708071527728257, -0.11007727266603365, 0.5474939081066024, 0.03729806316241136, 0.49018519193853316, 0.33538014066694016, 0.5945499934228734, -0.06920471534467636, 0.38232683629606273, -0.09045976592572667, 0.5767623882143825, 0.24023457350275235, 0.6758889411407394, 0.11632105581949558, 0.565782310376875, 0.5117261953233397, 0.023736971912314286, 0.1859618219766987, 0.21124758139717364, 0.7915383472458404, 0.05845200014082411, 0.04703569249687143, 0.6047780868219322, 0.6456006926476048, 0.032621437928389674, 0.03085016898119599, 0.522740603905177, 0.6866347562856655, 0.5142332105216102, 0.779298243733927, 0.4945146453285837, 0.5774942660504705, 0.8421636032227232, 0.479167358420191, 0.2798689589561877, 0.6259346166222124, 0.9585285812365009, 0.4697701393140857, 0.48146964813261767, 0.5676143475609271, 0.7852613121873957, 0.436526013563746, 1.0089073637646035, 2.0055218372418517, 0.95645080386627, 0.4499824423826314, 0.7914352499538094, -0.012252834576577075, 1.7102599532804348, 0.4638893915515069, -0.13741756181868317, 0.5463405363058195, 0.3659369759662096, 1.0513334694156393, 0.9743964384161959, 1.0264645839566022, 2.4301964938297465, 1.9462728470795634, -0.7647189546872628], "delta": -8.088716936847844e-16}, {"inputs": 80, "activation": 3.7304764757516935, "output": 0.9765802324126215, "weights": [-0.835472168981919, -0.46285229128913763, 0.7627341004479219, 0.754106985983537, 1.7693305937589943, 0.5405980289057697, 1.6574187207198294, 0.5728689077190957, 0.11503652338795228, 0.32878651221540056, -0.4513425510890396, 1.0710141351053395, 0.47217734587827753, 0.9122657624127024, -0.40671162968666846, -0.4488762712557422, -0.45325741213419035, 0.3492929333001799, -0.8041318177783451, 0.9239919814075128, 0.5267681112518975, 0.6303966653501031, 0.9256351405560591, 0.17098129945131804, -0.36762029311472755, -0.24556056627502051, -0.3886879753007481, 0.5621629693225785, 1.0016203004067046, 0.04280456950851064, 0.27244046182926296, -0.3515395414573555, -0.3176986258853974, 0.121663341595562, -0.08289776563657514, 0.5378734499984161, 0.28466607798103405, 1.7655035412607512, 1.0555584072697928, 0.8568328655884906, 0.6756609576056406, 0.6285156152294776, -0.20968347746026345, 0.3234888214206464, -0.3803530818346788, 0.30807917076810715, -0.052525113853504994, 0.11774803596571087, -0.1098561900342792, 0.2139302667772494, 0.8344171533416327, 0.8109748915217222, 0.7981092923168627, 0.21472572873616116, 0.7838227755175387, 0.8887599650459236, 0.7193194514134116, 0.4381233505110626, 0.9444516729493301, 0.9473658425861113, 0.19232775107341324, 0.1357765141281524, -0.4203962171012671, -0.5407144020142165, -0.8822747393843406, -1.7557732283754153, -0.8501904438942507, -0.9942663423692764, -0.9235481460357098, -1.1213941332791122, -1.5235940750164072, -1.3173885171692326, -0.031410277847124295, -0.48042260385682495, -0.8594470496857515, -1.1229721477938672, -1.713184520133262, -1.2470983542589487, -1.2510420878275839, -1.2603709843101627, 0.0800578301972681], "delta": 0.02373221941633188}, {"inputs": 80, "activation": 35.243039040990574, "output": 0.9999999999999996, "weights": [0.6841437172244407, 1.4152555820043256, 0.3589104498660673, 0.4350288965850142, 0.5504446474999309, 0.8297833980272785, 0.3028453312953845, 0.839776432046644, 0.44849203248943686, 0.7654849322834093, 0.8257011003885181, 0.678046995518851, 0.5036933891342878, -0.002133325763669955, 0.37572947194800704, 0.5307327390753798, 0.4473220967193938, 0.7544593088704881, 0.7116455433233457, -0.04090526863132333, 0.1408838166257109, 0.819479113453037, -0.09371710194247594, 0.33876429187755325, 0.5720670753394657, 0.031086524574693946, 0.6729422594199317, -0.02395367747357236, -0.07026653538560627, 0.8613517982406573, 0.6509016326817431, 0.5771031044664914, 0.40207710505957583, 0.06347430226595104, 0.19614295440511395, 0.5103449463839119, 0.240767122475541, 0.8030609791872766, 0.8546126012719603, 0.3406802719099431, 0.5671085544482924, 0.007991052767450615, 0.18702974887120288, 0.4050451407964221, 0.9052653312683906, -0.08580200088968734, -0.02698399959952882, -0.029117748582621138, 0.4681962854666487, 0.33385896611303234, 0.36003322486664663, 1.200345424029958, 0.6537144781367836, 0.14738590948741137, 0.34522184366449155, -0.04178184238454704, 0.28860247361568575, 0.3383574865795654, 0.874605713897383, 0.11587442012782295, 0.6816766871199897, 0.24642919811065575, 0.4239381422074749, 0.5047455260321939, 0.7725605679751548, 1.6752752588863513, 0.7346945436047402, 0.886048101643193, -0.045987790627677, 0.41729345910899324, 1.2330419713559306, 1.1558953143907742, -0.2724011514126393, 0.8063324132240761, 0.24763959610682737, 1.193118236757467, 0.9360742207694309, 0.3857357925619243, 2.0253390190806106, 1.7578668253677063, -0.38865366253130657], "delta": -1.0954165626635525e-16}, {"inputs": 80, "activation": 34.29812442672615, "output": 0.9999999999999987, "weights": [1.3818175216386233, 0.9785188825865262, 0.01091699068347233, -0.4404092147017179, 0.2633904939159669, 0.26419299013197756, 0.7285083347438515, -0.028396062223473444, 0.41078480332043577, -0.04241494499164085, 0.7515848107438926, 0.4698516535621359, 0.2767712418837641, 0.09227086561070175, 0.47797216090110933, 0.2070169383891109, 0.6564485850793752, -0.06809499663171127, 0.7619633578666846, 0.20587964323247449, 0.5578533765153929, 0.4997047272083699, 0.19174992673615276, 0.2650258289170465, 0.45622562719730186, 0.47238668637198195, -0.09444746242369616, 0.6860968424049285, -0.06613309764041726, 0.7973519354615823, 0.7767486183707101, 0.3538085761857039, -0.03305718009298949, 0.8230598292820781, 0.13130318416772535, 0.7717307484371821, 0.3557593780372147, -0.10591641002625489, 0.7441996365057888, 0.48014182119975923, -0.18751451940585734, 0.08892294282976672, 0.1192961712791075, 0.02576524373320303, 0.2868215573993555, 0.1932881936134525, 0.13150857102226673, 0.16274057346546666, 0.123930075858751, 0.3443102397007372, 0.7607359575425846, 0.8235963942794938, 0.5628916436298377, 0.9783883267498144, 0.17520615104484336, 0.06268625949407669, 0.8311632396039914, 0.25495352174958374, 0.6924852115226225, 0.790344578252315, 0.6182649670244698, 0.699681133648641, 0.8326832774397316, 0.8210720941912804, 0.9708987601870841, 2.611712850564345, 1.1180214013415954, 0.7586308851836611, 0.7156668080198084, 0.19009411736518353, 1.1594071269533852, 1.2300071989580608, 0.05314759326236849, -0.07055198264265383, 0.3584689494989558, 0.8444297756830026, 1.1137538580476154, 0.4543138227146562, 1.988020892667944, 2.3188791414210987, -0.7813468092651272], "delta": -6.252205685919637e-16}], [{"inputs": 4, "activation": 3.788743199605549, "output": 0.9778765044922804, "weights": [0.4463628024638821, 1.1791939866679266, 0.46926543491281597, 0.9489602527390587, 0.7725482685680003], "delta": -0.0015739080941697685}, {"inputs": 4, "activation": 1.926288421513128, "output": 0.8728380348557422, "weights": [1.1340324387742955, -1.1977586224497392, 0.6345875061284723, 1.4822647995928513, -0.1555020992291283], "delta": -0.03338635213257457}, {"inputs": 4, "activation": 0.7878193502054107, "output": 0.6873629111100632, "weights": [-3.085875163742336, 7.402422169842023, -1.6636641899530569, -3.0971239143366893, 1.4079355048649556], "delta": 0.13503608598950614}], [{"inputs": 3, "activation": -0.6616153492351851, "output": 0.3403768391560972, "weights": [0.9516470075672179, 3.9357711180495345, -8.222797059259701, 0.6237339780899424], "delta": -0.0764215599131425}]], "configuration": [80, 4, 3, 1], "name": "load_core"}