{"layers": [[{"inputs": 80, "activation": -0.980903422654106, "output": 0.27271256164123464, "weights": [-0.09846721299642232, 1.2581060956868968, 0.384648216733395, 0.8478632545446029, 0.7716447547422237, 0.5655105587074596, 2.3330654052535222, -0.8645176352113928, 0.04441386056134154, -0.5715572648398393, -0.24556934415617163, 0.19660225027380326, 0.7385054243191418, 0.23141864094233797, 0.1514934027441499, -0.05663720036798807, -0.3801384021302902, 0.09274719053514474, 0.8587387264013645, 1.2888962121380518, 1.530222220781506, 0.3192699352950074, -0.0781011169346425, -1.2439708848143927, 0.04979602026409272, -0.5801620086966537, 0.7362857180266072, 0.003269921395396835, 0.06767906457183621, -1.0050108453652544, -0.699240589200286, -0.23045775768214916, 0.2717847921860826, 0.09852082694454778, 1.0032121812012547, 0.32500821355551424, 0.4071815973746826, -0.43821299301487415, -1.1759631818544412, -1.1668868948801954, -1.2102061630090941, -0.7601349070359418, -1.4675364771133952, -0.456709186903884, 0.08139694097747924, 0.5286758870363527, -0.19637656688443805, -0.12485965794696233, 0.8537600613279517, 0.9169038633178296, 0.705170687558633, 0.8705396938273746, 0.3563923759652869, 0.6942613969833853, 0.8097810980951503, 1.4256809760308133, 0.36580755392446573, 0.24308797051336267, 0.6498738941534898, -0.23592965234904706, -0.16063319216660182, -0.0011562375966544212, 0.3905876753166442, -0.20522674500630467, 0.20217081946721258, -0.5040954197595529, -0.2903700983423727, -0.30864527235700256, 0.020731378765373686, -0.3525770445854617, -0.0004049322524547041, -0.5700097438254822, -0.6226244923137092, -0.10885981235339218, -0.4108677685159191, 1.133678210288114, 0.758584611668341, 0.8493230047169945, 0.20121739506672173, 0.16212818274954324, -0.9956342457452058], "delta": -5.676010547749465e-06}, {"inputs": 80, "activation": 0.5853396047798174, "output": 0.6422951216381293, "weights": [-1.1013064228076908, -2.5423433060718597, -1.2007699360929096, 1.2638326922348264, -0.8924467373841314, -0.8857518807791741, -3.5465173684763265, 0.6955011461301867, -0.06386857106146515, 0.8270874578182196, 0.5757936032942529, 0.6225250819468859, -0.8527071193650002, -0.34548861339800374, -1.3858348744504898, -0.029754675743032793, 0.660481265476314, 1.8678729207452545, -0.01837704375509558, 0.052319760928681756, 0.6621289420474133, 0.9212021485884957, 1.1920448544868063, 1.736186903621965, 0.5787678288808582, 0.010300148953070477, -1.5439997605133988, -0.17558561647093607, -0.3176095453799272, -0.5823282341663224, -1.2298170530331711, -3.577928777216457, -2.69081085400473, -1.3719492043272936, -1.1747792620619608, -0.23726848569948358, -0.7071648128468389, 0.7645836396641456, 0.7220535778200735, -0.9548641199659605, -0.8368141380750571, -0.3646673292496492, -1.0993179748238913, -1.2196027335308601, -1.081170364642869, -0.04187825182246199, 0.36061303623695556, 0.6298582209219402, -0.1036951786793904, 0.4504634133846446, 1.2585047004939278, 1.9094013158078234, 2.329520642841507, 1.4509320512994202, 1.0416434468989986, -0.08518298139388647, -0.16264013811769748, 0.38952352432605325, 0.5681522989907423, 0.24386981949302466, -0.27252019074886213, 1.3749275458274344, 0.5437755059322252, 0.7693302670063639, 0.7092109787149644, 1.1048428460505504, 0.7052578721081127, 0.37029247149535616, 0.463682042506238, 0.08831635478742424, 0.2692057119130962, -0.2483863245298511, 0.7842422641346554, 1.328094546434461, 1.4058515477181193, -0.13531833376486976, -0.4909519511516522, 0.585588239527251, 1.037623595992426, 0.7236362642464353, 0.5924231388530719], "delta": 8.563077600721546e-06}, {"inputs": 80, "activation": -0.6806848464712388, "output": 0.33610846910306996, "weights": [-1.346432604885407, 0.546304667530322, 0.81560126693732, -2.6860922786924197, -1.3407409415336904, -1.0836698153954911, 2.745441464309933, -1.4965313680195809, 0.44790394832839797, -1.0229765488485487, -0.13534862987403004, -0.9102228887291167, -0.41339881048732835, -1.309652360667376, 0.5929333148586767, -0.9472217605204991, -2.4337837803181253, -0.21670174165480668, 0.34031076421483536, 0.7943555482429402, 1.813483068739377, 1.865743468708903, 0.1665602815209809, -0.10484676280720892, 1.1113587761715855, -0.8640280428503679, 1.9001699780524492, -1.105527653442475, -2.5960018458521006, -2.4526054230191368, -0.5492175902564154, 0.8209940312113481, -0.9291390357458578, -2.239840451694845, -1.4875104679971707, 0.27437455079333156, 0.43816582621707856, 0.9753391886805942, 1.2265681429346642, 0.3016780373004903, -0.5728882224491769, -1.9036492653802508, -1.9959106823196815, 0.8346868287381766, -0.19317207465436756, -0.8292282785822762, -2.5352973038637625, -2.4447442113584383, 0.4081498763037104, -0.1328588198924134, 0.6259559193256973, 1.4810664452400621, 0.6011154216037136, 1.1793852346692482, 0.1384527804291168, 1.3147009631370998, 0.5750329460908761, -0.6528595271818453, 1.5231874474008607, -0.3129465838637283, -1.0165658540108276, -0.6185369759861598, 0.4533369138785561, 0.8313981805278654, 1.2785194496317231, 0.7201129990786267, 0.9160613891119858, 2.4462863843167804, 0.39977847225665214, 1.8559937445517591, 0.5673140802605956, 2.04394153221136, 0.7225036754904003, 1.3265121284474162, -0.5337253333122678, 2.004590519633232, -0.08981610035790334, -0.75756383606609, -0.6671236874655381, -1.3071336447781818, -0.6187480965897363], "delta": -1.0872054849909847e-05}, {"inputs": 80, "activation": -0.14668904843580335, "output": 0.4633933551921756, "weights": [1.388265854812118, 0.67268641735893, 1.2375073445896823, 0.2928531434092621, 0.7800641681776049, 0.35056604164849436, 1.5218882552247337, -0.07425110647883969, 0.3803272584777959, -0.05834157872145931, 0.7502598077833741, 0.48749703871276473, 0.27364734403531316, 0.04840425365234092, 0.478899448041309, 0.18238231970342783, 0.60181307353608, -0.12123643871883756, 0.7368206425747903, 0.184859227310238, 0.567368929535631, 0.48596293792166434, 0.1413890466547333, 0.19462215200762428, 0.391486918361671, 0.40130052168780794, -0.11763174941795737, 0.6320886395138962, -0.14339458003548658, 0.6810795452108788, 0.6343294136578939, 0.25187694654012693, -0.12655346559369668, 0.7021941758502732, 0.05623206176488733, 0.6865407120423627, 0.273615088625166, -0.23239538440263227, 0.6310011682340779, 0.3638086608425371, -0.27958133171594385, 0.002592515498644756, 0.033941916517860264, -0.0926099329511443, 0.18564434038140415, 0.09787658094177054, 0.03223846639560974, 0.05309879161488031, -0.022319673287548785, 0.10815578333045069, 0.4889040834045701, 0.5078342900800076, 0.23216298142551053, 0.7487327950351602, -0.004971988754185688, 0.00011252770013680503, 0.7655603966130672, 0.1586219725880479, 0.5668807820207188, 0.6126667908613506, 0.40512281647445897, 0.4826088239946587, 0.5992480427375502, 0.5942770870746471, 0.8312561649516482, 0.7979230673708579, 0.8722600908037447, 0.729036250752182, 0.8469404192780744, 0.4272157873210816, 0.12756840063888356, 0.9656874064505152, 0.5007881041123354, 0.20450611342462163, 0.049943366827700036, 0.5595604495688146, 0.7717073727446473, 0.29577833839647705, 0.14901002432229765, 0.9086445066619315, -0.19998649586916126], "delta": 1.3731324940242126e-06}], [{"inputs": 4, "activation": 2.8965022690441913, "output": 0.9476732605022423, "weights": [0.9712060883028119, 1.3734775033116404, 0.8733007316265761, 1.3803732546013834, 0.8162845641854953], "delta": -2.9814341721113895e-07}, {"inputs": 4, "activation": 0.13486753156853576, "output": 0.5336658686105934, "weights": [1.4802429955695924, -1.4768120795638457, 2.0642479068039132, -0.10449082400601971, 0.0343396268935473], "delta": -3.1568974002439786e-06}, {"inputs": 4, "activation": 1.8922110842896058, "output": 0.8690074314842328, "weights": [-6.069974025826985, 8.472668133908943, -10.76357640923786, 1.437980342068745, 1.0570096426681745], "delta": 3.897041621272031e-06}], [{"inputs": 3, "activation": -6.475590372576351, "output": 0.0015382193831461174, "weights": [2.5449212975383024, 5.3693987239087635, -14.49095336634238, 0.8399308378014751], "delta": -2.362479260776704e-06}]], "configuration": [80, 4, 3, 1], "name": "Mem_Utilization"}