{"layers": [[{"inputs": 80, "activation": 16.48485712132926, "output": 0.9999999307025128, "weights": [1.098344490068371, 1.4897979531941388, -0.32518151122615946, 0.5611498073767623, -0.18902546875536508, 0.5970123867711224, 0.43849056246214874, -0.09511103252952803, 0.6542233006760197, -0.0771035758949203, 0.10003133445434469, 0.0252489093896748, 0.259465806348621, -0.037823889299803945, -0.30295352503632444, 0.33286100871209096, 0.20098850025221568, -0.24118154923629748, 0.24909666257065038, 0.018724346855535198, 0.5824220109246777, 0.07679609532357283, 0.39738169583802385, -0.2842347129682957, 0.36258770352994657, -0.1426662201316395, 0.33231774892097904, 0.18215413491422563, 0.4483764396855904, -0.22263500324758065, 0.2031806297271013, -0.2823442434823581, 0.3730050310365672, 0.02297513444481367, 0.4824563044964709, -0.07055277646423143, 0.390442870005703, 0.2925799164446389, -0.18560534917822588, -0.030232558456725258, 0.0091885468243571, 0.5841724425422535, -0.15884522977328144, -0.2160959760095204, 0.3646467545843072, 0.4173966915421293, -0.21389010515304896, -0.2324623582832639, 0.19012428116473026, 0.22603211115732844, -0.02112544486896849, 0.1413165158630933, -0.03171655194756151, 0.3361009546922713, 0.8576727063555688, 0.792342910253948, 0.5962648273505421, 0.8304449014434958, 1.0433164902073182, 0.42933991155419987, 0.3366976995920896, 0.31637579040453206, 0.42105414156922094, -0.020511348927456735, 0.6647746154273478, 0.2842496431666292, 0.7032180693867723, 0.4901570205411604, 0.8935672765286108, 0.062357576258511314, 1.156127589418453, 0.5722058061576296, -0.0016885936447849448, 0.5902442853334097, 0.4210521925332789, 0.9744528765178212, 0.8283050999159077, 0.8834483350574905, 1.8921444703335517, 1.4744862039131241, -0.84641670144988], "delta": -5.086838305522096e-10}, {"inputs": 80, "activation": 35.879371319827534, "output": 0.9999999999999998, "weights": [0.5113540582988197, 0.15228732336297052, 1.0745959611580327, 0.41894284437130713, 0.7278796598729347, 0.22588685477650072, 1.0002679690527498, 0.8739116132358091, 0.970083131663116, 0.9579780362992701, 0.332258921905601, 1.00281195412094, 1.009674941432185, 0.9228518316844072, 0.7319402488686801, 0.3989610986678666, 0.16291932576955936, 1.0144925469676878, 0.17433914328067054, 0.45475898508693385, 0.5335349494358897, 0.5632075065654257, 0.9394062006588847, 0.6294110561051305, 0.3423154653131742, 0.187598812574537, 0.23318750285607537, 0.889541011309925, 0.9254196366698805, 0.771686084415233, 0.9622982458116388, 0.3335823177808421, 0.35263975504036044, 0.90040186394922, 0.7465488791378774, 1.0111514771978332, 0.2566430776088369, 0.8391336304575134, 0.31818396766688833, 0.433291490026933, 0.6984318775153209, 0.777642226495217, 0.15796714087675562, 0.7996788302740904, 0.1863170598401544, 0.9679432762571182, 0.5756419867425117, 0.6163302713297087, 0.296530097013399, 0.47172084821367627, 0.7656493442584053, 1.0637710860444765, 1.1104508382466645, 0.4569567565123223, 1.0071124261574764, 0.9329963869309545, 0.8944515443283357, 0.5179774679283363, 0.9889784316488527, 1.0115363209960795, 0.24223210546080512, 0.7972890938501032, 0.3529518841993223, 0.5224806183825188, 0.43330344150669065, 0.9108635957642396, 0.7567579280404344, 0.6209045851832075, 0.7189803518616443, 0.4645190871967186, 0.6419043889171567, 0.3886617911416808, 1.1270529767046011, 0.9716374461118511, 1.007090943152977, 0.856466728098418, 0.4047272306021377, 0.39664831130417544, 0.734154253061086, 0.3469213981613665, 1.2159515588754721], "delta": 5.0022323270950314e-18}, {"inputs": 80, "activation": 14.929762008344863, "output": 0.9999996718392761, "weights": [1.2410470969498717, 1.8923827387704768, 0.22423054826181227, 0.17839060113407423, 0.19029969353401452, 0.4568269811187596, -0.08428925976922261, 0.43986175781929077, 0.030862075740980606, 0.3854731330937868, 0.4680189066127686, 0.34160943457390097, 0.17098889443869242, -0.359081547555497, -0.010545982130336029, 0.11662299501741408, 0.012956265448361664, 0.41862143646592287, 0.5296594880289189, -0.22431811932666443, -0.04365759732148465, 0.6162726749957352, -0.3081936745434877, 0.12497928184188888, 0.3429081348063966, -0.19150139513462866, 0.4769642981462216, -0.19079296649785793, -0.2234912858393956, 0.6875821724849643, 0.43859065856036467, 0.338385144619446, 0.14112659900482513, -0.20821330679886957, -0.046927217069114006, 0.2748762855252357, 0.00911629194899756, 0.3274495821723511, 0.36636500766886865, -0.14479244144391107, 0.10138694252691416, -0.45245905910808787, -0.2853541837298188, -0.10299927151456417, 0.41140565446887667, -0.5765883655571773, -0.5458087779197949, -0.5708894845547994, -0.15591435820283323, -0.4181514659867169, -0.48327313979310316, 0.25345094200327256, -0.051999947854729986, -0.08508048757515081, 0.5618552541948899, 0.6497799238656355, 0.9817880556168073, 0.8485521747005831, 1.1945227128338305, 0.23512998207327207, 0.6117541348456672, 0.00158696659477132, -0.006956994598495833, -0.10565814379143794, 0.3255590239203819, 0.4978036324364843, 0.6410516348001748, 1.151469931750043, 0.16697441116891848, 0.4618446409139122, 1.2116863793800001, 1.4632516801612458, -0.4746013456085228, 0.5959012317909536, 0.5110443328315599, 1.2247072874044795, 0.9051692870611043, 0.21570885635965062, 2.5656406428276504, 2.0571581163050863, -1.1028080535232008], "delta": -5.23290047703158e-09}, {"inputs": 80, "activation": 17.584470047320316, "output": 0.9999999769239388, "weights": [1.3888610737884302, 0.7000931685302753, 0.4775993393316727, -0.294327865338672, 0.14301433816756823, 0.12814534883702297, 0.5787127026402097, -0.18418304254980575, 0.24908195916873535, -0.1912609943480219, 0.6110722398500402, 0.347935081013774, 0.16241085193262003, -0.02206317268208248, 0.34735254356770706, 0.04690109053000051, 0.4838068655490607, -0.24733583009011664, 0.5966078111833515, 0.04171530816275311, 0.4023161837231144, 0.3448441558004482, 0.02988860032482138, 0.10464975193250727, 0.2863497714894529, 0.3064942913739099, -0.24319733719171177, 0.5354220334254608, -0.21380239546508015, 0.6437371765675328, 0.6033929109972681, 0.1742411141070321, -0.22109108895706048, 0.62032062214166, -0.04744227674923781, 0.6007628066390553, 0.19385589449818513, -0.27946068717814526, 0.5827481698383058, 0.30862674421646746, -0.3470647974200785, -0.07774790612411282, -0.05637010079199904, -0.1957778396963953, 0.09071872170279224, 0.011007998163711835, -0.06649968911461078, -0.05081577846863473, -0.13841330630490664, -0.01576013989773196, 0.3566974155722207, 0.3500706469474995, 0.16674925938134016, 0.8013711917259371, 0.18670824514396966, 0.3002049459258578, 1.0700852323521435, 0.4089368329833643, 0.7567870253116896, 0.7618293479468238, 0.5134967965024689, 0.5146459341703878, 0.558135589578, 0.48175227152278566, 0.7179829907657715, 0.8925611473653001, 0.8676562122493031, 0.7624905499590857, 0.7958990208894074, 0.267327840723816, 0.538708194809517, 1.3088482169220803, 0.22414981157983305, -0.026947728754133878, 0.3170907022453312, 0.6655619099358717, 0.8724056743356415, 0.2500653744057081, 1.2394890755520342, 1.6801728679284538, -0.6654141526438957], "delta": -1.864263456023774e-10}], [{"inputs": 4, "activation": 4.185902600543179, "output": 0.9850193600818951, "weights": [0.6418966174122681, 1.0820313986054109, 0.5539221442898341, 1.1615258528319181, 0.7465580240474107], "delta": 0.0013764942890271464}, {"inputs": 4, "activation": -0.7258329857211847, "output": 0.32610981525882277, "weights": [-0.2545046421131659, -0.4652857800443939, -0.01390791112935233, 0.06635213538826866, -0.05876825766390322], "delta": -0.012365987639142246}, {"inputs": 4, "activation": -5.561448962317823, "output": 0.003828490036837218, "weights": [-3.505211812087527, 4.712218154817523, -5.20357275271088, -2.730134780584574, 1.1653237035171717], "delta": 0.0032438698441514253}], [{"inputs": 3, "activation": -0.1498736378481639, "output": 0.4626015683102145, "weights": [-0.8117416957814937, 0.48908497861771316, -7.395905032252253, 0.5177401237790181], "delta": -0.11500337777433302}]], "configuration": [80, 4, 3, 1], "name": "Sys_Utilization"}