{"layers": [[{"inputs": 80, "activation": 7.603653532414543, "output": 0.9995016221503996, "weights": [0.5342790967785067, 0.21235520655140014, 0.7746521451382005, 1.052897580863882, 0.8294511133470456, 0.9627842756156613, 1.7160653241209747, 1.7201876329698558, 1.2343253392004643, 0.878595004690162, 1.2681993162196237, 0.5862994694567938, 0.6598659675990657, 0.5670203854530719, 1.1872441633998079, 0.587636619523489, 0.5439556927689931, 0.8353741411554848, 0.9176150929341671, 0.7989294464049039, 0.6313980486352848, 0.6112393601630471, 0.5916560617176586, 0.9792553209084577, 0.6207097172995187, 0.6475254303453185, 0.45831074145980155, 0.4824493644980738, 0.8491197639191101, 0.1576892682691922, 0.6612755864517176, 1.0601530756666184, 0.9593349390031325, 0.7632083016254264, 0.68448600030136, 1.002620799367721, 0.3201066787082701, 0.40070723731001057, 0.6098459842769132, 0.5664305175594355, 0.5282932044263345, 0.33687652511186933, 0.5791790089227729, 0.7985272565775005, 1.0906266641941589, 1.1605879181307732, 0.878780099509482, 1.1197386337638127, 1.0061188569356787, 0.7755773284775476, 0.031798698466005124, -0.09060790858325818, -0.5275514183635884, 0.16034972259127542, 0.3321134665720489, 0.5559687730452616, 0.5768127671973775, 0.6064033179928058, 0.7567345868470605, 0.6419460762889985, 0.17420182585999824, -0.02556736601706847, 0.26823984149275837, 0.38094631817381414, -0.2878768227802897, -0.8253298376869663, -0.07185863511792308, 1.0510902038915557, 0.42211728133511267, 0.8512604983548187, -0.4512915349110332, -0.3266868363740163, 0.048273378798577474, 0.38538312063974406, 0.6047039486850235, 0.23190193466769526, 0.7865520575129079, 1.2669161085051237, -1.1313358780871383, 0.4343902597530028, 1.6364503050921144], "delta": -7.175601302793886e-05}, {"inputs": 80, "activation": 4.494809745139959, "output": 0.9889565154856206, "weights": [3.597935925460953, 3.7423204818540845, -1.6804905357093993, -2.329856667445436, -3.374291826959274, -3.6430511930620626, -3.928156471646753, -3.1909734200161903, -3.2954376021613005, -2.3201888672453377, -0.5865005688283451, -0.04224808432939235, -0.1368732233485123, 0.6812898573136646, -0.07354731752606222, 0.8183307117691052, 0.7829226861684236, 1.6753895566752317, 2.4511407337727036, 1.9239828899946023, 1.7061004609985908, 1.6095511610829707, 0.9998377008981885, 0.5812108254509318, 0.7668563747396155, 0.6107357028079086, -0.15708668196828496, 0.3727542979925026, 0.7239657609930785, 0.8012577456496963, 0.8803355159721808, 0.8556566109392874, 0.5337527485687822, 0.4444856484582977, 0.9323454095019316, 0.7210619024313453, -0.4011084942670554, -1.0058965897428518, -0.4674300521674852, 0.5257855200331387, 0.5835627656070346, 0.3311949605179028, 0.6960969267676517, 0.5198345541765331, -0.010502307916608009, -1.2065688370000731, -1.1322953386229013, -1.0625791819490797, -1.1846090882842868, -0.6522438038941835, 0.3152022610123042, 0.8265084061731761, 0.38766228130138264, 0.29803645978479865, -0.048249698515913535, 0.48326215041155635, -0.33118627453720045, 0.21211789658973287, 0.27531271830947013, 0.6455779913143694, 1.6799519490420038, 2.3881055918224576, 3.0963245712451295, 2.410069003451313, 2.6632219730160327, 8.99991118892961, 2.697496777292671, 1.6644266893542148, 1.6674771335683147, 1.6649346155033027, 4.4944506546004535, 3.4885900176890203, 0.3316047564733323, 0.31188637160042715, 1.248194364541359, 1.673276078739492, 2.716701368730425, 1.6904053180052443, 10.021998418213506, 4.44656753012544, -3.0115621881551906], "delta": -0.001319003067094374}, {"inputs": 80, "activation": 17.265795304634473, "output": 0.9999999682634028, "weights": [3.614781792147094, 8.592766200768674, 2.0697382295503317, -3.916577681623293, -2.3018146717130246, -10.40082352619127, -3.288806492831909, -6.380308254096661, -3.6524911748487936, 1.1018872409689777, 5.037263214844044, 6.426742485002072, 2.3187065597045344, 1.5236344666207495, 5.7991851787176465, 2.613588385315036, -3.0060352832858857, -7.044053422676048, -3.281456961181587, 9.042904464592752, 11.957313211568822, 11.786674477299588, 1.960183835701995, 1.4087419613711094, -0.027795832687407145, 1.9246984796153397, 4.103414441931304, 2.1450066445817417, -3.0608284223734317, 1.5244567230762025, -2.102270612179052, 0.33651848193648065, 1.368642981142022, -0.16626337037676026, 0.5638751911914983, -0.6156458570275253, -0.8325944017631435, 2.3660923674651624, 4.771034252465749, 0.32851989829719175, -0.3593759654551999, 2.1632297660558253, 2.8212078979240003, 4.83755735788001, 6.236488301977641, 3.096482046173049, 3.5333695800448517, -1.5424686175494444, -0.9228414944946092, -7.5754427576385135, -6.614895198508492, -5.186720596110236, 3.284496514273776, 2.94454515120397, 3.508055467251964, 3.0326358400339966, 7.292105524090761, 6.505162423759001, 2.933055156128513, 6.033178969468908, 5.3877089277098005, 6.798408092362472, 3.126612380920933, 5.133904757333347, 2.9311711718759472, 5.22117562586073, -2.981519205037582, 3.8361333045736696, 3.0679569004808775, 3.8991541919641493, 3.1197653700880568, 1.2771495442116205, -0.9200013864084965, 0.02318461510734933, 2.2033667776216284, 5.975437960816067, 3.5908257587538923, -2.3685083226525467, 2.754925150408994, -1.7985695479753439, 1.0334725057976], "delta": 6.744879547987855e-09}, {"inputs": 80, "activation": 6.6397701954941155, "output": 0.9986943792350111, "weights": [-1.7883211149243112, -2.6137645355266357, 1.063354399197993, 2.520363215240715, 6.421523692268805, 6.462291132058778, 0.16646618544824013, -3.921727537341655, -1.2061144281882834, -2.128428546127003, -1.5668757672028502, -2.658798137080559, 0.951770341007253, 1.3412921939568927, 4.4695222507526875, 2.7560471160919957, 1.1318259087411897, -0.12772102584693049, -1.3239567975450417, -0.22270597726159494, 0.968762501692741, 1.9422506149390095, -0.11061002350957261, -1.2346465250754695, -1.2456670010325193, -2.1491417801545754, -1.3538644646612443, 0.6254309373366119, 1.4918273019928432, 1.4429624305280642, 0.699187339903177, 1.2164519312669912, 2.57567925121057, 1.9949179974969187, 2.2849005261633235, 0.9761409888201963, 1.2410503158199762, 0.19491238536588498, -1.3043864394666087, -0.6939721666693407, 1.348640130214314, 2.5088679768517523, 3.479432464541036, 3.530637213898957, 4.256221987512616, 5.29549222100552, 7.411743351359182, 7.087607100606885, 7.466535571161912, 6.188276559334078, 5.420458852300017, 3.4602491287406605, 0.6919752101653076, 1.8377358741338696, 0.027292481157799597, 0.5016661123436431, -1.6995669289760027, -1.8200710897324215, 0.08381693249715462, 3.547478403048899, 6.358902264662775, 7.131099080807101, 4.703580692348563, 2.3859302894587016, -1.1701478009493966, -0.8658834020290684, 0.6769378933456189, 0.9314441802655454, 4.048259033277646, 2.1770057749674305, 0.9234680873582305, -1.8419273818705384, -2.5377626928056785, -3.751764724654525, -5.729272380107233, -7.757851526997089, -7.791380879316681, -4.969183918538489, -0.056150628477548266, 2.371116205052518, -2.900497030979573], "delta": 0.00018216972367906045}], [{"inputs": 4, "activation": -19.998984221103118, "output": 2.0632483582507335e-09, "weights": [8.233637847624609, -17.273471271708754, -5.625622606911505, -7.409683346158871, 1.8798268234195255], "delta": 2.8116966642697795e-09}, {"inputs": 4, "activation": -4.7506514093043535, "output": 0.008571947659135364, "weights": [11.604639809970209, 9.733423660109933, -17.12810984732345, -11.25244469851648, 2.3858144424635794], "delta": -0.012413759451924215}, {"inputs": 4, "activation": 11.77986271243133, "output": 0.9999923428474233, "weights": [4.662076778130104, 16.42502788885931, -19.17939144165833, 8.860719024227077, 1.2067174647554275], "delta": 4.345705484932473e-06}], [{"inputs": 3, "activation": -0.46879575743128044, "output": 0.3849013112501562, "weights": [-14.95455295275633, 16.02939373968411, -6.235598757128991, 5.620900789181633], "delta": -0.09112626757380049}]], "configuration": [80, 4, 3, 1], "name": "back_end_bound"}