{"layers": [[{"inputs": 80, "activation": 25.674002315460168, "output": 0.9999999999929219, "weights": [0.7032700532025074, 1.9934245497640883, 1.9710691746715234, -2.0306763125152774, -2.5433303254062563, -2.2523252054796834, -1.9501905198203557, 2.6905615011581436, 1.8802201353515946, 0.1786225828933799, -0.0970338957047337, 0.2562599429504625, -0.004088502050203487, 0.885980713465751, 1.585077675891386, 0.8835661419912374, 0.8906616816851188, 1.1502211100420565, 1.2312259256134166, 0.28175309653135605, 0.7578218565613807, 0.8601500547605327, 0.8730753782108583, 1.1214547805382236, 0.4809411080753605, 0.26784245837629483, -0.012243515600968508, -0.4944143016007658, -0.33783994563121067, -0.7668569818309426, -0.33133043429841763, -0.1702682916607956, -0.28531682688821136, -0.4580244386624276, -0.38060176910480414, 0.05440651559829159, -0.3621995176762722, -0.5804335702585358, 0.6978604705245129, 0.9363575911715113, 1.007465477090077, 0.9315974337591052, 1.2037160436514798, 1.5571468021977322, 1.8216142624727292, 1.8255170389679554, 1.5449688484264856, 1.3900628933293593, 0.9801572875940956, 0.5561876114003268, -0.021529940621202455, 0.2886281149414207, 0.03184989015242795, 0.6038949207721102, 0.9196420686038246, 1.1124362491470114, 0.6626888865448983, 0.34197031419442725, 0.2205082600226782, 0.23072149458747507, 0.11165372864083797, 1.4911990565891042, 1.903890942865927, 1.2270293906673908, -0.5614573015256504, -0.24176915249620343, -0.7316144084287759, 0.4457748611365404, -0.01062419034011935, 0.42439472866484323, 0.10481211596136984, 0.04899105996769068, 0.009114438228580017, -0.010556215184238407, -0.03791736472633315, -0.6309447317784092, 0.28958010100095305, 1.339377171161232, 0.8984969128869492, 2.2150746922721987, 0.13937314201728238], "delta": -1.5191056520640465e-22}, {"inputs": 80, "activation": 2.9802222095574336, "output": 0.9516725921388486, "weights": [2.8735529125613937, -0.47391880208352366, -1.1346886135737313, -0.31003949341405285, -2.753526507400735, 0.4690309125801259, 2.0798557634534713, -0.8140001377550854, 1.5559479094405715, 1.1112031375595588, 1.4246410470663584, -0.30240037343518433, 0.4747077760388828, -0.7572436015622188, -1.8844898094147604, -0.45935769284367156, 0.2429621398862922, 1.0778519901214065, 1.2410220633094111, 3.4287221041042573, 1.218897892305504, 0.7808570524035325, 0.282798920760859, -0.741176441205845, -1.2895857940234747, -1.7648541524378953, -1.5236224267081833, 0.28602081391061135, 2.3148816087522923, 1.112333288688405, 2.6673971081665826, 2.3170472713012567, 1.2372326990609444, 0.2592682177408835, -1.489660573914351, -2.250205612808107, -2.1530997875804396, 0.07773126373993902, -0.8652683064513279, 0.5139585157378067, 1.0708492527775808, 2.0586563088978913, 1.9582812557116485, 0.1260416566809094, -0.5852503768031999, -2.043084473945904, -1.5122134887265721, -0.2286426823359611, 0.39690561716138983, 1.0937667507049516, 0.7782437774866309, -1.2163715533320465, -1.503149694349688, -0.31021530069834957, 0.011132478320259672, 0.9170315504837132, -0.5016335747694497, 1.1835945914718458, 1.9141852166961464, 2.5912001643047144, 3.4386236562437085, -1.3116557370474045, -1.87974879671099, -2.730625771103863, -2.400725181921675, -0.6058845087793591, -0.4257707932301569, -2.221308630410662, -3.3884943659213405, -2.424701933458172, -0.7818058480911386, 1.4444393388283154, 2.9407122450422816, 0.8662848467613424, -0.017250917293827547, -0.9183771163953074, -0.3450499310477074, -0.2619874139530148, 2.084722542966516, 1.2973266054025205, -1.7404782516274344], "delta": 1.257327311101318e-12}, {"inputs": 80, "activation": 23.00826317498942, "output": 0.9999999998982256, "weights": [1.770475092965592, -1.6955760829418396, -2.2332991578330454, 2.824947485928206, 2.5880248339949343, 1.7902284614050292, 1.922288625880553, -2.6804441713715437, -1.7547222456695166, 0.19004001617693447, 0.6642171209957953, 0.8086847070551193, 0.92637642422205, -0.47542731113288783, -0.4276568382762798, 0.10634509325075504, 0.16266958599497147, -0.5178709415622896, -0.3181971875101132, 1.1246280192084224, 0.34758514714089667, 0.4057752757583637, -0.11059433915171016, 0.18073483473724128, -0.14941090753491146, -0.21635110543663172, 0.02526314029216064, 0.9672856083983046, 1.1696047277718926, 1.1732850498775402, 0.4363456600059149, 1.0017426198214405, 0.8502494763231664, 0.5262594908676016, 0.9319342079878102, 0.2771297754974194, 0.3593852706320382, 1.2502854007022082, 0.5675894836828914, 0.03548781216891663, -0.05306724354448098, 0.36868071627838356, -0.08950084555519099, 0.09089831635628931, -0.5931892894386314, -0.7802449624195323, 0.08359200185273227, -0.1804188360830752, 0.9248771827683056, 1.2474906298368196, 1.6828931161668668, 1.2295628976479933, 0.6489230168083836, -0.039094157083769225, -0.11371058512640192, -0.4229487579946682, 0.936534081097451, 0.8364124646175924, 1.158754061922782, 1.387900039371659, 1.5472676339784908, -1.018794753937383, -1.133106780997868, 0.09785906012379415, 0.8382638726536034, 1.5817421805560143, 1.295347651733724, 0.14702716204901767, 0.3361051711827754, 0.0815515093948131, 0.9469722518504201, 0.48058276100228264, 0.7308314139171096, 0.6010301719921548, 1.0838064386360198, 1.1944893946954918, 0.7556883385595664, 0.23782526093747458, 0.934677223165144, -0.6562292905595432, -0.43288308264923797], "delta": 2.750285119071444e-21}, {"inputs": 80, "activation": 14.88881350756649, "output": 0.9999996581226703, "weights": [-0.798314713838598, 1.8571897215820783, 4.325657474172531, 0.6438091221366862, -1.362763841191484, 0.96794746196894, -0.15569372731033473, 2.7474150429602964, 2.227734660808863, 1.5333509654141064, 1.6134129762119862, 1.0171665642368317, 1.551166324982919, 0.94825483577585, 1.3028568826605786, 0.4941035165340258, 0.5862861139779745, 1.6829734880834144, 1.5235612930990232, 0.5509810910691192, 0.9045820143732892, 1.843785306864185, 1.1167954247120728, 1.6389723956284656, 1.7883790236830817, 1.5975185837288148, 1.0406953873236422, 1.2830655095024701, 0.8156517149820207, 1.294415929684412, 0.682629501928629, 0.8047882205461784, 0.8590144592695453, 0.3707159501714229, 0.518163352057258, 0.7588563857465183, 0.3345980494350931, 0.037576172554330566, -0.13526087815916624, -0.46125537653512527, -0.1192493926332976, -0.8567290246853905, -1.225133935284116, -0.7539355585341971, -1.3459706028610758, -1.3457399889870858, -0.40080850207854113, -0.42794007118800975, -0.01635650996047302, -0.9037173451824874, -0.87585466647263, -0.3342759666810133, -0.8203026029293984, 0.20773843061569897, 0.28585784512777956, 0.6212956601540397, 0.10223444421575191, -0.31394652396456973, -0.7266572005413249, -0.6292565279997044, -0.2514002883876112, 0.532233760421277, 0.89076531065714, 0.5173193106167673, -0.5583715924881959, -1.4226101369151836, -0.6085024325800166, -0.8541618695754992, 0.12291023454116434, -0.23236953352285808, -0.5340672779808503, -0.9725821916159758, -1.1545285464303745, -0.20221991666143063, -0.9885630350408626, -1.07457138476544, -0.7834559238553845, -0.04727860949000617, -0.5358161111357206, 0.2880965381865134, -0.34884163153657644], "delta": -7.395931838038589e-18}], [{"inputs": 4, "activation": 2.1211776771862305, "output": 0.8929445611684796, "weights": [-3.83227561232203, 4.5906390981063865, 5.069365866987104, -3.8094170471081115, 0.32471772425184126], "delta": 3.0914827959278263e-12}, {"inputs": 4, "activation": 1.4201239339102316, "output": 0.8053578446003908, "weights": [-2.4240719105537156, 3.180357015041767, 2.782107933692036, -2.5022245053528303, 0.5376529309920451], "delta": 3.342142353023719e-12}, {"inputs": 4, "activation": -5.43527639298631, "output": 0.0043411024370766695, "weights": [6.502402981117659, -10.817063887291743, -8.824450811033651, 6.419725616828095, 0.7613512702387021], "delta": -2.3268298533963823e-13}], [{"inputs": 3, "activation": 13.200126193057683, "output": 0.9999981496357445, "weights": [9.445391080457073, 6.227094953338652, -15.723178951395306, -0.18086824817657304], "delta": 3.423841542609242e-12}]], "configuration": [80, 4, 3, 1], "name": "C6res"}