{"layers": [[{"inputs": 80, "activation": 19.5739307713772, "output": 0.9999999968439064, "weights": [0.8241382615151365, 0.21946801705096966, 0.8212571726134552, 0.8165800496335965, 0.30694792570661256, 0.31083526839808007, 1.0397605359495126, 1.0301037998296618, 0.5483421129831355, 0.34928061242310815, 0.909583565803977, 0.359668460916204, 0.49079426024053735, 0.45133556761344085, 1.0827118039306292, 0.38931181817605937, 0.43761124404449986, 0.7519430560208171, 0.8327544373270067, 0.7497887077337546, 0.5653473754275302, 0.5320406209487634, 0.46676403654853316, 0.8835612711886164, 0.5466204473105318, 0.5795883040519413, 0.3874819288262087, 0.43522522125268476, 0.8325264518720669, 0.17137547650528276, 0.6599629107211861, 1.0365281980935013, 0.9231813782175194, 0.7218042094954874, 0.6124357894712749, 0.856369768523455, 0.2413149915347433, 0.3516151704079652, 0.5976785193310997, 0.5964864005882118, 0.5575071489229736, 0.3604096278328583, 0.5421916928746928, 0.8440541301120642, 1.0684989811366803, 1.056786069408322, 0.7731875479553537, 1.0212211440564651, 1.0705940573395005, 1.120735393650653, 0.6004330012952342, 0.6583590098587253, 0.13464941967313554, 0.4515793357715421, 0.5175492745564214, 0.4802404101990393, 0.5189730592804972, 0.6995694572590179, 0.9444490803718741, 0.9897805459541459, 0.6063914653059861, 0.4588662580116448, 0.7129557957636399, 0.934745099518809, 0.09607690117985532, 0.6971729511764687, 0.16890828250168727, 0.9680215615023781, 0.24633334074620833, 0.8929120004975836, 0.6195336977048048, -0.16583192311120734, 0.8103670359300236, 0.8813433249057387, 0.6274366512817631, 0.18274705259596552, 0.71348411450603, 1.1046652964350034, 0.28443618849448493, 0.47549244895346227, 1.256215906747485], "delta": -4.748901883752223e-14}, {"inputs": 80, "activation": 11.72133993699266, "output": 0.9999918813612192, "weights": [0.9326037488198359, 4.242823204954129, -5.034129593837346, -2.5149263008755183, -0.32797264077316335, 0.03306000217843884, -0.33120349000696153, 0.11343566418821968, 0.43316971288816664, 0.0458321788160453, 0.5803678247026887, 0.32583833881012525, -0.09567068612170317, 0.3570836806594104, -0.43351013889230516, 0.22002299885890067, -0.14276222743418557, -0.10633419797032977, 0.39803552291302907, 0.403988624695529, 0.5012600574117789, 0.6366012654241442, 0.2962651675385231, 0.3105447920707073, 0.453798725249611, 0.25797914879549433, -0.13753778785032267, 0.21242743810137416, 0.40538950397934487, 0.3455502903547479, 0.21283179218409, 0.15140682102765218, -0.28045171854577255, -0.24194347926755116, 0.5434855558852916, 0.6311588797216761, 0.03549821852206765, -0.27638840866544523, -0.06823994611140687, 0.49774501295761, 0.26843221860112504, -0.23453368839389563, -0.013430427055739203, -0.25951256370036957, 0.14935280427759223, -0.2334576825178157, 0.3502945835977265, 0.37874381605518515, -0.18028012437788, -0.6845891301525234, -0.24162764906545853, -0.050426224152774354, -0.3260030828370596, 0.26355637567469664, 0.7120817045121528, 2.117227606735773, 1.4579240256094441, 1.9250857300077593, 1.5712587420951711, 0.7814652859458536, 0.8140730449139258, 0.5203918178138084, 0.8830444705754219, 0.33479369480517324, 0.9353834067732818, 2.157963334131519, 0.780343440126579, 0.588885471548742, 0.6540310799995758, 0.7987017295222568, 0.5087441303824122, 8.204166883991116, 0.09979151846966491, -0.37459636837584576, 2.5399844988592695, 0.8404613025734862, 1.2313903163490756, 0.02937214493875771, 2.6818055374036804, 4.777151322137254, -2.57605571064336], "delta": 4.140225558641777e-10}, {"inputs": 80, "activation": 10.020754838884521, "output": 0.9999555346047113, "weights": [0.995815299569624, 2.3808048552920464, -2.862891718312874, -1.2618881144812117, 0.2843167591539925, 0.22543743647053247, -0.3638513392780514, 0.41654901029736496, -0.3411060046416287, 0.3145059380825999, -0.2599030583975313, 0.30033420587691667, -0.12110603671336742, -0.16511387564112678, -0.12003024556420157, 0.42347363816568584, 0.5461597044666808, -0.28367800303988955, 0.03477989186138667, 0.04038882151775775, 0.2304834697298937, 0.4686405586151156, 0.19633415425437098, 0.6995081010557063, 0.3898340925344784, 0.088201606112281, 0.23231445318077357, 0.32222274687993, 0.22671811712960593, 0.5844919090303228, -0.161523752284405, 0.24250044399505208, 0.03163550203332806, -0.2815338937558434, 0.48417450450820027, 0.07613960745071689, 0.2187812936787197, 0.28293746180462553, 0.45615539119594434, 0.03676912238651011, -0.023124269813551417, 0.35433175142182777, -0.041907748761397495, 0.13813440426286447, -0.3410653840082797, -0.4193329812548127, 0.5016713864480289, -0.2154547270634957, 0.30334426413273424, -0.03243495505027112, 0.162636846231423, 0.09705229384436237, 0.08060551880561129, 0.02134958652833206, 0.595561232352063, 0.9307352727192028, 1.8169190261412416, 1.0282171289364586, 0.7798567048171878, 0.6451193924259201, 0.8814947410868348, 0.1541251377873757, 0.3004149485796088, 0.7182188639746478, 0.5555438745793729, 2.1552091350663902, 1.0718042720752996, 0.38159960924788255, 0.6865616601155357, -0.04026597217323007, 1.065127585294498, 5.128939882576048, -0.36423515617316515, -0.44528798126633107, 2.0097688310573116, 1.099780474331068, 0.9297882363005832, 0.2114467856252194, 2.1944892014177277, 2.8928773895453737, -1.8079570701165077], "delta": 1.4351821406275228e-09}, {"inputs": 80, "activation": 10.329986864977673, "output": 0.9999673615495828, "weights": [0.5713947123903663, 1.438924365213167, -0.33111558219771975, 0.1318844414629322, -0.005849538317831903, 0.39295679435898057, 0.04599114949294209, -0.1735830564036636, 0.27148400164255043, 0.1636311168943922, 0.7479581463113242, 0.07012902601715942, 0.7454522892579151, -0.06861634169025768, 0.2798923060121198, -0.18622428388277795, -0.09457853351731511, 0.6167435810744687, 0.41682622376557527, -0.16800485808099416, -0.1285795386748549, 0.7410768744111452, -0.03471693488183271, 0.7041156339347053, 0.5983603793167588, 0.4496943409392559, 0.32371206171924005, 0.3095643609655443, 0.22138594693310087, 0.5721236954074177, 0.5657256986717645, 0.5850745513378485, 0.7344750718037278, 0.33410848964602097, 0.5107203252093362, 0.6730931120662332, 0.26886399568445796, 0.24851549340809673, 0.0798696110182161, -0.1270224264270153, 0.4923853536331587, 0.16467037957453448, 0.1321139267582805, 0.5979777370428396, -0.016830517298164645, -0.16189696682150517, 0.3655170438323007, 0.16588893951686012, 0.5737866653280915, -0.1975702430507655, -0.05037373339941462, 0.24470284547147583, -0.23100004985275369, 0.8432037933058528, 0.9015996228994614, 1.1376152152184076, 0.7293537103616455, 0.5338065892341102, 0.24016996763816348, 0.3783788501670828, -0.014466264660974162, 0.08569621199871032, 0.6040408279444452, 0.8272390983817958, 0.11408063591624534, 0.4639942007153722, 0.724376990978404, 0.18304043269730358, 0.8404756995117457, 0.5297120222562761, 0.6188458291849064, 2.0866899600696995, -0.21589532088266378, 0.6532827739983511, 0.7216513139922895, 0.2434261377224477, 0.14602267898864402, -0.11203353079617923, 0.7593234101592308, 1.5273248194068965, -0.4952433814907825], "delta": 3.36028050400469e-10}], [{"inputs": 4, "activation": -12.893106548101317, "output": 2.5153236786526135e-06, "weights": [4.897846713922773, -11.462433351753806, -6.462026999687881, -1.072761123505662, 1.2058532835722477], "delta": -2.4454787610680723e-06}, {"inputs": 4, "activation": -12.180375121959464, "output": 5.130126439039541e-06, "weights": [-0.9864530301942587, -4.696177028368608, -4.330709834672575, -2.762699250310287, 0.5953434470528888], "delta": -1.4922288163942606e-06}, {"inputs": 4, "activation": -12.877047558319243, "output": 2.5560432148701345e-06, "weights": [2.5450108497432398, -8.943312596299151, -5.611356643131208, -1.98940525281229, 1.1216293894129432], "delta": -1.7843560465627069e-06}], [{"inputs": 3, "activation": -0.15130525082206275, "output": 0.46224568649648756, "weights": [-7.2732821831864864, -2.1760502289040557, -5.222443663619868, -0.1499257232616527], "delta": 0.13367206972929882}]], "configuration": [80, 4, 3, 1], "name": "CPU_Utilization"}