{"layers": [[{"inputs": 80, "activation": -0.9011830788941055, "output": 0.28880743498805456, "weights": [0.5040435263322839, -5.354468499757804, 3.293784795627193, 0.48332096196286384, -3.7514412594675237, -0.09209560844317076, 2.400180957008372, -0.42032285404097003, 0.20780133656791472, 1.9657931367146106, -1.373639846114584, -2.332315787530835, 0.9948693658690104, 1.8086149374738771, 1.0370961539767465, 1.8201491865017467, 0.47197326550037455, 0.14218359833880928, -4.552064175629541, -0.39248002689456485, -1.2836220966860363, 1.3377578562322703, -0.04354553806619214, -0.9584540986868196, -0.4164475587237049, 1.2315280487605982, 3.903747261657102, 7.241624503356138, 3.4058572827975375, 4.475924719495589, -0.6828404982436312, 1.4500504026105974, -0.6230790273379238, -5.1884892340420015, -3.9753244332401754, -1.5125224736085883, 2.7044444395321556, 6.2786109033673645, 2.279290526697544, 0.6187412557286432, -0.4706159263582252, 0.8157146889488197, 0.5534354320597299, 1.0555938774544518, 1.9819610980606437, 0.9424619389808908, -0.40774390802074234, -0.5459510973647992, 0.8770041816559788, 1.2100655809500227, -0.8620566706125548, 1.0466736499807712, -1.547527719401587, -3.2640208712214687, -3.756114632447996, -5.185713429874506, -2.3038690914163387, -0.2434285081551593, 3.312068898681041, 5.04236798389007, 5.971365136062492, 4.6937636435023515, 2.9614855671615237, 1.704564672360635, 0.34037016943654147, -1.8052791302056408, -2.9843167007566005, 2.102967499767007, -0.5703484751974285, -0.22661464910172727, -3.075360024171048, -3.3822530087531066, 2.4685573652334596, 1.5496004793585612, -3.0008527420352133, -1.4841930270396735, -1.621540808294875, -0.06815142615886194, -9.42772664833196, -6.9640078339029134, -0.8425339818484019], "delta": 0.005496657131691605}, {"inputs": 80, "activation": 0.08548203197934126, "output": 0.5213575043216504, "weights": [1.2206833455570725, 10.120782352817848, -7.237408703409457, 0.8671750212905369, 9.14109214935911, 2.3972147740967915, -4.160527875756878, 3.333931768304407, -2.998692774848462, -5.431945254209935, 3.809710440143089, 2.361885558588891, -3.9030846011557716, -2.8526690997943907, -0.06654976570598045, -2.8470763062725943, -1.3052433190255666, -0.5723793356331913, 6.160110435197808, 0.915204478789975, 0.6246110773917506, -3.5804087062025087, -0.8478311478601209, 2.4433955877096345, 1.4189134069547749, 0.8421367527356985, -0.7747329307025416, -3.8581211369537476, -2.8029172666884605, -1.5675231216981047, 0.4178010843873799, 1.6579766825042705, 3.7859487387459696, 10.782377721702723, 8.989975974289342, 4.085269341861823, -5.134859207474397, -11.250975505781136, -5.032641397178965, -1.895756350759111, -0.37781787013562806, -2.403181928658527, -0.552760220085881, -0.07772551248265723, 0.26445316328455004, -1.333360857430266, -0.4772337776927636, -0.555415675242192, -0.8586951169735223, 0.06654883806400289, 5.180845476981599, 3.5256612779616354, 7.136560711000991, 9.112053918514935, 8.228962981664882, 8.491880350225006, -0.10040598932849787, -0.23426505272562134, -1.3930239026560667, -3.121764478725933, -3.6467075874865165, -2.943755700205018, -0.19159920784933385, -0.15795055670881905, -0.6449599632534279, 4.9369363469720415, 2.5659356825815025, -5.153475057717432, -3.3184514977608774, -2.9568233467787377, 3.8301150947785345, 6.323479122060292, -3.129252589858429, -2.107234287480619, 2.443858116480877, -3.0944774735840683, -3.160265663957721, -3.3825882250795756, 3.368086475524905, -0.711067367381447, -0.9292116465852028], "delta": -0.0005309168733717921}, {"inputs": 80, "activation": 0.8522475819447968, "output": 0.7010384114375321, "weights": [2.8974755377107413, 0.5915708413489483, 8.345395284227324, 2.0326865834767838, 3.9324370248099356, 9.807532418915299, 13.07876493107612, 5.065296376670872, 7.3471650507225945, 5.505807010270631, -0.6652519649502747, -1.3187194319409803, 1.4700047181989384, -0.9862915987663106, -2.085759484900962, 2.715929539775051, 3.7388633640073916, 1.6571139002777002, -2.6847172432446973, -1.3256747221974061, -2.618742374601988, 0.753252737326168, -0.7447169486032084, -3.2339705962606917, -1.6636407896718088, -0.47879214356683064, 0.9774916314922786, 2.9884371082266683, 2.535307579078878, 0.23795560338968635, -0.11767752020800971, -1.2161417851644218, -2.426413764131652, -7.401738664129068, -7.570493835529303, -5.309709068649452, -1.2437892653639326, 4.36828936765256, 5.97665615193881, 5.628169394627394, 5.32784125884395, 6.647042854016191, 4.151894361344921, 1.6449433647265819, -0.3075018101367978, 0.41740268337905556, 1.5659396033856334, 0.3393443068664739, 0.8370485174678631, -0.699217973253322, -1.221108143400107, 0.8053758464306292, -0.776392818163938, -2.0429171497041496, -3.7796708470137506, -6.150968675369856, -0.7514380966752432, 0.7524474470234125, 3.9024647946950632, 5.5329818887368525, 5.460206315448051, 4.420812612673755, 3.1841560381997356, 0.2330560175301875, -1.062066899813779, -0.19969879410959004, -4.571494793549556, -2.2300117794897703, -3.219381584867514, -5.005008305408658, -1.034981076698118, -4.9244116098831965, -1.716665356673604, -2.8518811539734354, -5.746686655205932, -0.4794558677456286, -1.7879813804613833, -1.1467142022803636, 1.289051822764594, -2.460637098528027, -1.1245908865897303], "delta": 0.007822847424822477}, {"inputs": 80, "activation": -0.26225877775859174, "output": 0.4348085318837168, "weights": [1.4046035326090422, 2.8475699683873406, 2.4917340323722925, 3.2286549136940486, 3.1970439163778757, 0.6420711741367843, 2.1535731698231584, -6.201951045440934, 0.2735825018354364, 2.5998712428676742, 1.485701068364443, 1.3309845716491817, 2.51266967145011, 0.9628174082389402, 0.15852476431010223, 0.02933564815605265, -0.3235850420584248, 1.9938983166140547, 2.521344144170521, 2.726473513407339, 3.210231605222961, 3.5908754270958725, 1.3479702408671845, 2.0213333459815996, 1.7968566867371292, 0.12974561047292238, -2.054319027968421, -2.740207782088288, -1.8395562957587501, -1.4387985136273658, 1.1596746710824963, 0.6927086075612943, 1.2813058217122872, 1.101887986906242, 2.310491739708218, 3.6065914256405662, 3.771465241038832, 2.7155668984386616, 1.1281309136102096, 0.5214883690145864, -0.05246469089488372, -1.6175839351130035, -2.3460825956436975, -1.0827930333090936, 0.0010721864829861705, 2.1326743148522596, 3.963577006955305, 3.1449673497742947, 0.8279375025954862, -1.7165100328434495, -4.297020490940934, -4.631724563083812, -6.436511182169688, -5.373832284696474, -3.432309685406336, -0.7976404661214749, -0.17565377115438738, -2.8639013975851983, -5.88564289670791, -6.4728392341868695, -5.289894830756308, -3.6675479960246173, -3.9246226673335083, -2.343860674821863, -1.9471648602298364, 0.6350931240798754, 1.5838890633050344, 2.5704176686243705, 2.794225988459629, 2.9481544686634633, 2.5290450879598305, 0.28218609779629833, -0.8829735776500124, 0.6700839053119195, 2.2544202884990527, 3.8654707217190376, 5.759207798148197, 4.641833106784653, 6.435511339481487, 4.157737944227972, -1.3225702312274459], "delta": -0.012357469394112145}], [{"inputs": 4, "activation": -5.917282512676177, "output": 0.00268527697082841, "weights": [10.193436638639536, -6.046630928366421, -6.165169000584832, -10.187332700722889, 3.0427925412918597], "delta": -2.539894400514478e-05}, {"inputs": 4, "activation": -5.258903676724533, "output": 0.005174093098808418, "weights": [-23.237311187468187, 31.038968316450003, -24.826480651315634, -0.33046850674101974, 2.8178106372099507], "delta": 0.00010617540050711583}, {"inputs": 4, "activation": -1.6046510624066403, "output": 0.16733256820031508, "weights": [-13.258925435397094, 2.507554872951943, -17.89836688987351, 22.7110928205947, 3.589714142297917], "delta": -0.002223950351572528}], [{"inputs": 3, "activation": 3.6075742993653463, "output": 0.9735984003972679, "weights": [-13.97507057548348, 30.395007066142508, -23.519749268442517, 7.423461585865304], "delta": 0.0006786413728029699}]], "configuration": [80, 4, 3, 1], "name": "front_end_bound"}