{"layers": [[{"inputs": 80, "activation": 8.679409207031409, "output": 0.9998299774094369, "weights": [0.5272665166421248, -0.41348588519485135, 1.2961321498634506, 0.9360926221769692, 0.18051510656020642, 0.1941191729270423, 0.9248010102275426, 0.9168504367128638, 0.4273089611574838, 0.2235837588097462, 0.7906745770641472, 0.24040582883465114, 0.38391722918782073, 0.34333957394107856, 0.9707502723079794, 0.27531175529992913, 0.3308310308966474, 0.6388577114201623, 0.7271387346136092, 0.6576959371291976, 0.46467689987316435, 0.4400682301258302, 0.3686793347643996, 0.7975571264184359, 0.45760941937752747, 0.4873074055712171, 0.2891589084135308, 0.3303813027273298, 0.7312841609852199, 0.06521546275509464, 0.561861610736439, 0.9315457960644604, 0.8243069143108949, 0.6136357447892099, 0.5091333719699157, 0.7615260770321068, 0.1439676842413881, 0.2660379931415194, 0.5035018566928615, 0.5002158706492267, 0.4511362662032976, 0.2444453265697357, 0.4206642454274455, 0.6943297603414185, 0.9472116877320911, 0.9377254495250804, 0.6670322682481954, 0.9118548631924123, 0.9596627209262881, 0.9721321089097991, 0.42924500396442206, 0.4581366839043677, -0.0476461379570214, 0.34122210477044285, 0.47239434349958853, 0.511449655632192, 0.5429692089538904, 0.6942336443177246, 0.9040313820403753, 0.9126048715466137, 0.5412104599862317, 0.4071893119586061, 0.6798928370177867, 0.9321204842666476, 0.125323676391288, 0.0735721270721799, 0.13256132354353287, 1.0576544783081858, 0.346225777950877, 1.0407008733539798, 0.14345374683023088, 0.7564189036823589, 1.1300998179030013, 1.1109526421767064, 0.876335598632429, 0.29756314529319433, 0.7551279853205743, 1.0951244573153356, -0.183967710072691, 0.6379341307430534, 1.7271944379850153], "delta": 9.187376195675789e-07}, {"inputs": 80, "activation": 3.3735589771402856, "output": 0.9668678903911784, "weights": [1.8830945168542812, 4.611557643066952, -3.857613928057286, -1.6540031353681155, -0.39384780486830057, 0.07774660559454911, -0.3224130995684522, 0.14257667176885094, 0.26754621498450953, -0.1591600054409331, 0.5816956931437556, 0.34804952035010994, -0.02166272571395061, 0.16926193435902376, -0.688135304864456, -0.28532588208006676, -0.4803283551455832, -0.17148211431594437, 0.33593085605454, 0.8030635439585851, 0.7513083446715011, 1.02140780677169, 0.6399659984034776, 0.8254561050049454, 0.9985511711933321, 0.7839232067708217, 0.27253720757663863, 0.47848190583046873, 0.682328139890711, 0.43937332433553283, 0.4647959909147458, 0.36177006565949094, 0.18529922846138555, 0.4036579257021842, 1.2934185077584868, 1.9910665274836672, 1.5848664452056571, 2.0028868146505756, 1.8201741219232113, 1.481096554161369, 0.1344179816276435, -1.3599057303176172, -1.6275449445154362, -2.058033658306652, -2.0273482560431497, -2.829068372983403, -1.755709007869993, -1.4160040358897714, -0.7958427403756001, -0.011448634436381085, 1.2832966680982796, 2.5831043721280804, 1.7211810827716512, 1.063305131329523, -0.3124552338133024, -0.5489685782251741, -1.4520413186037382, -0.39076837258893576, -0.18598852712604028, -0.35528118656641305, 0.3052483648452515, 0.6672521550190608, 1.9768352574952355, 1.8743994893291984, 2.0663075802256676, 6.260616547720581, 0.7235965369875057, -0.8670189978867686, -0.9994484521765172, -0.777212912395732, 2.880436299457424, 0.8061255357223416, -1.8658132138086267, -1.8653321793833193, 1.109787321770044, -0.4655034253884575, 1.0408574345874975, 0.17489892545316013, 6.731693983108291, 6.062616469577985, -1.9424168601978988], "delta": 0.00016008091254451478}, {"inputs": 80, "activation": -2.068946140803194, "output": 0.11215193251877742, "weights": [-3.5143850441510236, 2.7910223644018846, 1.4931292110890169, -1.410617682476339, 0.24366258448933228, 7.640302774217687, 5.675637259445005, -14.606817330782125, 5.389772776459523, 1.0148081600527334, 15.331868953340937, 9.325979798320532, -0.7955928846085244, 2.573368889881082, -6.483879496747132, -4.628574884091518, 3.6876105445820575, 0.7586677679683088, -6.451531301739515, -6.153739161476447, -6.7196917695682385, 7.894228001111515, 2.285997441743074, 1.5534432522975616, -19.068458189294862, -5.615267753941088, -0.8656976117963274, -9.34535253947103, -12.515229007094028, 3.8840451390076467, 0.8647871087279303, 1.5990269988065433, 1.5181087123237715, -13.412644653077074, -0.5763402554363779, 10.612473609884805, 13.720474997328587, 3.4392017651440203, 8.94264369045671, -8.862450573471575, -13.817745552647086, 20.519024493128548, 3.5060034382355934, -8.843463488718395, 2.2236844753354403, 2.2011248201611484, -1.0343077314251663, -2.136237944698621, -7.9036769193682295, 6.249299921064912, 12.83588682913742, -0.10518172525460899, -0.48624430726267986, -4.266736646120658, 8.36400233210905, 6.806147620086125, 3.388335692220389, -0.8923129065307059, -8.839137417248626, -6.29322618380074, -12.373594204926306, 1.2226717026619998, 1.6309188988716243, 6.917317517884513, 3.0106528310020995, 7.6104780591936665, -2.695020709536976, 4.6555045660302525, 2.1968328400602504, 0.5050041668427477, -5.557191830042124, -5.660520306597213, -7.945239203979017, -3.2892693731268765, -2.889721873845262, 1.627609199899299, 6.6565849644507065, -2.3772743390715196, 11.68796401160601, -0.7873871092250342, -3.4888736047264812], "delta": -0.0037106330582062784}, {"inputs": 80, "activation": 10.990851762214954, "output": 0.9999831450911514, "weights": [1.7194687364312111, 2.2415725427512054, 1.8528447159361954, 1.9718917448255542, 1.4947346140863111, 1.683419669596579, 1.1621448581941343, 0.7567942289678768, 1.1499178721820702, 1.0546308824608952, 1.592285522943535, 0.9484168841836703, 1.5907209596025904, 0.8159830472620014, 1.149503787888762, 0.6666316968538261, 0.7658272555194613, 1.4807570116210798, 1.272614294276206, 0.6556472946281895, 0.7637557297580532, 1.6082162723446711, 0.8515980698621589, 1.5359715636539861, 1.4043214784702194, 1.2211178821265252, 1.1247445357636685, 1.1714615080704769, 1.0973770321018002, 1.5124134738495207, 1.4871393303651863, 1.568283897087205, 1.7138914107758474, 1.3032945281557804, 1.4646544841466451, 1.5400344306600129, 1.1690134762827846, 1.133219638830988, 1.0424284127597852, 0.8364282563901223, 1.5059969125115233, 1.176800343045721, 1.1270182682390066, 1.665248784360352, 0.9647744165717044, 0.8135972623498466, 1.2674209577648528, 1.1057499496624268, 1.226138707030142, 0.05009611046259216, -0.22943327728600146, -0.42068324750357644, -0.8632924227284845, 0.4185869171932019, 0.8427997090188724, 1.3953306968366215, 1.05877752970369, 0.7357313238207953, 0.31079260369104456, 0.2979517187140645, -0.2596200192071649, -0.26141914353116674, 0.0711041756201922, 0.22094757295403814, -0.294521305491517, -0.3422990673608249, 0.9571964762929437, 0.7635652494291625, 1.573991519125992, 1.287781428944212, 0.9199003579699565, 0.7292958154034626, 0.6325003121132645, 1.5706965158512793, 0.4824186459757313, 0.7572452403124926, 0.7480111540059972, 1.147559237732283, 0.5061873638567219, 0.5195295360135829, -1.4967458167347938], "delta": -1.1474987865940203e-07}], [{"inputs": 4, "activation": -4.753998724211008, "output": 0.008543547349937671, "weights": [5.192292850761956, -12.859209892878978, -6.23006944840782, 1.6974252944677004, 1.4890650684498796], "delta": -2.4933942854997934e-05}, {"inputs": 4, "activation": 0.895329675803672, "output": 0.709988804831561, "weights": [5.494164552234604, 4.642864958590037, -37.15100602432507, -6.7171594770382645, 1.7967054118250376], "delta": 0.0010072530745744155}, {"inputs": 4, "activation": 22.438670995696434, "output": 0.9999999998201092, "weights": [9.893330170310286, 6.211592923342924, -28.221203053268265, 7.861138634449156, 1.8452949008294648], "delta": -6.337738912061826e-13}], [{"inputs": 3, "activation": 4.278910350470316, "output": 0.986331658555109, "weights": [-15.97439949116095, 26.547138041840846, -19.119250861152597, 4.6864687161363126], "delta": 0.00018426998967542655}]], "configuration": [80, 4, 3, 1], "name": "ips"}