{"layers": [[{"inputs": 12, "activation": 11.414328282232168, "output": 0.9999889639052751, "weights": [4.941627006143576, 0.464218970112728, 1.9369939864693932, 1.306030938691512, 1.0859419687110754, 0.19408052372241258, 1.792852611865103, 2.5411255924525427, 0.4364264513461724, 0.9878414983337339, 1.12855168457569, 1.3613664303316007, -1.5259417182203387], "delta": 1.0215405927052445e-06}, {"inputs": 12, "activation": 9.05664946776854, "output": 0.9998834005585081, "weights": [1.0141376399204725, 0.8881502930106143, -5.25800190177352, -3.828221013714214, 4.6410012215985015, 0.7157256092131482, -6.253511671352473, 4.370694815797445, -3.7090613923551734, -3.7572504148826398, 7.749795862351942, -3.904451579978137, 0.3672207014651097], "delta": -1.1348356260403526e-05}, {"inputs": 12, "activation": -6.275840983643643, "output": 0.0018776760231545195, "weights": [-6.275260949299407, 0.31028107425537643, 3.69836841021121, -2.070184563596195, 1.463140297672564, 0.9188015681454027, 9.285413059567855, -0.2755143845431158, 0.29390317105037794, 0.39685320260284385, -2.912108156973887, -2.03388296306834, 0.09547551488394602], "delta": -0.00010510791314619014}, {"inputs": 12, "activation": 9.466492161795896, "output": 0.9999226035435911, "weights": [2.917356624942035, 0.4400016036155618, 1.1021802428205003, 0.6404188755860519, 1.3461254984449806, 0.9513800379446814, 1.139039101042143, 1.7298470977639169, 0.9053082907769651, 1.0375007896853694, 1.7599148012074655, 0.8606963773287045, -0.02934954847762548], "delta": 2.7196183503085174e-06}], [{"inputs": 4, "activation": 2.204521746830811, "output": 0.9006548309837039, "weights": [10.413564185915302, -10.950382756686617, -6.309257638594851, 3.9535310412517712, -1.200659840716651], "delta": 0.008888979176096282}]], "configuration": [12, 4, 1], "name": "jobber"}