{"layers": [[{"inputs": 80, "activation": 3.0448318874379106, "output": 0.9545588791942491, "weights": [-1.8967402637569544, -1.8722077590164088, 0.3254633810455182, -0.630290576765623, 0.274181043590279, 0.9052341901177512, -11.671033534026837, 2.9460515949046147, 1.2530892034484105, 0.7160978182534798, 0.13680373289464615, -0.23888555250270993, 1.6390872524775482, 1.0243279931111213, 2.388001748474531, 1.0514609245880804, 0.8891804041793097, -0.4141346802865436, -0.445572544460201, -0.28341275622119844, -2.3658510177167327, -0.4003666235282765, 1.0647502513834386, 0.39528791866209134, 0.526815618979584, 1.4639358938543852, 0.34778742684885716, 0.9365854945989606, 0.4849695933476824, -0.8912504772152632, -1.1453205376554056, -0.9409458171846425, -1.0426186291788022, -0.4642940112589877, -1.5469949539705523, -0.8028234376034703, 0.10833417873153464, -0.2822276391172035, 0.8983772118914052, 1.5319160585046276, 1.9046466786923244, 1.9613929833863055, 2.51597090678018, 3.005763218775001, 3.012998801584489, 2.414493247972386, 1.8336703332346953, 1.4071148766540655, 1.420338352182403, 1.7991837281552028, 0.08982607104635996, -0.842652851666901, -2.4059208010403776, -3.2834501688854445, -1.969363654782395, -1.7865642632754941, -0.7781341227674626, -1.0094036014360206, 0.2073757131026492, 0.8589347853055801, 0.769555687550515, 0.31618398789714514, 0.4012581140715489, 0.24195704336095422, -0.8071898689479717, 0.09808856198451986, -0.34921467103188963, -0.49206806770118044, -0.47396729182639813, -0.6677174787974084, 0.2212481964786234, 0.6479251799956618, 0.6384306229189254, -0.5032766817132569, 0.04251328495359534, -1.7909774740983242, -0.8511945152334407, -0.3564940560773274, 0.8342515180874914, 2.9510855970421574, 2.91339809110278], "delta": 8.128712633565087e-10}, {"inputs": 80, "activation": 0.024330974824684496, "output": 0.5060824436437692, "weights": [-3.6104737651100685, 3.1799528159915296, 1.7104958346193888, 7.6463302805537845, 5.118736306764246, 2.6978665592684066, -3.85552936329322, 3.0741316934932037, 1.9462951519363803, -0.15372839355180654, -1.571043051486905, -1.6313456396656671, -6.680847251909959, -1.4544023158246748, -4.038900486840417, -0.4070392045385406, 1.0603653772717347, -1.3362917352822186, 0.38676106346155015, -1.0340078743820087, 4.075182023982652, 0.20649453374445512, -2.27794713589512, 4.188902641546842, 0.7274671186301153, -4.311904495317206, -3.5787150338375486, -3.7971232042586434, -1.5861299539898088, -0.6312673032354528, -0.02924571545273069, 2.842332288049178, 2.341148096005694, 1.9842565028486925, 1.3664960783754094, 0.5911221320405864, -4.451316945487139, -6.354608295803323, -3.466643038288679, -0.8543820505232393, 1.919095548263576, 1.3507038732120842, 1.6016620201068397, 0.09070138767956026, 2.0943866621379983, 3.5647812051531185, 2.653726056367239, -0.5403289703969231, -4.68532542683121, -4.140499610799164, 1.5727581168116676, 4.4346311484099425, -1.706705863963174, -2.768872259123257, -1.9283454768687762, 2.8010623848504848, 3.9830253136806393, 3.6135505814311943, -1.8623728657447463, -3.511434560827984, -0.353615128585259, 2.521614015749033, 1.0855385731594072, -0.5977129939018863, 2.7056986321744456, 1.359774262269278, -0.3272223515464107, -1.4760110674810136, -0.8213812643275532, 1.52529963597036, -2.5815165721571525, 2.197573806539172, 1.5707385256660713, 1.1372559342468693, -0.881481184102196, 0.46447904812575863, 0.8360734063321793, -0.15068369493392295, -1.7228488599788474, -0.5643540569181213, -0.1994518625338908], "delta": -8.760896609827559e-10}, {"inputs": 80, "activation": -1.4787926435871424, "output": 0.18560985261167584, "weights": [2.977533123931376, 1.7119718934943409, -0.5352670004816951, 0.5929103690901661, 0.00972511183985167, 1.793460612859094, 6.016023677190256, -5.979312328910696, -5.382565828585152, -0.5777244605728485, 4.716966722818482, 8.815158954485042, 10.25207482332435, 10.383576630416963, 3.936901087593627, 3.041672050684365, 0.5732524123744938, 0.5940441576319758, -1.1483929719919703, -2.45501793175483, -3.5809058581539897, -3.846061133290389, -5.609659791386161, -3.7460561979270075, -4.276168302718129, -3.8144731820877773, -0.026358728012330676, -0.6124670996501953, 3.0208993175652403, 3.286037044864055, 2.0216201705512487, 0.5081601593568142, -0.02157734981399262, -2.4432595712802883, 0.760943175905373, -0.15170426404181286, -0.3230664134600551, 2.165300379764278, -0.41673471042199, -1.2315345336335712, -1.096958147068861, -0.13749616800923126, 1.9461131642828804, 2.9935483753709757, 2.9975229016674834, -0.13738437003195433, -2.540716470362518, -4.7065716335841286, -4.146557068641971, -4.017981519107474, -1.0012588894224264, -1.1760985825079886, -0.016176994883963184, 3.0075449624458743, 1.523162649075189, 5.281996804693636, 2.101683955232791, 1.6099768726900368, 1.1378119610930066, 1.259660748990865, 1.322569260549949, 2.15955776451675, 3.0386552252327608, 4.880165675836064, 1.5539699080149945, -3.2198654533467144, -6.752896631664783, -10.970557971974333, -9.735741688803868, -5.553828864067047, -1.6281040803523625, 1.9916350057157948, 0.8711759241507964, 1.080180170441394, -1.2670326926215019, -1.0115109984855528, -0.714158338379038, 2.704245010901545, 2.61083083843396, 1.1398466786147803, -1.7674510111243538], "delta": 1.9639423610264373e-10}, {"inputs": 80, "activation": -0.542632585618153, "output": 0.3675753885430073, "weights": [0.8729372941373681, 1.1258040136389365, 0.9430481256429405, 1.0551078269060206, 0.41910616289451286, 0.92697800675816, 5.640622886083047, -0.3967586374752414, 0.2508403465425467, 0.20361619060952313, 1.1631677834991758, 0.3107186948864613, 0.7917816582331016, -0.11848328201910614, 0.016011691948662317, -0.20069739788898894, -0.24299231350114062, 0.9571526600538949, 0.6371106793684221, -0.315348342712585, -0.029021433341760317, 0.9314574040666663, -0.054168282527022896, 0.49269615322386096, 0.48068607287333154, 0.4222068694873001, 0.7787537613682394, 0.5445980022887517, 0.4369531989477942, 0.634697811824809, 0.7654265656152757, 0.6852472267870691, 0.829231990256873, 0.3838356694013816, 1.081605884578606, 1.148206104912162, 0.3729166185911558, 0.9181733307693642, 0.6082270247664883, 0.48751974956836586, 1.0397933498436995, 0.6966577774047437, 0.6127805338188841, 1.0144858972169215, 0.2602253501427733, 0.37304973064578145, 0.6809282955263941, 0.6702437825803882, 1.2901353865248186, 0.19385614898853523, 0.45340382537546436, 0.6179444514510734, 0.3226476010489219, 1.5733184750959002, 1.2012541364570468, 1.0216425362892676, 0.5635676296046408, 0.4882450395875645, 0.48260095180796714, 0.6961963208369105, 0.2525017466013211, 0.33258471734791173, 1.0908691060015567, 1.3924216670132439, 0.37754171543931325, 0.3478608589364598, 0.8106451243637113, 0.7997384670319873, 1.1513442728236805, 1.0822849709056956, 0.9579202728823382, 0.23432243670742067, 0.06594443162475243, 1.473571595380056, 0.5247458653903245, 0.6189846081993107, 0.35252288083800754, 0.745019032201046, 0.726473308581937, 0.5703560731907058, -2.55745097665138], "delta": -8.586229120821986e-09}], [{"inputs": 4, "activation": 4.209224088312442, "output": 0.9853596327209568, "weights": [11.403138371516684, -19.99610216644271, -1.433049750689646, 5.076022401760474, 1.8441006461007245], "delta": 1.0687905574453654e-09}, {"inputs": 4, "activation": 0.14854804756572482, "output": 0.5370688718566684, "weights": [-0.5406183049707761, -1.4741151655663343, -0.23356802445350372, 3.495037342578123, 0.1692819312706757], "delta": -1.2120305032996921e-08}, {"inputs": 4, "activation": -17.47731090447273, "output": 2.5686226304843725e-08, "weights": [-13.81262919098984, -19.4775888150713, 7.279081742157534, 11.055454550292518, 0.15010992712692353], "delta": -2.4101533320247446e-15}], [{"inputs": 3, "activation": -9.612270802424453, "output": 6.689825312430257e-05, "weights": [-16.555623401331005, 10.89347495104036, 20.96736473932218, 0.8504156995826904], "delta": -4.47507687622865e-09}]], "configuration": [80, 4, 3, 1], "name": "L3_Bound"}