{"layers": [[{"inputs": 80, "activation": -12.834132406266377, "output": 2.6681236793866938e-06, "weights": [-0.9395361430870447, -1.3090187163635336, -0.4431705520078072, 0.16102714758639572, 2.113112300745618, 1.5198215021036714, 3.515877829870778, -3.935246446031696, -1.8990379560195383, 0.8750091701015205, 3.424397666069991, -0.25348075991831037, 0.08400174051260728, -2.3100015590057703, -2.908691036603271, -2.759551375996959, -2.15143483370012, -1.073589282275137, 0.18322550381166797, 3.703171399124574, 3.017545360492525, 2.4914030061790107, 0.22354415596658941, -1.9294686758808977, -2.687079280130051, -1.512022914056222, -1.3745128562115692, 1.1337842943993286, 2.412099081410269, -0.15160798767705436, -0.6989370817962378, -1.4548452277508646, -0.25080354537751587, -0.4996778381751719, -0.044143896119567254, 0.39261125895533777, -0.06918808237726917, 1.4442557362229522, -1.7586182687676257, -1.648825509705495, 0.14983790259216156, 2.005218740792776, 1.4456461170547832, 0.1831994658573145, -0.8455117146648692, -1.9939730838334933, -1.287093112333377, 0.12057173910887427, 1.3474075712048028, 2.931197636026343, 2.5613736950588115, 0.9731884810696826, 0.42240644978896197, 0.8133481028237808, 0.5013183980240224, 0.16366491197498892, 0.27236321169823896, 0.8808922033435865, 1.6490434762129416, 2.0585184565805084, 5.205895938668467, -0.5976206704129235, -2.1236872908731725, -3.2458610797554974, -5.136268573909096, -5.703734165808641, -4.8758744788377655, -3.7152022073569384, -4.202712231733671, -2.8088553080889866, -4.07580220613001, -2.9483138591380085, -2.025969473213334, -1.8283545387200877, -2.158287605414192, -0.6619909698097858, -0.20489172762499858, 1.3045059220316249, 3.0918101759721535, 3.3609399737917953, -6.2339006122623], "delta": -8.450164845556649e-11}, {"inputs": 80, "activation": 6.6806255672883506, "output": 0.9987465803877893, "weights": [1.8384911028323692, 4.542883105352791, -4.209600392460506, -2.046170405332342, -0.498598849020986, -0.03833946740519278, -0.31048648931771816, 0.1766052681936079, 0.43175992099897037, -0.031206986066273156, 0.3869066877940748, 0.028768208673208603, -0.41266251554971717, 0.012292043294490084, -0.6507207214856875, 0.08700878278156521, -0.1879053345809312, 0.116957180664926, 0.48712000209067396, 0.5122053920926389, 0.5807851496942218, 0.7037540879961257, 0.39178280353370437, 0.393177913346433, 0.5268839857373039, 0.33043203631126933, -0.10946636065447096, 0.29142831436072125, 0.4711362418695461, 0.35093679699435654, 0.2881949595836587, 0.23880859342594912, -0.1225174871665914, 0.03323671906350569, 0.794994276541122, 0.8867862658091085, 0.07554847898996833, -0.4143396455996461, -0.3601173774715213, 0.19690535224761127, -0.04396326500353688, -0.4231661414516661, -0.11360576900756224, -0.05953444118985056, 0.12634369910973306, -0.3390634895790528, 0.26195798839084655, 0.32637400430111596, 0.05539229730968283, 0.08927662252966413, 0.8888785382160077, 1.5511466308798896, 0.9333786375218555, 0.48835128407057377, -0.004805854095161452, 0.23437428793794152, -0.4706303442892377, 0.43421286245918805, 0.5907357541911018, 0.38897667214417025, 0.7443939884305352, 0.7432082128435914, 1.367451493646544, 0.9013929839480086, 1.0838008246445978, 6.3366670632934, 0.8396376352915326, -0.25822011066832146, -0.4300943455906332, -0.11673444627035143, 3.6065730212636575, 1.9358145428646023, -0.8091836490950255, -1.0597018071658904, 0.48606973229984657, -0.26923282455410424, 0.5851899701497194, 0.10324726315286678, 5.582928927013734, 3.810799453883938, -2.4290511486031616], "delta": 6.057351127784546e-08}, {"inputs": 80, "activation": 5.627046848918165, "output": 0.9964137191052767, "weights": [1.56997914577138, 2.6662997635676686, -2.558288711581742, -1.0890916767431993, 0.12522923754775395, 0.1346619609841565, -0.3925820670947664, 0.420044711476736, -0.3725266407050714, 0.24684235017663006, -0.3962519496163084, 0.09831354582179654, -0.3421623704074225, -0.41356456502129574, -0.2896201365723344, 0.31114802479412756, 0.5045345159735928, -0.12180124415588406, 0.14488615616072253, 0.1594818185678398, 0.32853993904893, 0.554881512320255, 0.3013455986689618, 0.7984341386999285, 0.48619999238021994, 0.17962436423449332, 0.2869325140646352, 0.4007202536927239, 0.29523296693841744, 0.6187140176888962, -0.07779892046025097, 0.33719023790358815, 0.15981293186982637, -0.08614247601130502, 0.6594382265115654, 0.25857197983823266, 0.2656014499056674, 0.17051237546088924, 0.24423877097904434, -0.18821166686526475, -0.2626735814634601, 0.18618174955278086, -0.15332914605692968, 0.22750662222873813, -0.3835829233065235, -0.4949016242518898, 0.45076212227233325, -0.23167104296956295, 0.46851049299463465, 0.47314866603017575, 0.8960578405318558, 1.1246803202876101, 0.8722439686062723, 0.12302246146847674, 0.06718204307238577, -0.3730667032265169, 0.49155423851183244, 0.0005991420424659888, 0.09687227633631228, 0.34793065127838063, 0.789203210259047, 0.24450354901178215, 0.5583854694406942, 1.036322481750557, 0.6179779834024198, 4.689938954366902, 1.0874571356275724, -0.18195386482884593, -0.015905127291699822, -0.613670324269561, 3.011872444902661, 0.6846641262105103, -0.8794805488668963, -0.8215423701840537, 0.6747366583484421, 0.39357471083279416, 0.5396283227337194, 0.3214112145622549, 4.025105783467429, 2.3195353642895045, -1.843548080477477], "delta": 1.0849871313649334e-07}, {"inputs": 80, "activation": 10.218573724694547, "output": 0.9999635150317266, "weights": [0.5418564506747108, 0.9578789799172251, 0.6461155780987148, 0.6833818815578485, 0.1498978941668632, 0.5675261223459633, 0.23814793647317234, 0.034395693787246634, 0.4814571208663921, 0.37378930818406325, 0.9581335042710221, 0.27850062387172586, 0.952536166923247, 0.13842284252263154, 0.488823538472996, 0.030683803757801262, 0.11885591440831436, 0.8449293214100323, 0.6195606096054371, 0.03980785611022661, 0.07927178797614935, 0.9491545942343148, 0.17467556831306982, 0.9134773004101627, 0.8078132012612103, 0.6574870105777981, 0.5309231379633742, 0.5224464450131375, 0.434819708431082, 0.7844178301732094, 0.7823665749630667, 0.8104388072246496, 0.9713112785327426, 0.5765287588126952, 0.7470917920847933, 0.9032555549321354, 0.4931233843557363, 0.4733919389572781, 0.30080027262603054, 0.09920500160214323, 0.7193633709202624, 0.3973132827778479, 0.3673818226004272, 0.8736751398329504, 0.22367166565269136, 0.0724750811645616, 0.6023896258387517, 0.41009091763114547, 0.8219189713921223, 0.05472324929824177, 0.18688794640387707, 0.47278986242437215, -0.07509060439715733, 0.8844098725686995, 0.8314149827083728, 0.9481566737315329, 0.5424046284669558, 0.40591738368342833, 0.17525539068300683, 0.37641009157698024, 0.004222890390449858, 0.11942678092450647, 0.6465426510726558, 0.8722946116011434, 0.1487877992690173, 0.5817514533624545, 0.81493356148564, 0.22650307239793221, 0.902766916126507, 0.6242621459336722, 0.8981539060937728, 0.3775155390093642, -0.10622959668899423, 0.7885332433027818, 0.1334638162620212, 0.02485788104153889, 0.03500181882934162, 0.12287995819437601, 0.5843131460217444, 0.6092133196945757, -0.1865853453013862], "delta": -2.1921973897467902e-10}], [{"inputs": 4, "activation": -12.815303572609132, "output": 2.7188371391268058e-06, "weights": [2.9849207368955732, -11.009490105002916, -6.927728680150431, 2.9854253782133267, 2.097946992950157], "delta": -3.158599950402028e-06}, {"inputs": 4, "activation": 11.687316010030392, "output": 0.9999916003826749, "weights": [-14.054492399387494, 5.981574252370362, 3.381936073423626, 1.2906990348290137, 1.0528169479146494], "delta": 1.5711152769947898e-06}, {"inputs": 4, "activation": -13.666159772200475, "output": 1.161078860083577e-06, "weights": [0.2684290190978732, -7.005630419628474, -5.264491172704406, -2.3156554390998285, 0.8918712156669094], "delta": -6.016494437453846e-07}], [{"inputs": 3, "activation": 0.10167335481800312, "output": 0.5253964645381406, "weights": [-9.816654991319588, 1.5725796768252136, -4.378579329058546, -1.4776294981976508], "delta": 0.11834477388208303}]], "configuration": [80, 4, 3, 1], "name": "load_core"}