{"layers": [[{"inputs": 80, "activation": 5.399373988203347, "output": 0.9955009239054154, "weights": [-0.5644298723963854, -1.0570621698928906, -0.957283638156228, -0.6700969134820259, -1.1118079846041762, -0.3925877804563176, -1.9978278013923287, 0.963487992980984, 0.5601420286093148, 0.7321175801616742, 0.89095653516878, 0.22450498974310745, 0.40524845351696176, 0.25348204027529797, 0.7512343938794154, 0.03840004913953679, 0.5214823981689891, 0.7799462801869651, 1.0163845947078034, 0.5774938511908625, 0.536262094644551, 0.8656507411087756, 0.7981405667649345, 1.1166461621294475, 0.7014265064967987, 0.7923341504834794, 0.593288199165019, 0.6817510247310133, 1.0180680975800867, 0.22266668889417682, 0.6461746110355678, 1.0937993914126596, 1.0388517231455399, 0.8864148270652251, 0.7978602821896528, 1.0753513404317898, 0.4401093248876018, 0.4131995896693356, 0.6188687140231591, 0.6019434453600666, 0.5428893902731194, 0.33209551096496837, 0.5092561744745836, 0.7995758103260716, 1.0486123977205046, 1.0628749233339492, 0.7347634484953997, 0.9697476511729232, 1.0107653538617722, 1.0562406297028422, 0.5392553956845026, 0.5313231315396699, 0.022446980879047784, 0.31993037380343337, 0.4380587922253409, 0.46829125980826997, 0.6147517005407014, 0.8122464157038257, 1.0709359855842224, 1.1510857717107343, 0.7877652400956071, 0.6747239176065624, 0.9289918673902238, 1.1541270257817628, 0.2847915905771136, 1.0963475954757271, 0.3395167949068929, 1.141786933431806, 0.34718928927178805, 0.9445000554908276, 0.7289024414561248, 0.8228058323858614, 0.8076464849444203, 0.9370959791595214, 1.0110007442443585, 0.4340721445678397, 0.8968580058454102, 1.1544004467685993, 0.6467618723374523, 1.0374380447361684, 1.8155784311799155], "delta": 9.538479554720621e-10}, {"inputs": 80, "activation": -1.3205669891687637, "output": 0.21072397672243012, "weights": [0.7813298635673251, 4.072012458338271, 1.648952818816153, -1.744138136692477, -2.3898308012685945, -2.03543420313577, 7.460507298542373, 3.9635677797275743, 0.4463488941320377, -4.9164127717043655, -2.3981052015443467, -2.3097932862674875, -3.1801631907319043, -4.070474743436069, -0.1333951466066183, 2.932770523898537, -1.5390829504058656, 1.935499163408212, 1.833018950300726, -0.2387792899165331, -5.369645995223421, -2.276833486928312, 0.65370273919675, 0.8787909374514272, 2.2284352068475184, -1.9258370572141428, 0.5506112430018132, -0.5376358729952875, -3.3288267229434036, -2.6868091035110697, 1.1691644149652445, 4.016776332620699, 1.6855768430992804, -0.023198857719161685, -1.572530838284779, 0.5688289274346445, 0.9789774150613396, -3.6268880065286506, -3.834321371939854, -0.6012409627407439, -1.0987484936894985, -1.9752768106152516, -1.7522927526141834, 0.6364864924026411, 0.07680738387843494, 1.8654985525383896, -0.1339811882075696, -0.6558253403369695, 1.0376703827937352, -1.1713415078275566, -2.785578156287363, -3.321794613746213, -4.327551971833206, 0.38241314865978143, -1.0374270537290748, 3.5669489257511198, 1.9163216276189952, 1.0026241862271896, 5.705272645052255, 2.7734327966689287, 4.726243763974884, 6.446772221576011, 5.441864350115928, 0.5951204979986869, -1.4755173726389332, -1.9314822442741144, 1.0196415446539788, 1.2473630047016744, -0.9885608515265367, -0.48488217398804984, -0.19709211761429232, 2.006348645607718, 0.8189633030142146, -0.5090233061854035, -2.532142508841053, 1.8128472680552274, 0.18473607744016277, -2.1784375949611645, -2.0050080053422437, -1.9688854119568486, -1.1395805400247647], "delta": -4.679920122415418e-08}, {"inputs": 80, "activation": -1.4305411344352452, "output": 0.1930143832229167, "weights": [-2.4468337281420762, -2.360361086535207, -3.6444986732996254, 2.384347726176361, -2.4716814955353184, -0.7097811309625559, 2.1096380655662865, 1.4733793009927352, 1.3136180515326468, 0.8805802355464187, -0.07189827533219638, 1.7789023804157476, 2.1196026724541395, 1.4176688955407315, 0.7090670104123356, 1.4586561648905658, -0.4872923816796225, 1.4885082975073785, 2.0074449116273407, 1.9636428114177333, -0.8185772252849038, -2.27485318625951, -2.494402977913141, -0.22705387906789673, 0.8947477521183119, -0.6908701797596859, 1.3769551960853998, -1.4101707705024236, -1.4025538136220508, -1.2913310302950607, -0.5863559248542686, 1.9704247499593366, 1.5279225962820455, 1.0636974371910706, 1.4414893425172197, 2.635692292428566, 3.192137062467727, 0.763943318504685, 0.09458662986578509, -0.23736189848685174, -0.7057218512764855, -1.5952821351382798, -1.8822656026637645, -0.6818459432972666, -0.4830327589550262, -0.8621226701756854, 1.6909163685356876, 0.10392186614039303, 1.4598810500457942, 1.4704925085997371, 0.3051745448813227, 2.0651460124703505, 0.9310801458677292, 1.6590726548889778, -0.09114091751455937, -0.6908144876900449, -2.0662372092670185, -3.0150704511073174, -2.238957485553092, -2.001764811532147, 0.039122958480640284, -1.454251191109874, -2.13429865256987, -3.911392738948319, -4.484622019362089, -3.708645616135577, -1.3705015230581423, -0.48577594167845667, 3.34622207962369, 5.139283160066909, 4.020280198213421, 2.0984194867191532, -0.6136814551290082, -2.650637513628094, -2.118191262777747, -0.1286812606460816, 0.811204338798178, 0.5484957425132311, 0.2676346977785565, -0.16168561757119151, -1.7056905065162415], "delta": -6.16141888110123e-08}, {"inputs": 80, "activation": 1.0422403843349524, "output": 0.7392820583742974, "weights": [0.7275439453676045, 1.407057355504864, 1.1383257706347016, 1.4043598806308737, 0.936284904059086, 1.0121643181523834, 1.3813879354643828, 0.18790218864027478, 0.6641211081918914, 0.48580473685391756, 1.0419091921732766, 0.4539018243588907, 1.0867557163059913, 0.19520474344067157, 0.4678893681695743, 0.09194857011816368, 0.10895457858646226, 1.0229119583466189, 0.6067234227418702, 0.00960326771207479, -0.11479566677984566, 0.6399207106417085, -0.1794196077800165, 0.6153527197208027, 0.5623349412607556, 0.22103786371956902, 0.1424663980921151, -0.1303476136836689, -0.0913853595053162, 0.30722780397474836, 0.2828583069808103, 0.1706875239576601, 0.23276317070396854, -0.1586274508438539, -0.036286262885635086, 0.25145611517493577, -0.10525164759561709, -0.020926270637916532, -0.20381984850057208, -0.3778348722914114, 0.298706022355067, -0.0653192512401618, -0.035165316929496926, 0.4695563893171277, -0.12988124258497413, -0.39373940963113285, 0.3412550322025104, 0.10774939311754578, 0.5646718746927989, -0.135878832090163, 0.044480693508041756, 0.5486814149398471, -0.09736926563455589, 0.9663929199855089, 0.7496248291848587, 0.8496806579860042, 0.2545021393922517, 0.01509767469313767, -0.26969429764182223, -0.18169262597180305, -0.4925700046171677, -0.487299090304161, 0.05726316969387988, 0.23293648996332214, -0.4386127616665745, -0.506141072529092, 0.22976555877034535, -0.2709379939580649, 0.6187409933998632, 0.5934538037322742, 0.39439156575809264, 0.15720550583305679, -0.13465175251263653, 0.6483667396204518, -0.2761282759887346, -0.4294372562171959, -0.36880883071684406, -0.07665506266909361, 0.0840955604356424, 0.40585322783994404, -0.679125318358586], "delta": -1.2505326941098558e-08}], [{"inputs": 4, "activation": 3.2264262963374954, "output": 0.9618167239308557, "weights": [6.807949338695264, -15.746825905745892, -3.537422787942659, -1.2372077183512984, 1.3647591990151327], "delta": 2.579011092320595e-09}, {"inputs": 4, "activation": -0.8129215250767365, "output": 0.30726828607301754, "weights": [-4.877837347185228, 6.632546460841306, 8.810468642340556, 1.3238891303604776, -0.03394144300781295], "delta": -3.010581337044013e-08}, {"inputs": 4, "activation": 1.301114342691822, "output": 0.7860224653569059, "weights": [3.9437473024065417, -3.3373259796589467, -9.84354751274832, -1.7731788964092177, 1.289190590027053], "delta": 1.2312875030562329e-08}], [{"inputs": 3, "activation": -9.355535855720346, "output": 8.64778421201447e-05, "weights": [-9.391080645378723, 18.91452443862612, -9.790034103055131, 1.5603157440028614], "delta": -7.477770460376666e-09}]], "configuration": [80, 4, 3, 1], "name": "Mem_Utilization"}