{"layers": [[{"inputs": 80, "activation": 17.371275549649578, "output": 0.999999971440482, "weights": [1.1864127269442657, 0.5904110232026711, 0.7649232558740291, 0.761292435570887, 0.26436818988910027, 0.2810209260221075, 1.023154578985035, 1.026721492993091, 0.5574566758892011, 0.3570151766161507, 0.9158479659666043, 0.36427269380309796, 0.49498109470378576, 0.45723721593247585, 1.089687102387829, 0.3974651916834811, 0.4470926296415663, 0.7507356359330747, 0.8392072082350801, 0.7544838729690063, 0.5697150985123661, 0.5386230639621196, 0.4745162950337143, 0.8918225990750243, 0.5555768519664686, 0.5877500517436538, 0.39435749470714887, 0.4398088603271025, 0.8362955590166187, 0.17698024915187693, 0.6674111901281494, 1.0444937557173062, 0.9310501240285692, 0.7285833446796941, 0.6181030344116251, 0.8610666292099513, 0.24563437743895639, 0.35749040756302997, 0.6047954655823131, 0.6047283992737386, 0.5653599388973344, 0.3668525989841872, 0.547874894333893, 0.8358476502388352, 1.073694990348428, 1.0640442669858032, 0.7834854242777876, 1.0337265884242786, 1.085117372232606, 1.137060508143035, 0.618002947956826, 0.6771207544133295, 0.12155839057111437, 0.3892686105436331, 0.4075835830967379, 0.32320995299801664, 0.3582090925210321, 0.55206008393707, 0.8093753849268521, 0.8680808360184971, 0.5129312396489429, 0.3974106555817846, 0.6849036334042949, 0.9403681414635785, 0.08023437830113976, 0.795452312535585, 0.0795455203923567, 0.8425012094029121, 0.14583520045047824, 0.8281381754477427, 0.44138711373574835, 0.5742129422189317, 0.8199140523995492, 0.8894572200447179, 0.5944294521278957, 0.1761597675252552, 0.7169931284622717, 1.1251942823925472, 0.018163958103357764, 0.47346111178220773, 1.1493233344074607], "delta": -6.848449510430586e-13}, {"inputs": 80, "activation": 1.3261569100656097, "output": 0.7902042321099529, "weights": [3.0478017437486793, 4.651435476901447, -1.9321010002158694, -2.1986605617382424, -0.01829772552122473, 2.2841946563316307, 2.7217268582241267, 3.149000841951711, -0.5721587522359532, -0.5194955079643025, -0.5892506633259157, -0.9385281055379403, -0.3831433741795352, 2.1064606251515734, 2.857699131823945, 1.7799454048337204, -0.46551996281069696, -0.5405108932636924, 1.389832206295491, 1.7009886836815236, 1.5075325126875778, 0.6911483643739496, 0.07416394010715802, -0.5697849364115222, -0.8411921422656131, -3.003848074455784, -5.063703466109537, -0.4984463672511415, 1.4745759120397717, 1.7829947825424977, 0.15660085755796463, 0.052235625147931494, -0.5187848417319499, -0.05132856229219101, 1.5794637938624032, 2.0469172583852613, 2.1554681597604866, -1.3543480917106563, -1.7690047080156357, -1.2077922484745993, -0.34144540057314793, 0.11702096312478774, -0.19682992547791103, -0.051875013127012155, -1.1906411395276641, -2.410237264105577, -3.700421640432736, -3.571434892815057, -2.619067562487115, -1.4291959825739042, -0.8086543285404998, -1.318785007766633, -2.508356168429748, -2.5005789002068615, -2.0210029187873717, 2.1731335013039144, 2.8484784183293854, 3.795098613299083, 3.982034128253127, 1.8851772318011057, 1.7573490817335244, 2.6831513249966656, -0.47254093467173686, -4.341905839770532, -4.128318627221473, -2.742476898451177, 0.6563406646471266, 3.9215494275828178, 3.1959933939328193, 1.9510241157257857, 3.102075600640405, 2.670561446430727, -1.7520207644374197, -2.6207147472371273, 3.219370268637307, 0.4034425651792823, -1.6079765327934936, -4.7571576050343705, 3.6547084239564427, 2.8695032684520085, -2.2609263032425835], "delta": 1.268789644334987e-05}, {"inputs": 80, "activation": 1.0878261555752762, "output": 0.7479721515443253, "weights": [2.652270737538905, 3.1584121597762937, -1.4178152136008764, -1.5132140825388658, 0.38846017686835993, 1.7877772407688892, 1.8028512197936373, 2.6096093691716655, -1.0889486309508831, -0.05268436505819601, -1.0250941233275088, -0.5291667247879475, -0.2402064297609943, 1.176239439898325, 2.2710411361909677, 1.4365161595145555, 0.1533759127379615, -0.5929533090590235, 0.8861329396680545, 1.1142841732084368, 1.1123349125968127, 0.6345406693797926, 0.12684818993401342, 0.04914270860329397, -0.5871799225860223, -2.4121352277735713, -3.5818500681714878, -0.310920526212056, 0.9294806497072031, 1.6055492840259937, -0.20349954413516408, 0.18650313029036028, -0.16360723364826796, -0.17844276354889085, 1.1835462345717054, 1.071683673669441, 1.7674857109055928, -0.6574778797657879, -0.9084957885040562, -1.3273157903494868, -0.5987370393013064, 0.46159911577719975, -0.35346655495436563, 0.11456683278952609, -1.4950624126996164, -2.1872225443521627, -2.6691279713686007, -3.3116068386030193, -1.6851733876423471, -0.7638301169948931, -0.42550894648657617, -1.0350031079665942, -1.6862176602235501, -2.0882768536857235, -1.3764181886159053, 1.115905488832169, 3.022331008794848, 2.581321812773301, 2.731930976027267, 1.601566017109203, 1.6613392280937807, 1.7528293009908118, -0.7680035179374509, -2.8219189931125914, -3.2093766830437587, -1.3810948570161727, 0.9941100632289549, 2.8657085676500937, 2.5138558599417045, 0.6796659117008175, 3.027268299666696, 1.3086251022246513, -1.9407500027670759, -2.3223152766827124, 2.6792722819743635, 0.7442876573271894, -1.2527524526671665, -3.571474743497078, 3.2859854832107755, 2.007165585721795, -1.870350982529133], "delta": 1.0816031089129912e-05}, {"inputs": 80, "activation": 9.160189797485055, "output": 0.9998948681135852, "weights": [0.9213844210575114, 1.496864922042792, 0.24147174928152565, 0.420479059399843, -0.00690045423448796, 0.39018239341369315, 0.038695018431712365, -0.18753655141576844, 0.23876018753248754, 0.12822013149664047, 0.7109814239026778, 0.03809126519629507, 0.7144740621924636, -0.1012661122084674, 0.2503151551121784, -0.2165499911589559, -0.13205593024521356, 0.5971940847504483, 0.385467755630479, -0.19367698975387232, -0.1569778311067765, 0.7011253772022366, -0.07628264056091, 0.6659560353429292, 0.5556965294410732, 0.4062645359742569, 0.28826394189284577, 0.2921619631231748, 0.2096883301593913, 0.5471209784197841, 0.5252914189463042, 0.5428035188244058, 0.7005510431289881, 0.30796707909999327, 0.4935429934022609, 0.6556161625470228, 0.24768346842191544, 0.2129456628163193, 0.035333253397489627, -0.16843783144088673, 0.4616816944326496, 0.1471916683375208, 0.11458062237717265, 0.6079356577243079, -0.0371263492340749, -0.1869740495950603, 0.327996034630344, 0.1241297384678366, 0.5317542803427724, -0.23236152152782252, -0.07971335461637448, 0.22097240495274334, -0.23184545968037548, 0.8771742466877553, 0.9651858987247123, 1.2255703505392015, 0.8211442501207845, 0.6332300468634364, 0.3518702182818991, 0.49734071334458, 0.06529422458834015, 0.1216840561564074, 0.5811760043326754, 0.7360586677797152, 0.03873188647373302, 0.1651067732570818, 0.7609816227580677, 0.27799594049520915, 0.9219233683888274, 0.5835919854974083, 1.0832876930009527, 0.7211000144032117, -0.23157363659875776, 0.6430827513771553, 0.5137905658651308, 0.12345905616506334, 0.0378150801121807, -0.12080146941107579, 1.1893950759246343, 1.0872830872156325, -0.15622905125574055], "delta": -9.882261337078358e-11}], [{"inputs": 4, "activation": -13.609222462922917, "output": 1.2291057419950422e-06, "weights": [2.1078289294692882, -11.144981191710283, -8.213155773894263, -1.6011225165091296, 0.8339258911321773], "delta": -8.327511470803903e-07}, {"inputs": 4, "activation": -12.644878906769023, "output": 3.2240180625996113e-06, "weights": [-0.8388375614793447, -6.160854688310402, -5.858421240105742, -3.1702750208930324, 0.6141696934628286], "delta": -1.2239599455105033e-06}, {"inputs": 4, "activation": -12.671730267136535, "output": 3.1386009779858785e-06, "weights": [6.551837192385144, -16.826162394807906, -12.220143086999792, 1.7340396683056487, 1.479006146034286], "delta": -3.548771973530386e-06}], [{"inputs": 3, "activation": -0.13665073876426517, "output": 0.46589037741851036, "weights": [-5.097790460724804, -2.856449783916944, -8.507438251032756, -0.1352795024702252], "delta": 0.13290598707087137}]], "configuration": [80, 4, 3, 1], "name": "Sys_Utilization"}