{"layers": [[{"inputs": 80, "activation": -1.2489342567511874, "output": 0.22288467860304093, "weights": [-0.28021063553687303, -0.43239688457848446, 0.3057744750783732, 0.3459091729468367, 0.36277529691375715, 0.8071849947663978, 0.2580476641733638, -0.21503820027491038, 0.14732441510848968, 0.4883474545760708, 0.9672447320508123, 0.054460871973346654, -0.06046220259949587, -0.9033225252606754, -0.005086046237583476, -0.93129941054685, -0.1480810110293722, -0.7260266306173598, -0.6022560140652243, 0.4568344753712761, 0.08932813723879474, -0.07948475130327894, -0.23959027363518137, -0.7252936085968731, -0.11838926638487358, -0.17522920999503866, 0.36165363238625775, 0.2171760627910925, 1.282074093752251, 0.3103415462017762, 0.5310194668211009, 0.6206083295941913, 0.6592012285010541, -0.1400840341827574, 0.44703053701662204, 0.13242529618361026, 0.5462923499645034, 0.8623071472204283, 0.5824645229238571, -0.05384142221462139, 0.30224429443802414, -0.2674706781297663, 0.47628936403312383, 0.26326315388269644, -0.3893370702801811, -0.5616669659046148, -0.27462554380566734, 0.4302369759039404, 0.4275403496820595, 0.6635908504763711, 0.3107938529995251, 0.3446417389866358, 0.038008336534828525, 0.4148489856197231, 0.01460958024979524, 0.3957313497863692, 0.04603231185155563, 0.3310689776310018, 0.13606188345039144, 0.10923600491080702, 0.7785756753946073, -0.4201591936417965, -0.24664415249285293, -0.3351103246087969, -0.3507031583030955, 0.35071277270158085, -0.2942381356589738, 0.3472753247023881, -0.15851059360109876, -0.283094252596846, 0.13717452903809713, -0.125217274007136, 0.3458807784342683, -0.02823017859063457, 0.1437936489404741, 0.22988442876230183, -0.15769565733227417, 0.3827862935006251, 0.5314167557079876, 0.2912852098192945, -1.3062248899724733], "delta": -1.4626420225924133e-07}, {"inputs": 80, "activation": -1.7291666174465656, "output": 0.15069420955258922, "weights": [-1.304195027701838, 0.3451881460626246, 0.5603610408994267, 1.5296368666844398, 2.9075679571096402, 1.8693525285362291, 2.239113944354275, -2.2730951974556173, 0.6308173042687136, 1.2051539093266281, 2.385441363532374, 1.2159208736904248, 0.8135441827473924, -1.06575324018981, -1.8019162668266469, -1.1703122283077432, -1.2683271204894095, -0.6263791364303924, -1.2862716574151856, 0.8298030374125492, -0.682958697139988, -0.959440551904674, -1.3086458630534037, -0.5898470056559592, -0.9867029810146647, 0.17453622942547953, 0.632059157900833, 1.8352709308749198, 2.741449907519775, 1.8153496554433826, 1.521756630307878, 1.5662509967902172, 1.47889941832063, 1.238926621558191, 0.5403934910197781, 0.3707093928830359, 0.043615124413347785, 2.356098828946256, 0.500471981376485, 0.4337673844499198, 0.42708099418228995, 1.1581476727766011, 0.8704630249617631, 0.051114943234301644, -0.2638871778645608, -0.7599145774290921, -0.36560717836945444, 0.09901519908409301, 1.7297654906985676, 2.23645529763145, 2.3535696074031405, 0.9243847199022595, 0.7937323074003763, 0.17945284865848418, -0.030216540383046837, -0.47073611807410004, -0.8656130906142293, -0.4750004947964806, 0.2114891779599342, 1.78283655102357, 3.9858312540344336, -0.6816230240953554, -1.7294980543915275, -0.5131053183125263, 0.34868991671537314, 0.34675556675325253, 0.18200863243950396, 0.0115345028805146, -0.4960990343816707, -0.30308683913054, 0.6504238567409574, 0.10754897768236792, 0.6202721195042874, 0.4175636147356936, 1.270114800440846, 1.5956906304809493, 1.0284199891401942, 0.43603228778349673, 2.016030458294535, 1.526653286080902, -2.330533647262153], "delta": -3.64745708536088e-07}, {"inputs": 80, "activation": -2.049115872569628, "output": 0.11414174792547498, "weights": [-2.0120348152122136, 0.5697972966830542, 0.6919686173097991, 2.197303860123788, 3.547188675583333, 2.265289240336879, 2.6658676946611517, -2.6976480755643166, 0.1583987492986609, 1.7076832989341206, 3.7952987442523045, 1.6033655520795047, 1.3501336091669784, -2.4620751179962435, -2.361862151951029, -2.354289792263166, -1.3137734183975491, -1.3749095029130005, -1.6993520969086156, 1.363345882253182, -1.0473002833958522, -1.3466106399563365, -1.2778929495691633, -1.5941412140829185, -0.5956663515558033, 0.10387944387639322, 0.29632293801576604, 3.2033348742766807, 4.304995820548215, 2.049748428147856, 1.9546614123941888, 1.4537324902023936, 1.7393644538119444, 1.3635732347855507, 0.3664582726556578, 0.3417706818003959, 0.5234669986213077, 3.887879592905392, 0.09612079181116777, 0.44663331273305934, 0.8707611861021963, 1.1662998394696689, 1.0306141899709529, 0.608431650230698, -0.11485926583548395, -0.7763938757179882, -0.49198727035193424, 0.5426300461879692, 1.5732815185043985, 3.4368650581628617, 2.918305483043464, 1.4773350036189083, 0.8093796271811685, 0.237234736976621, -0.6847667963841955, -1.619855394114534, -1.1080845617525041, -0.30711905263824263, 0.5269350879098144, 2.2965403399921303, 5.440361381874342, -1.0929773644725564, -1.758511795619501, -0.8816655491597588, -0.11196441629174124, 0.5669724375797259, 0.8757716117350645, -0.4195431315482347, -0.08192090817174161, 0.4891586145881258, 0.4282672018930246, 0.28486421608365914, 1.5625343071757767, 1.222476153929186, 1.1759203042184259, 1.456315493784841, 2.06942962533991, 0.8058143280348703, 3.022490173320773, 1.8307107334372463, -2.981602044540829], "delta": -4.021969034096882e-07}, {"inputs": 80, "activation": -0.4820747756565577, "output": 0.381762317008427, "weights": [1.9878354087757228, 1.0270663358485377, 1.8483521384593058, 1.935433067137285, 0.602321672141063, 1.2308113864978327, 1.194141882924127, 1.6833210586677323, 1.4723972241451453, -0.19374882544144828, -0.28485853733348004, 1.6890788879527197, 1.6830038466906692, 1.174352610763718, 1.4988911961616533, 1.5448358754468807, 1.7225536862864343, 0.943700978454265, 1.0508081252260082, 0.9442159782296362, 1.2649507803118953, 0.7032804290558085, 0.8664104873247834, 0.8214514628691677, 1.2414771396874071, 0.8542931641080226, 1.2321770803424021, 0.23901670014154036, -0.04615404289587822, 0.32950997414635896, 0.8906972861239347, 0.2987627876228965, 0.6901106591040375, 0.15767959348642968, 0.0017433474625405817, 0.07290474534763913, 0.1079655400612859, -0.0706337851564677, 0.3580051942611714, 1.2770785346747933, 0.6519362542484506, 1.140531429826377, 1.3964618193471883, 0.7300207892628453, 1.4790746386861144, 0.7456202701964202, 1.310371228226411, 0.4168371581147072, 0.5247544202067769, 0.21386583601473333, 0.4615727786719642, -0.05415466458749383, 0.6992258801841897, 0.6342615230636844, 0.37120677449959893, 1.1367518589487793, 0.6020743091312432, 0.6900089373857754, -0.03332959410238667, -0.3195961727564656, -1.8034752622852692, 0.09681338216421363, 0.4114436323388997, -0.08509988109360703, -0.4190403274156476, -0.8244483940407766, -0.8597227653299621, -0.199387171398594, -0.4076261569837731, -0.33560034862447286, -0.8841807837238537, -0.28747268705162116, -0.5547427926406745, -1.0896345682181385, -0.6981067900277738, -0.7671239576440203, -0.9623115457877488, -0.8108620766548097, -1.1696136861547253, -0.8379425458885083, -0.05755548910630287], "delta": 6.760370014581509e-07}], [{"inputs": 4, "activation": 0.9958573162388334, "output": 0.7302432983444619, "weights": [-1.0379405566152582, -4.200589184621037, -5.490963521775443, 4.36686291443974, 0.8198473003364924], "delta": 2.734257206722303e-07}, {"inputs": 4, "activation": 0.4194347708713926, "output": 0.6033479875905339, "weights": [-1.2256394854268493, -3.1086377074451645, -4.542459310626118, 3.0302726785712593, 0.5227050624292913], "delta": 2.5405390036504594e-07}, {"inputs": 4, "activation": 1.291366069084578, "output": 0.784378320789782, "weights": [-1.11757810368748, -4.087040713030374, -5.928348611555558, 4.0371338949685835, 1.291796958216173], "delta": 2.2304373195260067e-07}], [{"inputs": 3, "activation": -7.587579810018655, "output": 0.0005064492748903125, "weights": [-5.414366365297712, -4.14091611445886, -5.144226873740717, 2.899658384448042], "delta": -2.5636096842279006e-07}]], "configuration": [80, 4, 3, 1], "name": "C6res"}