{"layers": [[{"inputs": 80, "activation": 1.282703540255096, "output": 0.9999999972801863, "weights": [0.47583370910906087, -0.08780172449757603, 0.3294874077545209, 0.04891778624563093, -0.11812044117306468, 0.43212259049205787, -0.17420976629992663, 0.5319217785972004, 0.5336908264012439, 0.5119616053244687, 0.689480025862516, 0.24064329777243104, 0.07067706350493164, -0.18742981854253746, 0.7761559912753145, -0.20759106812424688, 0.5167040158614582, -0.14199243403762882, -0.011881894165775364, 0.5108270826779039, 0.363512693906011, 0.2877104316064069, 0.35562045214701904, -0.1466062102429832, 0.333294191544402, 0.11259244488492427, 0.6199147656667603, -0.17567243635585048, 0.7366469420560936, 0.12984253674599922, 0.4601666224803418, 0.5388485784990589, 0.6179404805672933, -0.12153061429622662, 0.5784826818401607, 0.32666427099854184, 0.6970772929975706, 0.19910064691261464, 0.7094430410836681, 0.109961363170585, 0.4508658199768965, -0.14962181814265135, 0.6777337395422548, 0.5445999182515882, -0.004442113505725048, -0.09078379230271674, 0.21267157484416488, 0.6202154737187321, 0.2867910879963043, 0.1660722695137395, -0.18083221532448257, 0.10532455554848193, -0.01660729324393302, 0.5028654871028095, 0.24491831094149247, 0.7662859298564565, 0.32384849195420845, 0.37945375349595795, 0.009458837208274602, -0.1345179618618792, 0.06235902149090123, 0.25304259157629816, 0.6068135402827369, 0.31005642295527625, -0.030390112642487154, 0.4623233087707133, -0.032094115565708826, 0.7345649229179261, 0.3175196165837588, 0.05924097838933849, 0.3982285946874787, -0.07425067828228378, 0.4704939696769261, 0.118634071689975, 0.20342055656736804, 0.17773501165237215, -0.15391101844261462, 0.5035512830560683, 0.28251781798165904, 0.27642241492380143, -0.06915871955913323], "delta": 1.2889245928966812e-12}, {"inputs": 80, "activation": 27.12283816472455, "output": 0.9999999999983378, "weights": [1.329335221429755, 1.4386512853389128, -0.9009654489944032, -0.6872395338674164, 0.3973068908457805, 0.05557207057905387, -0.004964916606821372, -0.16998524505387266, 0.4340648029430291, -0.3638506108427699, -0.29880726308080924, 0.3410038229170142, -0.2883948298620706, 0.5152015117843265, -0.024877034949146642, 0.3593289307242184, 0.006752048620015863, 0.3031001700154417, -0.1047596557669624, -0.2269446967032605, -0.014109654866280064, -0.07320798213839602, 0.10475688440359295, 0.6571862493236357, -0.16736450703098016, 0.4025778266260713, 0.6611004106256524, -0.21297503273406013, 0.17501211209441472, 0.36161767029065894, 0.44045362357316914, 0.49605798827136943, 0.5819665222579893, 0.5835847868279852, 0.3661192423225789, 0.46185122929461925, -0.00514932548667666, -0.17849856971866718, 0.19492159377202092, 0.27393144946681613, -0.049857260852027525, 0.30880625368887205, 0.34445958805308363, -0.2221626464338037, -0.09340580970569484, -0.2736434078755846, 0.22869675008278145, -0.18012292070999233, 0.4562949777721314, -0.14133408942874068, 0.17611309978709302, -0.11943157050250247, 0.4984919912699397, 0.5528964203927916, 1.030273800503097, 1.281118459978956, 0.7393991250824727, 0.38952478689976827, 0.35954655841929545, 0.839485074628484, 0.8755490742442988, 0.5694077851296838, 0.1408346587859434, 0.8733823596733141, 0.9084669013104358, 1.069894373554201, 0.6046352565045255, 0.8284144273091134, 0.4152682849343057, 0.051624233640096655, 1.1248479887594627, 2.9060325711238826, -0.2650956755434288, -0.006875222491244985, 1.721064229676265, 1.1374995897763982, 0.6008064707358813, -0.24715849546374188, 1.3355927581254476, 2.3842154580030694, -1.3276777721350816], "delta": -8.703508910409691e-15}, {"inputs": 80, "activation": 36.708685576300624, "output": 0.9999999999999998, "weights": [1.701731913673512, 2.1017295925054285, -0.7308466013149576, -0.2913257314587629, 0.11690975220293838, 0.14648410419374036, -0.21805004031030975, 0.36028588018119106, -0.24084453799931138, -0.3314748555896477, 0.24395169347973855, 0.3587415243613146, -0.2274993418759635, -0.33566867972723785, 0.04456548327339519, -0.31119278921276194, 0.352472766807619, -0.20780273306197763, -0.14639957373237278, -0.12459401114642868, -0.16204101062169995, -0.18035627401594442, 0.6167685666277729, 0.043294488337236356, 0.45300968165241073, 0.34722836535012797, 0.293968296209237, 0.2749823872128436, 0.6667277467361414, 0.022330712815768098, 0.4810848239980922, 0.022328678787595094, 0.5667320557820542, 0.5477299208399617, 0.24095203069536625, 0.6114782158562209, 0.6222050365808307, 0.4647776007139056, -0.13058780324090188, 0.42365516927174446, 0.3412735163722386, 0.05689792847871056, 0.35259911768452823, 0.2423911055460656, 0.10658832997952417, -0.1474507990174519, 0.273718027349973, 0.09172861341079623, -0.2556752391120189, 0.08301458931364782, -0.11468593888091955, 0.0982042752587075, 0.4840196634422367, 0.8621341853659195, 0.918637314841237, 0.9738542932384366, 1.3525681028502392, 1.1680525954833214, 1.007409822270354, 1.0801160401498862, 1.0878420484882747, 0.41156811441570124, 0.5623340185768001, 0.8435904400466512, 0.5675587954340819, 1.6129610095063942, 1.381516954010318, 0.6261191216401519, 1.08245413220965, 0.8982098979423778, 1.0436598847230956, 4.473255973694318, 0.09276669844688609, 0.47743369899607463, 1.9077600979365588, 0.7287098820782253, 1.3327109770209289, -0.4278907007514557, 2.007661361957254, 3.1446935201654593, -2.0004315483198054], "delta": -1.78328982308283e-18}, {"inputs": 80, "activation": 25.792477847462703, "output": 0.9999999999937126, "weights": [0.5976942052905704, 0.2904293641011813, 0.7410988486035085, 0.860154259865141, 0.49221345474055644, 0.30861485531365207, 0.6469749867381932, 0.04177300161163397, 0.12694720839772156, 0.3343155078889385, 0.7448540117509347, 0.7225351583415305, 0.7955440310884627, 0.10805906008840922, 0.3693903419008557, 0.45572900849474446, 0.6770708334140044, -0.06522925603337176, 0.07447181090138534, 0.1880421192008805, 0.7095813666933211, 0.11085991607855565, 0.03672862507669873, 0.019066918149684687, 0.45720759830040275, 0.14816371215640908, 0.4716037144275481, 0.043823694296887115, -0.019556226784902424, 0.18826124901673374, 0.8637261015770562, 0.4819864145975314, 0.8600208911443702, 0.3265217058274051, 0.17422974738567476, 0.11126411053612716, 0.023880285296344162, 0.522529573251133, -0.002729682520084823, 0.8437612301421417, 0.14902040073312342, 0.5787621819066434, 0.8077513102555562, 0.17152015943324234, 0.8896422545981701, 0.13882455425877516, 0.6922150606173088, 0.10227037642977395, 0.5440042726289066, 0.5829022814076867, 0.8606262666595668, 0.1599794576332337, 0.7292711944935953, 0.5058800426630636, 0.08499461502825421, 0.6908360899363767, 0.259550647157008, 0.6384785825899268, 0.2373492816381874, 0.5318086985035748, 0.005798767948801086, 0.3092179715542071, 0.4240305125420394, 0.17523663339011952, 0.1753242599787961, -0.10695346713096142, -0.053928737876872836, 0.44191173541210804, 0.14079816689752067, 0.3807754879334918, -0.18628192839405475, -0.18379387779054066, 0.3469273965035351, -0.018926404000790542, 0.2791690803978438, 0.5502275155058607, 0.27932316316554856, 0.26921567798219864, -0.1537444821742233, -0.48809864459581426, 0.676701088157436], "delta": 1.5061710614790157e-14}], [{"inputs": 4, "activation": -6.675331753242017, "output": 0.001260064193638893, "weights": [-0.26688942127515614, -3.48475646028523, -4.444206150396673, 1.2264360218303847, 0.30136325809335923], "delta": 0.00041748605694072216}, {"inputs": 4, "activation": -7.028143208341007, "output": 0.0008857911194300071, "weights": [-1.236357437441896, -2.105721214833641, -3.293483510444623, -0.5855982230113097, 0.1967896448763809], "delta": 0.00021360117914284872}, {"inputs": 4, "activation": -6.451169447114319, "output": 0.0015761866257093082, "weights": [1.0986815984040676, -4.287291651715715, -7.045296190838922, 2.5920345454623717, 1.2039359165392682], "delta": 0.0007762570194983792}], [{"inputs": 3, "activation": -0.49057437301080964, "output": 0.3797582693911085, "weights": [-3.709188428161118, -2.698591332500518, -5.5151559777436985, -0.5195436811551544], "delta": -0.08944899427042324}]], "configuration": [80, 4, 3, 1], "name": "CPU_Utilization"}