{"layers": [[{"inputs": 12, "activation": -6.647989810020148, "output": 0.0012949468902279302, "weights": [-3.268971135207255, 0.023040471124039695, -2.329978620399605, -3.964586006387881, -1.039061597721793, 0.6539812886119707, 5.101459907198964, 0.6766551613091979, 0.6328901414724551, 0.3449448021528793, 2.3734931620384647, 0.9256690287655935, -0.6866336180006923], "delta": 6.312110102558679e-06}, {"inputs": 12, "activation": -4.890748006833229, "output": 0.007459732655704977, "weights": [-0.21563199354066154, 1.0149613969147686, 5.710167016445318, 4.194661062904953, -4.684366765565117, 0.2090335798760108, 5.119513949389328, -5.146816440693964, 1.3730675439496243, 2.235048260078729, -7.710653712921619, 4.526423841933355, -0.554099823478805], "delta": -8.648424590640217e-06}, {"inputs": 12, "activation": -2.7676503669130588, "output": 0.8079978799309765, "weights": [-4.2047067584694, 0.045467456949272435, -1.7211122427550414, -1.4984850874922615, -0.855668915107577, 0.7608965809412528, -0.83998187314654, -2.0400911860286377, 0.7679679742298504, -1.0335247033526687, -0.7086477497952398, -2.7840387528992077, 1.4370563915563412], "delta": 6.741758943841806e-06}, {"inputs": 12, "activation": -1.0359630829778854, "output": 0.26192967049752586, "weights": [3.686390976670473, 0.6726683048344874, -0.43629751124995386, 1.6119091461745942, -0.2248373685350495, 0.21742444606932587, 0.9504475745707057, 0.523153808699431, 0.8485225015373773, 1.3819451415029553, 1.1789860504751006, 1.6032533806208513, -1.0359645292837738], "delta": -2.8926117766634936e-06}], [{"inputs": 4, "activation": -6.10030320817305, "output": 0.002237171607939563, "weights": [-5.67571511125743, 7.473421162332887, -8.70215718060149, 3.000165768535405, -0.6805546960208474], "delta": -4.993739900854857e-06}]], "configuration": [12, 4, 1], "name": "jobber"}