{"layers": [[{"inputs": 80, "activation": 5.079717554495081, "output": 0.4958412350292292, "weights": [0.008225110488597982, -0.6762225837189512, 0.04952020545111183, 0.032544715805447016, -0.16626483399824202, 0.6357572577917744, -0.3963436331623203, 0.7399097176015947, 0.7411184967935822, 0.7247728916135384, 0.9066823671188167, 0.4551928411662786, 0.29032400935589553, 0.034794855239136564, 1.0032058744276615, 0.005462617179890854, 0.7169113424503394, 0.03741636289099185, 0.14772304957273028, 0.6774939205709133, 0.5377936524732518, 0.4707231598736517, 0.5519908911628949, 0.05985272218894072, 0.5551551750517649, 0.3460195514670433, 0.8480919649721163, 0.05051774410976224, 0.9567657117725221, 0.3492074839420133, 0.6896245621382705, 0.7595375236375966, 0.8405684325663969, 0.1024860407487133, 0.8054363530734461, 0.557548221772161, 0.9301383389013735, 0.4442799147849557, 0.956379613297026, 0.3567968830939384, 0.6928299321244532, 0.08951999926823961, 0.9169357860157418, 0.7796367807963106, 0.2323859381725587, 0.14819141991063564, 0.44787273190041793, 0.8554328138261998, 0.5231383327415841, 0.4034756978828621, 0.05931911833352773, 0.3430138764000439, 0.21991263768297384, 0.7328024451498367, 0.4689792160714251, 0.9802711639698714, 0.5378860533118915, 0.6042694454182512, 0.23681630169839185, 0.09924091501461167, 0.29894885769327784, 0.4840672246581452, 0.8339006969025315, 0.5289775857157284, 0.16855792631935118, 0.7080924194692277, 0.16574569088699698, 0.9193005999243127, 0.4908061236515668, 0.22737080233974571, 0.6047153820790245, 0.2944380771599769, 0.6753710610226817, 0.3241570611825748, 0.43616893421692865, 0.40897771072479283, 0.08234517232861184, 0.7208547421308548, 0.5249171684881091, 0.5328303169957057, -0.01663448852274231], "delta": 1.9099759570625227e-06}, {"inputs": 80, "activation": -2.179649037883833, "output": 0.10159295637265818, "weights": [1.7564271733753793, 3.102635131927113, 1.8666847460425153, 2.067995104136155, 0.047271994702455696, -0.8590998148727401, 5.414417401831836, 0.22062188326764717, 0.08996752028812537, -1.0257145517365298, 0.2125771562526103, 0.13633352706076107, -0.3913025321080315, 0.8643132561104174, 0.4648937209245431, -0.2166817824455784, -0.8453532830742675, 1.5251147269750853, 0.35221680496667984, 0.965923369180374, -0.1488385606838282, -0.3990843043871372, -0.6894927599384643, 0.6225113491870662, 0.35234840502781234, -0.11466324994031478, 0.33025344455482397, -0.32853534380800103, -0.48523340780657825, 0.36282912447295174, 0.4951209399633783, 0.5987513968440726, 0.7627421545420975, -0.4074033076778085, 0.4880261913248732, 0.6135910538218283, -0.34572146817168126, -0.528271209677402, 0.18089697786362582, -1.290439806122555, -1.36875999741533, 0.16378735092739596, -0.47612085013734856, -0.5400264537900578, -0.07508680923289081, 0.19412440572809703, -0.2032457899138964, -0.5948494809566756, 1.6079894680371898, 0.31287638165517007, 0.6456807423825925, 0.09084308838507626, -0.013519831716290296, 0.8417737413052112, 0.22853419180260462, 0.23186933265349674, -0.01580048008116005, -0.12200979536003781, 1.266010721771094, 0.6412770052282253, 0.9133811572627962, 1.570083243534903, 0.04905373061662129, 0.4587435518745047, 1.3630973784168117, -0.06613833494715521, 0.20864700567073113, 1.381549915900375, 1.0943719788284818, 1.5957255244117632, 1.4321546961115463, -0.09157463424558145, -0.422773811214108, 0.5441681158061182, 0.11557266728591599, 1.220379431799331, -0.16709115841754874, -0.06260857989529929, -0.309636161454113, -1.1906890085592887, -2.1796501131898416], "delta": -2.150612017399875e-06}, {"inputs": 80, "activation": -3.2340770694901653, "output": 0.037903289655738776, "weights": [2.48578655079433, 4.537764475239305, 2.8995118073961876, 3.0606175863438345, -0.10514713080470353, -1.056902104594894, 7.616319998887295, 1.001384608430059, -0.43607153993050113, -1.0165408647924041, 0.7700914209209971, 0.025798326601447, -0.28798493605087394, 0.31380973497580233, 0.8889636598228686, -0.7798282929431936, -0.5531633074941893, 1.3377839505183338, 0.5018873320668886, 1.5530443641422456, -0.05837960286012855, -0.4125446591118018, -0.18778096096927116, 0.0900490537741007, 1.0948615596813633, -0.14714997688482867, -0.03001184800998868, 0.09887609412287501, -0.05728301486755556, 0.09387037342649891, 0.5657567560106925, 0.25535342275641004, 0.8485051902413386, -0.661342794307211, 0.36377824958739996, 0.74073307457955, 0.349176150767956, -0.20801933801942032, -0.395999825594508, -1.7040175897827134, -1.4004664573254577, -0.36423736746228275, -0.8426211637224315, -0.14809623885771092, 0.16026029732746838, 0.34073366040620556, -0.13371813100072652, -0.33817714292207274, 1.2021762843767512, 0.972171851358209, 0.6821127808185863, 0.7493624733618979, 0.17554954540044665, 1.1608033735876973, -0.23054093443487256, -0.364515486884885, 0.15580687485011693, 0.4004746602908458, 1.9480178272908648, 0.8224465472991707, 1.2763896850049772, 1.7102933384035834, 0.8648393632016387, 0.7675169123713956, 1.2750511198137275, -0.0975377251257514, 0.8065444887032942, 1.200467530418402, 1.9357337487129478, 2.9362694158942277, 1.4065346784380255, 0.11760841111593401, -0.09243247129220632, 0.9840820741955449, -0.5444003945853951, 0.40046123800466077, 0.10735776960526743, -0.30775245345618085, -0.7118592898880302, -2.1781970892125004, -3.234077630248488], "delta": -1.1215166461604562e-06}, {"inputs": 80, "activation": 0.49744480530451646, "output": 0.6218586633363923, "weights": [0.2119584723943775, -0.13284586189588093, 0.23808348730544543, 0.6578324591284441, 0.2655707358000979, 0.392840263240016, -0.1335381916084688, 0.14375196882938196, 0.2308971830729311, 0.4426277033850786, 0.8582012209968556, 0.8322006187960276, 0.9064560843192465, 0.21819301287359552, 0.48157832683005175, 0.5630237031233833, 0.7842086727357745, 0.0315838072230652, 0.16652076460005769, 0.2816298618648236, 0.8087182041777089, 0.21801794822873213, 0.15374056354438134, 0.1403672979132872, 0.5874605877033854, 0.2837080954597729, 0.6018623263050261, 0.17228542968120986, 0.10292199949837445, 0.3084195805596874, 0.9911541785400682, 0.6039341057884713, 0.9836372599746932, 0.45355138365152264, 0.30188072668495014, 0.24253604787782534, 0.15728929515210732, 0.6644759512711957, 0.14126559602189692, 0.9897372600285304, 0.29288651190893406, 0.7224691717457125, 0.9506805981011714, 0.30156662936469264, 1.0285905757684357, 0.28008173801775693, 0.8319660661150211, 0.24184366181517766, 0.6806874361936222, 0.7158092916168376, 0.9908397728594378, 0.2856546001475707, 0.8797231869321732, 0.6890037657534437, 0.3011602307965822, 0.9365371702303122, 0.5047124030424803, 0.8725650526459292, 0.4535181934100741, 0.7333148966558396, 0.19979326883922724, 0.49266931370594613, 0.6012686651176388, 0.34547942424641226, 0.3362436060122681, 0.22854941813028284, 0.11958507940422572, 0.6122240816471846, 0.2866557619032508, 0.5052096218283572, 0.025816673238861554, 0.6996956629825459, 0.4647636113957351, 0.09660403423518599, 0.6966547033698053, 0.8322474103603846, 0.5343261730041343, 0.3829609163280545, 0.2803094732009002, 0.15272847526353128, 0.49744572849190516], "delta": 1.8463747774271472e-06}], [{"inputs": 4, "activation": 2.2056231111336095, "output": 0.9007533328571348, "weights": [2.0831898058329905, -5.115205272001544, -6.434876592927274, 2.4128739174486507, 0.43387097059518587], "delta": 2.431800826207714e-06}, {"inputs": 4, "activation": -2.0123879482637372, "output": 0.11790839016114252, "weights": [-1.4206393565217583, -1.63712246749472, -2.1425001980699587, -1.6068450409302566, -0.06158716953041609], "delta": 1.0327046824229328e-06}, {"inputs": 4, "activation": 2.5584694413587603, "output": 0.9281404428322677, "weights": [2.1484020858137107, -5.0257681812719825, -6.868579146978387, 1.9360899670028437, 1.0582244537714962], "delta": 1.8781907551919954e-06}], [{"inputs": 3, "activation": -5.85843078806232, "output": 0.002847589478415405, "weights": [-3.3637314708125907, -1.22770218821058, -3.4822525470900656, 0.5492308881795601], "delta": -8.085675401300085e-06}]], "configuration": [80, 4, 3, 1], "name": "Mem_Utilization"}