{"layers": [[{"inputs": 80, "activation": 11.075843295709538, "output": 0.9999845184068343, "weights": [0.2621862685576217, -0.29555789718251096, 0.27035711746404745, -0.004148248594727327, -0.1635208263299504, 0.3865554297984028, -0.22028154170440395, 0.4853110474019583, 0.48643463289732913, 0.4652352147318148, 0.6435189648010883, 0.19543658187217772, 0.024724457878934555, -0.23383751728145677, 0.7299684748159161, -0.25348625297696803, 0.47035255691452776, -0.18789086172298566, -0.05820633043860206, 0.46511718513170536, 0.3175007504517861, 0.24024609751118933, 0.3079090189928303, -0.19391887917183348, 0.2856139097202703, 0.06406371864082883, 0.5710498355556327, -0.22321537604016856, 0.6897515348118518, 0.08260604184679658, 0.4120952367953819, 0.4910792574575247, 0.5697390078382895, -0.16966595062872852, 0.5300224175026014, 0.27831075609287775, 0.6494260031947656, 0.15219892531953344, 0.6626544992705738, 0.062444332340860005, 0.4032765724231782, -0.19710419002478055, 0.6302803573299797, 0.4957389442422285, -0.050923921779875266, -0.1370701956178659, 0.165655592276003, 0.5732245243022456, 0.24076077741105692, 0.12083373867424657, -0.2251672586953442, 0.06197845352527363, -0.06170936976886104, 0.4545060494623281, 0.19230054374736344, 0.7088350546814518, 0.2660104696370481, 0.32398672341195156, -0.04322321261785849, -0.18600282954432995, 0.010601175774838354, 0.20151130227204966, 0.554414630006808, 0.25741955288923657, -0.0862664745778301, 0.44784603478877993, -0.09363305270529648, 0.6691606637865078, 0.25119992549907766, -0.0068083109924362934, 0.4009355751521021, 0.07178826644562245, 0.40564327119536714, 0.054126918631696615, 0.16714044865161057, 0.12888430429990863, -0.20245921270777295, 0.44727659184774743, 0.3107306595791871, 0.27706921530846695, 0.012092130623320594], "delta": -9.809221893197709e-08}, {"inputs": 80, "activation": 3.9827201130050276, "output": 0.9817060247068596, "weights": [1.632871661652079, 1.5209960934312567, -0.9266028127492958, -0.9510618050918265, -0.0488658176470474, -0.2774392250281857, -0.23879163439115966, -0.3420345991841329, 0.13008600518893035, -0.7395246881754146, -0.7570408715679773, -0.08100520571267587, -0.6419038372117472, 0.22835974578973645, -0.2583311831750895, 0.11936862142592229, -0.26478145803780756, 0.17603094070317238, -0.05695249773440371, -0.23900366878914278, -0.09696568281863882, -0.222317435655444, -0.046049562930998024, 0.5314169018829923, -0.3049062447527125, 0.32500611529434426, 0.7013202000799715, 0.017847675226884876, 0.43815864963641776, 0.496037176195212, 0.3827793594712978, 0.29412446876633713, 0.4590102234616908, 0.5628796941624015, 0.47139874557483336, 0.5077092398970598, -0.08956239596787571, -0.7062263787230714, -0.4118498156310517, -0.15950733477525653, -0.3178165187843283, 0.18087877005658753, 0.16726239080140134, -0.44249876067224586, -0.4198394670793203, -0.6612444006951812, -0.2572140059328483, -0.7169441140730552, -0.1465533173662874, -0.6581362117474503, -0.2784491418996243, -0.5184446102513939, 0.19424288478414795, 0.3808671757964037, 0.9998771597538847, 1.4018043606283288, 0.8197016325759093, 0.4210725205267958, 0.3236789178302705, 0.7966950777999878, 0.811068958495938, 0.48881016420922757, -0.03483540472678991, 0.4245873832869934, 0.38905685212558566, 0.1727117238556916, 0.3024072222258645, 0.7817843331296873, 0.4606574407846601, 0.1367342790532286, 1.8703509476511475, 0.9187473911591497, -0.3607311270068142, -0.0782161065015719, 1.413104032452677, 0.9865841808207857, 0.4047585111148889, -0.38658865888086785, 1.879396619661927, 1.4943895917564176, -1.0941524599689978], "delta": 0.0004666103477285327}, {"inputs": 80, "activation": 4.956807957727984, "output": 0.9930138011873987, "weights": [2.3811524707205365, 2.4675480254308146, -0.7314350405083276, -0.6339218098411792, -0.5047609351972564, -0.32229731150026164, -0.5541441167491699, 0.11003792547078171, -0.6726216603603271, -0.8619051687221894, -0.4115462041516948, -0.24962592179140608, -0.7379276383160451, -0.7607466225813148, -0.3056849944816701, -0.6568189836977124, -0.033981992752154806, -0.3730580545217333, -0.037471057748911164, -0.10087773521694043, -0.24330891730353818, -0.3580543338113203, 0.43342055255283807, -0.10671338128308559, 0.28168381208544335, 0.2686392187358572, 0.40196506758748435, 0.6467947048598113, 1.0798032874507226, 0.23341997432453276, 0.4139997247578564, -0.26238605284835925, 0.40251552914214117, 0.5392657152209032, 0.42608047470981114, 0.7118654798624791, 0.528373169487884, -0.31222211094760133, -1.0361846063957079, -0.2327554072584092, -0.0750511043847734, -0.14467753545009052, 0.08691806216354163, -0.07718514347158009, -0.36793666255114443, -0.7085861717263531, -0.431341670959455, -0.7050318674180591, -1.17191370811674, -0.716248258174855, -0.8072391753413417, -0.4969654749439742, 0.05231620057482458, 0.6429577655413712, 0.9154036690432391, 1.2029755346611828, 1.5042585547134468, 1.2451614497886097, 0.9871797532866288, 1.0567991092692663, 1.0311856426799535, 0.32975686701360757, 0.3472965373310247, 0.21907024156931876, -0.16266247759670552, 0.32174886904335814, 1.0003345120001772, 0.6363514494757856, 1.2285771645666195, 1.0937545936535689, 2.2460629445545406, 1.4840568575962325, 0.01357303270072515, 0.4399811234760828, 1.4810641190658016, 0.548796342841618, 1.0856274722427812, -0.5760593080403338, 2.8692955892649743, 1.8034794519857198, -1.7135342350055427], "delta": 0.00029543358365188334}, {"inputs": 80, "activation": 18.137554106918593, "output": 0.999999986727268, "weights": [0.44053593930385715, 0.1721859460086081, 0.6316043111952248, 0.7876721497034158, 0.46172175711503727, 0.2788432675241853, 0.6182318709952798, 0.014160598576603846, 0.10112694833654204, 0.30800855091663654, 0.7182156725816116, 0.6949887303732184, 0.7676417278780726, 0.08081113875675269, 0.3425379154027132, 0.4295413913561546, 0.6516928979346432, -0.09592919022421631, 0.044665160893403784, 0.1576650362414676, 0.6793430833017639, 0.08169441193929486, 0.008046671756689234, -0.009477502691245088, 0.42899260005535556, 0.11931031688089515, 0.44164130257707945, 0.01223612232609003, -0.05154013294409389, 0.15751475390649702, 0.8342837004013163, 0.4533561040696946, 0.8312435245714943, 0.2966125354496563, 0.14336221535917484, 0.0804167358903712, -0.006505458242870801, 0.49646521010762173, -0.028019684334794966, 0.8180311057830459, 0.12235558622266318, 0.5508425204235513, 0.7796754730009395, 0.1336435702407515, 0.8611145349677558, 0.11020543052748392, 0.6641073836272114, 0.07438773735181436, 0.5166512075780811, 0.5554480994264231, 0.833098128110249, 0.13229717530757532, 0.6976480699439735, 0.4682814329046959, 0.04159474585020254, 0.6418778525241299, 0.20764918338328064, 0.583182403386967, 0.1783316109250109, 0.4692948467876296, -0.0467468316253128, 0.2707625858209199, 0.4004619058663139, 0.1673735222935745, 0.15923331663934642, -0.01449004775661596, -0.10062995223028667, 0.37947281404744204, 0.08072003439050336, 0.3261747396391231, -0.3047159414098531, 0.3727622710211521, 0.3040668715353024, -0.06318613051377714, 0.38001864351548825, 0.585476331764616, 0.3033281530896881, 0.22872368172193297, -0.1871733928412863, -0.24616256974939732, 0.6604276963579372], "delta": -1.946515190506326e-10}], [{"inputs": 4, "activation": -5.766483037493301, "output": 0.003120977903050329, "weights": [-0.08498527271263474, -3.158682855177309, -4.020066928530318, 1.186393356707315, 0.2249875093447539], "delta": -0.0015972062328430423}, {"inputs": 4, "activation": -6.343022847330576, "output": 0.0017558885055364612, "weights": [-0.9972593681718298, -2.0039032911281254, -3.227125651360277, -0.3666952268228692, 0.19274054743027083], "delta": -0.0006970359697016017}, {"inputs": 4, "activation": -4.817563189794702, "output": 0.00802160190840421, "weights": [1.296163284149669, -3.5337726447193254, -6.133636452022095, 2.3558041302610806, 1.0904010373244515], "delta": -0.005529409293350397}], [{"inputs": 3, "activation": -0.9026631456395502, "output": 0.2885035277325102, "weights": [-3.5150476389327885, -2.722857209220234, -4.7579381027327265, -0.8487454405894349], "delta": 0.1460483417034174}]], "configuration": [80, 4, 3, 1], "name": "Sys_Utilization"}