{"layers": [[{"inputs": 80, "activation": 31.793115681426247, "output": 0.9999999999999845, "weights": [1.7948348847305873, -3.2981024679012982, -5.284279557322494, 2.6831911625182863, 2.695426259768066, 3.3067599406584387, 3.551452681022481, -0.9706659033294808, -0.7736129389867001, 1.6719562186615036, 2.180838608258947, -0.17522603707960346, 0.6305125774910147, 0.7385588754655392, 1.8196503502106665, 2.0359045981763466, 1.2734491211110237, 1.5589479093382606, 0.3327868922016936, 2.4398172939490284, 1.5668861547006039, 0.9255630234600728, 0.5389998503131291, 1.896921594644879, 2.8158961241343214, 1.834936561922389, 0.8339008643667185, 0.06144644414022555, 1.4373009276546507, -0.4081637591996147, 0.045067542025147234, 0.9291928424026651, 0.7090878366448917, 0.8713970379585767, 0.6778087600861329, 1.0647445939914506, 0.9183433954178551, 2.065767864385108, 0.794038477374079, 0.2689328052738033, -0.29787800755062854, -1.3777695721097358, -0.9680356651576996, -1.9232552150847582, -2.179151960431436, -1.589455412918595, -2.1662998222528227, -1.032014393716748, 0.36756808344542125, 1.445371185543059, 1.8056114164887966, 1.2112810530367475, 0.8170226571646912, 0.15151900133255994, 0.1623523814974398, -0.34610822691861376, 0.7073640209533968, 2.2002087738795986, 3.1414314708151303, 2.4099199935037525, 1.2187394082970437, -2.3765526627439293, -2.4032265081602766, -0.823043383324812, 2.3759560469879637, 1.3626390982883245, 0.41722575583345417, 1.673644575698645, -0.9967541734700558, -0.35313938186550065, -0.4410442899775711, 0.8926087125061963, 2.096931553271838, 1.2016170432178164, 1.3254994458935596, 1.8422425961611477, 1.551001105342786, 0.3465918891443482, 1.97358733660812, 0.24047460990003874, 0.33676844209239487], "delta": 1.4761296610477576e-20}, {"inputs": 80, "activation": -8.517745261787763, "output": 0.0001998496685246778, "weights": [-2.552124493480481, -1.309650397665841, -0.7717586539166509, -0.3954067860995429, -0.24280825402170023, 0.9398723053024137, 0.16664618538847628, -1.3270256863300591, -3.3655815170612153, -2.471453647129289, -2.94063957293152, -4.896980575225255, -0.9203852305191546, 1.4493562992028088, 4.983869776615858, 2.6877692744079646, 1.089756964171117, 1.16520180682142, -0.7749874754915347, -1.2400350858636693, -1.6176155658583355, -2.8213393872357013, -2.9096190003500295, -2.6227733433717173, 0.8769089358175892, 0.6465419634491575, -2.321869078113866, 1.0741307375568645, 1.367655270351149, 0.3668911707264381, -0.17888641016288095, 0.3838274199428308, 0.9009596993355388, 0.6925713735923082, 0.8643022137028264, 0.8868608399347852, 0.8903674372647011, 1.0047851707001718, 0.8171240210103715, 0.0738888012150824, -0.9496175921405298, -1.201696330992774, -0.23590517522992116, 1.8687869859161277, 2.671603170491765, 4.066393907932938, 1.9652795580281213, 1.493408274108856, 0.7611783098977155, -0.2801811297049547, 0.8847790646252442, 0.5226651465967093, 1.227966765317835, 1.4171311918350655, -0.3702821382495594, -2.2341931938709685, -1.945958433778131, -1.6036968664501006, -1.4348985301688462, -0.6623347298919056, 0.6257982033462134, -0.16446234961219505, 0.72874804798443, 2.0002566693746004, 3.0359577325242197, 0.5379683582928276, 1.5139928695097762, 1.412431152350653, 1.0880801931842479, -0.0806881169916828, -1.6462099296545063, -2.767674528647991, -1.8846981234828926, 0.4022874882793239, 2.0808753052393145, 5.260392470073186, 5.092710822897957, 4.330351577188107, 3.7665411305717527, 2.8428335023528883, -5.449307219911654], "delta": 1.9220556283514844e-10}, {"inputs": 80, "activation": 24.051866500004454, "output": 0.9999999999641567, "weights": [-3.24706495317061, 3.542657413154254, 6.069427256102766, -4.587946768891153, -4.191153384586478, -4.14389548543969, -3.278911055352229, 6.817673777917073, 7.164951870915873, 0.6046150286167327, -0.8450157437726971, 5.678030650191157, 5.407266207542711, 4.093151605786234, 4.391329496581529, 3.995309489768905, 3.6477726399423664, -0.24521389618037728, 1.0879865835113756, 0.7731671974357262, 0.6024320404802436, 0.8339526279452464, -0.0542864305102614, 0.3400451832899802, -0.6442168322096495, 0.09420327375027895, 1.07897096787791, 0.6752680994587861, -1.7855491953944076, 0.5286108996762116, -0.23126793583789454, 0.47863363112874635, -0.015674975752886556, 0.12496943152545818, 0.9087563988521844, 0.9421289853934296, 0.11980159160404745, -1.4747221565321864, -1.2962448207983979, -0.45762490991919746, -0.6801748525296811, -1.3756458796257813, -2.19700370815606, -2.3053655136039257, -2.007847865067358, -1.5030137805819617, -1.3993081071909705, 0.12194336833289614, -0.16544146556459902, -0.6438159479978315, -1.0995375222588972, -0.5714395130438732, -0.010290937562619125, 0.23938346720561574, 0.6332839974269883, 1.6508665671545129, 1.5594429569645756, 0.061028897838168, -1.7075892747889787, -2.1349530644803187, -1.964687438940531, 0.22732380496876112, 1.0949660553556837, 0.27197909682671767, -1.5800305001521402, -0.9382701964078795, -0.34454224295818553, -0.564999380963298, 0.4903446435045672, -1.0162915134470991, 0.2800010349010841, -0.6707484120278135, -0.5920891999540124, -0.6404126164582419, -0.5291586784419116, -0.9168534277655467, -0.022263759155190542, 0.9308826433037537, -0.7526973813586376, 0.0950473605949103, 0.025577992990554917], "delta": -3.87639931789215e-17}, {"inputs": 80, "activation": 31.781172781355597, "output": 0.9999999999999842, "weights": [3.382737174932035, 5.568530084035021, -2.313529787920255, -1.7917958754622727, -4.408623326601978, -1.1503148722661953, 0.9090068574076102, 6.03866286607556, 5.347340530120444, 5.2774447794203265, 3.4365923592538636, 4.005363604262566, 1.6166693029937156, 1.925050152686412, -3.7320662011970396, -3.3853656435195063, -2.9217256759512957, -1.7974628667668444, -0.7541644163455306, 6.810413689536445, 3.809346863475523, 1.529293791351841, 2.7347557452491285, 4.976565087442101, 6.3794439481417315, 0.8473783665140874, -0.6315544508825848, -1.6476277068161214, 2.6912120567142006, -0.6959961647290508, 1.1166125625799987, 2.1245236863882395, 3.3073619709409767, 2.721045710952089, -2.569863916755054, -3.466457071714063, -2.164673958962993, 0.496616403048656, -0.4188036581628822, 1.060634396074675, 0.10026117848297407, 2.1472488541328527, 1.1535776722032083, -1.6506181295304707, -2.9996197647880636, -5.885859828929748, -5.490527273414051, -0.4919651139300694, 2.882291525872958, 5.713543373046109, 4.914159330555814, 2.0085645906098244, 0.2532001946763523, -0.48747509304770587, -0.2664288162561591, 0.154474893417786, -0.8868606672720052, -0.3423240518736974, 0.22311266444069627, 3.060027179374485, 7.166716374888824, 2.1882971422815642, -1.4880842652534199, -4.904644925934783, -6.717889652863436, -1.4700351547261894, -1.2920567235432074, -2.8557421623962878, -4.568766145506042, -3.6202977054512693, 0.11561208334977953, 2.893379911213025, 3.6508783268505898, 2.946787824593223, 0.05556936441817026, -2.286571682719427, -2.0244790416063134, -1.905210795611855, 2.691014222816683, 4.580385772982764, -9.661429416116846], "delta": 2.647112545101847e-20}], [{"inputs": 4, "activation": 8.95366268810712, "output": 0.9998707538642613, "weights": [6.931539971894729, 9.326844698157418, -6.958450371635348, 12.173053374759805, -3.194344020012054], "delta": 1.169852156950191e-07}, {"inputs": 4, "activation": 11.725497982483796, "output": 0.9999919150485302, "weights": [-2.984172653727341, -5.056035631952065, 5.430326541423241, 9.020338996025094, 0.26001553041071274], "delta": -7.795959956139277e-09}, {"inputs": 4, "activation": 10.604777576829134, "output": 0.9999752033594032, "weights": [6.071591349585133, -8.858083206366253, -11.82890253227214, 17.09565366049508, -0.7317945783483599], "delta": 1.903082427429822e-08}], [{"inputs": 3, "activation": 4.8016013481559146, "output": 0.9918503830656215, "weights": [13.742002767623402, -14.637744414365024, 11.650811936431767, -5.951390545937499], "delta": 6.587498913105057e-05}]], "configuration": [80, 4, 3, 1], "name": "C6res"}