{"layers": [[{"inputs": 80, "activation": -4.416080787566923, "output": 0.011937269545461628, "weights": [-5.702545381710906, -7.446966036958594, -1.569643372066982, -10.0641897269154, 4.704166569012609, 1.2156010795967702, 3.100754923166076, 10.950799378358887, 7.435685176343259, 14.098460343920383, 13.35505649303651, 8.957452237490562, 6.9303196982150705, 5.09039505110053, 5.8583784524651215, 5.39057409690208, 6.990616898085825, 7.708013860114882, 10.241943490705584, 9.13091161530523, 9.932629087952442, 7.353214318475676, 6.087493910707413, 8.801985004885138, 10.745954698769918, 15.174857772465792, 16.010873178048694, 11.045488119758202, 6.6300307071269335, 7.232030554858885, 7.022767029112411, 8.345722461407904, 9.247182195147111, 10.077021436973789, 9.35376280067898, 6.589154212166497, 0.18364146091794856, 1.7290442170441571, 4.055939309347449, 7.380333827182535, 9.301658639268352, 11.793322850940312, 13.497722238859904, 14.418597480330217, 10.987983360574166, 7.871561634620955, 7.314897186790873, 7.2457753829941165, 4.866248936094407, 2.0131859546388253, -0.5802760015757212, 0.9045296633185509, 2.70365477863551, 4.021437772509132, 3.331559833724471, -4.666991158407639, -6.223179955846595, -1.1619482575950426, 5.963744214342898, 11.96230080870622, 16.331430067842835, 18.506778879236677, 17.41154537746727, 12.416014165534541, 1.8338323998862056, 7.142865552951701, 5.079057624013491, 9.284793318692275, 11.316817485610239, 11.849362511810236, 18.59047148166483, 16.911801679125045, 14.072275612379773, 11.716873428014361, 9.477707466193895, 6.120562947307328, 3.0376378693480786, 1.2059434162196927, 6.141002208935263, 0.7206855767872733, -18.281706484636572], "delta": 5.054207793215951e-19}, {"inputs": 80, "activation": -6.400308248554504, "output": 0.0016582906837299986, "weights": [13.268294096006384, 24.89452212073424, 30.955097774442933, 5.8767416363531035, 20.954644825197807, 20.91335904107123, 38.27093602074513, 1.3882665805589502, 12.361200544548268, 6.992262042655579, 4.917907003655413, 8.067614406282312, 5.965887138816601, 2.593750066203383, 7.325112490961006, 15.18499171960465, 10.4690451414144, 3.48606136717737, -6.052698114069926, 3.1491229953581925, -12.400205775940531, -8.255481765867726, 3.7223767992973875, -6.138400052950574, 1.4159136838081812, 1.4626556448150714, 3.0553620463832036, 8.354481184422642, 1.5767315553854937, 5.012446536766629, 3.3171859562729074, 0.13510783739959034, -0.45386887985521174, -8.816873413219847, -19.12826049429912, -10.603927182895562, -4.692616972112947, -4.567015082443517, -1.928393605053176, 2.516275754423656, 6.144671346088139, 3.020602476093168, -2.264264809391756, -6.6540816653422965, -0.2002612278221208, 6.178656102703057, 8.669170822137716, 11.332793777366012, 6.095872113872904, 5.594616429940228, 9.140012946663397, 3.606669585481852, 5.334816558786456, -5.127839390502408, -3.0181523036967337, -2.9923629193394605, 8.03177920538274, 5.931763475644832, 6.394468725676916, -1.5325605311155526, -7.542234830793292, -5.647922886313463, -2.9559385607837516, -1.59181676001273, 5.339410973488749, -5.295531684639233, -11.66120556100215, -12.426668434405405, -18.080325400358824, -17.04665191047094, -11.87863246269675, -7.622726935077797, -6.673692336806342, -11.166920130863325, -14.334334323476705, -0.6346677968479862, -2.6552929405922083, 1.4859893368613502, -1.1091390019486527, -21.467142909241417, -3.105472933283998], "delta": -5.958319669926144e-20}, {"inputs": 80, "activation": -3.1792920193117187, "output": 0.03995248061533189, "weights": [-3.7978372530510836, 6.126102199357706, -9.510465285920413, 28.67992434811605, -4.924071801000127, 5.972074038708469, 3.0508420252960984, -6.839644700005544, -9.216544236211908, -18.25940733766018, -19.62258593460202, -10.597293553702826, 0.1613450831541743, 8.989512452478749, 19.277907740921414, 25.04132308519072, 14.70993579867529, 11.231177149766962, 3.4974632275474073, 11.529000422131785, -3.6688600320398024, 1.9587885294841278, -3.6368727299328123, -8.356237294030878, 3.0285053008990683, 1.8274764640470058, -1.9169896586186685, 16.80693085916604, 23.695501555040366, 5.980681512544955, 1.6860436263474434, -4.1837861444654045, -4.908176540822816, -6.87018434698724, -5.626586726464299, 6.050730237447323, 21.2912699613656, 18.19194437297522, 15.083862013491077, 7.243406570665594, 6.729703610640279, 0.5973118921324496, -4.323588575601131, -7.186085323194373, 0.6153307583245643, 8.805665851785607, 8.491923770202904, 5.716190906007606, 8.076773796679692, 17.689509093976362, 22.72416659624145, 28.04648073186146, 24.726377191744245, 18.704560683336865, 13.366570176829725, 19.913982813149634, 19.76738927428683, 13.83332967728558, 6.154567275254669, -3.054749993761855, -17.915713021246177, -18.772803291725012, -10.117868919093967, -4.441466826633609, 16.82485950070573, 4.314665584926539, -9.198129868181493, -15.560325124403194, -25.227452783708074, -28.673397165179864, -16.505678099642754, -12.704584193668662, -8.290347504383613, -6.928429130143186, -3.862181983370703, 1.8504030972595877, 7.556971880219356, 12.59104216773193, 15.651853879252066, 12.937605051880169, -8.02106028917821], "delta": -2.3081142124993757e-18}, {"inputs": 80, "activation": 2.324939606173565, "output": 0.9109215718219041, "weights": [1.6683601151992278, 4.1693061287774995, 2.5197279187620283, -0.46694549161884386, 8.004689155504273, 2.7909187709983905, -2.965006712331989, -6.337548470875539, -14.065648114738057, -6.544830179084356, -7.4411037690735125, -6.459715385195863, -5.25474190959108, -6.105226051285733, -11.451217840648187, -8.01559507931631, -4.301613286151986, -0.11862910367885482, 6.842696075749157, 2.7923904487876943, 21.198911523635104, 15.351597117631787, 8.31497652329419, 7.1381527716747035, 9.287971876932872, 9.719971890940734, 1.3800424170129995, -2.4628569624395285, -7.4890207202653984, -18.96368201807871, -12.496946026686103, -12.742261702850715, -8.814492642472985, -6.140455237276082, -6.659330800916689, -9.445761960124454, -9.183391907224161, 1.091724246803696, 8.621680605461485, 11.857940706366035, 7.457181804643325, 8.586600439077055, -0.22162213647802398, 0.5063385029555542, -6.769294225107508, -13.879656566119147, -17.06304007085764, -18.1652287487494, -9.102464847947045, 1.5657124351303668, 5.040988330608142, 15.512905251246437, 18.3331392313084, 18.672782972001233, 12.202936223113674, -7.9406538417757835, -16.23554276009868, -17.962800252276967, -14.258273121841277, -2.0196256737975276, 10.241215845539463, 17.556574569620643, 6.603379755092027, 3.1506865750643347, -4.664480397779005, 24.202832351376582, 6.2056918570906445, 4.1449932777255665, 3.006808009623013, -0.30374307013106305, 18.95966508223402, 11.878458875475298, 1.2995755449069433, 4.91096520228457, 6.437743263208936, 7.134294575132152, 5.8291037002239205, -1.4698062442307118, 10.26629493110062, 0.5552021853744664, -2.8430582365065633], "delta": 1.3683108325816924e-18}], [{"inputs": 4, "activation": 15.785237544719617, "output": 0.9999998605050845, "weights": [26.866582928082824, -22.56682833854499, -37.788486177657724, 10.30741196527307, 7.6224461164098996], "delta": 1.5893472892639736e-18}, {"inputs": 4, "activation": -20.536937194323567, "output": 1.2048181484662303e-09, "weights": [-9.746258708662863, 7.9844689673237506, 7.531202043774692, -31.04828539923166, 7.547828687017621], "delta": -1.548564373109379e-20}, {"inputs": 4, "activation": -44.14115728578389, "output": 6.756767357298863e-20, "weights": [4.115199778102789, 20.798399806282795, -8.54434140111049, -37.26754113607629, -9.935596543593052], "delta": 1.4013423242609612e-30}], [{"inputs": 3, "activation": 13.97751322254588, "output": 0.9999991495617848, "weights": [15.753437075677674, -17.77143910900306, 28.676101421187088, -1.7759216341953423], "delta": 7.232445427684053e-13}]], "configuration": [80, 4, 3, 1], "name": "front_end_bound"}