{"layers": [[{"inputs": 80, "activation": 13.595766518547272, "output": 0.999998754243727, "weights": [1.1963411719436663, 5.4334417095946, -7.513359708770182, -3.0680781752841226, 1.5597695182642501, 1.5999515803783542, 0.9673887709288591, 1.5054386467316332, 0.9873047919020856, 1.2759460656368888, 1.4443336128017044, 0.9839252051436645, 1.2144125548411941, 0.6959391060052367, 0.8225413102115837, 0.43590154601650927, 0.03407416510247318, 0.4478454710060841, 0.3216870750237304, 0.5176578458914108, 0.5846815039453517, 0.4996184736033374, -0.14600359117477973, 0.27019421726786425, 0.37253661373715535, 0.1752331274766485, 0.27591430079503426, -0.10767664255643729, 0.119117062166985, 0.29024108163679563, 0.3542429497080437, 0.5746162180790378, 0.2903012880601936, 0.6430351174084894, 0.5108047110015853, 0.8512263748270178, -0.04123088968229433, 0.1504812309810291, -0.08785109510834241, 0.39167408584537977, 0.6722761789531547, -0.14878761135576488, 0.6537641867701945, -0.048779894721405294, -0.15656834405894024, 0.5580485928496969, -0.030122130849598156, 0.2284633178935363, 0.7909271040531427, 0.8503165840787327, 0.9871166634867996, 1.018452065331188, 0.8667273404054214, 0.6393814429950548, 0.2134981482583758, 0.34148759672566587, -0.14758924753288494, 0.18848943055275477, 0.7437497816705332, 1.2424085287252746, 0.5069362050671689, 1.1427057898186488, 1.955968743866992, 1.055582495020855, 1.4597133777348639, 5.772875316811628, 0.9325296007883676, 0.9362450851204848, 0.7232849539508466, -0.4199512894534458, 4.083095800112328, 0.7791097888304455, -1.311536573023064, -1.225763134271256, 1.7496342195007084, 1.5252690358508196, 2.246254055797066, 1.1816762760258581, 7.164909317031413, 5.543625240805204, -1.3065711005920833], "delta": 4.637508225232017e-13}, {"inputs": 80, "activation": -16.313047187082173, "output": 8.22874469067062e-08, "weights": [-26.922571007994875, 1.857523556024844, 1.0492653693846294, 13.093003429644886, 14.35549131297157, 5.774908947054008, 0.6649144811031049, -0.06459175476530454, 10.278727375074201, -3.562016780669564, -1.6695267312481392, 1.1875144845093961, 0.42892614055142386, -0.8319515065663078, -4.532206123972008, -4.084747993004398, -4.9178770535285885, 6.079512524633025, 0.786102240809637, 2.353235918450641, 7.05758570465406, 4.120279168816654, -3.025152915815569, -11.464598203369682, -2.388538630730412, -0.44916027744514103, -3.652158627342393, -1.6297800270710872, 7.982387506697408, 2.745477787653667, 2.375185974890112, -2.349960656476106, -0.910583772589104, -7.898026746567379, -11.970233891875218, -6.040024726809723, 13.221811125703782, 13.56622225410714, 5.685559171637321, -3.827539320616408, -3.690190526071703, 2.253603041585898, -8.960815413295355, -9.371434065992405, 0.1326656116040991, 0.12731740882600873, -7.130209782340851, -6.810631320058121, -4.571034816432312, 10.851345708070657, 12.241997458295975, 5.133784552985973, -3.6818746151938244, -4.878065523837089, 5.635517613172096, 10.203685718802804, -11.032127278222044, -11.075987531094938, -1.416598161173218, 1.496554048081147, 5.118713275754511, 5.0960463188240155, 1.363951063640324, -0.7770848933803705, -0.8942161343463848, 7.538960950054057, -2.9050099300391072, -3.934949064118678, -1.2904653922098626, 0.4302211394535487, 4.6829554507197715, 6.654440332230804, -1.8901165107450286, 0.25733380462098815, 2.417309242925474, 4.017550240211648, -0.954292621444077, -1.810228457434383, 0.4310359709898603, 1.7974948240191517, -22.192273009366733], "delta": -6.814164735880219e-14}, {"inputs": 80, "activation": -14.251816778667456, "output": 6.464193306564324e-07, "weights": [-8.126531430575849, 0.11611565298236035, 4.7309128899308535, 3.8233556291384945, 2.8980737751975263, 3.5826043907198675, 2.8656657260154015, 0.24832515261140636, 6.488385376352292, -6.342276601737805, -7.201508008228149, -3.2993754003097453, 1.97960474588487, 5.178103981589525, -1.7310253833127456, -1.32976444874759, 1.455163382518639, 6.992475220262414, 2.6656262804449824, 9.12913095847635, -1.446666275415802, -3.740545789225533, -3.3454965359072424, -3.9554541269069374, -2.5512708509590025, 0.12273524799088037, 0.32113105013489107, 2.334083603632026, 5.877518925879588, -1.2885967998664167, 0.19295614509374437, -1.948234625019454, -2.235998004789846, -3.0701498950453256, -3.5040253549975984, -3.6861413168950663, 0.9429551244090951, -1.2858798962860465, -2.925200645971835, -4.459638961262822, -6.071318977672315, -1.337058386988154, -3.4132812002865816, -1.8911255830903264, -0.7476143491864029, -0.9352896061841581, -0.4715968560479745, 0.8017581169755634, -0.4124314350555303, 2.944090587229386, 4.15911038318465, 0.6798220726490626, 0.6160059620832382, -2.121854228906944, 0.7265077612742175, 3.8347292916282765, -3.2754107072298186, -3.435686252069124, 0.036676808266015985, 1.223118775201227, 3.311150813720858, 2.601921739060076, 3.6436550131911467, -0.5607013671758918, -4.420632405993205, -5.929846470787491, 3.3459636568132165, 7.841448211771492, 0.7189892446564579, -1.250289848909568, -0.47578233908685363, -1.8418564000859554, 0.6663768386379187, -3.0258588937890907, -2.2504421053281787, -1.9472060131159075, -0.610832521830185, -0.40165167305798544, 2.8469912848401204, 3.541321019969158, -13.585963994825152], "delta": -3.2154322527564265e-13}, {"inputs": 80, "activation": 14.227046379599487, "output": 0.999999337368655, "weights": [0.6204215285295039, 6.620530337940459, -8.910106945336132, -2.5420913966523244, 1.6927837963948085, 1.3284306298718647, 1.6718501798845764, 1.516402976664505, 1.5014376878225533, 1.199506937262257, 0.732725736371163, 0.7767476052419041, 0.8927545430595017, 0.8999900603738575, 1.0379223283249903, 0.5505875060229006, 0.5953322058904668, -0.05806913406165254, 0.13207573194782257, -0.02646083454616539, 0.7095819250275083, 0.4015708327498031, 0.48772138803115306, 0.005172524448233036, 0.5696570640838536, -0.18951153031405552, -0.07410662379023081, 0.634313526068616, 0.6199228174858463, 0.4909335756739385, 0.5742410980683857, 0.16104432452817424, 0.4668847413954269, 0.610024630604942, 0.5788588420215753, 0.4697235469911249, -0.29294502146612383, -0.16760740556050419, -0.1861860156406095, 0.547559507576811, -0.023775599792825713, 0.40503202601428534, -0.07213192120461688, 0.38608964117792327, 0.3958670609016451, -0.021569453781687824, 0.27252195475134744, 0.6625428019328208, 0.4735224570971913, 0.2603506086046207, 1.2932134362847267, 1.010325758554146, 1.247885244258971, 1.4353577619281284, 0.7432707317867199, 0.3906949546022805, 0.2652460276611319, 0.4440556497184947, 0.4971021034050297, 1.1044383303671927, 0.6363200181724933, 0.7766124487598193, 1.3631781607550915, 1.4146151566418323, 0.6747460132033611, 7.040169454502409, 1.7789062854355109, 0.8805665993209219, 0.24296066089753948, -0.5297763746017542, 4.377897675455812, 0.5782729400022026, -1.871421542357898, -0.7417492567784992, 1.9706152700890824, 1.569222528606973, 2.446097052549343, 0.7942949708808377, 6.755058995253859, 5.843450697823887, -1.3767180654595603], "delta": 2.8441506230171944e-13}], [{"inputs": 4, "activation": 17.571307648425027, "output": 0.9999999766181947, "weights": [7.986633171249981, 4.557242695201916, -0.33106796837133395, 8.917859130225532, 0.6668310495328847], "delta": 3.28476228867383e-09}, {"inputs": 4, "activation": -16.382972018017426, "output": 7.673007488923267e-08, "weights": [-12.350195918802484, -4.202753771882067, 0.2561188184941298, -13.772999537006823, 9.740199077456383], "delta": -1.9236006216655824e-08}, {"inputs": 4, "activation": 15.0960914655017, "output": 0.9999997221242437, "weights": [3.3725598429113766, -28.72822882165952, -15.279993623222584, 4.1974317723645775, 7.526119122459333], "delta": 3.216023486219227e-08}], [{"inputs": 3, "activation": 0.948418283971967, "output": 0.720796970928588, "weights": [2.528282889393464, -4.461656340127848, 2.0878491632101586, -3.5834289349754402], "delta": 0.056189245974626566}]], "configuration": [80, 4, 3, 1], "name": "ips"}