{"layers": [[{"inputs": 12, "activation": -11.126212143580053, "output": 1.4721127298523758e-05, "weights": [0.38886283200164534, 0.17220082366136366, 2.465201067374904, -8.790045779321318, 7.361547550155077, 0.9059866302683144, -5.273270073553287, 5.046835121624216, -2.015145243279337, -4.180826706742555, 7.034268211212746, -2.5095816327539677, -12.66920278203827], "delta": -9.692150847029177e-09}, {"inputs": 12, "activation": 7.4521771005230555, "output": 0.9994201592780222, "weights": [3.4721311307497538, 0.6215898926085593, -8.231069394354838, 7.793916587970812, -1.347253550260224, 0.502837789236036, 5.200863445768946, -6.020045977246527, 0.08153787547003914, -3.08671480680501, 2.646694640504302, 8.798603142770787, -1.7749492794086312], "delta": -2.3216673675330257e-07}, {"inputs": 12, "activation": 19.488929656464087, "output": 0.9999999965639033, "weights": [4.81940012061229, 0.17125839636725634, 2.637673453658159, 1.7535768532303044, 2.0251244191653783, 0.8342198932567512, 2.5285470826962175, 3.095900649170652, 0.7333917916998153, 2.8897051925486505, 0.4715054977070511, 1.9895512044862602, -2.722054816801451], "delta": 1.8850441787737258e-12}, {"inputs": 12, "activation": 20.75598087176613, "output": 0.9999999990321857, "weights": [5.267655644560794, 0.9720090773699792, 2.704562763586507, 2.358375266939814, 1.7537689905814566, 0.07820046180862596, 2.8695708108917635, 3.1414700204233634, 0.49420231055431263, 2.8680475221029993, 0.7747870313133686, 2.0765484103100906, -3.058805588940982], "delta": 6.081985717520791e-13}], [{"inputs": 4, "activation": 4.8286975774325285, "output": 0.9920665136656107, "weights": [-10.544270612201434, -6.41611472313586, 8.78595042781061, 10.064350990448071, -7.608929333259113], "delta": 6.244087015837461e-05}]], "configuration": [12, 4, 1], "name": "jobber"}