{"layers": [[{"inputs": 80, "activation": -7.201523631076139, "output": 0.0007448938726729213, "weights": [3.1240798154617333, 1.697093041035463, 1.7529807498824546, 1.1688834665842334, 1.5716879947903477, 1.246813603479811, 0.9441364564779102, 1.342806900204993, 0.8254229754175062, 1.2239304616948574, 1.6121824448705009, 1.3666765866350155, 1.6752032544554223, 1.244524789194678, 1.3981627193699795, 1.073297358366588, 0.8627332061341779, 1.3719791880598493, 1.1715014698848603, 1.5765831502668954, 1.5512486751042829, 1.688406438210425, 1.3486096104247483, 1.765712905627097, 1.5538027919288624, 1.2386144207144933, 1.314532805861728, 1.0268545386228967, 0.2213920547653835, 0.19163781129699495, 0.18916296984754222, 0.34990240167733716, 0.06000507627004229, 0.3495414250231501, 0.335521166670845, 0.5288015157482755, -0.1607999282354729, -0.10931406474732801, -0.2776135739755832, 0.25225487054944346, 0.651014557939703, 0.069993465885869, 0.8796907057206328, 0.18817679600325374, -1.2015304502527413, -1.8452738975595522, 0.43659594594891554, 0.3477889679857254, -0.3874314936366746, -1.512182758846315, -2.516806162734743, -2.941795152141681, -2.6324754990056083, -2.026068432796973, -1.1766926739643333, -1.9211796892852744, -2.179965269914529, -2.0253124170235046, -1.666103174541897, -1.6146216743447763, -2.7880526988150147, -2.3676967414466783, -1.7342151495928337, -2.15420983376825, -1.4410818781148615, -0.2757934145165738, -0.80691888621554, 0.5456236198871787, -1.5149614162106997, -2.1414484411780967, -1.9507255508138324, -2.1695421790203726, -1.632100240904937, -2.499381448855261, -2.4175611921865836, -2.1512097051403734, -1.7701911013691003, -1.8796484302648788, -0.6493253871583213, -0.09836883727501451, -4.543455603250254], "delta": -2.8671273062849937e-11}, {"inputs": 80, "activation": -2.3269021809393626, "output": 0.08891930644460798, "weights": [-3.90364012757243, 2.5547485609126888, 1.306909709505832, -2.3635887479025834, 0.9422912452962947, -0.6221791856740762, -3.818854675279934, 0.37753156347117023, 1.84079401110189, 2.9813687948413476, 3.4762362430524227, 2.1845673619313195, 2.693936931932206, 1.3684081941000943, 0.47580582821152284, -0.15396254095407855, 2.1257457693208153, 2.1100448123330864, 1.760730424474784, 0.5155716630770563, -0.14340435647003769, -1.0048488728295317, -1.7302950726485458, -1.1491513379087734, 0.4453549643492386, 0.9426848783719465, 2.078879638786489, 3.528623096527565, 3.0612411073903556, 1.9527516393296371, 0.7567757242524913, 0.12735811813873762, 0.3852424999651449, 0.19661204165046653, 1.1198529560320583, 1.2276639995641667, 0.8577597433290859, -0.29745929576114655, -0.706828418550557, -0.1779604684991947, 0.0519305013993493, -0.43039797404410746, -1.2673098070662463, -0.29586462967132854, 0.6916112701202678, 1.7183894885809385, 0.9367510800575888, 1.902710303943719, 0.39515743971696127, 0.9716754859947686, 1.906314675176923, 0.5935530974815226, 2.0067466204763074, 1.685707580308625, 0.796048886915267, 0.15794570224954915, 0.5344001117631676, 0.03904126920411899, -0.18230197661892816, 0.9070366466147111, 0.6934488761469717, 2.1550024165139416, 1.8377157890576727, 1.1192379712007472, 0.7520579253472864, 0.20409833071025366, 0.7624414290904918, 0.9004336359832196, 2.1418581680273605, 0.664191265337209, 1.1927579403966346, -0.09765278412209279, -0.4323027502109852, 1.0468381601977057, 1.5346122056069442, 1.6597923478024252, 0.9798918915612175, 1.2336255155232305, 2.23683735008397, 3.1476325819681703, -4.055415430038534], "delta": 1.3718873503954044e-08}, {"inputs": 80, "activation": 0.4821270773559251, "output": 0.6182500271544896, "weights": [-1.4531232518401673, -0.11284458988025341, 1.7514311696219806, 1.2175893512125278, 1.2335396679930417, 0.8764505920641635, -0.04461863583705018, 1.0890016734693924, 1.1680083007596331, 1.11660624098939, 1.1806062148177916, 0.28903928386849653, 1.2784649177401288, 0.9422859709199293, 0.8036154366400841, 0.3257622434990636, 0.5911501058834466, 0.07176874000015727, 0.6017099521077646, 0.3656082297010159, 0.616352830934602, 0.45708849780687444, -0.44674306813871867, 0.44283892154224436, 0.6263641039829062, 0.9285030534294784, 1.2193112376379491, 1.1381623647524899, 0.6934200564316129, 0.6985308614642994, 0.39317559587891965, 0.9330903540778792, 0.3902825438348783, 0.13491674163553508, 0.6942730009016645, 0.746187340508131, 0.716927199352024, 1.0198140931773982, 0.35060217229497576, 1.1117898544749725, 0.9809899588815677, 0.9990040574983878, 0.46025462997448735, 0.48079551247825075, 0.9713123373650304, 0.9848050493031767, 0.13098935664034503, 1.0118808128423442, -0.0007309477444112809, 0.6832918295351926, 0.7222744174240737, 0.6794945359962901, 1.0745869525646716, 0.4659979351391009, 0.21392876248548892, -0.09083165886866099, 0.4707539446838606, 0.048431094701689506, -0.020538434337191467, -0.008116688761551978, 0.01668474331375836, 0.5106684854460984, 0.419627898862535, 0.6780629935232607, 0.03706629737173296, 0.19208592257443416, -0.2105744087953914, 0.9327006067748832, 0.5939888312066594, 0.35229253515380216, 0.5373530011651846, -0.13788030276244867, 0.1805659101066866, 0.7589181147203683, 1.0500726218088794, 0.3570203933239256, 0.5130363273965127, 0.11465791752626801, 1.1418730064691422, 0.5776306627584785, -0.3714315892152457], "delta": 1.9697782383509806e-08}, {"inputs": 80, "activation": -1.3661924040307105, "output": 0.20323571745127764, "weights": [13.724994712627128, 7.01308043134461, -3.5354138897051617, 0.7877488417800597, -2.839695773954639, -0.6806275419987858, 3.4103473320755895, 0.06586010317645422, -0.1536446242809654, -1.5418578947409503, -1.8332005489084073, 0.06723552670428012, -0.48608929446773746, -0.06424897092947278, 1.2545213403306583, 2.352155142583718, 0.39675362353956906, 0.7351514084872335, 0.5320093111276867, 2.3869170188791298, 3.578355892932703, 3.6396635717232053, 4.145360947860976, 2.9210879906963894, 0.8315004446993042, -0.39572423768432063, -0.7065233699438875, -0.8069728768006444, -0.9274684477511408, -0.7257446154078642, -0.013606134643686738, 0.01741133795377244, 0.5189841548745163, 0.210357334549587, -0.22785924605192695, -1.2586444364762854, -2.139845555360363, -1.6630159657227215, -1.8431325235740368, -1.5779016136952064, -2.2822133303638066, -0.6293552949339557, 0.6656092691975259, 0.6446003625454324, -0.04406760796173909, 0.0039113880504539796, 0.5211290886241049, 0.3758505490419848, 2.561006182753275, -0.3160113298986049, 0.3347644102481841, 0.6764313816902103, -0.6811927893147884, 0.843236465601691, 1.3413426487334168, 1.5922747794565828, 1.9542669817582676, 2.690670219819517, 2.0557015382333805, 1.241881815045456, 0.6652774087282785, -0.9146094343010884, 0.6720426710971695, 1.477034546747173, 0.8689795884559453, 2.8750921740130146, 2.4410718425577302, 0.9589415524793914, -0.7714954467840391, 0.8944939299731656, 0.6880511540850369, 1.9625458787078987, 2.8779770657098314, 1.05794541613142, -1.0066504350565526, -0.11513523887058108, 0.502341781837074, -0.2951034969426426, -2.1363645156529385, -2.043165489437437, -2.7756561525807277], "delta": -3.5664265544790114e-08}], [{"inputs": 4, "activation": -2.8204575047187825, "output": 0.056228650245466166, "weights": [2.2240026764766188, -5.86663244002695, -3.3362231316975435, 8.744580924279042, -2.015048407000404], "delta": -1.0977126180330714e-08}, {"inputs": 4, "activation": 5.782158742347019, "output": 0.9969274150162016, "weights": [-12.475174748084783, -0.08228811419807111, 1.3617813859704841, -0.47031631817046216, 5.052432121667898], "delta": 7.680233273115983e-10}, {"inputs": 4, "activation": -3.077049399797566, "output": 0.04406393440962628, "weights": [0.40926583099130087, -9.49797028203329, -4.141858446245353, 11.206164877883499, -1.9495901991830058], "delta": -1.1055706173889585e-08}], [{"inputs": 3, "activation": -8.864771856270702, "output": 0.00014125933161620896, "weights": [10.367911157284952, -12.56706979688939, 13.155320323276248, 2.501035708627829], "delta": -1.9951380051877095e-08}]], "configuration": [80, 4, 3, 1], "name": "L1L2_Bound"}