{"layers": [[{"inputs": 80, "activation": -3.2971038211779375, "output": 0.03567067898606368, "weights": [8.662281744932795, 23.15003311654749, 12.56483495281907, -8.23893511551158, 3.80945333713644, -0.22830483555631842, 42.00877742372077, -11.878111960623707, -1.8572393317868854, -7.835649799705145, -4.581759895886668, 7.371733662873054, -6.644849400611374, -5.84100354768505, -8.12113349301056, -3.27061858256034, -4.249646839528156, -8.111632626721137, -0.9079523318639129, -3.7675382034624176, 17.34802906009695, 3.6072226206904148, -10.192266835813419, 5.155414276284804, 3.92540256520396, -9.672520881984395, -12.288735070149658, -20.580120388761863, -15.216474225540978, -9.1865825133588, -1.7431749177080853, 3.632013903193514, 6.657475645575365, 2.4001228059793713, 5.41519383117988, 2.4409118389799103, -8.420187347212988, -10.721459822145244, -13.025895027670527, -4.012820237325679, 1.9290915110625768, -0.5093146035492598, -0.5474717544163359, -3.7852557273340732, -1.5170566997085644, 3.2445946544707938, 4.42099466983884, 2.1453421870944984, 2.780996771752444, -6.6870569256607055, -5.930698253875691, -4.366400655973416, -6.680087428200933, 1.238607866202032, -2.7406210070861117, -10.173434987725472, -14.182735120135037, -12.667613357811529, -9.332647697601901, -1.2562717795319613, 4.804983540111512, 4.503351985084712, 3.3311528461861553, 6.187914919368429, 11.463372162513092, 8.98199650090935, 3.8493943332683003, 8.849779481814569, 4.674113011206673, 4.985532649684922, -8.283328339208854, -8.89359226548628, -9.424134936668478, -3.611512622220057, -4.648565266310435, 4.605830891110025, 10.26138864194684, 7.606256652242729, 11.833781074315556, 10.297651703774566, -10.634533986625996], "delta": 7.574747009865761e-08}, {"inputs": 80, "activation": 15.653962647698094, "output": 0.9999998409365738, "weights": [0.36156914097913395, 7.169675000362119, 4.451093937431691, -3.3148659230442146, 3.6515928605801204, 4.16850654343596, -0.719958381585548, -0.2929109027626987, 0.7996633250715746, 3.9837040769087912, 1.4765899469560266, -4.632269863945897, -11.198124991992795, -8.900196653153396, 1.257540940483926, 4.87252309890225, 7.460439223712007, -2.438833025313432, -3.238198934876631, -12.834049320361975, -1.774601133363756, 3.391499349200775, 0.46816126458418145, -0.7309272432039984, 5.042725922452875, 1.1398869331815418, 2.726041915655564, 0.1171064988974409, -2.2314157105870693, -6.1339761709528755, -2.2798962437005135, -4.0966901245037874, -2.8921973613220078, -3.3920110907058167, -0.2589690613756987, -0.1894161191784727, -2.916963523183376, -4.833644597550143, -5.235820318971724, -3.55336038761228, -3.464106215057904, 0.04405307505813364, -0.5666372048208732, -3.4051041136833207, -5.854833285514411, -7.781176095281978, -9.359432542804504, -7.308298258477072, -3.978079970221198, -0.2064160745377474, 1.8602767201375179, 3.4722416785974244, 5.032597287178312, 10.193789840476072, 10.2114737492626, 4.7984544996988685, 2.643598042769216, 3.964743629708292, 2.6523548951919724, 3.9229384479824523, -0.9438745823136907, 7.288935143478026, 9.57551770681146, 6.322429344129071, 4.341620518264216, 1.3228046839862717, -2.764258506264136, -3.873607853005944, -3.525628861816324, -1.133827834736434, -2.0185168799463216, 2.1808522577706175, -0.9142470132809909, 2.4649122393020635, 0.46100764521893045, 1.2545414627780316, 5.121608608576884, 5.727893181457493, -3.713615177233405, -3.954983045869029, -5.084949783191961], "delta": 3.122242118263322e-13}, {"inputs": 80, "activation": -10.140218842547494, "output": 3.945860927395429e-05, "weights": [5.190118235186746, 0.607387529579521, -7.983212547502374, 17.20350039453668, -5.299297773671892, -3.388410625085359, -14.584404550412456, 6.1642669574320825, -0.1716638572667189, -0.5976707852388448, 0.982867561079506, -1.6827023343087042, -1.4133293995475584, -0.21291160647220286, -3.7137514915227365, -4.368654987572654, -1.3887361476679607, 4.936653878573774, 0.7215542233113686, 0.9327398997171362, -8.103022562366991, -4.792627375305482, 1.4711800851338823, 2.6493975821197915, 3.274356255793071, 3.162358762662056, 0.2911701554572688, 3.4762248881308215, 3.632862867768501, 4.398925385466887, 3.0600789166381688, 4.389905773213968, 4.362453650607663, 1.7369438540141005, 1.900689844648457, 0.6779628534823465, 3.5018385013710973, 7.036204597068733, 4.764356914509644, 1.1977858301666364, 0.9494037299100201, 1.256162127555356, -5.493036745808216, -3.843662090987347, -0.9401299114937036, 4.411077238931338, 0.1136220269629362, 2.610636702438069, 1.320865414851637, 0.5675638629662276, 1.7043109921774038, -5.39902754859072, -5.116805334132876, -2.996311304275723, -5.9007345343306135, 6.4794247055628675, 6.546281263858239, 5.912935423295488, 2.7463273486830495, 1.461081655685938, 1.1764375538626504, 0.5460516798324613, -3.7523538036810855, -5.729504028604895, -5.274443151890399, -3.2241086000986146, 0.09913109799852328, 2.2845691932385264, -2.2372530015107617, -4.931319166246055, -2.019324728326996, -0.27495620770135726, -1.5310584870981707, -0.7892494415023066, 1.695756455173063, 3.6318290663304733, -1.645353495327523, -1.4738515314813203, 2.4706421710931186, 1.4800334077216364, -7.45456056589526], "delta": -5.832886593226803e-11}, {"inputs": 80, "activation": -18.98806895705424, "output": 5.670043979426155e-09, "weights": [-13.405056962860131, -5.343784663317912, -0.4599820153226248, -6.111152413230118, 3.5762466559359725, 3.8204824843246348, -6.570609084093888, 1.6119769764126295, -3.7370420910765785, -5.090885358556165, -6.123799787239277, 1.2823906194501782, 8.923078184410556, 4.098273461241245, 7.493877682492589, -2.370369254995096, -11.412491026261307, -9.362940404819943, -9.684876019715736, 2.710669973098347, 11.317095777271948, 13.524736929066446, -2.7959177031196423, -10.822225506071765, -6.428350333173932, -13.008694064913852, 1.4294975193537174, 1.0144429040889098, 1.388759675467095, 9.965485442918503, 11.621300933409087, 7.983664269575412, 7.658161383560844, 0.2335297687377512, 11.75054200255777, 14.752330255999983, 10.172939085243074, 9.549507141654022, 9.103514534949168, 8.06694709124458, 4.153027359819462, 6.22292053255011, 1.6628547562098674, 5.922619926422257, 7.848571422727902, 5.2077728735010655, -1.1906771413340291, -9.172295747142806, -10.630031549744999, -16.029086790958374, -13.20068764527881, -6.36729755735301, -5.146522738040435, 7.213663582316654, -5.305412929745921, -16.436786496584542, 1.3977672494359676, 17.503524166764244, 13.782429000115048, 9.994227815367383, -1.3823235401934693, -5.518919183224182, -8.467965696483036, -8.603715674487802, -14.067273681850757, -14.615367713697967, -10.284133200742989, -14.29364853361873, -10.092045315384418, -9.825255437657324, -9.12902894573709, 0.9132526583494505, -2.6032159892526976, 4.072109622161406, -0.5549872425732351, 13.468535812630986, 17.83414902610317, 13.31168653268617, 4.832925228750514, -7.039555059702375, -5.003478456030636], "delta": 1.331724261661955e-14}], [{"inputs": 4, "activation": -32.007760609648145, "output": 1.2566264281865841e-14, "weights": [14.825309673407883, -19.74180982412217, 16.143943181533935, -10.514213791082888, -12.795419745885093], "delta": -6.48988176363275e-15}, {"inputs": 4, "activation": -15.08242398064513, "output": 2.8169969005107606e-07, "weights": [-25.436796291557727, -22.67395862154831, 17.07614861704007, -27.13056939525866, 8.49820509538565], "delta": -8.657030860247956e-08}, {"inputs": 4, "activation": -31.5272022937286, "output": 2.0319359492641594e-14, "weights": [21.044298398016576, -21.09207802664758, 14.948681296129694, 0.07169421770234193, -11.186381889282726], "delta": 6.166043388493916e-15}], [{"inputs": 3, "activation": 1.6795084798125963, "output": 0.8428394347699131, "weights": [-24.808390202004272, -14.762187169326129, 14.576879075558953, 1.6899214707158074], "delta": 0.02081766479928965}]], "configuration": [80, 4, 3, 1], "name": "L3_Bound"}