{"layers": [[{"inputs": 80, "activation": 29.424414306653226, "output": 0.9999999999998337, "weights": [2.6890762349514974, 3.777781841376789, -3.0474702651330485, -1.7471797355199539, 0.527118098273336, 0.5043960380142042, -0.18603370778330042, 0.2080649005778138, -0.19797004710381927, 0.2704390170029686, 0.5985305421958025, 0.2729554422546152, 0.504611839204445, -0.012559169987438468, 0.13483523673850223, -0.2991607652743826, -0.3573600097567527, 0.2650067384060848, 0.20349857439303268, 0.4434169930152316, 0.4981398482376575, 0.4131181906394055, -0.29614941512431475, 0.17745970058309601, 0.23973854671412, 0.019150677556419887, 0.08455557763049446, -0.2301288733107185, 0.0011194462559615775, 0.16611996592003037, 0.2699380339265754, 0.49122122458996553, 0.19537881145906286, 0.5363752062786603, 0.39197205843493765, 0.6246314474613024, -0.20255171224201124, -0.20030068745571036, -0.49901491736518205, -0.010254996974825948, 0.2389696007195509, -0.5727834500321588, 0.12019495047006606, -0.3659541503093909, -0.503910301592467, 0.14989628668181082, -0.3906798379722911, -0.11428510652579009, 0.497491370308782, 0.7045528931281572, 0.891929540870256, 1.0189508219678056, 0.9181530807479312, 0.30580843536753227, 0.2101111139361539, 0.12213877356033141, -0.34987309665160937, 0.02044003910342815, 0.5621036363835307, 1.0382884472113638, 0.21575469528444413, 0.7818905935051436, 1.4556024912912828, 0.8700687218445217, 1.2138842315061777, 5.6882164104704644, 0.6483414793999821, 0.7461656037158176, 0.2941403326124451, -0.36912538888788654, 4.292142126850859, 2.0581504589412725, 0.2001455466095346, -0.47185362409581716, 0.506494335049946, 0.32554238092969084, 0.7078852809309355, 0.37007152653488046, 5.7822030090579855, 3.388493858398772, -2.672084888054516], "delta": 1.809774090087177e-19}, {"inputs": 80, "activation": 20.769975439147952, "output": 0.9999999990456354, "weights": [1.1664481592433231, 3.0474329989660136, -1.3511506710261336, -0.5254541665881651, 0.0901971785640453, 0.35298166093002875, -0.18391360884183294, 0.05487528597607623, 0.5027009823397093, 0.2384621161929834, -0.03106340378235993, -0.16608974891844464, 0.5039729623028898, 0.04279918730480948, 0.17128074165391197, -0.1889539586358956, 0.15113818407022261, -0.001684169370853171, -0.1532047572389029, 0.3962942147266947, 0.6463832152987115, 0.4350381371298744, -0.022475794583658257, 0.15157127948984955, 0.2843665071046778, -0.0711888611928522, 0.16442641063511593, 0.564421790299343, 0.19043240181369986, 0.017465544831347556, -0.21060436458541223, 0.09553017448070392, 0.3509584457729111, -0.06493281113662405, 0.43839960493481567, 0.5870752882972244, 0.5541428524332508, -0.044263321024847486, -0.23788527508175691, 0.05264342145467705, 0.0734943149025932, 0.1790811378984181, -0.10876393163202937, -0.07525834705185919, -0.3240725400798253, 0.43493754770574755, -0.2529974511201041, 0.587300538698667, 0.7086518675858589, 0.1659730778863023, 1.0089822586817219, 0.37398013600590657, 0.709220688889765, 0.9930475588923983, 0.2443858553077147, -0.28680373130940406, 0.3564803728641053, 0.33586488964254846, 0.0021176931293457176, 0.3716821440867493, 0.19510485898679572, 0.693676360673472, 1.1982120425575624, 0.9002585457893192, 0.32449411587751653, 3.6962266217353243, 1.0713663115624499, 0.0352789486034003, 0.30724629963465766, -0.07229977429638487, 2.6316334933498187, 1.0146087138807545, -0.15999683460065917, 0.3215647848698963, 0.4574819128208838, 0.876614771315147, 0.30739431532960193, 0.11736034929336735, 3.0698402535523672, 2.4594901942536733, -1.9702359166830805], "delta": 5.923761345069092e-16}, {"inputs": 80, "activation": -19.891452470150004, "output": 2.2974811358821257e-09, "weights": [-0.9365555434435023, -0.46415765182972346, 0.5857708588013947, 0.28650407633904124, -0.6057407678698746, -0.46437102118010104, -0.7361610916177564, 0.25645073329948276, 0.1817395312604344, -0.06614702883205745, -0.0005187158804028125, -0.4423291405553891, 0.40051572024394533, 0.19329830591165212, 0.22111135527005507, 0.026899003101432995, -0.12006716948559647, -0.53691606073047, -0.1391911140922533, -0.012920108596024533, 0.39102502224979013, 0.3738848886036583, -0.4245567745558508, 0.2960434945860142, 0.04803069856286178, 0.2498344131027622, 0.4448007489507337, 0.23634736257031605, -0.2005025138710969, -0.14271065600686106, -0.30046979190216455, 0.3869607715171054, -0.11565963516098939, -0.4670532762288793, -0.03725296169296748, -0.10574552892903497, -0.1280369422256184, 0.3394704264534147, -0.2714402644534326, 0.43139014159673766, 0.1952238563519, 0.42924938034471427, 0.14589318958521488, 0.006619219906052391, 0.3126032652923288, 0.3307708226380217, -0.4958083048644857, 0.36179380301402025, -0.2565932864581896, 0.02065418924578543, 0.03087843826860589, 0.05355701563414441, 0.18459846556350412, -0.1832918769971953, -0.3517441131593598, -0.5505782232267108, 0.016091590931526394, -0.32606558888203213, -0.49881104122747083, -0.7149687982256687, -0.7083290684192663, -0.48938384527999457, -0.39670338327800675, -0.13949391721450694, -0.7395673033841849, -1.040789381326817, -0.918844171035435, 0.04795174459313145, -0.4641827402417982, -0.45703256932854924, -0.8979082010822825, -1.1390444292962931, -0.5196315235140263, -0.3604435404076484, -0.519191137351648, -1.0702037594164788, -0.9044656735384373, -1.2680129318168183, -1.0721936792072961, -1.518783000021298, -3.284670367760467], "delta": -1.6142923865284945e-15}, {"inputs": 80, "activation": 32.67055795069396, "output": 0.9999999999999936, "weights": [2.3905743527844607, 5.118012909291915, -4.240853389074705, -1.1369567850278703, 0.6547523062119466, 0.2005593897862246, 0.45909939129377914, 0.12313352674549918, 0.2359561742804952, 0.1545549719105951, -0.13236930291124413, 0.06231281426270263, 0.16267223642595602, 0.14728374461121316, 0.3035928493785197, -0.23558598157347868, 0.1996084770953751, -0.18491759684861642, 0.09527735978172229, -0.015711850729538436, 0.7058465509878398, 0.3937573556212615, 0.40533559767433935, -0.02669835674754574, 0.48128440572478665, -0.3148308376804201, -0.2406656068266127, 0.5471299532794032, 0.5350619958548267, 0.39555424417316226, 0.5273696962472797, 0.12194236781050263, 0.41624204935207526, 0.5499856345966222, 0.5020576532093355, 0.274011704767475, -0.44708763208733754, -0.5829726690176854, -0.6741098826737362, 0.07027844876305196, -0.5373419955223573, -0.09608578119730898, -0.6898680274141562, 0.0168228310839858, -0.014071198626134278, -0.5035600873004269, -0.15754993805041653, 0.25352269307222913, 0.13393665518289807, 0.11546512613143028, 1.2241604115792186, 1.0727074505313776, 1.3651980946153286, 1.1010303200238147, 0.7486849077952467, 0.127680864909875, 0.022292717631989558, 0.25182091874957296, 0.3026651684287652, 0.8961437513659233, 0.33662172575224886, 0.4063751415422183, 0.8540699229691908, 1.2590240659342105, 0.4388441960209498, 7.423041352850103, 1.5247630462642539, 0.6709509885099227, -0.25784370808790935, -0.5004038667940154, 4.963583590798851, 2.1475709179052997, -0.21823121381971056, 0.10662333574870834, 0.76295935251811, 0.37875603765742527, 0.8919495909399435, -0.015553599262724096, 5.758457297240483, 3.855941329054931, -2.995714416222776], "delta": 8.340890574623389e-21}], [{"inputs": 4, "activation": 16.17630184278785, "output": 0.9999999056544695, "weights": [7.528948822701539, 3.9336466278662012, -2.061487612138577, 9.660472315564695, -4.946765866135499], "delta": 2.4358704382645934e-08}, {"inputs": 4, "activation": -15.938249594934705, "output": 1.1970329296170816e-07, "weights": [-7.465389199195683, -3.706993136602019, 1.2671864394047851, -8.96643683656115, 4.200569506892538], "delta": -3.204057549173645e-08}, {"inputs": 4, "activation": 11.91048750335402, "output": 0.9999932804826094, "weights": [2.9988418380932518, 1.8297331916579265, -2.7565622042786573, 3.4814363411148785, 3.6004765844680278], "delta": 2.2195008077642454e-07}], [{"inputs": 3, "activation": 1.1601766054297826, "output": 0.761364803488933, "weights": [5.976532401834377, -6.173514445730137, 0.7835089726429785, -5.534822612130898], "delta": 0.04335725646320139}]], "configuration": [80, 4, 3, 1], "name": "load_core"}