{"layers": [[{"inputs": 80, "activation": 10.089830613953119, "output": 0.9999585022816823, "weights": [-14.245896307398981, 1.001050496535042, 1.7381583029745933, 7.732399106791299, -18.557504692060547, -3.333973519336274, -3.7858182118157857, -3.7296798228262698, 11.70445513342435, -1.1549472196545827, -2.9878287042889657, -1.2530679314223192, 6.00883919322188, -8.238998022955254, 17.293047043331228, 7.777180083267966, 0.7691553817560385, -6.990995993413493, 1.0814087521850768, -5.83665214963874, 8.550741133524632, 12.457058895733413, 6.46178909219755, -2.321932616018794, 3.4735937346648718, -6.215591124703338, 2.637941198097979, 8.5330368123398, 5.066657564762617, -1.5282128492430604, 7.124447047905773, 11.340583142364448, 8.395234605006038, 9.673952272078727, 14.096828651675429, 14.257654808898897, 5.815365432176362, -0.6206359698591026, -1.8601652744487924, -2.059751414635688, -2.3937568160548284, 3.9966225678900296, 2.0521466257214116, 4.357357206201465, -0.3549426489288446, 3.790904607607515, -3.7281336452901357, -5.63902477444227, 4.636662244848564, 4.49180551156907, 2.017120955801478, 1.4743193498831149, -3.164535191170482, -3.112860725238562, -7.839020491340277, -3.751355600693043, 3.0044176770680537, 7.438033083128023, 9.906597867913204, 6.0599044071293235, -1.1013037009770312, -2.4417051520882316, -0.355003110657547, 0.6928851886601199, 4.668194276851367, 4.762599325307148, 4.816149256668634, -0.8527711551601487, -3.41551833280223, -2.2661050382684937, -0.747119697144154, 2.2899506981191813, -0.8991750638255253, 0.8626197773799582, -3.273952386736711, 9.34382473532759, 9.43748515199205, 3.5557145541646458, 1.4763986854850029, -7.006798892182963, -8.500497884474596], "delta": 5.424684540861931e-09}, {"inputs": 80, "activation": 12.009736340219817, "output": 0.9999939153565301, "weights": [-2.109416377969261, -2.773536505074765, 2.2419779643593905, 3.802600727032878, 0.2906731236624394, 5.1187410796944945, -2.928077659584619, 2.5165625415019512, 1.789249419063572, 1.3873313691093638, 1.2223922630695194, 1.23363386037796, 2.0625173488251476, 1.8924642739294792, 1.8534862599075215, 1.3082750638018787, 1.5726243468026444, 1.625520064057879, 1.788340581414644, 2.3214804052846807, 2.6218446627358456, 2.5455667928565964, 2.197973300365198, 2.3787108485009214, 2.3370043914618064, 2.1995163083576066, 2.422446740850323, 2.89258039319595, 2.3672166056037725, 1.9961214561931029, 1.8930085184308747, 2.7988740848312434, 2.93473165610876, 2.2861524026504125, 2.536841326858383, 2.892562317354369, 2.945879224232728, 1.949938417494039, 1.6595186348139863, 1.9199401636366609, 1.9298586154235295, 2.0049605527262835, 1.7033490872682915, 1.6525080041660862, 1.6288872632669054, 2.5602054762632696, 1.8796663496701074, 2.7094775762502104, 2.7591445170093203, 1.9096970795465207, 2.5198063685173975, 1.3837856489792766, 1.712004276418501, 2.076805484528312, 1.5065666150999142, 0.8323016023242127, 1.3210202786453706, 1.3352069301941494, 1.3826602228311053, 2.3994119491731323, 3.123312260384006, 3.5774735124652235, 3.3557598816500436, 2.292314930848481, 1.0511727413539496, 0.8518622153613027, 0.6494438676831554, -0.36140452089302294, -0.6895662854464547, -0.6866556077193076, 0.41116981385296764, 0.9198681102430708, 0.8705531769891046, 1.475251175474745, 1.6087345301868154, 3.0245867413286582, 1.2825541448501947, -0.7174737843646503, -2.6981966965562174, -4.068406627921613, -1.7677862314393264], "delta": -7.31203397835609e-10}, {"inputs": 80, "activation": -41.44878416079742, "output": 9.977500480403595e-19, "weights": [6.060989791600725, -6.511498931875442, -10.25316262820689, 8.25374063760615, -1.6912338052727232, 1.3535041456978825, -21.386218928929527, -2.379252044740224, -7.219799707500759, 2.957222873438545, -0.35650287124239055, 0.27828505271223863, 0.26247928163684825, 9.85957978789433, -0.5125210407951799, 5.80189126235156, 4.1470452767216495, 2.7269634405197847, -0.7019164510113168, -0.2890605588746225, 12.454668079245822, 13.622164606024956, 1.4140319465927158, -0.9065111468203598, -1.5103902110749594, 1.9966562438786724, 3.332167383646444, 9.388959894446753, 7.178141291964144, 2.9959235055915743, 2.5931947131888644, 6.029983571353229, 2.9175113275977576, -7.624969102922244, -2.7791930038308394, 3.911634043437755, -3.074754804573872, 1.5662552999305115, 4.545418305110273, 5.46484661427612, 6.582902516038688, 11.165895625323497, 3.5851954803939705, -6.613070195350585, 0.15625718360763824, -0.040710982016929825, 6.590911684693246, 9.982531078812668, 9.40340224198065, 11.58239471225576, 5.995176180374327, -2.0940137777577665, -3.2886922061441157, -7.910316871779533, -9.494608344205973, -10.05049934688616, -0.8285579549809318, 4.038185543255634, -0.011378844883379322, -0.5361418456182537, -2.5404724160406094, -8.436367802245993, -7.339178879214278, -1.0097075687890522, -6.884850936040844, -4.556537950211126, -4.429641571322545, -0.2321699035951871, -1.5387191777725442, -0.19393826106181974, -4.410142188487541, -5.123393613588415, -7.107126215760524, -5.964976386182688, -2.1872558615636564, 2.063751738680002, -2.8760130038536627, 3.269951914017314, -0.14338021706502718, -7.441606869286513, 1.657036102854894], "delta": -1.2360521618487793e-22}, {"inputs": 80, "activation": -39.811308597084995, "output": 5.1306023877817935e-18, "weights": [0.376489921735446, 4.999026510429783, 6.283097864427344, 10.027247816970279, 1.0103561323618417, 5.082572015875266, 9.38597676925854, -5.081090466738554, 8.368666367569192, 3.042422846034675, 2.666678702262383, -5.33370110986842, -0.6991256102512555, -3.5874865186491003, 13.146731768566813, 1.577859673317542, -4.690549207935458, 1.0352884981395138, 4.186391765957531, 4.755414059957161, 4.792778767019985, -0.5861998404949512, -8.351372362589524, -8.327868979237927, 1.894623781781718, 2.453605849106684, 2.8318017329396166, -0.9691493539980538, -6.116981941421635, -9.772847124731172, -1.7505662242811149, 5.331218420917067, 7.558813262094114, 4.377119256871398, 14.833273112652753, 12.470331286043816, 7.468556128118306, -4.965416151618922, -0.21680717640348934, -3.2599152387666868, -5.151282871235734, -1.9368153114319802, -8.836327487393428, 0.1469388914025594, 4.680668705521811, 9.324213074458212, 3.1432911616333983, -0.44799772616970185, 5.377663119191597, 0.69866513681622, -1.9723000978617282, -3.798374668736949, -4.43328017230993, 1.4768938435701613, -11.362554903792896, -4.908024289558167, -5.47239621398589, -0.5115462700382393, 5.048036494244128, -0.2975708511998222, -6.260054982892348, 0.7422122520624884, -2.846602699769887, -1.32589814364345, -0.41772717701304185, -4.622107517599816, -2.6212035065774333, -0.5536190963916913, -0.9071367446042454, 1.1923717284175623, -3.961598120855793, -6.265657881732747, -2.3510009225543644, 1.9361876543707837, -0.05507585813824958, 0.07093563748084808, -1.309276733833386, -2.247388652382845, -2.2527298148580557, -2.8927326439152155, -12.893647026265082], "delta": 7.647383976376037e-22}], [{"inputs": 4, "activation": 16.010612823624893, "output": 0.9999998886528385, "weights": [16.975038875491162, -5.313091962444293, -5.948594460687036, 6.121900077929351, 4.3493380137500575], "delta": 4.040568059391189e-09}, {"inputs": 4, "activation": -9.222746937659483, "output": 9.875725388770595e-05, "weights": [-18.17698532607701, 16.702533266634514, 17.220392096081937, -20.70852080597045, -7.748958339948453], "delta": -7.1917444671735365e-06}, {"inputs": 4, "activation": -16.475716114241088, "output": 6.993384003555471e-08, "weights": [-15.492803456297173, -7.358939412089903, -3.641682564737861, 23.679039382421873, 6.375339067912385], "delta": 4.1886788215902475e-09}], [{"inputs": 3, "activation": 2.6086581557244437, "output": 0.9314167293974818, "weights": [8.285099850189685, -16.62370069636738, 13.671283757465803, -5.670418945187923], "delta": 0.0043810722765712335}]], "configuration": [80, 4, 3, 1], "name": "Mem_Utilization"}