{"layers": [[{"inputs": 80, "activation": 36.61524446979874, "output": 0.9999999999999998, "weights": [2.6277809508733614, 3.5109857076236235, -2.0290183182680863, -1.1174840121370022, 0.9156503120774947, 0.7727493651787045, -0.04913606845494714, 0.24851884068873722, -0.28074787477893726, 0.23498332747079595, 0.6072358787283757, 0.3615637685409215, 0.6419568806199326, 0.13798969699542082, 0.21916104248614773, -0.2692860624943904, -0.3815392337920891, 0.2474693525166729, 0.38737988527244, 0.6378802533629486, 0.710566463266513, 0.5742623727948398, -0.15876534485134863, 0.3617513503625159, 0.4384371765649844, 0.2721678768734496, 0.40186829441164174, 0.09623918865318144, 0.3172367967470377, 0.41712808865378137, 0.4251506389757122, 0.6336353942978665, 0.3382307896228733, 0.643374135980228, 0.6039006196650071, 0.860776314678688, 0.14347588082453777, 0.0019266050547606815, -0.28505130656326566, 0.18056149320131507, 0.4937986301546486, -0.31933747568667487, 0.3311368108822136, -0.2926802079254138, -0.34598015384358427, 0.36770167086306627, -0.23580496523785185, -0.009177669765785016, 0.3570401198794949, 0.11628198134942877, 0.014642882179011614, -0.20465365300589683, 0.28376959575921956, 0.9907612441739477, 2.107794350017878, 3.325123114653009, 2.8306750091032415, 2.67268064909528, 2.696848924781238, 2.6304957949298604, 1.3411417180859662, 1.4539327587080786, 1.5774715823810803, 0.5181799099828218, 1.264587572267434, 1.1878514583414794, 1.3003922934182064, 2.519253345752756, 2.1380546454707003, 0.9898084604057233, 2.391607868980031, 1.8722922024648296, 0.7005529805335263, 0.1003637944706483, 1.455560600071015, 1.1986966671320198, 1.4774125638069169, 1.1114727364714292, 4.464719346114234, 3.6184778144881347, -4.048835436953691], "delta": 8.428240140495847e-22}, {"inputs": 80, "activation": 27.22526291635799, "output": 0.9999999999984996, "weights": [1.0495824295700165, 2.9242900939030623, -0.8125016619495079, -0.06819181037527282, 0.5041141959917834, 0.6768654936291799, 0.05654326786229579, 0.2359563413104174, 0.6382805764824742, 0.39416959901365695, 0.13356706522602982, 0.031350021614089896, 0.7253908036551728, 0.2713058115466522, 0.35282423231230686, -0.049824893224577456, 0.2978270466063021, 0.12178021402513974, -0.038949551769677467, 0.5009010088914841, 0.76994423344875, 0.5646449034131683, 0.0889585203301642, 0.2633548551622883, 0.40740526553458384, 0.09171064529611093, 0.3570972269179422, 0.7198672764963205, 0.32776071092574854, 0.14833020819985857, -0.09395725523540333, 0.20437181915963487, 0.4575657017682406, 0.020255572714541807, 0.5706767132952162, 0.7387414157789057, 0.7270477251849753, 0.2052654744359751, 0.039828437784234144, 0.3031371479090693, 0.3355212824388884, 0.41926738109890666, 0.12258834274129604, 0.07574813587061752, -0.10193219750110669, 0.7175556232155548, 0.05517664304474459, 0.9018933674605509, 0.9209929518299027, 0.14072369701308618, 0.8504266895286476, 0.04537669524756528, 0.623975807330278, 1.4992342935754976, 1.2820291061777551, 1.3461527579084474, 1.9775184736162894, 1.6882412340716177, 1.0873805365903029, 1.2183686504210856, 0.8694829714199624, 1.1666849300606348, 1.4541216459506099, 0.999127370427974, 0.6237190721467153, 1.2663808509733931, 1.4764578042617953, 0.9793075294136248, 1.3858514347335804, 0.8582657213742063, 1.9360067352963042, 1.4548192757592584, 0.5627609085999469, 1.045126284313833, 1.334196966481371, 1.6651296035284064, 1.0840543021281022, 0.9268456124304423, 2.8067750053413865, 2.8793482153395824, -3.920227276901417], "delta": 2.1630962976854422e-18}, {"inputs": 80, "activation": -4.058257493984051, "output": 0.016985605824175316, "weights": [1.942834975138656, 2.201529424899404, 1.7438021854658163, 3.9489684298587595, 1.9454504171722953, 1.0702632493594177, -0.24372944848554354, -0.34477591150278075, -0.3642538235199156, -1.9929544395963954, -2.97059219180851, -3.8641165236683, -1.6087735486033485, -0.02197380492838293, 1.0967815205696736, 1.415281107248916, 1.5600114413805444, 1.8590167788583651, -2.7344744089365562, 0.9405940092512945, 0.9140025145721925, 0.57946244433275, -1.6890932041202062, -2.682746796728007, -1.2954582378822268, 1.9438341339648333, 4.32834971418075, 2.7340206067339117, -0.009169808133201647, -2.3721001382825824, -4.922872673088061, -3.7711494174220572, -2.884172817587501, 0.816704560218122, 4.043912454559872, 3.065508723233617, 0.9119518642215024, 2.2572602107434125, -0.6920393473169776, -2.103524557736218, -3.9478361073147075, -1.37106854077991, 0.3059663905131039, 0.884371676608029, 0.04221458508920239, -1.206291918609853, -0.897627883331363, -1.2438355889859216, -1.7156083289955684, -1.3025005891697607, 0.6532791099755142, 1.1881342506432018, 1.2466294664047137, -0.05588259692449767, -1.3681754665195298, -0.910499602911059, 0.26606908667074475, 0.9532432252342496, -0.06819256288729446, -1.0626782105223773, -3.212819155515147, -4.7263819022757705, -2.507937315885273, 0.07643171563938587, 2.7003917731392457, 0.9394025054651707, -2.1804004689801726, -1.681507803227047, -4.31261707578822, -2.888362006648291, -3.0148373847243572, -2.6213455599208118, 0.06995624591443154, 0.2007267212952967, -0.7746724478368078, -2.2463935880236594, 0.6957034708378474, 2.9711496687571515, 6.638478342453947, 10.063353058233206, 1.36770237971902], "delta": -1.3043332299539166e-07}, {"inputs": 80, "activation": 29.441650533340052, "output": 0.9999999999998364, "weights": [-11.708688153913739, -2.1502581346044765, -2.418520295049044, 5.887622550963353, 4.065622706215828, -1.5584414465217378, -13.799265458526191, -12.422625047653453, 1.3851386284385994, -4.433874994846569, -9.014681659269813, -1.7828418725794752, 4.151626959513171, 5.82883746297885, 0.5797602482304919, -2.6078623488759103, 3.1612418708224586, 18.535804199691366, 13.752547592998617, 27.813319828691096, 22.62467244452669, 4.8788119462151265, 1.304567330403873, -10.959733860559707, -12.686797374879657, -12.897082735910836, -9.940340473845406, -2.112511842460835, 18.451300726495877, 16.333284266897692, 9.756809705607065, -11.976497218063587, -22.54964406316568, -12.946719252846679, -1.6821754913574734, 0.19076355240834794, -10.089678907047485, -15.950410165083177, -14.931000297277583, -10.162662441253708, -4.052136388507834, 2.807570189012801, 3.824068052257773, 11.326473551930698, 15.020086581391302, 15.633510890287605, 16.05016597517723, 4.963316390708217, -2.1426872694798567, -6.811373165448607, 3.1392431857960945, 2.854144239094528, 8.99090472356441, 12.712019817327414, 9.648952501275886, 0.7808444041071905, -5.841983431396849, 1.867681288967239, 6.717796011397263, 6.967174653364563, 19.76537115786985, 5.349435277634369, 9.102989356381615, 9.713415834583987, 2.3247937366267286, 8.436093347433646, 4.34278825570314, -2.4596045349820836, -2.422674453371912, -5.802273763331114, -9.139628921211905, -5.295223804069381, 1.4991743600183762, 5.285053324639207, 4.606607237039119, -0.35848707101914007, -5.684296006683017, -10.592094153910132, -8.533449955845466, -11.898896533295401, -7.322569718349324], "delta": 1.0990660902499004e-18}], [{"inputs": 4, "activation": -22.19759899205711, "output": 2.289313377959357e-10, "weights": [1.6815575788907497, 0.22327316064803185, 0.6966736941276404, -24.178643889816332, 0.06438073443979338], "delta": 4.897152158898292e-10}, {"inputs": 4, "activation": -15.380048835550902, "output": 2.091845323280699e-07, "weights": [-9.640739805100027, -5.517823175197697, 3.1890162222423717, -4.560035683255365, 4.284381863329947], "delta": -2.9605129991837325e-07}, {"inputs": 4, "activation": -15.005820447588581, "output": 3.0412691116618535e-07, "weights": [-2.8779613976450555, 0.5871937612001021, 21.01028656528835, -16.451979191441, 3.3800532806256696], "delta": -3.2688589145965207e-07}], [{"inputs": 3, "activation": -0.07811028395979192, "output": 0.4804823514509961, "weights": [16.495303122544957, -10.913384154327241, -8.288260741993085, -0.013264730237275604], "delta": 0.1296815078090009}]], "configuration": [80, 4, 3, 1], "name": "Sys_Utilization"}