{"layers": [[{"inputs": 80, "activation": 17.689655801612293, "output": 0.9999999792279151, "weights": [10.236872526813949, 9.87715292054072, -0.9047319027003922, -1.268703129587595, -1.9594145512865304, -2.743102484051092, -2.6493332776771727, -2.860972013215971, -2.7167331319257495, -2.295737411794487, -1.4281267541741127, -0.6409191592604149, -0.6685162731432013, -0.7773060036028103, -0.652037469361312, -0.5203251912915174, -1.0102678353979089, 2.1717450643042873, 11.27144308616336, 20.090004550270834, 28.56742401192173, 33.807504433218256, 24.88893315030972, 15.716126483059524, 7.263480468431296, -0.9132523583081644, -1.4355349343273394, -1.2036029521861689, -1.600095201276433, -1.02412931566512, -1.137141606711576, -1.2603196355087156, -1.356252208428464, -1.2735317220129458, -1.3127581197058185, -0.7510181819668394, -0.5833796439309838, -1.0052640672507873, -0.209652798433538, -0.7546577628584109, -0.3338835753914656, 0.01660365299775057, -0.1620060992755928, 0.45576184500121625, -0.4068171803496025, 0.2007836772945718, -0.24590678074552774, -0.10689871340154601, -0.4051104577969192, 0.5714029854414111, 0.885366069999225, 1.2321595894659914, 0.9038336772924148, 0.959811970852944, 0.7709799298852219, -0.10280361358155443, 0.9394470567745035, 0.8461253189685952, 1.144654271967295, 1.4715932278980537, 1.814006500174967, 1.3444651254882343, 1.6645629271902338, 1.9742150960448943, 1.6081965250174861, 5.491236153692767, 1.7701943261234392, 0.5615052602958359, 0.46523301510461895, -0.0602529957422805, 2.4215440480643644, 2.175386754336318, -0.2371566372260935, 0.5745276032150777, 0.8799978828978511, 1.4741691198500484, 1.5958568323359676, 0.2692060100337678, 6.7700670921620185, 3.340227192448489, -4.369064093828673], "delta": -4.303494332819626e-13}, {"inputs": 80, "activation": 3.6921997009244594, "output": 0.9756886379273311, "weights": [3.543624449293136, 2.2302991658117097, -7.218432871996812, -8.537554769234756, -10.144648445431415, -12.1763458295914, -12.763456594133963, -10.298575034998748, -9.978208108892064, -7.422574667288665, -5.8443909229832105, -3.603094339763492, -3.2529806294113466, -1.6417559938459712, -0.2498282045855296, -0.12332573384626828, -0.19680752996316841, -0.9228768740796527, -0.8137236568541005, 0.09001773790575092, 0.8501524410114882, 0.053734238122808156, -0.5787118258725334, 0.15113383782867454, -0.30551771424239843, -0.6767748508305259, -0.44549477339994553, -0.35664137066540263, -0.07759376939996027, 0.4614819857892267, 0.1525807519971519, -0.5066548696798576, -1.4276560345116707, -1.33826413298437, -0.9161859249896236, -1.7166260809156737, -1.3807626520567948, -1.7357820886722781, -1.0462687235932986, -0.09946878509081565, 1.437470968741904, 2.4726353522573796, 3.623792265240622, 3.493797928289453, 2.862584895828499, 2.2605263178330257, 1.3505406824155346, 0.31323114371793187, 0.45911004333673566, -0.005131526905788583, -1.0211266301221416, -1.205034314743381, -0.22464850578169285, 1.1247718822046566, 1.3957281241709, 3.1912960582998013, 3.322811428230531, 4.81819625206831, 5.160728756184164, 6.373801967449211, 5.824005138961723, 5.715430653217561, 5.243224149272805, 3.8582214604553444, 3.4777439365120886, 17.321189252870145, 6.2493573934193885, 5.257844783325113, 5.238739771552163, 4.859530275768644, 11.905233585515882, 9.065202749101825, 4.482348360327921, 4.192620852174065, 4.511688079623414, 4.202968789175272, 5.316535555495876, 3.9492812963953816, 18.304157613657885, 8.160130601666689, -4.284944135339954], "delta": -2.4490595888371846e-07}, {"inputs": 80, "activation": 6.793850407939486, "output": 0.9988806089266107, "weights": [1.7291181320321676, 1.6461450676226481, 1.3093239186143184, 0.8359482368175665, 1.0919581325957193, 1.4037564719934008, 1.1154785012652517, 1.473174878324546, 1.267995229970299, 1.1269820502659684, 0.4493182893286292, 0.6217283507118005, 0.49108046784680753, 1.0368199241753682, 0.6921314882821686, -0.057858570803405965, 0.5815278718344802, -0.11376021491160329, -1.0829552617973823, -1.19346020644237, -0.5693291173657402, -0.5756398418058291, -0.5619525796918649, -0.2854121061893148, -0.22898300151375875, -0.07578291624766646, 0.030359521296173305, -0.5171194051258652, -0.34457571441957335, -0.021826069520197184, 0.20217942221509666, 0.1706407758979346, 0.12526280665154751, 0.4364055496548703, 0.2677517331647813, 0.1984386290943749, 0.07655752680000709, 1.1902139513457288, 1.219590081102026, 0.4171597554699172, 0.3040998472595296, 0.8927860215105023, 0.41268324516586363, 0.9440685671652004, 0.8284217404022837, 1.1658253815138984, 1.1555720028540124, 1.2942307691779158, 0.619517185831863, 1.6869869560804582, 1.407225279277228, 1.5962912013394719, 1.8561619295759166, 1.2513867348741716, 1.3575596600525504, 0.6740560475893075, 0.7344464130673274, 0.819486437992236, 1.3259146004738778, 0.7099178900014949, 1.327202107571773, 0.9219872226899933, 1.775733239882855, 1.855340746012488, 1.1957633373991217, 1.1860118487926947, 1.002805038780779, 1.16475692178631, 1.0475440868273707, 0.35205806646480603, 0.4722490197294522, 0.13051045724459345, 0.8035844224566102, 0.985217930258496, 0.45539361697971165, 0.9620159285602468, 0.8232264608942081, 1.3119735261939005, 1.9917169069151364, 2.0459545722908596, -0.8691985055179232], "delta": 5.2572021779335405e-09}, {"inputs": 80, "activation": 12.970360194418923, "output": 0.9999976716775373, "weights": [1.0818981280926243, 0.6799708482544301, 1.6506848588242664, 0.8498085239132716, 1.1478403470521004, 1.7501113457073423, 1.8526776277774122, 1.6874809294652646, 1.8237763384640686, 1.6457709847789552, 1.3731966333496224, 1.3956844173200316, 0.9594680882631245, 1.0128545514141185, 0.7788979436518142, 0.5247883120747624, 0.6526929577096369, 0.8912279604112641, 0.33353448173872724, 0.8413265903573924, 0.8194490744601753, 0.88484687259091, 0.40612965970187337, 1.187438033628891, 0.7362310537689238, 0.6814621287996914, 0.7440299581912674, 1.0579476122725215, 0.4611583571497045, 0.9537298326379672, 1.0241154235475214, 1.012710138461516, 0.5444651296371774, 0.9328059668447243, 1.2258184119291777, 0.4385730203845249, 1.0494896884160303, 1.3013804420882247, 1.0714161496017547, 0.41703124359310473, 0.5556528819749621, 0.19865332283007653, 0.9281454240990354, 1.024954953743857, 0.9469902395637729, 1.3420012326756217, 1.4344492242273879, 1.0633456347860197, 1.0449148158134485, 1.2041205869845513, 1.724805487466117, 1.465176284952441, 1.4616588766098673, 1.7787066440815618, 1.2256934229913263, 0.6957432712745327, 0.994999802682859, 1.2902258454279698, 1.6400663276726766, 1.035308401746138, 1.2039959553669994, 0.9948993092302884, 1.2258704933307827, 1.440502519895701, 1.7626476792159724, 1.0412326727420422, 1.6005147390759085, 0.5620821193363755, 0.9074540218304102, 0.5482769324726048, 0.862355545404322, 0.8006170781047528, 0.8721318047439233, 1.4118026286059335, 1.4239926127034772, 1.3100985325049381, 1.6423896888297713, 0.7397065408322032, 2.4152516787120017, 1.8812713771171183, 1.7116255638812463], "delta": 1.0136272587800227e-11}], [{"inputs": 4, "activation": -26.035350559211444, "output": 4.931634904508405e-12, "weights": [-6.67041669652532, -31.785348159097115, 5.5809191354893235, 3.6386271783977757, 2.4343472205371954], "delta": 2.8556708132844396e-12}, {"inputs": 4, "activation": -12.488752617924327, "output": 3.7687906640852537e-06, "weights": [-14.01505864066004, -7.770629076960606, 3.1243980522249983, 3.344210663584329, 2.642923101247899], "delta": 1.5200553226744385e-06}, {"inputs": 4, "activation": -16.280795554606406, "output": 8.498461136669958e-08, "weights": [-8.899754954995739, -22.58582833773463, 0.7218150947390042, 11.085489099396929, 2.849230787233936], "delta": -6.584459105131567e-08}], [{"inputs": 3, "activation": -0.9991845733116514, "output": 0.2691017741910114, "weights": [-10.940161787462245, -7.620300690087713, 14.63835946830384, -1.0256213752070125], "delta": -0.052928554066093925}]], "configuration": [80, 4, 3, 1], "name": "back_end_bound"}