{"layers": [[{"inputs": 80, "activation": 22.00950896528169, "output": 0.999999999723693, "weights": [0.35696319323782505, 1.3694932764300274, 1.0557799205576013, 1.00438461982843, 0.9019770578107494, -0.21063370974886336, 1.4846855651340374, -1.6332535126622898, -2.206541308565521, -2.0241185849127867, -0.29294414122930246, -1.800683178200069, -0.6422795523463186, -0.3975174535201278, -0.6581529010077202, 0.004359003736489438, -0.9549367305618728, -2.734045537030857, -3.170493250381003, -1.3847894331297856, -1.3436286088516984, -1.2053288434224583, -2.228696689295043, -2.716077206227607, -2.1473884260964806, -1.533769079499996, -2.1840958170329494, 0.6541798354884498, 1.174627168424566, -0.3565364304580715, 0.4407807870869927, -0.0034272986387190994, -0.23529528406675254, -0.4860492025682303, -1.0060455475241168, -1.2900663680435795, -0.5000061540148529, 4.566111354688277, 1.0051983981596044, 0.028592697757510124, -0.44469195149307145, -0.20737486330473612, -0.15759095291911737, 0.7065665766082264, 0.19879220669220896, 1.273093769959287, 1.2019065941729798, 1.7482527414849895, 1.3708247367859705, 1.7757165464625648, 2.564333949761614, 2.7038146749899723, 2.5982688514274668, 3.3258320612418313, 3.7082651268588207, 3.7217610484662558, 7.46517248716236, 10.107085214933116, 12.307762635845194, 11.601322479250326, 5.446525686676527, 0.8401509510980099, -0.8668952703460887, 0.5791120228770593, 2.086023485753254, 2.445391874150888, 1.115916974273823, -1.3743550450611852, -2.4998548367590554, -2.674419213055388, -1.7747047271095306, -1.249206955428619, -2.1074606955286552, -0.7432352274559036, -0.3927816482488472, -0.39714798663477685, -0.9796837206421279, -2.3006696344041013, -1.439573978663632, -1.9140638332282935, -4.901934032343267], "delta": -1.1111391526863986e-19}, {"inputs": 80, "activation": 131.73600684607928, "output": 1.0, "weights": [-5.285276285101847, 1.7502702685858933, 3.015072486571173, 4.592204505893667, 7.256660740148086, 3.2167033677547776, 6.315111292547349, -4.465936720285812, 1.6630865974533537, 5.921219455475105, 9.699959945290631, 2.845289649905526, 3.0113931075656803, -4.14703358696132, -4.083012430298866, -3.6244508734645673, -4.040021044714665, -3.1382296004536276, -3.811226007449235, 4.962292571383669, 1.2936610532988804, -0.30172290989582584, -2.2215684571106715, -4.933859372925563, -6.508661756101302, -3.579554588972933, -1.8820351551406265, 8.490593024513233, 12.258559106660318, 8.887620816303457, 8.031969425748468, 7.697129836791532, 7.052172416613309, 6.1832322901544465, 2.0820110882670817, -0.8400826466025523, 0.5478191741515048, 9.114330393680978, 1.6267939741772834, 1.2019538607654388, 2.7510991568204184, 3.773670104652462, 2.6448235884121467, 0.7806484832169657, 0.0808715054779274, -0.29100049411439805, -1.3817687473548725, 1.5398641582795016, 6.070910264174973, 10.856323467399752, 11.663239591501286, 5.703890158471117, 2.81314859760512, 1.4901340128125855, -1.07936216494193, -2.294108731334448, -3.822507515107771, -1.2254202399717717, 0.7458447933005052, 5.766776740317412, 15.689683582004609, 0.7774298651242011, -0.9200890607337783, -0.7008596012834778, 1.1808003751836593, 2.9158192972314807, 2.1656849890015715, 0.6288594540002205, 0.37742492433123015, 1.2716498403306535, 1.2504570436725455, 1.8614628152284878, 4.800267109798356, 3.4958718871665977, 4.732351166759357, 5.071197294244734, 4.232830346431096, 4.820738289641945, 10.130797217504753, 7.323085779856349, -6.503710495771872], "delta": 0.0}, {"inputs": 80, "activation": 58.22748845352312, "output": 1.0, "weights": [6.1490202150323805, 1.3735611586668297, -2.722088888374354, -7.326447480470089, -10.25887605164249, -6.597060685537381, -1.8919280865896986, 2.528913952639635, 8.596125544608586, 6.245447172940863, 4.3539561546951, 3.735234693491305, 3.6563538439800416, 0.1262074053674035, -2.8173175003496898, -2.6920819432995806, 1.626851520946032, 4.634038637761498, 4.762969343855968, 8.877753805939873, 9.992053733306099, 8.916271478678462, 6.0508619586471015, 3.386559293390109, 2.657233866758026, 1.4273891483000785, 0.3611998743742822, 6.656530619737898, 10.185510001155688, 4.095093677023301, 5.917600959358286, 3.938269310676424, 1.3533595590042617, -1.3630476486831256, -6.029410589918625, -6.114600393662388, -3.129024324400319, 10.650796230583211, 2.673577445087209, 3.5025088109302476, 6.369299997245634, 10.150025019372716, 8.22735566596915, 5.881251019523215, 3.3471881212549492, 0.81346995176489, -1.5595678147612058, -1.405134565363636, -1.8387333964826702, 0.668325232487265, -0.65941108234768, -3.5587654860481104, -1.76700779139556, 1.105881576171255, 3.3219512602915517, 2.9461640524524335, 1.0409713095063708, 3.216060973079626, 5.159851403541184, 6.732803755093145, 8.123983598623793, 0.8001358619503836, -0.5223788403141547, -4.769536655879233, -9.672580075349936, -9.037681563696802, -9.022417032901643, -11.82625538371207, -14.536314272282107, -14.11309505471262, -6.722109532109542, -1.3821030463567137, 4.651400981876067, 3.1992266710337565, 0.840217555772638, -0.3433839874032824, 0.31500460002223996, 3.193511100871663, 9.115621608391605, 10.213348870814489, -12.4194493983139], "delta": 0.0}, {"inputs": 80, "activation": -28.337661182890052, "output": 4.932988672761951e-13, "weights": [4.153144638311199, -0.702309638198757, 1.2224167659728529, -3.20892854200533, -5.113782893817049, -5.698978964055339, -4.459766948263461, 0.6233242130339874, 4.577746431473806, -3.0041943989766438, -4.896068321791122, 8.174669850361326, 7.869789612709186, 7.091498496999297, 8.904332674664625, 8.540657732979854, 7.7023680263463685, 7.7573822551907305, 6.864512280079285, 6.43115254339046, 3.04618659897661, 3.5456535011217905, 5.353139670289332, 7.072905383754072, 8.686360062743386, 8.983251835283832, 8.999850753994686, 4.969223938804003, -1.0432657438451058, 0.32147266902637656, -5.797364780045236, -6.726321625228039, -5.145471538813335, -2.146337102936806, 0.4459682841519391, 1.3635573253069646, 2.7409495276581772, -3.8496368298310952, 2.7443231423729317, 1.142918585803077, 0.0501822545469727, -1.6232392045779651, -1.2123609092102008, -0.6976023674422505, -0.4133303765335354, 1.0625303714368433, 1.315521894659864, -1.4487254163785437, -4.367099028323061, -7.758226688400144, -8.264924570359145, -5.451520551563623, -3.94337161899276, -3.168556410432549, -2.8228197455359836, -1.5943775169302636, -2.949932675404857, -7.4114999069908265, -10.742664753504773, -10.429048492262996, -11.13749747719016, 2.0579741407680756, 3.180374554286365, -0.12869548834079533, -1.4438048003245647, -6.140516882719695, -5.658656157541897, -2.239916864603541, 2.532281477992684, 2.5014122372435565, -0.6285827916436844, -4.066377633517048, -7.127927968481988, -7.089508256244269, -4.796646287572074, -4.850037232666975, -4.978622723400916, -4.389002312177561, -6.49027834593597, -2.874598739099155, 5.442325469977249], "delta": -2.185737427619854e-22}], [{"inputs": 4, "activation": -22.147943632617277, "output": 2.405859685041093e-10, "weights": [-0.42048963392711874, -13.803247273547699, -9.491634002476228, 1.6409751965678898, 1.567424873022419], "delta": 8.365006182678115e-12}, {"inputs": 4, "activation": -43.48963229562416, "output": 1.2962616542486988e-19, "weights": [-10.53386398708875, -13.644318193617014, -19.249306322494427, 15.813444899418005, -0.062143110910261125], "delta": -4.004438677687349e-21}, {"inputs": 4, "activation": -20.15472094400419, "output": 1.765695901550043e-09, "weights": [11.267620989108062, -15.296316986747497, -17.532215931215664, 12.91318746117928, 1.405051539331912], "delta": -3.5375863559067874e-11}], [{"inputs": 3, "activation": 2.932655102236609, "output": 0.9494372884416292, "weights": [14.323636590425407, -12.7274196575508, -8.25446696420294, 2.9338687732587734], "delta": 0.0024273197886231263}]], "configuration": [80, 4, 3, 1], "name": "C6res"}