{"layers": [[{"inputs": 80, "activation": 11.74586424960517, "output": 0.9999920780420882, "weights": [1.2138293199973422, 1.7726632191983243, -0.21180197819649965, 0.21481073149781146, 0.31340219282909765, -0.09764251752758994, 0.06884038794732232, -0.15138582939484177, 0.006558836499297538, 0.01369255724525375, 0.32744260175247736, 0.7693629163495206, 0.5595302893025051, 0.27147023336329834, 0.36627608582773374, 0.507559249573178, 0.13515265607141574, 0.25763253305650674, 0.5359544202102446, 0.3399433057775475, -0.07923613063811139, 0.01706547911826903, 0.14925591662127674, -0.03772847246638096, 0.4051092130331487, 0.7320729743549984, 0.26325528320704805, 0.4498625746513328, -0.1282418843464404, 0.25877188451283634, 0.2286508872989653, 0.22368353060919052, 0.13529937064033123, 0.13763726620303118, 0.1464714020724354, 0.7763373445995134, 0.8006575204775832, -0.05797158259311605, 0.5777050795050915, -0.13494491417352894, 0.1782141168442039, 0.37916297143935057, 0.04758421510062475, 0.5190036909667414, -0.12334509680438717, 0.7127473327510314, 0.3998148581415703, 0.6248427635400247, -0.021496137654563915, 0.3673377934401844, 0.2101474296053209, 0.10876642513998423, -0.091732227221225, 0.4849543512589026, 0.8264876563071799, 0.5053820005996342, 1.1914532007837035, 0.8208585847510265, 0.7056506560888796, 0.7065277393924723, 0.8258710060573747, 0.12688865432443389, 0.22954024519632285, 0.5170390360573481, 0.4697398940996933, 0.7223190984714885, 0.8080402854371828, 0.27903792008276124, 0.5289983349209645, 0.046173828655600054, 0.2596703593650706, 2.790765482601577, -0.12492762551283179, 0.525116283445672, 1.115746377635058, 1.0375368925165906, 0.864267224740402, 0.029993677510324317, 0.8729513445708484, 1.5609848321414608, -0.5421252694211284], "delta": 5.072176844644555e-11}, {"inputs": 80, "activation": 17.576380750596833, "output": 0.9999999767365128, "weights": [1.579839647419805, 5.760287888236223, -7.763276155524396, -3.7411548604441593, -0.07832016027942475, -0.4401135750621455, -0.6267662634936318, -0.15572789844397644, -0.5308999627291383, 0.24473187670435198, -0.20176677914195595, 0.1409900360531628, -0.1853266532811251, -0.07090682503648893, 0.23077037501529987, 0.13952132420271346, 0.5167340637185848, 0.12714912343204487, 0.25087852786937215, 0.35968162985326707, 0.44124521968103414, 0.46888552577799403, 0.6379189365237776, 0.9346254652311393, 0.5450681970598452, 0.5441746680878708, 0.5892894896855713, 0.6124026418314509, 0.38020617554176445, 0.5742861034632284, 0.9256586109010569, 0.8883744349129952, 0.28220740716322107, 0.08797189209145409, 0.4265894558512703, -0.24395198217670774, 0.22201872248351293, -0.4298987696874733, -0.4259991341541074, -0.271625577317288, 0.3836424862440791, 0.24107221582942692, 0.0789878302288584, -0.7110808598991035, -0.29860524438062763, 0.1617367110692622, -0.08289606451883351, -0.5204794162802042, -0.13338176890385417, -0.3413995257143405, -0.4623045372816447, -0.5163210082005655, 0.11969818980891071, 1.2196732996265225, 1.1772541493785122, 2.5519124055788796, 1.8795386409863872, 2.395179402559306, 1.836987682862542, 1.6947837485913235, 0.7712490442470626, 0.6622601559954594, 1.1615237413318509, 0.8794168445422993, 1.0551458144122985, 4.001386174865403, 1.369658618313954, 1.0911587414988855, 1.1768615754000775, 0.5842042043034855, 1.368602427239379, 11.288427568500834, 0.333116994729764, 0.2794084516647886, 4.358601674520299, 1.7028537363908227, 1.8375039467673782, 0.07928020844138704, 4.294925160706459, 6.720872258485012, -3.2778432469927474], "delta": 4.4094862603018405e-13}, {"inputs": 80, "activation": -8.63336801575515, "output": 0.00017803221092055392, "weights": [-0.13188923610082864, -0.6922581517053089, 1.5905865867552063, 0.6594628957851512, 0.840579350463732, 0.7133528539233975, 0.2250038564387699, 0.21328861917648667, 0.43257681649423346, 0.5921387498353857, 0.04185007688518229, 0.4890337266032456, 0.5009571187884647, 0.7937260050681951, 0.07907289548877712, -0.5624498847046825, 0.4332618978351281, 0.3659207468692695, -0.3734170554799722, -0.32824757167350954, 0.09071678041694123, -0.27864551139128546, -0.657711293366026, -0.6523413615742504, -0.5948742542962823, -0.380112865593774, -0.3762823800435356, -1.1220598358755218, -0.5704914181457263, -0.639672835184336, -0.11366253336788708, -0.6949124662187257, -0.8570102437860236, -0.4485200642183091, -0.17507475828814215, 0.12109198563114114, -0.2495354215013204, 0.31243922768174187, -0.024207550343724883, -0.8800853507837025, -0.9867373828096079, -0.2913394309353062, -0.9736304943010878, -0.559944901455056, -0.9001029419049791, -0.5751149244730253, -0.35014244464656863, -0.14569660980366209, -1.1746852336172748, -0.4118648511267451, -0.6641404081172569, -0.5147971107724233, 0.06973413821806349, -0.2289386928509743, 0.03338228313467729, -0.49088396051118205, -1.1299460196470825, -1.1670979049329582, -0.7029525665628776, -1.325690013346122, -0.6717531217758791, -1.1533091261282338, -0.044138176149290116, -0.24214218318299, -1.3326999719727037, -1.165579990825059, -0.766509990661456, -0.26300270732956715, -0.12270542973222094, -0.7949638271867608, -0.42557395111559126, -1.1922702754683332, 0.26242954446524946, 0.7135733275509707, -0.85373679458203, 0.2541606791489091, -0.028406865396764527, 1.1229603749106254, 0.11970013435118558, 0.4507565894125408, -0.9509024862993614], "delta": 2.514171502391099e-10}, {"inputs": 80, "activation": -9.937755193080761, "output": 4.831330798794181e-05, "weights": [-0.33064931490829, -1.6668319746834144, 2.0749687885588544, 0.5046291840163812, -0.030877358203237483, 0.28127148564247967, 0.21186510125749575, -0.23359001170517396, 0.17600516375064112, 0.05160778834132526, 0.02304303383714074, 0.37865319862029284, 0.08189847084127161, 0.12266554251333839, -0.1895593969213461, -0.4742246677213777, -0.39693445968927804, -0.026318597352185155, -0.6553261275728355, 0.08880659514165787, -0.025095399370437383, -0.04958367370138758, -0.6070885545272062, 0.06621745814186485, -0.3425237860269104, -0.3544041325877812, -0.26909646289304595, 0.07815709976244724, -0.42798556077492306, 0.05759937457945471, 0.10773259323259957, -0.0001295958543201455, -0.4732666670493149, -0.1041038100810935, 0.2622161322878201, -0.48463374120725317, 0.12483346676292967, 0.3647011661536579, 0.09872002922680581, -0.563394901832461, -0.4336349403516022, -0.7928848090676262, -0.09441238672117394, -0.005830817856187065, -0.24286521117728807, 0.04542665347439374, 0.15062690342081558, -0.2628350060069712, -0.41193036727146837, -0.39041968077582145, -0.04485042851161927, -0.5376935622098923, -0.5797322853020703, -0.1495700346811824, -0.607335395506033, -0.984971513453926, -0.9092308400160873, -0.6890728649303205, -0.430021135999613, -1.059127553671412, -0.8810043601027908, -1.0673611987323397, -0.8430523500924341, -0.7574136474377295, -0.4104141495677999, -1.285821726974347, -0.20420598374201496, -1.0505859337154613, -0.5619900638814951, -0.8905185736324892, -0.6155975562360748, -2.5985703423420174, -0.41261274699238787, 0.166121758622471, -0.9527074885970762, -0.5760768831319751, -0.2275875780126868, -0.4762890858992974, -0.7160818041351253, -1.7306319202363696, -0.08439995725665822], "delta": 7.246009160301745e-11}], [{"inputs": 4, "activation": -11.56192940142151, "output": 9.521683151599229e-06, "weights": [-4.189298786242964, -7.567995126086301, -2.78168628277096, -2.474060806005677, 0.1959478340193279], "delta": -1.2126516800662938e-06}, {"inputs": 4, "activation": -14.228714024113092, "output": 6.615272330277493e-07, "weights": [-3.586206967168693, -11.702608027523098, -0.8859261378103139, 0.295572760608138, 1.060216365851455], "delta": -4.0542774805068765e-07}, {"inputs": 4, "activation": -15.361971470467212, "output": 2.1300042339528758e-07, "weights": [0.44934803422671676, -17.212921327678732, 7.934816993176387, 4.721578260972802, 1.3999646864616342], "delta": -2.923752086520258e-07}], [{"inputs": 3, "activation": -1.023779595702304, "output": 0.2642918352410574, "weights": [-0.8902916003105436, -4.284213847054026, -9.595448398638704, -0.9522400818748832], "delta": 0.14305231761552598}]], "configuration": [80, 4, 3, 1], "name": "CPU_Utilization"}