{"layers": [[{"inputs": 80, "activation": -2.7383487622612543, "output": 0.06074805087727319, "weights": [-4.072154836664699, -1.1492227992017996, -3.8840211598069456, -2.7270694558045916, 2.2069356060230936, -1.1630331888998924, -1.434648906032295, 0.7932304703772581, 2.052572985872994, 5.566690518313192, 4.215559483784804, 2.0738655412685425, 0.8109643668980977, 0.33186840431603126, 2.1606656820942454, 3.3622674656609246, 3.826790298932413, 3.9719821080235533, 3.5792759317286396, 1.1687099908749317, -0.8011430038960745, -0.8193401952008476, 1.321649928990827, 2.487279431093094, 6.241795930045862, 7.995783587231078, 5.491629869439387, 3.598289851695293, 0.7688555631169642, 0.9804025469526825, 0.09174750008234893, -0.09621626590041106, 0.7295479409942535, 2.14726081800196, 2.7229364060006294, 4.002112153525104, 2.043179133565089, -1.358384383900919, -0.3811071879304616, 0.08138223101949899, 0.2595588121737906, 1.0557232612109673, 0.2615958968894274, 1.9038897954460756, 0.6724538813229052, 0.579830865126675, 1.6932428083609017, 1.29049285048528, 0.3655257374615644, 1.7044298812154934, 1.0871383532683903, 0.5330523151080901, 3.6472398742771412, 5.127077073219149, 5.969144325294742, 4.678290581710881, 5.1379160764712415, 6.400818817706675, 6.767215402760141, 9.809811151291896, 9.362045046877306, 8.53920933651781, 8.397917287893168, 6.0531821088785955, 3.575405230192204, 5.807623325050208, 3.8953470431636212, 2.175525636831235, 1.5477652192666695, 1.018248721576923, 7.165696300025861, 6.578644363217955, 3.5126366472792565, 3.7208044726496765, 3.7068267984276693, 0.995937808209891, -0.8343506531815499, -2.2564115163024665, 3.4610229996772697, 0.06286369662623884, -6.187696946411661], "delta": 5.872299921460536e-08}, {"inputs": 80, "activation": 2.8480623987487395, "output": 0.9452184392493731, "weights": [28.29599505829772, 36.693442180723174, -7.342910521813667, -2.0765505857799855, 14.460743000288641, -7.09022437356955, -16.324442666952947, -12.22176130259681, -0.37688507454793785, 17.174279502135374, 17.341740361656296, 8.186607306674722, 0.8356146849480094, -3.977309612376778, -2.3706869357235205, -1.6625173202613601, -0.48792959588754325, -0.9317295956350631, -1.5678510480958174, -5.885629336304871, -9.677398634887851, -8.600657687529953, -2.3775940201224257, -3.0172913624238236, 4.354061353963192, 9.47263650346689, 7.3256064942349095, 5.053357764019776, -1.0913094712827036, -1.629312238685281, -2.298211263364054, -2.9277141806287643, 2.6152296240768877, 4.3678083934966745, 0.7926830795276418, 3.555159489770595, -2.8723408897192564, -6.903319817444856, -2.6166886599952885, 0.08714351313342728, -2.198286575213774, -5.923188433906854, -12.334097913268895, -13.435083713826785, -9.941915849679686, -4.929868792034354, 8.336375491588399, 9.079201393290179, 6.6696548882404905, 6.668918800671745, 5.534928875481786, 1.0487540897475456, 12.627367106661193, 10.31785147835284, 3.3113452064415028, -3.5265726192056412, -4.0385051290155545, 3.148285552460226, 4.355856883870338, 13.301014388039984, 13.6338615277044, 14.509615870054247, 10.033888519131839, -5.540230359973927, -14.549126624521179, 10.591133067276255, -1.7109461298795972, -10.792583412997287, -15.28920795809212, -19.507278150449523, 17.869053656094575, 14.113595887251801, 5.543334034505748, 4.353339570728482, 9.670616029046604, -0.8183448928907605, -4.740672360176429, -9.129166678724486, 19.159969728764718, 5.031769440564936, -1.4562150844782429], "delta": 1.0618537230026403e-07}, {"inputs": 80, "activation": -3.4993836751084855, "output": 0.029329772146355834, "weights": [-8.232379445493187, -4.908905669385554, -5.36732722871828, -3.7694264490273617, 2.2335804628209583, -0.15940377407913045, -0.6737618472175275, 2.5826566152421075, 2.9408810796687757, 6.719680570147756, 4.1248317304076085, 1.5642430833049301, 0.5738118935134674, 0.9638575817135111, 2.858833809732967, 3.490362130246176, 5.417249071632869, 5.342087976158647, 3.9107168195687314, 1.0028906017495247, -0.44459549407156296, -0.7346296640330308, 1.4457689412330943, 3.6509408208794456, 7.602241208799825, 9.442262254280452, 7.200003865595296, 4.074594026067178, 1.5593034717052947, 1.490146036138496, 0.5728109497782362, 0.22072559623945284, 0.8762408048601157, 2.8065674579795665, 3.858193621619532, 4.684521051282783, 2.2832866337828843, -0.23612768461819558, -0.04996268075872016, 0.45564641075709705, 0.31812638877645216, 1.8925876561207935, 1.0985469748880943, 2.922207761261678, 1.7104196215509453, 0.444247521635096, 1.4475237169407498, 0.6772697410020879, -0.4308717127284638, 1.5427438973077126, 0.4851381273926202, -0.006845470654095212, 4.2344328245916065, 5.7076134858322005, 7.476604972825858, 6.370453341990181, 6.291949914471836, 7.824030460912738, 8.642424308067877, 11.28762718963057, 10.950977661610276, 10.31616040684002, 10.962650645175763, 8.336567621673456, 5.25035265775934, 6.954867331760439, 4.856404577573784, 4.392842989748527, 3.440438931555579, 2.695453933294944, 8.208499503176975, 6.464112062174011, 4.676200062491236, 4.466627876556453, 3.5499616544585435, 0.914900329469823, -1.4050970553948234, -1.5513289502713161, 3.5629046021879534, -0.4693449063372885, -7.507497852300987], "delta": 4.285743753706028e-08}, {"inputs": 80, "activation": -1.0848518855890312, "output": 0.2525889409441423, "weights": [-3.2792758065022114, -6.253547197881412, -5.293680069720352, -5.964497190509111, -7.868162652699088, -5.721893873811777, -5.717567722804264, -8.284204787371173, -8.325663167148035, -10.66161236806284, -9.098638336951895, -4.5120450589630625, -0.6680433898675443, 4.35985989974719, 3.6556828015796277, 2.372206630022251, 0.7104202342738456, -0.04418250655870776, 0.6886450495042075, 5.047087054402206, 7.284142940718456, 7.998047765763346, 7.349748780452901, 7.906231972000368, 3.857516066770584, 0.7620574558977715, -0.11994160135776955, 0.12368813502644659, 0.20406176439730508, 0.1726326856451846, 0.09548061198148995, 0.5833334530091437, 0.942390760660284, 2.0718728107001234, 2.459954458576854, -0.8669701247721175, -0.0053676682163776865, 0.6739726927355422, -1.9337513894015037, -4.0186312677148495, -4.091516314255783, -3.411989490012467, 0.8210202551329071, 5.1361999960228175, 7.150526047697149, 9.374394089928744, 8.607632757078825, 8.630993922606576, 8.247372519660239, 7.050047381720039, 6.7000494133939075, 4.066309610834047, 2.9765667643560754, 3.439807068911057, 2.544863241581023, 4.1693138784613, 4.1911194258425954, 4.624826614473391, 5.152420568127202, 4.738387573666473, 4.796966252418298, 3.34086990716358, 2.5618967056773556, 2.680973539715235, 5.490738470022463, 5.00516115987609, 9.049347407308257, 10.39086791098965, 10.873290099650273, 10.270782503228904, 7.382855453642325, 7.695534783948873, 9.339762656361586, 11.33515829142373, 11.191889594769911, 14.066047883703323, 14.8112541841174, 12.91331578615176, 8.088230510166325, 0.7555931035269153, -4.076497007967703], "delta": -4.5007096892868276e-07}], [{"inputs": 4, "activation": -17.96650932107763, "output": 1.5748679179249424e-08, "weights": [-20.652257144489578, -40.958723253621095, -30.26420759823177, 48.175089963524556, 10.722162780522575], "delta": -4.956787540746932e-08}, {"inputs": 4, "activation": -23.141891426975697, "output": 8.904391623418704e-11, "weights": [-6.298010367496823, -25.530143948770597, -5.443732828267533, -2.1041598435920443, 2.063414193179958], "delta": -1.0282542700940737e-10}, {"inputs": 4, "activation": -19.925937192096825, "output": 2.2196036471617613e-09, "weights": [-5.3132017444504305, -19.52208883564824, -5.134540914138947, -4.070702344753264, 0.028277105004442457], "delta": -9.127590552396988e-10}], [{"inputs": 3, "activation": -0.9184695609015637, "output": 0.28526983441565534, "weights": [-21.598127539121872, -7.924213991129495, -2.8218936802284116, -0.8456057054232243], "delta": 0.14572701673453928}]], "configuration": [80, 4, 3, 1], "name": "front_end_bound"}