{"layers": [[{"inputs": 80, "activation": 4.0355933261595665, "output": 0.9826317964462464, "weights": [1.4341266827222878, 3.25560085868239, -0.33871658270160837, 1.7586593014696534, 2.9874130535768697, 0.2943948281630721, -0.12303109472628966, 0.13994757404374464, 2.4650737117492185, 4.123177830938312, 5.319359089180304, 6.089145514761779, 2.114325563003718, -1.485620006132645, -2.999516249165368, -3.765900963617632, -3.616269028151139, -5.028532200100058, -5.82938352591593, -6.265112660458453, -7.195968370557375, -8.258495471813857, -8.848901503908573, -7.9303064873922935, -8.450813133515613, -6.7061906239708495, -5.2655834022499795, -4.573006831323832, -1.4902989372211852, -1.6818864533832965, 0.1804689551869776, -1.7857692200118926, -2.2417515188137287, -3.5949815404020504, -3.748322854340284, -3.118443695389688, 0.10027406688623093, 0.4236462203895963, 1.6221195900941152, -0.30216781425768396, -0.5796165363100916, -1.3149126840911114, -0.8487668367349668, 3.010623669062826, 4.25994152240114, 5.767351788587155, 3.049427279479073, 2.0460334274612775, 0.8273744713032051, 0.6788580998647368, 0.8629623931581809, -0.8089202643896873, 0.34841192041229757, 1.6209729698090372, 4.51234082302754, 2.5005992049910337, 0.1319521063113148, -3.80961366997053, -5.4584680621942585, -3.94557754514754, -2.54246637906474, 0.08889929032846143, 2.4252502620097935, 4.7487386341022315, 5.127110799120651, 9.048290761865017, 9.929154074133988, 9.117358901059944, 7.7954817578830955, 5.358270567943715, 3.850498762702252, 3.4487197610898694, 1.919120583715588, 4.318387981481823, 3.6881694239502467, 9.895726121315468, 10.389099857334303, 10.588848822043857, 7.819744201423063, 4.05947986929251, -4.309694928714347], "delta": 5.366776508588592e-06}, {"inputs": 80, "activation": 3.8807645060033162, "output": 0.979782152625523, "weights": [2.248250344138281, 7.812334373935317, -11.001427575643879, -4.919036483824783, -0.8983322521097572, -0.10575760302626687, -0.38643827632229166, 0.10196356115575174, -0.8151374273951172, -0.4108159408543182, -0.6776990971162437, -0.39437050676689817, -0.039399110221332315, 0.3202739006114644, 1.3221403892894608, 1.7795180221818034, 0.7126056560815102, 0.3178301370612243, 0.7061636397905421, 1.0666989617851836, 0.5504176554903072, 1.165148248706365, 3.0965498528381916, 5.436066294857159, 6.486811767096328, 6.036530329613644, 4.603284351693845, 2.6191225443829005, 1.123806610272516, 0.46874875639327307, 0.4394128864908165, -0.6507143623357167, -1.141314394033209, -0.07548722735175474, 1.6190574762443237, 3.039680331687261, 2.6974350905401443, 1.8682362823088556, 1.5351918951506909, 1.0676902446298633, 0.5400450239524167, 0.22528844000721301, 0.9913881316083303, -1.1613404082789085, -2.240992640516902, -2.8997130581402653, -3.0466176902786204, -3.6557299902590836, -2.321337111857067, -1.4101040128675673, -0.8826861462362751, 1.9427223997186578, 2.6157262573532374, 3.718150343727149, -1.550891497051825, -2.781151740497181, -3.40868913391501, -1.4205790573675385, -0.03623149834127003, 1.144081169547864, 0.7548947008969247, 0.9883144747706732, 3.6428741374877482, 2.4161582665692376, 2.0865925648897607, 10.630246463103894, 0.15242584088127958, -2.4946599637251934, -1.376322521584747, -1.77671183848764, 6.014381956653962, 0.4527970565090675, -4.010600960798819, -4.340877159212633, 3.0455924042889833, -2.2997566184264073, -0.7841804061905558, -4.147197075491059, 10.131293262014047, 11.412611125767501, -3.512811897315005], "delta": 6.191236994986021e-06}, {"inputs": 80, "activation": 22.16670641409182, "output": 0.999999999763886, "weights": [1.8894591231018556, 1.4234480727126184, 3.2468556725157156, 2.182015956029189, 2.483497991774062, 2.8060899962107175, 2.3622016922794535, 2.6689408815291364, 2.555165257351897, 2.5843348508328043, 1.6821094696539158, 2.544691207314572, 2.697133349143071, 3.644047832508904, 3.221205084988308, -2.6043332925026563, 4.015011668628216, 3.465619080661377, 1.9504068232239333, 2.1068405209316334, 2.7401616337246573, 2.4043004302231585, 0.17826897789090126, 2.5935341307806143, 2.422808456097778, 2.3799998505960587, 2.553253745855045, 2.538385620040847, 2.6036069522068686, 2.697782034763272, 2.8506241312048237, 2.9887023467420586, 2.9006462619406226, 3.0062107418809423, 2.6797724379508194, -0.9976056293368601, 2.8144440627267753, 3.145006282600695, 3.075523213644412, 2.677686323676196, 2.553809964477109, 2.68919845680709, -1.6547185933567787, 2.895490595603257, 2.6361299026972094, 2.46224754153178, 2.9440218690616256, 3.2666922988341947, 1.5160594354077366, 1.6677780567942408, 0.53211321456126, -0.2439802756755717, 0.7441600888136187, -6.702545447457611, 3.574394836252966, 1.4410927539439926, 2.8791854823484564, 2.508991427035759, 2.2115946590221527, 1.300090251351293, 1.139307226788582, 0.12688833847780118, -4.80339392468919, 1.0154273178049071, 0.27887442029630105, -0.7209276993971234, 1.9005989176475806, 3.0741967388447478, 2.8918658992826014, 2.5025813867778264, 1.5131798746926333, 1.5693772810020428, 2.7036930432095896, 3.179626522382633, 0.33950697253588796, 1.5733104122007353, 1.612412112961006, 3.437002450665021, 0.48712622190254384, -0.3434872288344312, -1.0113292204356716], "delta": -4.0033079089564284e-14}, {"inputs": 80, "activation": 11.542197960447378, "output": 0.9999902885763733, "weights": [0.768924267917956, 0.23900687811443438, 1.9552930376236588, 0.9543669953036918, 1.1380464465493396, 1.4636802374172673, 1.42031592277209, 1.1591868265991239, 1.3102572452519352, 1.3876122858496742, 1.3061354010105044, 1.6625359743494204, 1.3469323371491926, 1.5934673137016917, 1.3365148349243359, 0.1035939485336969, 1.3213809612410004, 1.5056481282916971, 0.8225970663432904, 1.3921018988398686, 1.3977923795600464, 1.3626630463751574, 0.4313562875480855, 1.5572545309462067, 1.0423328633902462, 0.9462293585712389, 1.0564875916806076, 1.557968728480351, 1.0298373163780417, 1.5943938796401071, 1.609573919594227, 1.626428946338968, 1.122225342186452, 1.4309698214324096, 1.6324194228675752, 0.06834602954807087, 1.4960770646970332, 1.7456170256318164, 1.6371507997704962, 1.126129047862696, 1.314333497357595, 0.858495083787606, 0.8491193033811572, 1.7125903772376205, 1.5028292438973572, 1.7068271846012375, 1.787722607520008, 1.4422051289087272, 1.0331771535690406, 0.7499584386956916, 0.7824299856927748, -0.08805786905016538, 0.10718047458693514, -0.5951992282579808, 1.1585480604858802, 0.7291683819779922, 1.2744033078929027, 1.3333811908944164, 1.3190261414118187, 0.5069297012538712, 0.42364941082915947, 0.03704267485177956, -0.99447754306595, 0.20727217428675584, 0.6751209622286625, 0.12729596009218733, 1.457528981478694, 0.9029045180313274, 1.339210513614536, 1.00741697348345, 1.1422508162454055, 1.1211983369109233, 1.2281196100792997, 1.8232563077717046, 0.999063839967938, 1.174821543153065, 1.4502417019191836, 1.1952231301451155, 1.144145285957975, 0.16163111209623157, -1.7579210256528195], "delta": -1.514438930001461e-09}], [{"inputs": 4, "activation": -12.20581309372774, "output": 5.0012729145887265e-06, "weights": [-3.8216484532193924, -11.127147508217542, -0.03124308833646072, 0.6135428915867986, 1.8693670685506925], "delta": -3.598577505478964e-06}, {"inputs": 4, "activation": -10.983046003561977, "output": 1.6986986777902997e-05, "weights": [-16.995560826440077, -15.309914844311416, 9.522035036449175, 8.649936011031253, 2.54583676074672], "delta": -1.7755216361265237e-05}, {"inputs": 4, "activation": -17.619678498129534, "output": 2.227772536109652e-08, "weights": [-19.35053304418996, 12.384377826018355, -10.986148633360298, -2.878970859221967, 3.125788292929068], "delta": 5.4299423287343236e-08}], [{"inputs": 3, "activation": -1.0911169133668117, "output": 0.2514080146766757, "weights": [-5.107237110442657, -7.419079247994845, 17.300332371469185, -1.0205224654814833], "delta": 0.1408865274116111}]], "configuration": [80, 4, 3, 1], "name": "ips"}