{"layers": [[{"inputs": 12, "activation": 8.109344028958727, "output": 0.9996993743334288, "weights": [8.229321931380005, 0.9586211504761281, 8.7632434802753, 12.39441196612575, -4.8810945184958845, 0.16621697982429573, -15.249381574168572, -15.693967939332497, 0.43910615878737946, 1.2919186912341107, -1.6030805622377635, 10.750573249941116, 0.9024578360305763], "delta": 2.8580034242196845e-06}, {"inputs": 12, "activation": -18.198286701240818, "output": 1.2490634496593416e-08, "weights": [-7.097779561036304, 0.6183590473390829, -3.7949927404056214, -1.3111369102664958, -2.1423075754054417, 0.6666173272928952, -1.1660052827391285, -3.4829649485763503, 0.10997080519776845, -1.1736510339235025, -1.507163625598135, -2.1299586063736133, 1.138054798748394], "delta": -4.438646825977813e-10}, {"inputs": 12, "activation": -17.55880445170137, "output": 2.3675987800720983e-08, "weights": [-6.970733247824713, 0.5948337373661329, -4.216399436220337, -1.2364167565026833, -2.1496694233834694, 0.372847825826081, -1.2756515375120687, -3.026135469323216, 0.27980314280942953, -0.48399024719389955, -0.9969968838252262, -2.333060919436831, 1.037542992522253], "delta": -8.002493067339621e-10}, {"inputs": 12, "activation": -17.938881609434794, "output": 1.618984528314503e-08, "weights": [-0.94838741960587, 0.47319788623670966, -4.836487415422129, 11.329967359591858, -5.360435307737176, 0.15007053949785698, 7.50123720945812, 7.5541654134804705, 6.057084256625994, 11.754552557089387, -25.0101274227202, 12.062007199242489, -0.6658776104648343], "delta": 5.04125923746287e-10}], [{"inputs": 4, "activation": 2.66401602393303, "output": 0.9348696233637179, "weights": [2.400798529397918, -8.96082206320828, -8.52312711492398, 7.852035426990761, 0.2687207190988072], "delta": 0.00396568512007981}]], "configuration": [12, 4, 1], "name": "jobber"}