{"layers": [[{"inputs": 80, "activation": -2.477346113240948, "output": 0.07746163988456345, "weights": [12.838839412309985, 2.1786161899014536, -4.866464578364711, 2.6712894592920393, -0.31230065093943393, -0.08984547251213777, 6.2388767401062015, 2.254098542806297, 1.9792818564320103, 0.34206292605282507, -0.1087286058364566, 1.2575278395274847, 1.3768147424143324, 1.0662181337438497, 1.3087064398109687, 2.0615488552055212, -0.46363052370746627, 0.2510751462214055, -0.40929677062608105, 0.9792410201629282, 1.0948634564181254, 1.576643106852154, 2.0929708153037447, 0.7967028825250517, -0.8814121523716963, -0.682134239087404, -1.4807143119864836, -1.3182524182423527, -1.5720997017678024, -1.0498402758914005, -0.4819348057643251, -0.4123471429320533, -0.40937659756978984, -0.5438804351481299, -0.3960192148039801, -0.13935938299884398, -0.2689060609722151, -0.9650067804426236, -0.8332475766886861, -1.7693722271210535, -1.678544588532663, -0.5884339091100685, 1.0143356544079958, 1.6112249874413729, 0.49122808505577487, 1.8269435498345967, 0.5530831707047986, 0.20394855097572212, 1.558987131954412, -0.22765077066795525, -0.4157253472766001, 0.39900892997766907, -1.6054130785175298, -0.3505098836229002, -0.05888067316418343, 0.1407239256946003, 1.433252023399306, 1.7399851316513466, 1.4217769121031227, 0.6137783573398129, 1.1118227675121404, -1.0131594102626416, 0.19892854744465976, 0.9410187093964989, 0.8371961716821774, 0.9257001324849461, 0.9181537867497944, -1.0775901145061018, -1.283293359492343, -0.00619554877360863, -0.3262810990991286, 1.480495254882136, 1.17538469694975, 0.46790187123678484, -1.078830780276792, 0.04188215629972112, 0.16204072708368925, -0.5229979371440865, -1.6481550100277105, -2.0448007338504914, -3.1302443542284197], "delta": -4.696098461352738e-12}, {"inputs": 80, "activation": -0.8836296692918633, "output": 0.29242618729448383, "weights": [6.626800795756625, 10.03376307228695, 3.0831447892741988, -5.202760823381403, -9.638310040392529, -7.9065706077541265, -4.120247580155857, 3.590253209690056, 2.100450999605915, 0.22289132954744903, -1.2099516940414563, 1.0668386794435154, 0.5740487055638585, 0.9366734455539635, 2.269666300057915, 3.4255840305387983, 0.31236342869248557, 0.7097538892688817, -0.39011683000284897, 1.9933627805515461, 2.7767995251245092, 3.3075712625123024, 3.835214665779237, 2.870621879653709, -0.7184527075398279, -1.3071989894316705, -2.042569537939083, -2.7165271353556877, -3.0066773362329076, -2.392951623574454, -0.9387698325873121, -0.26122936758722326, -0.6520861668150325, -1.1967436132654912, -1.1623104066677608, -2.2615712744013106, -1.4436866269604096, -1.0263404484056668, -1.0780560203968408, -1.2525897427917227, -0.6972586622317689, 0.8606630743367213, 2.9110280224382272, 1.4128153634280043, 0.7086187851932773, 2.0092677378151267, -0.43570852676258925, -1.1452182897009342, 3.0661961889612694, 0.128617330185752, 0.7986453400996051, 2.243670290811126, 0.1478765359861936, 1.7588799025224733, 1.3232225038350063, 2.9671112438893075, 2.5041411968797975, 3.8909503876055416, 2.7577303316453317, 1.2127236703936177, 0.8891109212073156, -0.8745805150589264, 1.9725243764874851, 2.3489467505173747, 2.796672365641953, 2.4264865000232505, 1.692959999343841, -1.0754218347494768, -1.1281663792278398, 1.0622910594901114, 0.12687366926978977, 2.1899093477064984, 3.567393892410093, 1.1033678654317756, -1.1779563220383609, -0.702147826376258, 0.35688945624841545, 0.5645589015071527, -1.8508918613725898, -3.171489516242691, -1.4370050002211783], "delta": 1.0245044408231638e-11}, {"inputs": 80, "activation": -0.8915513818023458, "output": 0.2907897804711862, "weights": [-4.464156592824812, -5.081493405974564, -1.8926893157785252, 2.2950475704099347, 6.195954236990255, 4.879650044492265, 2.148732558167225, -0.8645028494057712, -0.13206641025388963, 1.6329927484603861, 1.7530689611143213, 0.8387769571268762, 0.7963372831413618, 1.2294003847002708, 0.2828400737458878, -1.186244836971392, 1.9921194370502266, 1.3003947793271287, 1.2629985339845677, -0.3933801592003097, -0.42850221544059314, -1.03195434247783, -1.440478017139443, -0.42319681304081036, 1.62332166327689, 2.200501675282911, 2.7954271117312217, 2.631542727051717, 2.6673781020992324, 2.524278857848848, 2.10876146821425, 1.6333731222274717, 1.453421238877512, 1.9884312329672564, 2.085517389991965, 2.3585731951077866, 1.9698645720122185, 2.308097728862645, 2.6186522827148693, 2.1589596210983886, 2.178117747151406, 1.7774987475462949, -0.35700097327637653, 0.4329536020048684, 1.0856114578939648, 1.1653738988135787, 1.1676226743857858, 1.4265331972099329, -1.5198473211934782, 1.4588607563750018, 0.8370143168538909, -0.011727592711030603, 1.8410190045473125, 0.4603354124128553, 0.27045649808947947, -0.7009822416633276, -1.118151292651293, -1.682892216873845, -0.8690421963321028, -0.18239112921467876, 0.29864557977406136, 1.2772192830970466, 0.5932168411867537, 0.06420059781715501, -0.8918299637602131, -1.317066187517707, -0.7016137915932321, 0.9602939952810681, 2.1276714584212915, -0.14192112142620245, 0.47723077480744863, -1.0050641059465475, -0.7055337822677876, 0.9030079091083987, 1.588998619594669, 1.0721380093355204, 0.5358148518478976, 1.3749598504311211, 2.261809253505685, 2.969742045273695, -1.803877649868587], "delta": 1.7563481561844851e-12}, {"inputs": 80, "activation": -0.9780168935876737, "output": 0.27328545248941344, "weights": [-0.04609579812095134, -4.386954880520602, -2.1036682116198975, 2.4412665318075786, 4.251372607057513, 3.5508427809330625, 3.0053413287677673, -0.973126073429853, -0.24119712680949754, 0.8153309518842737, 1.1595596330876414, 0.6026715218973542, 0.37851172015842405, 0.40609330338783, -0.32303321877871477, -1.0536204312737785, 0.3808298840876464, 0.4559088541060625, 0.11887990199259645, -0.19579833904261346, -0.5561921130634385, -0.7592258984046643, -1.393009418684262, -0.2704891263156737, 0.337768550029509, 0.6020930842528099, 1.0412613458061555, 1.796366559943148, 1.3472834366107818, 1.6350814882479021, 1.232086630373331, 0.8047612014288693, 0.2860189591047563, 0.8479996985724941, 1.3294696238383008, 0.6636416277039972, 1.115509737946553, 0.9965186187602926, 0.8626661792816044, 0.47440858013059883, 0.6739205841179697, -0.26506460009462224, -0.22502433147250722, 0.27427965992220327, 0.554175983481028, 0.627117395660688, 1.3800894876664545, 1.008725146621942, -0.5016939916306673, 0.47313720084265093, 0.5080392951416609, -0.4932073234562325, 0.2590760554017579, 0.28108224471887205, -0.3891693887887234, -1.1881864430502591, -0.9944763080775534, -0.9894219623093504, -0.41375115958181735, -0.3293144278531834, -0.25136073205965626, 0.1291979928210106, -0.6378720128680726, -0.7870443910652811, -0.6019090501541507, -0.7309097597113602, 0.0020130598400368172, -0.000737704687568395, 0.6887682962253814, -0.4608843815257371, 0.21526959931868747, -0.6212534271485575, -0.8780239073009224, 0.5030188879328182, 1.1632906549791746, 0.5725501876853722, 0.6409931026325423, -0.11341803546153992, 1.5253403449584049, 1.3080670412646054, -1.333982267349124], "delta": -4.202836898247801e-12}], [{"inputs": 4, "activation": 0.9501978418841237, "output": 0.7211549638833408, "weights": [-15.11817923195433, -2.446996091651133, 5.700726200066062, -0.6182126028971348, 1.3480779919861199], "delta": 5.204373134599107e-12}, {"inputs": 4, "activation": 4.1843800286301605, "output": 0.9849968760756795, "weights": [-4.478838903069118, -12.950034444859167, 13.482523511355861, 8.803449658463393, 1.9918126585503626], "delta": 4.001402105301485e-13}, {"inputs": 4, "activation": -1.2298067751899464, "output": 0.2262152463808179, "weights": [-3.0591535337453593, -13.977960248478405, 5.503071027039713, 4.450074940765772, 0.27830460554836883], "delta": -4.824070155684599e-12}], [{"inputs": 3, "activation": -13.48107919286442, "output": 1.3971437414838819e-06, "weights": [-13.258528860327768, -13.87120082828251, 14.11854760466218, 6.549634085802947], "delta": -1.952007907128139e-12}]], "configuration": [80, 4, 3, 1], "name": "L1L2_Bound"}