{"layers": [[{"inputs": 80, "activation": -9.023933706449487, "output": 0.00012047669931561518, "weights": [0.7756912067949028, 17.59292125994708, 11.090757972805278, 5.362806827587866, 9.477338641866734, 9.442575031642605, 5.087994872642296, 6.38798750146433, 2.591069096308372, -12.623431957981534, -17.5841795058851, -4.679754700198988, -3.6315417533516103, -0.739050156893145, -6.506571880339602, 0.5517510552931962, 0.43372945533595, 3.2360377472695947, 3.582389910614493, 6.402501529066016, 6.893262460747865, 1.0504959653374952, -3.1404965239543974, -3.988668546945923, -3.63987836938824, -9.590526474234947, -9.98748045052228, -15.553651096460978, -7.610127525036007, -6.224422430898465, -5.761081380588673, -4.461435523763357, -4.398457002432685, -9.427090332544156, -8.88195051321014, -10.315323557942516, -12.199013646623097, -14.244709254023679, -22.505026646144007, -10.580301562873805, -4.724635473735381, -1.510783314944235, 2.8787812255721903, 2.425671265776404, 0.2854149470434528, 2.0779425631369586, 0.81079796653708, 2.6524357116154653, 2.6081539840625347, -3.228027398980374, -0.5267125418372849, -0.40803229696158283, -5.405269780036185, 6.631247986895652, 7.577869801144005, 14.324093978211245, 15.874517793764152, 10.458876047139043, 7.354775769839748, 4.731298721984286, -1.1610745294883171, 6.3287534113007125, 4.409447197156811, 3.366139954862597, 9.396630171032484, 1.812677060282169, -3.7120833398035704, 1.1340696819868277, 4.220252631760936, 6.48771721649184, 1.8405390108045034, 0.8566716538821014, -3.3386408659436744, 1.493930051962471, -0.7960211208294351, 9.305526696191361, 11.943352468154009, 4.000939308270262, -10.860847464989442, -16.403387172358933, -8.828934378195699], "delta": -6.684408897841988e-09}, {"inputs": 80, "activation": -15.532945522478425, "output": 1.7952601628413053e-07, "weights": [11.445665646262377, 27.583104245191816, 10.174618766575339, 21.10623679779481, -12.633094887661969, -4.326295024312778, -17.506234149571437, -0.9580140870025909, -19.47798576530848, -11.505590880408775, 6.537165938404489, -1.48701956113479, 0.4070507792290268, 13.544054792152851, 9.395302044982747, -0.026065487889154828, -6.889119977544684, 6.901168072046426, -4.13018940300974, -7.090781992592904, -5.650864565940981, -3.3415320340705152, -3.33389528025117, -4.25252265248894, 6.4749511537728015, -9.61914449743558, -5.299843055921884, -4.070527589785275, -0.5826709628324999, 9.377482982905645, 17.342113592504095, 8.913900300286208, 7.031083719111754, -3.429559034797816, 10.078563487534868, -0.4478850066343371, -12.213045719837911, 15.131841629840904, 5.393027847882043, -7.9203236176979, -23.690967211749044, -22.56938894528804, -13.815783809400138, -6.180444990703607, -5.9061557371071975, -4.649438165008443, -10.242609080243358, -6.158887421168568, -3.025749057316546, -18.4838615597188, -17.72827418524816, -17.714703467064464, -6.351818955545791, 19.834497774181575, 10.414189329134324, 1.8036597722593335, -1.5289130293290034, 4.052952690472459, -3.9764955354967757, -6.380125599437731, -28.8542201053782, -24.90395078351836, -21.205653809491437, -14.07639983922092, 0.5021087766005957, 0.9512867565434386, 6.399868543169342, 22.9715764134187, 15.5608818651096, 17.037166342733695, -4.238543405783255, -12.203862491395594, -20.74107323392592, -8.136656633198164, -21.79628135705784, -15.641967388685853, 0.1883712192913174, 5.709500828916623, -11.099140611716917, -19.59879369415089, -7.875190520745056], "delta": -1.3901986608179823e-11}, {"inputs": 80, "activation": -11.376659110012218, "output": 1.1459739595776542e-05, "weights": [-1.8688386343247874, 13.141147197681718, -0.07285524768912635, -3.520615706486723, 13.867703224195862, 11.621884268412616, -0.008305430943589152, 4.039700084185571, 2.089028972144219, -14.65573261491137, -23.042131630319705, 0.9298754424074247, 5.645567518083362, 6.45492122158121, -12.491950073605492, -4.223804307401488, 0.2641658055222943, 4.549212756248555, 9.659062090216173, 12.492053349811188, 12.834875694856715, 6.047465406854818, 3.012186322322248, -1.174968217303166, -5.477909593240099, -13.39152286021243, -14.059352480157937, -22.316381292646938, -3.9551549838336353, 0.647597085556723, 2.0129041435487722, 0.5075978173082576, -2.843169933531743, -10.79922176182495, -10.198247976957498, -8.185049160006153, -2.9146271749876345, 0.17356109458903957, -13.62870760913298, 0.2704241547305438, 4.042731927190878, 5.108289820013017, 21.651060435083252, 15.595086824731197, 7.3979764651350175, 0.12446490235078278, -1.6594896518169666, -7.453722993943591, -19.609524128808488, -19.468828361874092, -5.81221677338369, 4.650807020167591, -3.6166824459439035, 6.702480767786709, 2.8159348647308917, 3.0242114567021714, 1.3717450448086763, -5.0936297405486135, 1.7698669554068953, 5.104256725567349, 6.089057611244653, 9.741902468358669, 7.368941820485106, -0.12211395577150413, 6.774570253983475, -0.2857586784493296, -8.755489431966208, 0.8918402306647297, 1.925321743894138, 5.8801797377258405, 3.0977134190039606, 2.8337413786521437, 1.1737229278517298, 3.6685382661247443, -4.032532844803368, 8.431458249096622, 13.811356019443368, 3.689021078953574, 1.5246968284823241, -3.8670556796606115, -12.516891453758515], "delta": -5.972420063285478e-10}, {"inputs": 80, "activation": 17.34582516830073, "output": 0.9999999707043032, "weights": [5.342115257803116, 0.9587328003567568, 7.8899403659183385, -1.4072428609712095, 6.797118073996075, 9.961172474208873, -58.01288256106844, 3.761349280108914, 5.180489912273855, 3.91210146023301, 2.4801170021903376, 5.205545492833655, 3.5446170550697045, -0.8946654520833416, 0.5762284308275395, 1.700385192059607, 2.0768673473907278, 1.854207623512819, 2.2532769488655155, 5.372713853186035, 4.408001907001701, 1.8119457750839416, 0.3279018160186035, 0.8352635639844742, -0.5981719688848023, 0.4486943672623476, -0.758443790091654, 1.3872511365429285, -1.813323072348397, -3.170101234141716, -3.7900390919906433, -1.651799296107502, -0.40720153401167414, 3.610301074705972, 0.8090431812615639, 0.9807096024581679, 2.5963114423741125, 1.1306569456021445, 0.7376453576342572, 0.5609384813911334, -0.6836525430493042, -0.5469018789852125, -1.535230342479, -1.8829451126887384, -0.1515794883039755, 0.6796424698712774, 3.884463130075171, 3.341228704868518, 3.0721902262615965, 2.475882302674464, 0.7733949414833928, -1.6882047780550775, -2.9354180281826503, -4.745982709151417, -4.11752449640559, -3.8560801030759206, -0.652279890680877, -2.556375322783739, 1.5535243596908384, 3.5035973335378308, 5.766683255215497, 9.012895451251746, 8.125605736287891, 6.634195490920636, 4.596815584909201, 0.8425856810386426, 1.3383467620113951, -0.5954124599385476, 1.3228038543017344, -0.8668086538690893, 3.5389166736852706, 5.601553721643398, 6.606239571912927, 3.279282861809848, 6.160643740460627, -0.3736921711688442, -0.32763336809959953, -2.8532370044613105, -1.3245724422177272, 12.521159272897075, 14.393815931554018], "delta": 2.421183968251721e-13}], [{"inputs": 4, "activation": 9.079040664278946, "output": 0.9998859820526114, "weights": [-21.004566148576316, -29.29003705359229, -19.70191494882142, 3.1392550198426816, 5.942560048946805], "delta": 2.6465992878652927e-06}, {"inputs": 4, "activation": 15.360521477669808, "output": 0.9999997866905035, "weights": [-24.850459220534933, -19.796675679898406, -6.501787495063462, 10.954463364682512, 4.409130378064316], "delta": -4.078347972071546e-09}, {"inputs": 4, "activation": -20.87055164411167, "output": 8.630472763230401e-10, "weights": [9.990885831130846, -29.21820507651798, 15.903687086192704, -27.223414454242317, 6.351481339936479], "delta": -3.661299757093336e-11}], [{"inputs": 3, "activation": -2.9672141216840315, "output": 0.04892920143142061, "weights": [-10.205540366326934, 8.387137444447657, 18.631662041941514, -1.170870082534623], "delta": -0.0022769269783325984}]], "configuration": [80, 4, 3, 1], "name": "L3_Bound"}