{"layers": [[{"inputs": 80, "activation": 5.491123586137416, "output": 0.995893722250136, "weights": [0.5941513968419668, 2.9373377270329555, 0.25952081936579324, 4.818704898737873, 4.659998122571708, 5.946132877720488, 6.072231573278771, 5.947164727452317, 6.024111904764752, 4.934103745544157, 6.796209596718726, 7.189678136606133, 4.6890455342622035, 4.55876675073908, 8.35965925870976, 8.746367339573274, 8.339070470629641, 8.633432250973106, 8.31617927549658, 6.37985723420961, 4.732112406573095, 0.9502749423796092, 0.5462399387256496, 3.3378813720373888, 4.733680296808039, 5.4118518555185, 5.075002072933702, 5.643587617846084, 5.129150814980269, 5.60220312035136, 2.5807121383659686, 2.33875046870156, 2.161787988127252, 1.868286185593967, 1.6959133291536848, 2.463501832931052, 1.8224144286146382, -0.04674143371738248, 0.09333370678247108, -0.846254970460657, 2.0186255489297484, 1.4249557408901201, 0.7117393368591531, 0.7589097873744067, -0.6884851972066741, -0.6851418514578912, -2.72918293064582, -4.683777888293619, -5.77008744869256, -5.3048245533924145, -5.949405916078263, -4.646920270659806, -3.643430394339318, -2.6995519667293424, -1.9098732233969153, -3.881327720522221, -0.8917126463094492, -1.0516339865339939, -1.7197729242628519, -9.636615153728357, -9.715379698366583, -9.253942668623822, -9.696082571661, -7.392270845986278, -7.521380314972899, -7.672164284868725, -8.133318949262163, -6.7593147746402815, -4.094703797428336, -2.7122913712725643, -4.327217266132183, -0.9831346845170371, -2.981623970018257, -2.2597998892014717, -2.1233775987349444, -6.3838212948216695, -5.408012206941408, -1.5907030352158549, -8.268256383806374, -2.3803118325985695, -0.09041980032466278], "delta": 1.121397707625182e-12}, {"inputs": 80, "activation": -13.321272714956153, "output": 1.639245711071049e-06, "weights": [1.2248998893599228, 5.797871526266825, -8.551486864608918, -3.7567050624622147, -0.1433650789246786, -0.6285554283907604, -0.7746169472530653, -0.21767933827872168, -0.7746259829182901, -0.16229320829426186, -0.8299574961278632, -0.6879157434137755, -0.9794893639633115, -0.8613133437389374, -0.2951882241311999, -0.22968314906065404, 0.19925061792170923, 0.2931635425618745, 0.23393556248673156, 0.3746125051229219, 0.47043592727128286, 0.45719005804601465, 0.6068849809490101, 0.6904682416663611, 0.19756315995471493, 0.2871585217547321, 0.22292033139566242, 0.2642030914614263, -0.042356408958947205, -0.10317996550142523, 0.28354589067152136, 0.17858356010088114, -0.34717196856538834, -0.33683479685974727, -0.057914845380563615, -0.746850572236247, -0.6760144391813958, -1.8258430251505262, -2.153242150064454, -1.8009790846950864, -0.8262850803680261, -0.5758233736765598, -0.7442176593131068, -1.2103351752301057, -1.1953152230288002, -0.9083363417723201, -1.3215132342255693, -1.9757703158375823, -1.3072514317542638, -0.587583571624878, 0.07038158392890329, 1.0046663058440066, 1.1424110133215222, 0.4533908075813511, -1.1851265787555474, -1.9226709013983558, -2.3505069308929833, -1.11662568888926, -0.7331885814119687, 0.2185671069304923, -0.3980835962573594, -0.4373548694510596, 0.08544180277091484, -0.4657635362123594, -1.3475247981112826, 9.394649609815177, -1.72984585040803, -3.9566857644925197, -4.459968147217595, -4.519281631572072, 4.344008251712991, 0.0556725043635509, -3.7698117382296914, -3.5047436813533928, -1.0756066159137165, -2.4774190295596434, -1.6988015636186653, -2.4163210278904175, 8.173492994798663, 3.7689044610417692, -3.149213790435015], "delta": 6.212478785922028e-16}, {"inputs": 80, "activation": -10.490176684066046, "output": 2.7807508273268366e-05, "weights": [-1.1666943010120787, -0.43791720198401124, 1.8172145029713196, 0.24630628753214312, 3.5244002912583494, 1.886848418497811, 2.896714337634424, -0.49287662695088114, -0.3289761336138088, 0.16454235411090937, -0.7058881619561647, -0.010427774740680032, 1.504607266313916, 1.6728182505318328, 0.8794595252775368, 0.7096709799650757, 1.9914931777133138, 2.186027193244355, 1.4069513352685477, 1.7630149877855448, 1.72926555050727, 2.621801662672061, 2.2567204586616647, 0.7512279930986796, 0.6014012883331976, 0.8889511331326233, 1.1546743913637667, 0.963366383617063, 0.8813501907737671, 0.9301417276722043, 2.143997396544075, 2.0020338829731017, 1.6378264546221015, 1.3040947302606416, 0.358903821814403, -0.31210317291208933, -1.2267429256444073, -0.9205454771855033, -0.9649628243961735, -1.0096067621980434, -1.5320373174477877, -0.3827220505254325, -0.9831573605745014, -0.9347754620013605, -1.5681846536097315, -1.6608385914411172, -2.2588186118394433, -2.1711540750890284, -3.6782680477434537, -3.7159353494835283, -4.305843157702837, -4.553209805374214, -4.258842567811369, -4.483108012868082, -3.7820792690455893, -2.567090222544527, -3.632828971939365, -3.5675144607564575, -2.9784065245796674, -3.96664914560793, -3.0543599912519883, -2.8681900259471416, -1.734647563386395, -2.704185429905727, -3.2202867250694345, -3.6450612107764817, -2.6399355921795724, -1.263672816400223, -0.08530222021880914, -0.2250431915675323, 0.6444918934350882, -0.39657151762542237, -0.45631095672616157, -1.4820681635560538, -1.8790600551522016, -3.41843960605827, -4.809541977511304, -4.327808483647794, -4.653251471395605, -1.0417107003862376, 5.033732754021013], "delta": -2.4532408962101827e-15}, {"inputs": 80, "activation": 7.678031017557124, "output": 0.9995373287484266, "weights": [-3.6205876856264863, -3.655829185291051, 0.4758981120133859, -0.026749886550999226, 0.39120967638961446, 0.6639251766362295, 0.7137937817209735, 0.5707834939655514, 0.6713115624897824, 0.7188559623581932, 0.671106206823742, 0.8473040334231238, 0.5146677996295047, 0.7378189789979026, 0.5198527030143782, 0.28830517658713184, 0.3390772794373382, 0.5460077336225114, -0.013847682702136226, 0.4838825763373283, 0.5104771899551067, 0.5048529332969618, -0.012087050916590404, 0.621289331930054, 0.10963268802012807, 0.12218722263128959, 0.1295053187207309, 0.43969142046384646, -0.13496976692190626, 0.3859733324935948, 0.4094158315217771, 0.35481009132135827, -0.15735783900620626, 0.15591406285569478, 0.4067318901500988, -0.41109482681565884, 0.23434792026943008, 0.5839904491521425, 0.25667758881877506, -0.4260272929913622, -0.260591906018021, -0.599219487259363, 0.12968369162319687, 0.22293941815509788, 0.04211217295615873, 0.3432585973675996, 0.3918529947383099, -0.003282295687840549, 0.19837273172175543, 0.7768688300416784, 1.7033365667024036, 1.7086529281210459, 1.606599299021796, 1.6398950770418095, 0.7676329338984689, -0.12701261249965207, -0.010834436328422741, 0.4262138228077004, 0.8929986392217989, 0.4965227416856607, 0.8697649004436725, 0.8648500984994602, 1.2164749644676767, 1.540633686236763, 1.6045247611255689, 1.656127787379832, 0.9793766240356426, -0.3831593958442314, -0.11421628696515168, -0.25563474896525573, 1.157444001754946, 0.9534586515061626, 0.7798359845208763, 1.3698159828421612, 2.1075145149847674, 1.3953361902579267, 1.6264999700351355, 0.7262366111769344, 3.3092297251596805, 3.95523769098562, -1.8713290388268364], "delta": 1.5015738000079442e-13}], [{"inputs": 4, "activation": -25.09910745559978, "output": 1.2577552283931664e-11, "weights": [-11.868407524027713, -25.7726135488002, 12.551986207003592, -15.084518717931674, 1.7977971869481129], "delta": -1.6092027361911083e-11}, {"inputs": 4, "activation": -23.228211302700092, "output": 8.168005221725374e-11, "weights": [-12.464310445322942, -8.241740938186402, -9.655500226318983, -10.370893583297182, -0.448705513174646], "delta": -5.660391538239848e-13}, {"inputs": 4, "activation": -21.754467180215357, "output": 3.5657833005062126e-10, "weights": [-10.87741248107552, 5.7707505912007635, -15.463744113549486, -10.864041981656717, -0.06228436278863438], "delta": -7.003272714288458e-12}], [{"inputs": 3, "activation": -0.5466270866167269, "output": 0.36664730413530566, "weights": [-8.699111282996519, -0.04711820475722451, -0.13353816232920068, -0.4730894364406965], "delta": 0.1470753000303028}]], "configuration": [80, 4, 3, 1], "name": "load_core"}