{"layers": [[{"inputs": 80, "activation": -20.019330069933947, "output": 2.0216939821209616e-09, "weights": [-22.873175124196834, -16.292138047446702, -20.897942995520612, 23.842298186962843, -29.57787710842289, -15.65759801543658, 13.846335181153174, 12.545493330692116, 6.033105015031861, 3.3433204103048193, 15.386890144309296, 3.657312784340627, 6.399225700379155, 5.918795917583019, 8.993824447705489, -2.252817767392804, -6.098341444075696, 12.796760878261624, 12.763484435304054, 20.173190686604496, 1.7236079910933042, 3.86282166163091, 1.5128544106476638, 3.2289996177594538, 10.666977258851926, 8.592659425143605, 6.420149300477602, 1.1039262807565224, -10.360680820913007, -10.531127477796737, -6.8696155718176355, -6.592446407898599, -5.057101495603899, -1.174078161329649, 14.994883106371322, 13.864885222655147, 10.50947874231596, 2.1140893648452326, 4.02340215702779, -4.519588649957078, -2.6991540654623525, 8.823256191611515, 0.7879531952635174, 7.456180408688723, 3.4204627610546336, 4.316283659079356, -5.018431837795676, -3.4098509991253017, 13.74052647349655, 8.140909541026373, 0.3065687868880799, -2.582764931522459, -3.112862187769243, 15.047016106994056, 1.5781101420202257, 5.755040881161263, -0.28505431110423446, -2.5708597035027374, 6.869640592935849, -8.807873228246468, 3.361924643045418, 6.236600868301164, 1.3147184596402544, -3.9210452179027215, -3.441710404637344, -9.176181689175035, -4.558170655037716, -4.902069351394501, -5.725022197590234, -5.6528291604812795, -9.290639488032177, -10.530888447550144, -16.11360121863921, -6.840698634167758, -12.911180235410974, 5.193008780657872, -1.687371172364641, -12.156937157793186, -14.692165647762183, -28.218861076388006, -17.66030538351164], "delta": -7.831310050467076e-15}, {"inputs": 80, "activation": -15.583578416259293, "output": 1.7066238531720192e-07, "weights": [0.02104083457823269, 38.34835351451565, 13.159102835764621, -3.9618180177894806, -13.776709751139027, -4.169698791968067, 33.60908170161924, 19.45133105174166, 8.225802211273805, -13.15487537736815, -6.008228653239002, -2.9555235294457263, -5.919228169049714, -3.8269237292611344, -1.5352470765287454, -7.255863507490967, -13.411981865632397, 12.454582582485354, 8.394534636240486, 1.3579991011929298, -10.39583365856301, -23.081777007372853, -18.416005013051993, -17.0864840497767, -11.190975780489204, -15.93332169551515, -5.963012965771228, -20.827019327046564, -14.76024268662655, -13.039863249367787, -8.350986108522635, 1.2339806142364376, 7.943009376183958, 5.057006708343409, 8.25659491627507, 0.40416994368129305, 3.058684353223873, -9.546035660684314, -15.25645589733894, -11.926997574936419, -18.669590553129293, -15.102924703462866, -9.790374664313322, -2.4031268923655116, -5.998256156015021, -11.749593368549183, -11.42612296033705, -15.383972786861365, -4.532878573067765, -11.770303998526181, -13.962410422115497, -17.133213986400694, -21.982154369261572, 5.896516415652789, -9.632698932725367, 2.507717681810267, 5.454433711682254, -0.9558931492477529, 17.32299006864059, 3.806042596570326, 10.845815362863759, 10.882910857387055, 2.26626676530423, 0.22511191778190742, 12.71572567494792, 9.981678525566492, 6.482453793706293, 10.334672885745977, 14.088009670983283, 23.61417522323367, 22.389752888685578, 28.065429458917603, 25.203808857555334, 25.68962792239893, 7.042987898416123, 4.918660771752752, -0.3209559148519116, 0.10144839487565968, 9.814921048234964, 10.262877005193968, -14.420432528808421], "delta": -8.735863089886176e-13}, {"inputs": 80, "activation": 11.556630995280585, "output": 0.9999904277337002, "weights": [0.025493483731064047, 1.0120221293326452, 3.2070686844652707, 0.8204234037172565, -0.9352962269977928, 2.6642334930956384, 2.389701610558461, 3.3230978901936017, 3.3148688669197175, -0.39621096207801476, -0.826824939178523, 2.006474608621087, 1.3149261576110227, 2.536179761438899, 2.584102848651109, 2.136485818334627, 3.6542412362602197, 1.78190629801291, 0.04303470986773457, -0.46895026080498736, 0.3006334419529124, 1.071980899772764, 1.9788585141129424, 2.387697536612918, 2.1933263943831234, 1.813082327956887, 0.532244637820215, 0.02093318136677357, 0.7518565464127067, 1.1769379041693262, 0.8533827624939138, 1.3820066630453507, 0.8074585376084871, 0.919201605185883, 0.17634996484860083, -0.3420928812391648, -0.08075907849186063, 0.5461084984401006, -0.6056746883079849, -0.8477660598490673, -1.6728690341403332, -1.6025111132755974, -0.06600779554573477, 1.993778787675522, 1.2906707422004793, 2.240970651099311, 0.9985420775793952, 1.3573652884041374, 1.0162913345593643, 1.773853572844479, 2.106633453288554, 2.5629871336231806, 1.9879906310486832, 1.2369431598997274, 2.731189236645848, 2.6810952488602657, 2.2632455178737065, 1.2578186602227275, 1.6431961488898745, 0.1884233984148881, 1.0510158801697633, 2.524501172751023, 3.321492965563007, 2.964103640773513, 2.0143886806007147, 1.8405541132365382, 0.43480456270725737, 0.7822603595462567, -1.2212826986138154, -3.2655125652795802, -3.630804721372057, -4.027584594681342, -1.6742221595802504, -0.7385890894252508, 0.08801042342626787, 0.9348062547161311, 0.4470924859816165, -0.6487516465203845, -2.6290370644398404, -4.100258277271814, 6.326124974420609], "delta": -1.4461691190880041e-11}, {"inputs": 80, "activation": 4.854321808297228, "output": 0.9922656683528811, "weights": [-1.1009647175554056, -3.520742348379955, -1.5820482441655725, -5.282409499582625, -2.616166598524299, -0.001502016123889298, -20.988835415099516, 4.398125843847967, 3.6217223991682035, 7.1507801225988095, 4.111033533104144, 3.294632520834031, 2.4426460151282208, 2.4268025384680034, -0.9628101487992026, -0.9645987589765966, 0.20221838159510197, -0.7640529235128977, 0.8906298975513598, -2.3197072058502717, -0.33468850694028757, 2.816243435041621, 1.670458653599351, -1.4281858538348426, -3.2741517915490532, -1.6546235920029801, -0.6675202382497769, 0.29024214061137454, 0.09228127236604936, -0.7082440489793419, 0.18963650470717672, -0.2432714506226814, -0.4352485536210456, 1.3902382531373303, 1.5262887745415876, 0.5121144281190478, 0.97189777239776, 0.8979395308206858, 1.5738796247799554, 1.8063154607477203, -0.5015575816891173, -1.6847383229289548, -0.8697224656409663, -0.5918206576072745, -0.5317268156689922, 0.01548628767998782, 1.4133591184309406, 1.8982740850066206, 0.6207806598709471, 0.049438370940003015, 0.1771145106384332, -1.7888302909892209, -1.181057059152472, -0.7060649595053404, -1.2575544200893705, 2.344055251231281, 1.1062216093887869, 1.1322352801922617, 1.0154579345922623, 0.39354011206350425, 1.686663878627254, 2.7271412897285545, 4.354831833544103, 4.8272078318135385, 3.8718085044891724, 3.0339395470356485, 3.2848788259522577, 2.2800110543789645, 2.1602973920512625, 0.35604169070388064, 2.2538622867681584, -1.3206991871498228, -0.7531491722284103, 0.8273946163934062, 1.9072243352041984, 1.3537660246108405, 2.2828831412231354, 1.3483592809883544, 2.987530200304897, 2.82202266269079, 2.4287340665513257], "delta": 2.740072069772064e-08}], [{"inputs": 4, "activation": -11.017311171388448, "output": 1.6414793511991313e-05, "weights": [-15.466295185613843, 21.449642308908743, -22.112982698975767, 13.303835724777844, -2.1054761117344514], "delta": 3.148747906633447e-08}, {"inputs": 4, "activation": -14.325198269420982, "output": 6.006827751662676e-07, "weights": [-12.068405732199565, -11.010875630519635, -12.86794955770372, -0.5640425147009482, -0.897689965645064], "delta": -4.510577319258357e-10}, {"inputs": 4, "activation": 9.887971421596378, "output": 0.9999492207221107, "weights": [-18.280343745712383, -31.25234175761449, -4.420836163097869, 16.982152522852658, -2.542034000189502], "delta": 1.855592361087718e-07}], [{"inputs": 3, "activation": -3.988129065856845, "output": 0.018197086936300004, "weights": [-5.912279453555953, 2.309719057583597, -11.242294982281003, 7.25184753142408], "delta": -0.0003251082992736126}]], "configuration": [80, 4, 3, 1], "name": "Mem_Utilization"}