{"layers": [[{"inputs": 80, "activation": -10.782740187794918, "output": 2.0754220337059943e-05, "weights": [-0.471616040582916, -0.5811505668057896, 1.2468372584735208, 1.2577677686136044, 0.5362169379249776, -0.2933342357671577, -0.5404813814300511, -1.1496294231421302, -0.45828872787213626, -0.3717877432746202, 0.10837181882129994, 0.46790692704427717, 0.11514482297826575, -0.4651328689195315, -0.5180807187936072, -0.28974211960351975, -0.49780260876015664, -0.3211143343072672, -0.3365782322764971, -0.4032354367622138, -0.7613797493956591, -0.5072698268565401, -0.41359293035883965, -0.7611607792886214, -0.22494186752634296, 0.14534981575923597, -0.3459186677214597, -0.5779705358227433, -1.3248578251497956, -0.7987669786107959, -0.5431578217296472, -0.4753555637449286, -0.7610614273535424, -0.8743447465044154, -1.0049827087069496, -0.2289068824699086, -0.03440909145448257, -0.44469518959785115, 0.20443643561564404, -0.8931880106137612, -0.9450455042553321, -0.9625875757048018, -1.1397174587690138, -0.46219262572013375, -0.9295917516520193, 0.11188972810046532, 0.22258673155165987, 0.44165396233738863, -0.22416853263178008, -0.06727155172735003, -0.13720820084397398, -0.11571436164617808, -0.42628730776393686, -0.16945942039291942, -0.2583063953569238, -0.9786627831123829, -0.450975092195975, -0.6528949205023564, -0.526470425364801, -0.25172914805400765, -0.08287189367458984, -0.8886451652160251, -0.5726578330441262, 0.06914811305139126, 0.10481313938329702, -0.35190160914777524, -0.1358675665069579, -1.0065322726507806, -0.7433316508132553, -1.1196035218833533, -1.2111777100752261, -0.38648515206561906, -0.5232623649526795, 0.11960986923684855, -0.9564471957122068, -0.34537956854662466, -0.04800545021272735, 0.03744487583283691, -0.8270351792507346, -0.5163326863168176, -1.1022240336938793], "delta": -1.4701410531397709e-06}, {"inputs": 80, "activation": 22.825968190326194, "output": 0.9999999998778741, "weights": [9.611843272582707, 9.14508501446391, -2.646656736290271, -6.1601471154510445, -3.322720635615658, 2.3068782622589734, 6.110297036579501, 9.089940001755444, -0.30591216972352303, -1.2882398395354115, -2.2434723027219703, -0.12457606605731067, 2.0459747051640327, 5.921104252209656, 8.705749244869844, 4.347742013740318, 0.8164066878776758, 1.9293653100954213, 5.793106831135573, 6.348284588775599, 4.942731465894698, 0.6416413370769878, 0.7842002696340729, 0.7742100973153306, -1.4238557606892677, -5.651197545851665, -9.54631409049683, 1.3909173440253033, 4.869341200339826, 3.477534572979601, -0.4582738675782112, 0.2820557419421878, 0.8435130984036631, 1.0840678928585765, 2.8519077854795873, 1.8932013117929172, 3.0818830536517305, -3.4457598976377692, -4.129854934443933, -2.146680719281656, 2.6986553301737657, 5.1483221769957135, 2.8275025024826475, 2.749947659094682, 0.7534932803720502, -0.318897049525923, -6.545659016622632, -7.393945843290114, -4.965166916149537, -1.820754824920802, -2.292664419195514, -3.8790818932660702, -3.2798866093362355, 0.2392137664859119, 3.2510523575420027, 7.6593445187140015, 6.422206469328076, 6.694463037763364, 6.826363642699501, 3.220916318861265, 0.5224028998174443, 3.0061305433222016, 0.22912547558460855, -4.575471372319383, -5.871969702487371, -1.8069883173158992, 1.978180998259049, 6.813265311632477, 6.2763368773214285, 3.416641729225538, 7.720856861621122, 4.170256380546968, -6.756808165107959, -6.045377599939191, 8.572285457508652, 4.100362239519868, -2.557471995297666, -10.80068159596244, 8.66956364168958, 5.504059554366176, -7.0280296427388915], "delta": 1.822549957817909e-11}, {"inputs": 80, "activation": 4.021300295627262, "output": 0.9823861735476711, "weights": [-2.822501476946887, -2.908693438616869, 2.9530414596503904, 3.3671263632957786, 2.239290424391442, 0.3781026576979506, -1.3297381727615214, -1.5160885596764675, 0.9817108216554156, 1.4208701156797594, 1.1820842218233585, 0.9047764895172514, 0.3137761912594709, -0.12077667281513084, -0.8722905933952415, -0.9300203646448036, 0.8335327220331633, 0.9357309643707881, -1.1304284022867028, -1.0225911893270365, 0.038381949781769766, 0.889265465290925, 0.7769478457153391, 0.3993608907135268, 0.6436708973874369, 1.4075167791739602, 1.8687006375289834, -1.0580941444323582, -1.8788591060847577, -1.378880893691384, 0.0951458265744439, 0.014709104295535397, -0.47735207949903924, -0.3253468745191544, -0.7989762751437188, -0.3964111151093993, -0.5143210568160401, 1.4710913677879378, 1.4648828352262635, -0.3487150270502339, -1.4687136524506412, -1.3597719328398754, -1.1014981879708565, -0.19049122127396872, 0.277771499892203, 1.0414772211483578, 2.81806872292831, 2.6733112666701997, 1.2571122691690584, 1.1606210364970744, 1.2490379751835885, 1.6764185650049224, 2.1163348338853596, 1.1008360790454108, 0.4067595013556705, -1.2393670664951937, -1.3561820686816897, -1.1231636435218828, -0.5944618337313425, -0.2941409401512724, 0.7214726815328881, -0.713189545444276, 0.6730739321650386, 1.6513855015456087, 1.3890897006276186, 0.1640864072620805, -0.69307687432069, -1.4156940111975935, -1.1622171106689865, -1.4173592547663876, -2.13553359150288, -1.3116848865753212, 2.3303892369649173, 2.2735332626935425, -2.814310727545481, -1.3751622086051862, -0.010101930754538975, 3.2102607023255083, -2.083441105691269, -0.7234907353117822, 1.0173665326522838], "delta": -0.0016456538528390032}, {"inputs": 80, "activation": -3.9754445775072655, "output": 0.0184250978224246, "weights": [-0.23580801820314365, -1.8546228775427474, 3.2061408501212263, 1.5952114907790285, 0.44616984854027164, -0.00917829496032956, -0.8159393149550312, -1.6332261686676268, -0.022891403433128614, 0.5373802078064543, 1.0738339180751042, 1.2104998460791323, 0.6502429417299046, 0.21274562220638216, -0.6211695203709385, -0.9012833136413174, -0.5445457297338352, -0.3094744137766786, -1.5636421414236448, -0.6106689804263499, -0.24361354702808183, 0.4017389220954411, -0.1278739687747122, 0.19984875092543564, 0.04547199042333586, -0.10856729602990958, -0.5494810174096789, -1.2779215916324471, -1.9487193141626826, -0.5390961605716917, 0.6909964627083789, 1.004697220650816, -0.36201884649735955, -0.6555163659639707, -1.1062474236472755, -1.4959640152038332, -0.17652715711535374, 1.8397229159658184, 2.005259483367998, 0.22317254023684724, -0.961067196763755, -2.3557505016353697, -1.3735938091325803, -0.8966756086271191, -0.515599702164175, 0.29550056918709383, 1.3370149250748966, 1.3860766514207654, 1.6146565627368026, 1.0437769795659706, 1.2389163585832619, 0.5203950741397556, 0.0654637461337858, -0.14915609224260273, -1.3293826817031982, -2.4866067987692833, -1.9496120689545682, -1.164171428107756, -0.3814564956157475, -0.6420615424019684, -0.5737921360805324, -1.4106416296079805, -0.9238684818120656, 0.48065898330902185, 1.6854796080090093, 0.8704687927034453, 0.9396176702319636, -1.0749889421563341, -0.9352176604135928, -1.2942803163902847, -1.8790225797105673, -1.4553321817808682, 0.7627459454195156, 1.1531756845973904, -2.0944713201857166, -1.0880572789590706, 0.09861686261006052, 1.1674490515828517, -1.9893211058996045, -1.753770711302449, 1.2589228463426214], "delta": -0.0014217481059543514}], [{"inputs": 4, "activation": -4.158751102559981, "output": 0.015386614748273937, "weights": [7.607256063846257, -15.814185900570928, 10.132242612238734, 8.36169505615598, 1.5599090056692921], "delta": -0.009349275232698536}, {"inputs": 4, "activation": -13.841097725494645, "output": 9.747364596976538e-07, "weights": [-4.367215272161969, -12.56331686478015, -1.66579921218487, -1.0727409042287037, 0.37853349872819614], "delta": -1.2331734330046325e-07}, {"inputs": 4, "activation": -9.426069143382493, "output": 8.058889190366049e-05, "weights": [-3.475341521609963, -15.902129550468935, 5.582126637629233, 5.322337600985409, 0.8944325140451065], "delta": -8.187790627183323e-05}], [{"inputs": 3, "activation": -1.0892407406189828, "output": 0.2517612788460701, "weights": [-4.380275695660722, -0.8975696580116784, -7.208719741256451, -0.9508169061525796], "delta": 0.1409513676183398}]], "configuration": [80, 4, 3, 1], "name": "Sys_Utilization"}