{"layers": [[{"inputs": 80, "activation": -8.290829864102484, "output": 0.00025074335326354206, "weights": [-1.1518261590727659, 2.362662478811519, 0.14154543310538087, 0.9128091973163809, 1.5625147515167135, 4.069919242345002, 2.6368086529279227, -1.1339015466598341, -1.059293233192873, -1.397358841738797, -3.4799323228242542, -3.942072650909942, -3.1177660923174715, -2.7672924338722313, -4.7765335634753106, -5.1165338166197865, -5.6252090329707025, -3.675768158414076, -3.3594448292931602, -0.5266391548748505, -0.8580326760463362, -1.8636890333329152, -0.9438622614764497, -1.2658146193470263, 2.0686873024908823, 1.3720801278719301, -0.1466382201979147, -0.1875340100819697, 2.6017282702538993, -0.41539459909894555, -1.0025047239641405, -0.16904039086565179, 0.16292626649044162, -1.258490577036795, -1.5089541862297033, -0.9338579563993351, 1.07413853084137, 5.211642732458273, 3.3074484365786008, 1.0227367490688077, -0.036722540501465235, -0.7893559633356545, 0.0904863796918738, -0.35711045078466674, -1.4241992487577182, -1.430767808816121, -2.269210518597513, -1.5938532408573733, -0.8617258767892383, 0.3018324064981272, 1.2693281509501697, 1.100160129116814, 1.834999950145818, 0.8155271782459979, 0.3528721601891695, -2.0168970945727938, -0.41097606972428247, 3.115599309297132, 4.210418430055345, 4.160694775978014, 4.055526103723779, -0.3391949464097329, -0.11340645976061002, 1.5038860952273472, 3.6492954145511445, 2.650982522375283, 1.7611411770875076, 2.868791449758819, -0.45697631846022513, -0.30771208141088413, -1.2655735692639998, -0.24030464976196222, 1.7854459079822633, 1.8093050780579527, 3.446104629154034, 4.902407623854139, 4.904028944178659, 2.6004850478963526, 3.9926094753693886, 1.2990703477930712, -8.29082986373023], "delta": 4.96339563742692e-10}, {"inputs": 80, "activation": 3.406615254915214, "output": 0.9679106399057201, "weights": [4.242154405742033, 6.934241236061618, 7.832331871667958, -3.4718073267378546, -6.421812001386406, -7.668089796768255, -8.783889322373938, 1.8563544934109169, 3.005049529268048, 4.675910562427087, 7.274123724337409, 6.5322842182206475, 4.268807493674048, 1.565840803347305, 5.43430829389805, 6.7534178192755565, 5.082937265960472, 1.1640955816480907, -0.7146204594115574, -3.9512548559535787, -5.31402369958599, -3.9019982699007834, -1.6430976583320203, 0.6497976375918318, -0.6577036824262266, -0.6258763804703998, -1.1805487762916536, -0.7733046361123338, -1.0915661059115271, 2.107940984544432, 2.3016635541623796, 4.2231783847971665, 1.6739242306568949, 2.841235502689116, 1.9592550499905228, 3.345765373598079, 4.1601603914653875, 2.7711152957276286, 4.5599367753998115, 2.8956695837675075, 0.6197979603605077, -2.332852768589996, -3.8051343169338194, -1.9377056361056664, -1.8982245682006456, -1.0789319441389167, -1.1253955706988286, -1.773476261378573, -2.411717754500383, -3.492204711380823, -2.6041421461547105, -1.1322136823905602, -1.30192874075715, -1.0473954960817689, -1.2589293765009404, 1.2988828400464247, -0.5365385853467832, -2.22937955372965, -5.8741735525052645, -6.612320338053223, -4.6664459481621785, 0.34087855732388167, 3.2153188483984287, 1.1228391272661027, -1.4844154646539576, -2.7010766394279195, -2.5439348543467335, -2.0825213386097143, 2.2620103226787545, 2.7526753417640304, 3.6349376415957675, -0.14216196803481673, -1.743786600339441, -0.44395786558859446, -0.015839568191309595, -1.815116707847256, -1.6289014937831985, -1.4378069180777369, -4.124834979081714, -3.8681847701684524, 3.4066154985147534], "delta": 3.2479938589150513e-07}, {"inputs": 80, "activation": 0.10412353686384593, "output": 0.5260073914090302, "weights": [-2.8224978628957094, 2.221792243465703, 4.726659080932887, -2.2324702240756067, -2.088684192414583, -1.1655098329256528, -1.1919782423103014, 4.177951950496039, 2.9664299023347795, 1.1700067068660274, 1.0557640053335773, -0.15820807095656597, 0.14199753511589938, 0.1405453986802763, 0.38344691972124006, 0.5733478558656755, 0.09769799471163622, 0.9759996819119339, 0.5929006270746524, 0.5994203822378473, 1.5103681168697725, 1.80540217150176, 1.419366222134661, 1.103141832883775, 0.8993728762454473, 0.5201854715221855, -0.42055482462638893, -0.3254914805114308, -1.1114721925728914, -1.5427924684761716, -1.8622306894380862, -2.757814968884363, -2.0327332457702325, -1.847510086325951, -1.4034072638841388, -1.4343487121938934, -1.9197745773337735, -1.469294538583958, -1.320304707227928, -0.5597545325613957, 0.04798281532202073, 0.06745093156146012, 0.24928820182418385, 0.7290134282916669, 1.0360610207584016, 0.4097543398086277, 0.8199765860186696, 0.6711000857333004, 1.083072286310328, 1.0222983108890762, 1.6675181887553354, 1.3883940723486794, 0.9237182000764197, 1.146654063804616, 0.943107099346101, 1.634047851660907, 2.2038407958839636, 1.4457109529598224, 1.3338107431396957, 0.7189933664576187, 1.2640277988962592, 0.46334500712671867, 1.4366674617994144, 0.5634669896025465, -0.12710049650281963, -0.10786929348568723, -0.01788047516120203, -1.1548224021304039, -1.6790846225590206, -1.7489428761189125, -1.611656950069974, -1.3545586496707704, -0.908783449668503, -0.17939158149218828, 0.08122928532044224, -0.30475414106644355, -0.1347580027232685, 1.1278446484581737, 1.266052893186207, 2.239178313760356, 0.10412554495906515], "delta": 2.677460292296535e-06}, {"inputs": 80, "activation": -9.969786463709564, "output": 4.679036486595976e-05, "weights": [4.94290847956082, 6.557701113487434, -0.12269845653877784, -2.5617747658079826, -4.498295154389411, 0.8317278688387636, -0.11820886648810812, 2.4549799733194826, 6.435818137464092, 8.555450150255599, 3.7245236708191243, 1.938477330027088, 0.827751010539626, 3.484440237204506, 0.19987732223012872, 3.7406585991524794, 2.3549336280797752, 3.191771400486464, -0.6035855794559956, 5.932701070438264, -0.08384042302585484, -2.630257941725552, -2.3543258358548234, -1.8573032297003649, -1.3835534055082748, -1.5743028646006894, 0.9962191547778106, 0.49347927479716835, 7.402462206801514, 0.3315076328529454, 2.5211171679005004, 3.3263004004899996, 3.165170283006949, 0.3994844941639495, -4.6249565770061025, -4.174323248127218, -1.9807833838537834, 2.7192336717139147, 2.4602296595579785, 1.9357844433781737, 0.6393565108813548, 3.300221561029251, 3.889194386806984, 0.9334896334885778, -1.0891664806225339, -3.268523978820897, -3.1122156940708727, 0.47988863374339275, 0.4538335733744645, 0.8817563682391649, -1.760339300500156, -3.3022732488597293, -0.7887279099347504, 0.8893369730946632, 0.4117536429142053, 1.1669898690179408, -2.755727242682957, 0.9233482295242238, 0.174735147312772, 2.947513644484799, 8.163873922830224, 2.493189437884424, -1.149282719096682, -7.34248664809689, -9.35819281503266, -5.204278764368592, -1.673116108509672, -1.4542758617446803, -3.2742739428019187, -2.6056210330828384, 0.8709941250990432, 2.1461571874723404, 5.60759174865644, 2.3898972743527316, -0.19056039613069561, -1.9227328889437532, -2.0293264737096743, -2.074066593972182, 1.4809503246269584, -0.5569462122734192, -9.969786464088124], "delta": -5.047465519799765e-10}], [{"inputs": 4, "activation": -0.7864820828727671, "output": 0.31292453311753937, "weights": [2.8624405632890166, -6.818173561069059, -9.145853387592119, 12.418054646359106, 10.622387368590621], "delta": -5.917430011382366e-07}, {"inputs": 4, "activation": -3.3753948613138856, "output": 0.03307334859203851, "weights": [12.092351381583915, -6.008325008487794, 3.385787349592714, 8.978962522258135, 0.6557253792382548], "delta": -5.173207920392043e-08}, {"inputs": 4, "activation": -0.003758522811665695, "output": 0.4990603704032226, "weights": [5.346912530540493, 7.60102598899787, 6.842647184168592, -3.700005713663703, -10.961321690700608], "delta": 8.040828336567595e-07}], [{"inputs": 3, "activation": -7.767316203606097, "output": 0.00042316877554197864, "weights": [15.376081183938366, 9.037427441964738, -17.968793027237083, -3.9102548945342743], "delta": -1.7899603499402814e-07}]], "configuration": [80, 4, 3, 1], "name": "C6res"}