{"layers": [[{"inputs": 80, "activation": 14.912456912197653, "output": 0.9999996661110038, "weights": [12.478892827683422, 7.892957946877244, -1.4722854185961352, -5.673103687317887, -2.200183274639853, -35.83272344076137, -6.358983832492445, -8.626606288346087, -5.0263293200316586, 3.478473842699894, -0.9330204062366206, -12.062660964086332, -5.569009411721075, -7.349983313801125, 7.444612868419347, 3.685114465033653, 8.042580128789275, 5.171420354477307, 16.421706074895702, 9.952253759792862, 1.5205386762458206, 3.218983139110505, 1.0219522956664475, 0.6014414378301276, 1.8189099297679467, 0.49767787778840566, 3.9864644086874232, 2.153930217834135, -6.801029206034844, 7.865909134643511, 6.874453336895262, 0.20367307062987705, -3.408359963607686, 1.4605937964239726, -1.0785885880153911, -4.274850013851945, -10.005761895854627, -13.197873554919184, -14.815739205807187, -10.114287352699753, -6.5223261629215115, -4.33265080813514, -3.3422955899491993, 1.93623597636991, 4.241864205932235, 6.149975938415866, -1.380747785010155, -4.087772676977834, -0.40915286897375003, 0.004042996249592974, 6.334935819441273, 7.295003705905965, 10.664018458846222, 9.197231889832782, 5.635447380072688, 2.2180799794750223, 2.3304014169720753, 3.0344100274904413, 2.7399191362988127, 0.9685796870410728, -1.6974758834832597, -10.013338158342613, -7.722669357163212, -7.976503596908242, -6.553147896152026, -0.3515989420774792, 7.6972644969574056, 12.393837464716778, 9.110651631501241, 7.212962256408489, 1.9762565187543837, 4.263466599707135, -1.4759172519095756, -1.3066647840456453, 2.3281133288633225, 6.684036278290211, 8.635850463246195, 6.364561008757991, 2.5200618872092306, -3.232981099763808, -6.32180692058473], "delta": 2.929839166408677e-11}, {"inputs": 80, "activation": 48.89779480982393, "output": 1.0, "weights": [1.0563782083933468, 1.3176284685301776, 1.3514141230002703, 0.48361793350121757, 0.29757376141966185, 0.8558071716528342, 0.4737996730668784, 0.9386622393396097, 0.8941563075834222, 0.4139561386800271, 1.019194149643856, 0.9518556638966453, 0.6741274712538782, 0.4393490660727539, 0.6971971441080023, 0.7457638797225014, 0.7150828957295048, 0.25176456446972045, 0.5076099549001936, 0.2837112070482918, 0.7009502865081437, 0.3694196855172751, 0.34702598503529075, 0.6074507208288147, 0.6587362625182457, 0.6377477463011294, 0.1345250629230252, 0.2097348188197921, 0.8801631709881853, 0.06636134437324155, 0.3234492922873858, 0.9530950660340266, 0.0684902011587095, 0.7087250046549164, 0.34588478347004076, 0.8399878630057224, 0.33428930209791613, 0.9824408578531288, 0.8440763181486766, 0.9172935982633066, 0.970957363117832, 0.7512299943594984, 0.12350106970081816, 0.7045294453845552, 0.49106490485042625, 0.9827509610184769, 0.8669493911230556, 0.9987445665721382, 1.0268816828488792, 0.14957989144120054, 0.1774153422768266, 0.36144709742806624, 0.09156029537814157, 0.5313208980126699, 0.2035038530923222, 0.8379960565733395, 0.2608469550362105, 0.7624162940398719, 0.5233039089767992, 0.4329583832852264, 0.8088435956388387, 0.4559749510368695, 0.911618488398106, 0.6948667086110444, 0.8030496041810207, 0.2617847804220674, 0.6110646256332382, 0.7620855772342462, 0.3469861939141065, 0.9403094351250045, 0.953829745387386, 0.1458971594987683, 0.5410472325537263, 1.13949122871695, 0.9341597937861779, 0.29298767709700385, 0.2680340955321755, 0.4599787777461582, 0.7663531573704586, 0.2937483253539368, 2.880555428385044], "delta": -0.0}, {"inputs": 80, "activation": -29.253180855130406, "output": 1.974717507196849e-13, "weights": [7.162130639220945, 5.023497339602332, 1.5482670092402637, 4.50435017403858, -4.441494759335953, -6.398356951369844, -1.9762850038184345, 5.086492060773162, 10.519459308977979, 3.111605061074004, 2.8329026050243056, 7.51419402988837, 7.182008241381757, 11.479179176553442, 0.33728014755705255, 0.8705988383798738, -2.1911007448795345, 0.8495662782585591, -1.731109046789223, 7.4957028455765515, 12.464819168243142, 4.336759034280294, -0.825450462347953, -5.044309441261059, -2.740395065051816, 1.3081748217102809, 1.165183420161626, 1.8800142823117711, -0.7903046102572473, -5.7527806204891885, -5.0992168828293485, -6.075400521377944, -3.1198167592864983, 1.3035564724955784, 6.655626192670908, 6.787839134099749, 4.853864936982754, 4.171391578213804, 1.1116215020765028, 0.8072547525425361, 1.4886784941236666, -0.5914211087096806, -2.9410355516330102, -0.2052211654700251, 0.20233208829621288, -3.109101995053279, -1.8980254183713663, -2.847506668590843, -1.6982640220285803, 0.5054959347279615, -0.962302054804796, -3.8830652363323286, -6.775922894520855, -7.519123972854198, -4.884195616903418, 0.12718208830863265, 1.7780150140955662, 1.1816249177384488, -0.07362133112906652, -3.2653227349209244, -8.708426879923614, -4.623811591591, -4.362569678543456, -5.35280281689951, -4.682614558253935, -0.4917612444625944, -2.0983449109073278, -3.266846084479121, -1.4098242684939075, -2.401637537320268, -2.4201341683667854, 2.0120707864363006, -0.6236607728812155, -1.8333402949784707, -1.407424131999844, -0.990344915884305, -2.4962046975627, -4.320709669630191, -5.1134396276385825, -4.567226886448446, -12.001218732409388], "delta": -2.423303137985597e-18}, {"inputs": 80, "activation": 59.649528501892334, "output": 1.0, "weights": [-1.752168695925391, 1.0479426671387364, -5.029900042076733, -1.5864706367563777, 0.6880875345503081, 0.9795392377733879, 0.59122998509566, 0.5105481071426274, 0.47886755085066796, 0.5149792630779004, 0.19245847778705372, 0.6075090543057293, 1.0032093690736832, 0.9510841199905069, 1.0316094506935696, 0.447000217008282, 0.3160509675285138, 0.7985103182464395, 0.3487296914515227, 0.7398680680924018, 0.20622778025608718, 0.7387270427764359, 0.3468348454611461, -0.02872669787047812, 0.2834498277764383, 0.6402116112422678, 0.18893682700887457, 0.10553750382255031, 0.7907741284537909, 0.007280915648659665, 0.7368114971098456, 0.4457706759250572, 0.8008038005450919, 0.8695854479628384, 0.8598155862711292, 0.9231126557892515, 0.17902193267722188, 0.15864983279620384, 0.2757028830369679, 0.593396482942699, 0.8313490978304439, 0.5249743387055408, 0.030434370536032717, 0.5740343736597151, 0.7402389901718393, 0.8795053575587237, 0.6411341741017315, 0.31786656917993206, 0.6490782772638884, 0.7663958397653122, 0.8593006815172087, 0.8382107360286356, 0.702459271787179, 0.8110714027201491, 0.51358474891687, 1.2347771502416989, 1.0844107187599934, 1.1107578340315876, 0.6645416254425585, 0.7364412861565578, 1.3437500837766, 1.1492491030793102, 1.2158840703584715, 0.6963469239265433, 1.093770644712744, 2.5631564925001515, 1.2936215856319004, 0.650229709459788, 1.264543891121649, 0.7972426864010616, 2.454574595047172, 10.689201440076394, 1.2183827523356205, 0.6908156030580606, 3.1889306511372597, 1.712717585801444, 1.5788439139246075, 0.5946815057376829, 3.5527043076567826, 5.1565652134058455, -5.627479370454538], "delta": 0.0}], [{"inputs": 4, "activation": -12.357248182711746, "output": 4.298465406436725e-06, "weights": [-5.4852584807001685, -1.6652790745884258, 14.731405050893878, -4.228477660283021, -0.9782404194605832], "delta": -1.8736170106039205e-06}, {"inputs": 4, "activation": -10.999434173534205, "output": 1.6710874470693524e-05, "weights": [-17.07623948679486, 9.706404544764247, -3.3790723355618444, -14.03269701495121, 10.403078471155347], "delta": -4.536908918394662e-06}, {"inputs": 4, "activation": -22.093647684977864, "output": 2.5400994776904143e-10, "weights": [-8.255032654130172, 0.701854614692838, -5.814491161814516, -16.753228557112717, 2.2127561559159887], "delta": 2.024071159370911e-10}], [{"inputs": 3, "activation": -0.8890435273737992, "output": 0.2913072492371044, "weights": [7.247841127725483, 4.514477509846784, -13.249957240754007, -0.9342548236065196], "delta": -0.060139605498113965}]], "configuration": [80, 4, 3, 1], "name": "CPU_Utilization"}