{"layers": [[{"inputs": 80, "activation": 2.5683437801795033, "output": 0.9287962415905602, "weights": [27.279075206529765, 28.52876773123666, 12.61221516476585, 13.838711375235816, 0.3890329603927513, -3.313709171487439, -4.129033342200171, -5.829636303564952, 5.714070054129242, 16.955806961010712, 17.396397827324297, 1.670013350555278, 1.7693510167257465, 0.7468428231463883, 9.108973739475603, 16.901640919684386, 14.528767436877413, 12.293521974166305, 8.324289656653546, 9.494067750483026, 3.002781826298186, -1.6034531722978675, -0.5186776252664552, -6.511171074013274, -6.487536597083178, -3.9950736998137013, 2.6636169745894933, 9.08999940352919, 9.493150939897232, 11.083174592618136, 10.320637063910231, 7.65756811500532, 6.244521841432976, 1.4221615153347176, -4.683981213923865, -2.6712596039270498, -6.758468860890327, -5.831286642077034, -8.390336723843385, -7.9663123999893495, -9.615606512105812, -13.998104552280656, -14.911247936829607, -12.81874561985146, -5.597941864623242, 4.263366952033114, 9.294826747513554, -1.394241509496205, -6.684039484916867, -6.639246050788665, 8.403756203000732, 23.04251435430807, 27.858448889042588, 21.746894209234785, 10.989222963914555, -6.978425748307821, -15.3723024855059, -17.369240545231946, -7.758313488188494, 2.114925480832171, 8.584189591873821, 4.382437208863479, -1.090835622955323, -7.1678481637024, -4.942565781804383, 10.251082721411352, -4.178012726992005, -16.547720840695206, -31.564801142849234, -35.95931876038643, -10.806720337203716, -4.866769847453747, -5.05562695960841, -5.255857573565913, -9.194102696991283, -11.661765203649015, -9.749310009494572, -6.747495260357171, 6.7492381692248085, -1.8654818479821893, -0.028429279714652783], "delta": 4.4424162782307815e-09}, {"inputs": 80, "activation": 4.864520534056148, "output": 0.9923435469305881, "weights": [-6.434889690444331, 6.9910190992582235, -30.644198375352982, -4.313533023416515, -31.767722159301616, -9.184353039051093, -3.708173870088309, 1.9688572666710449, 19.876191228080597, -6.005633104983718, -19.838351780964665, 3.918212151365399, -0.02729125143435136, -4.373434473006778, 0.7879190307463894, -4.717957325034675, -15.435343018005227, -10.37869856079017, -16.65941572102325, 13.323776493338594, 0.6215837015428199, -8.906715327639567, -33.401963004557295, -19.822464775784187, 5.479884932315984, 13.83935491979507, 5.25661883687523, 7.960411909035547, 6.2232386404193445, -15.700534915507447, 1.5920630620920255, -9.353691169441094, -11.52750068877438, -27.290351401951064, -20.943170474981635, -6.134013064639994, 14.313447678199156, 6.495733663249811, 22.810894226237377, 7.450898626901146, -1.0307763695201133, 0.014238733465747017, -12.697546521205743, -9.972593963645377, -4.921124566137821, 2.307920555051462, 3.133515969709026, -13.774843557881013, -5.425927952598764, 11.23913561728132, 2.872699048866096, 16.883401825783253, 9.00592739354022, -1.5231933863852136, -2.3902932912325494, 2.0958209281587403, 1.3630238806190305, 10.657248184284988, 3.159255858902642, -0.6737908214269792, -13.204006775239671, -5.6345578382297425, -3.74819397241311, -3.6908136166018144, 9.578988913182503, 7.313420404390444, 3.3885221771912315, 13.103833317756322, 8.812004216018677, 14.369165547691722, 2.823077163131066, 11.684315345579687, 27.21136660365031, 27.11931838851069, 23.342941569155123, 33.94853701551501, 28.06150991018746, 22.49317598009606, 0.28054717928255607, -2.418530318433119, 2.0617441998823223], "delta": 9.71658810626524e-10}, {"inputs": 80, "activation": 5.174249082703806, "output": 0.9943713946681526, "weights": [2.1822519043174378, 13.367778807685912, -17.4751932437737, 3.51377515953082, -20.270491646836888, -3.5281952241495342, 0.40738935683946664, 9.949507011715923, 24.976246838872804, 4.460058593091852, -7.018790748635911, 5.62522865132382, 2.101092870601639, 2.4112995625887104, 8.723779776081177, 9.322362447345279, 1.1480593014333742, 2.8842741041748043, -2.8084859416320005, 18.820269434963265, 10.419254409874277, 4.794486415235216, -10.969019919679887, -1.8851223729037423, 15.260464499048469, 20.370645923655793, 12.579949383081974, 11.50997312053557, 6.829475559584214, -11.30798170079577, 0.3705198007891437, -6.022467593372562, -5.144298869707865, -19.70711028358052, -19.36774076260355, -9.00666234162613, 6.938376677340284, 1.0905507067264923, 14.3529015547352, 7.270682609451301, 2.8842079942775753, 4.323482114303775, -3.5989569847079608, -0.32901882964785195, 2.441827095596313, 4.272166713748458, 4.815643808663613, -5.610527442693067, 1.004663707114536, 12.727503042003171, 7.519759487544463, 16.655878569348683, 11.443158383233312, 1.0000819064690247, 0.15460331773610905, -0.5940116789075154, -2.4028533983413456, 5.121201096503913, 1.4358398731064277, -0.21961009046101046, -12.76057111973943, -8.148188639819006, -5.180785173424816, -7.258662934187341, 1.8728420323880546, 2.711280531378404, -2.4009237977368154, 2.720053636821389, -2.6643257426690643, 0.41358076112180797, -6.594518706389905, 0.620999620686821, 12.137397067685175, 13.054554820117113, 12.524273915233382, 19.34487826497812, 13.986416238139986, 10.054374584315507, 1.7935529016106389, 1.9741644755236745, -9.49007316627136], "delta": 3.9955661645655973e-10}, {"inputs": 80, "activation": 2.777026236306788, "output": 0.9414216656801593, "weights": [-10.701647862513592, -3.8325208171110776, -1.2647150833055312, 2.9133456975403154, 7.57794383771229, -3.8754821972369293, -12.689072783520988, -11.769419559994903, -16.16198351167881, -8.090578448037258, -4.895180926772966, -7.056797688370125, -15.436473938933434, -18.65745438485831, -20.557213840818008, -13.948845606151501, -6.24755231627912, -6.4277251493133765, -1.8599995876001785, -5.0685827779046395, -1.800113892709905, -2.2936713208713035, -0.402341624697147, -3.842883191249954, -4.586815469253624, 1.5837349602367354, 0.13028557161613466, -0.7663913817730997, -1.998198139989819, 1.749903350785679, 5.177073668902467, 3.905210170524041, 3.11756143556815, 8.501831598667392, 1.8369152273944567, -3.6552591082353674, -7.322168750132007, -5.397786677743181, -3.1951896961037414, 0.43406890189145814, -2.561428522967214, -9.814805472105494, -12.882309686684776, -9.667184915980949, -5.557863725377505, 0.2307562085727834, 8.027862675757847, 8.211197675222541, 0.3914813507379066, -9.173440096532605, -18.220906059796548, -17.05206952811525, -3.428540688050947, 7.246411396140034, 9.336270944025522, 8.121387276745168, -2.4993762150617638, 5.064929355020403, 10.814793133076584, 21.219454818612743, 29.93320696883518, 25.16045549992361, 22.116678553947068, 11.087322565593434, 3.6528494807128906, 19.971405138674175, 12.104180292811062, -1.4552071198124905, -6.616136663424967, -9.395199973051222, 21.928245477030973, 24.642055807212753, 20.162536783040547, 17.889408046605908, 19.257328379202704, 8.233716127121028, 9.810727871927474, 4.446494864493727, 22.75347722770085, 5.309714438876376, -3.33891119850387], "delta": -4.137285641259707e-09}], [{"inputs": 4, "activation": -18.818277320774914, "output": 6.7193304184037776e-09, "weights": [-6.080737274844695, -3.286027996999945, -3.2058099724624713, -4.689617750094474, -2.306969229436847], "delta": -1.55064353216069e-10}, {"inputs": 4, "activation": -17.357756666972573, "output": 2.8948232280312776e-08, "weights": [-23.682578278250922, -45.547309220013894, -25.349337691051836, 27.08669800102882, 49.54376332753012], "delta": -2.7965819403698083e-09}, {"inputs": 4, "activation": -52.1742564386423, "output": 2.1928470014488548e-23, "weights": [-31.68956675269832, -4.340801324907596, -10.273810350900092, -35.01742681759191, 24.74860765180795], "delta": 3.521011619624276e-24}], [{"inputs": 3, "activation": -1.834732041927587, "output": 0.13767551675499187, "weights": [1.4118931456075439, 5.910461125704846, -9.82369747370641, -1.8469909505631181], "delta": -0.016344970734870706}]], "configuration": [80, 4, 3, 1], "name": "front_end_bound"}