{"layers": [[{"inputs": 80, "activation": 13.25725973824505, "output": 0.9999982523901191, "weights": [9.972671457538794, 9.001279560536286, -8.295154857445688, -8.697268628918865, -6.814177469321193, -7.2275908140927525, -4.337650794441812, -3.669560097565168, -4.7842592969532065, 3.0139159158744486, 6.73870214018843, 2.1470389097979714, -2.281013880330372, -11.092968878844298, -12.727002487333534, -14.242526597273105, -20.42585791836144, 0.10302924832202925, -5.553416768933952, 0.8381582402384051, 8.520869811450794, 13.294302059906647, 13.243684496171662, -2.06242122057201, -9.371209679425224, 0.17502234986344342, -10.037360803388495, -1.6170170827619301, 3.0808661980388004, 4.46466386985611, -3.688044320636551, -11.963570199196052, -13.740902793358686, -9.485556417208885, -5.644311268005051, 1.2837109339922743, 3.090345861811158, 2.2306264372936515, -0.12310832498037594, -3.498625570662074, -1.350469308337015, 7.093336202273787, 10.840650158781646, 11.80064187025311, 17.0748550379016, 19.71225383706406, 22.3526701400366, 15.743036158946449, 1.1713709289684986, -13.336553251010026, -24.464709738992468, -21.858219892148117, -9.564134523444658, 4.206223034322485, 16.834891029377253, 3.8178985676243062, -2.4766298734978416, -2.5754922517815615, 1.0094139534515354, 11.758675992146198, 22.394664913426883, 26.15203492841372, 20.671586052428534, 11.759299203394903, 1.6954258493286636, 1.1232842978438533, -8.972525118689555, -10.385092422256136, -8.806372156566459, -6.8202395089526915, -2.6777280315463714, -8.079665785799493, -6.7607213132632475, -11.918491450637037, -4.645097754493926, 4.12013915184488, 6.390091694462362, 3.53835529051645, 19.67314589282673, 14.85687007984342, -5.252922876847532], "delta": 1.6888624163046896e-12}, {"inputs": 80, "activation": -24.253186505386363, "output": 2.930724076309227e-11, "weights": [-25.707345681038877, 0.18082614610168102, 3.724141951647532, 10.209021342199666, 23.98001375130586, 19.086764831730168, 16.255921753596624, -7.837175061201997, 7.2096945827540715, 13.02661628537184, 9.810384553448142, -8.041136307759393, -17.02402525363163, 5.3603810946294725, -18.04898913648609, -7.940992892077205, 0.3844567419181136, 17.263249189467142, 5.754137064360234, 29.15826368286954, 13.993352985325826, -3.4651334889126804, -10.307847169741764, -27.882640485953413, -3.823029706901061, 7.204427666837493, -5.779969438689699, -8.483268912515875, 6.7177085204084, -15.122056149475698, -8.486519289888582, 1.2231680277252586, 9.92000120213014, -2.061059384439404, -13.567043255577122, -2.517558536379483, 10.145494920851428, 37.90634498348501, 17.349027076942946, -10.12296735625347, -5.832042682029496, 5.740157621775543, -12.357813172153662, -13.268619860167295, -3.754132511721652, 5.103848374339935, 9.99116001161715, 8.696999495609855, 5.184787721490236, 5.389236306756562, 19.876734111434867, 7.963066455779894, -1.021593139587859, -12.363025903678523, -1.0943591601363392, 7.111211029046451, 6.184815235290963, 9.307547911250202, 3.7593067996063194, -2.4057567666254553, -7.0583662241062965, -8.629636586758217, -1.2484337315557734, -7.608940170566807, -10.73508839412731, -21.947277046194536, -31.06509346821965, -21.980784628407008, -20.430542921865342, -4.010245267267787, -1.0245244172017027, 6.733773309765893, 5.15107724018021, -6.630972138400468, -10.291068476182225, -1.5020717427286034, -10.642853998452905, -9.04228746906074, 13.073559435973257, 15.030982445509009, -10.835989170281483], "delta": 2.2329842194315824e-17}, {"inputs": 80, "activation": -11.103187849505892, "output": 1.5063997785475909e-05, "weights": [-1.0254364406915812, 4.246939951862906, -14.703892222656954, -20.17172512081957, -19.858529867084684, -5.453827543138352, 1.0218365531038425, 8.89300315748421, -2.74352267051631, -21.78788365878039, -17.56568545383989, 4.364754344214965, 13.412265796014472, 5.490547576285446, 17.75019983724904, 9.549988653972495, 0.6081114158420523, -3.521345780413131, -1.9629244439014641, -9.075544573573628, -4.513730980441952, -7.817156257503073, -8.792116885943573, 1.782652989473061, -1.0067482076815764, -0.6958771707597649, 3.2066453133413915, 0.02114182634740212, -5.011989874108497, -5.315041815719488, -13.68954572218483, -17.172383784245635, -8.800892225170513, -1.5807636563921486, 0.7422471655178758, 2.3922544334698954, -4.349877009040731, -1.0920266453382355, -0.8236305673409358, -5.577018007171858, 0.3497509743726058, 1.7653877102560178, 8.064372429704948, 11.594679982043866, -1.6785066506615223, -15.652669603413473, -19.9759628349601, -21.61704983265061, -15.132436024808715, -15.544037242127212, -25.175826552255046, -19.184636905931097, -2.9095036386657953, 9.647586015080613, 6.426840868338776, -0.3511348992564181, -13.361585217455266, -14.503191923912967, -3.6788332186573447, 5.181717226478206, 26.275791181995523, 39.14110040887509, 31.442290647375486, 14.203368243497573, 2.001885233453023, 18.581155469784527, 32.91470564625967, 22.578926491071915, 20.43488076630197, 16.047386766463962, 15.982559003101379, 2.854862780179326, -6.274236979185382, -12.596682549728419, -0.8457551906391458, 2.418278997554175, 2.630397847897754, 0.9651214047721157, 4.385558091325145, 4.7941893622654135, -0.00036594722442265416], "delta": -1.610257157215307e-11}, {"inputs": 80, "activation": 43.31642658009518, "output": 1.0, "weights": [6.614224883341989, 10.020913914887554, 2.9224283093344754, 6.253446354541179, 0.3380151249132158, 2.3651959571716796, 6.011062822647789, 7.482507085628438, 1.372451211009531, 0.8732311578830213, -2.972426103741068, -3.976216711496192, -2.215356259475551, -0.2183951512906585, 1.612033280541494, 1.333394777416904, -0.7382643463152194, -2.63338058162413, -5.339127222506224, -3.162683477298459, -3.225307774548324, 1.0627195134017928, 2.4020267309736347, 5.425562791834243, 7.839028428564014, 10.725938782971854, 10.504602567963996, 8.138317616588656, 7.430687917981869, 5.198491028225968, 5.360092752324363, 4.0918402167307235, 3.5494688518851234, 5.420279238844161, 2.5479155971045597, 2.322589801591667, 1.199913792354841, 3.315002824116528, 5.5708282555112465, 5.775880310901976, -1.7661996413193144, -1.063132970984808, -1.3063060718847936, 0.31315713642060633, -0.671779749242605, -0.6443856667699938, -2.3144686457866315, -1.535127902077289, 0.45526873065243145, 2.151750440184609, 4.592319620518034, 5.194184026299943, 4.335732950578562, 3.0496916572600687, 1.1602588345475344, 1.6536856972212663, 0.16590233551406464, -2.3303513727262826, -4.7172858626526954, -6.99495429600455, -7.393228212615141, -5.005365455613773, -3.104198429083052, -2.245246640125854, 0.41526438556552303, -1.1066381773025482, -3.4785468462386038, -1.8222592706563991, -0.09055610200765096, -0.4937779350786184, 2.7648408190581213, 1.60201901426373, 0.9671900516591594, 3.2592482808011836, 7.037402524187604, -1.012623741271345, -1.2691289379844488, -6.018691111284263, -3.8474669712867855, -7.195081371471831, -12.206224336035763], "delta": -0.0}], [{"inputs": 4, "activation": 21.827311382871663, "output": 0.9999999996684727, "weights": [9.256121299276415, -29.690610015065335, -14.097309065204804, 16.18946638995424, -3.6180477675577145], "delta": 4.242766377119248e-12}, {"inputs": 4, "activation": 23.957758909765367, "output": 0.99999999996062, "weights": [14.55371634647527, 8.080676345770442, 9.949671546789894, 18.31995828043285, -8.916040164993538], "delta": -1.0248158392359743e-12}, {"inputs": 4, "activation": -12.668335468814202, "output": 3.1492739678389783e-06, "weights": [-23.286239967119336, -18.363142894624048, 25.75685713752244, 22.089477197805476, -11.472001488837309], "delta": -4.149924775614929e-08}], [{"inputs": 3, "activation": -2.952785690052408, "output": 0.04960501708970994, "weights": [-5.4741125029551, 11.12617056906318, 5.634764973047236, -8.610123345646954], "delta": -0.0023385967521945537}]], "configuration": [80, 4, 3, 1], "name": "ips"}