{"layers": [[{"inputs": 12, "activation": -1.3790496110030102, "output": 0.201161679761549, "weights": [3.37276050252258, 0.6349227344856531, 6.211316385535652, 13.172318576962386, -7.029303618899664, 0.6519755856358411, 3.0707765681270414, -4.446412189769338, 0.3258778972925079, 5.110297360712757, -7.3647590594020516, 4.006015415590421, -1.3790496891123927], "delta": -3.1243752995042665e-07}, {"inputs": 12, "activation": -1.5024769509953873, "output": 0.18205638591209977, "weights": [-4.171357141956368, 0.7305466038795653, -3.9854659730338247, 5.38345089283538, 2.8175461792348453, 0.9182147907408389, 5.277742400333266, 3.663364033512794, 4.142669360917582, 4.770443834786259, -3.866619398607603, -2.813293390642853, -1.502477018394479], "delta": -2.6959636672841623e-07}, {"inputs": 12, "activation": -4.262511264415663, "output": 0.013891198394620136, "weights": [5.1968392593039106, 0.6321396341833722, 2.9063719967495505, 2.7245330743410126, 2.0856717764416883, 0.6863759345819971, 2.55506193329528, 3.643224323478074, 0.877728013079362, 1.8053467976273176, 0.8353246143295714, 1.0093634498474071, -4.262511273964241], "delta": -3.8194311187505004e-08}, {"inputs": 12, "activation": -3.0222898954547985, "output": 0.0464289878389533, "weights": [-10.180025663195286, 0.7879587655790128, -4.304954610515387, 6.877087368449956, 4.741180582897234, 0.03264615913092814, 4.975280875671117, 4.411331547953922, 0.3476900357039712, -0.85438841286292, 2.036751099194442, 3.7234742025208516, -3.0222898795505473], "delta": 6.361700480812864e-08}], [{"inputs": 4, "activation": -7.581275941269041, "output": 0.0005096503164155516, "weights": [7.489207268317098, 6.9736725235249715, 10.740164455274702, -5.53487427302392, -10.24963428637301], "delta": -2.596110666935293e-07}]], "configuration": [12, 4, 1], "name": "jobber"}