{"layers": [[{"inputs": 80, "activation": -14.19271654027566, "output": 6.857743315812151e-07, "weights": [16.192059833758275, 14.323366957672215, 22.299534422465104, -6.905826285396064, 10.232976736545279, -0.08029774262630622, 12.421406169964685, -0.5668234687892788, -8.367003793093332, 8.056116971611456, 6.670726656746124, 4.061927036927965, -3.570528936082203, -11.709331705194874, -0.6198786019461495, -3.6079469808022764, 2.055583811516457, -1.5388342821204233, -3.0806198885331173, -16.144859431459643, -6.09383716239861, -1.4102930947212373, 3.4681783551881282, -3.8732060563767265, 2.9542757253712804, -1.585552145743705, 2.296654036736793, 11.426357566257037, -6.519185347529006, 10.954599665273635, 1.855077239353591, 15.637906295720477, 14.314520257382965, 0.0030205018346494386, 8.841455022268791, 6.333225854946903, 2.0145149742756225, -8.757411735138524, -5.6203244364104945, 0.09646864771739955, 6.596812848800938, 5.143221570191284, 2.01693793640712, 4.157639081014368, 2.6946105243774583, -0.21649773646023, 5.269118502178221, 2.274277367790124, -2.6310205819206396, -13.072343833525537, -19.0145188123583, -16.44261193601255, -9.490906989179525, 5.357147495503227, 9.268474688938268, 4.423370991300702, -0.3191533931317804, 12.8727851041052, 1.7160495020590099, -8.374201208325044, -18.48883035933369, -25.169984464251975, 0.840234296978061, 8.231178740528934, 4.056550328122801, 2.4930823301393046, 0.3056696958997055, -4.990355414225374, -9.047176433846714, -8.718514763277591, -12.976691177720559, -8.917795027952097, -7.295940737369743, -0.6323270372741203, 0.6747102692766864, 7.616312711889729, 14.818327281786447, 4.860383214935089, 1.67431918181881, -9.48434092832118, -14.582161233298006], "delta": -2.813014681272809e-22}, {"inputs": 80, "activation": 32.80205768140418, "output": 0.9999999999999942, "weights": [3.296813006961514, 7.099698191571777, 6.265863446562891, 5.546218861047671, 9.13968306463439, 7.525633048640264, -15.959193671388904, 2.953564129477159, 1.9231801168165032, 2.3519173169752077, 3.6723629263935886, 4.485079315641693, 5.6101993651871, 4.405175446474773, 6.781959884032204, 4.106374906027729, 5.25265761686171, 6.661031349609633, 7.635746108788279, 7.318993619002153, 6.55813049527958, 5.9951355963884145, 5.939743038477801, 4.82602005424503, 4.264461094336672, 3.500772224322759, 2.663109817023148, 2.11833397966049, 2.552232962022249, 1.1981187607357997, 1.6791066298187538, 3.1115966288009393, 2.1480308033542834, 4.054506570835072, 3.450614654775654, 3.7741140255945655, 2.592092646512768, 2.5853405199397326, 2.5963294161307084, 1.1725035088194964, 0.31865219040083553, -0.693304783902662, -1.1163577961875595, 0.02866656109014317, 0.16920933043962147, 1.3149060431214408, 2.3693408941598664, 5.979120405332318, 8.643038567233713, 7.000441025641687, 5.299846371474946, 5.050953530866278, 2.8648143014939667, 3.543604179819801, 2.939797818122165, 1.962047491079536, 0.5229114533134827, 0.7939230387079569, 1.0466373294306848, 0.07375998257691559, 0.916417217888832, 0.8215939156683177, 1.8922329740274846, 2.042197314043431, 1.8382143682802679, 1.8607405341921808, 2.09237180068022, 2.9317824554482135, 1.8355086280881459, 3.897776882202608, 6.208026170901967, 8.773279924780278, 9.66632978803421, 8.237467725840235, 8.331141217793066, 5.618110014472878, 5.626808461903803, 4.976459687920459, 5.730747093164903, 6.543012763674879, -9.74195294917911], "delta": 3.8123388306639708e-31}, {"inputs": 80, "activation": -6.5304826235222215, "output": 0.0014561783215690266, "weights": [9.433825072944643, 2.2847969469839478, -16.17761231902413, 13.758394069166323, -40.704981321487345, -39.537581180037726, 60.40686066080601, 2.287906081334564, -4.666889663047756, -21.78900609546619, -18.409294247327033, 20.84036693407697, 22.853264023669958, 16.35766758584894, -22.384686961498744, -4.049724104015625, -11.000245873204406, -14.095337294415698, -9.767856067235154, 5.110740023309335, 8.528532351666675, 13.019931207621376, 6.946066035096865, 8.25091938539835, 6.447360896784072, -4.088770697710631, 3.2041043708147945, -4.730615247827865, 15.845595896864214, 20.578060349941804, 13.564191017799562, -4.15342767970524, -10.283414355189333, -25.386534773598505, -8.083424721362094, 0.7801057943785917, 9.199513073954465, 19.824273253139232, -13.090352530278814, 11.987584960641131, 7.497515289327312, -9.782963777171675, -15.336027551065682, -22.49030141987677, -20.508313681980717, -9.857473715979303, 11.178424829200496, 24.97889872761335, 20.252462408928075, 3.912024437570545, 16.22831697173696, 13.598937683154135, 1.525843992441625, 15.754451184522768, 3.9861245214846623, 7.657670221488245, -20.56334451213375, -29.050735809130096, -33.403703197904385, -12.668965292758608, 1.6153188084197616, 11.085068010032455, 0.45042655189324865, -14.385576425773015, -1.382732886163483, -0.3588627152688878, -4.811486632803491, 1.1936115360336172, -18.51906238295052, -6.052083221855956, -8.723541543313354, -3.711966158874601, -16.285022744706158, 0.6178624666851008, 0.9281747420289647, 12.960117607200567, 16.893562699911058, 6.960273597981361, 24.542310610371636, 6.706318053182884, -6.64158407676042], "delta": -7.673989937407374e-19}, {"inputs": 80, "activation": -13.551667297650848, "output": 1.301922422125397e-06, "weights": [-4.354288187905666, -0.8947413358887227, -0.245423871449871, 0.972400431153701, 2.9564768665505907, 2.2549208629197297, 2.8766210577886158, -2.0862233523238354, -1.446564979052158, 0.14518586678952944, 1.4937753364878084, 0.3128312185655836, 0.3362330131074624, -0.49103844114549833, -2.57948658329875, -5.1684615471174995, -4.35070957267251, -0.8733880836197848, 0.6547696548145919, 0.3678239695589837, 1.8036566264844542, -1.4674553873026082, -6.456422558398255, 0.7715003688971442, -4.686096983237785, -14.835778919178955, -11.59572790705858, -6.805154656533938, -6.96748164910299, -3.259583059271742, 0.43878795263821785, -1.6828423105770096, -0.6456978908815859, -2.792010577892301, -4.421995377862754, -2.046898932637685, -10.380618309317015, -12.9855283202238, -1.1700297652927438, -6.867442633310341, 0.42683827266571733, 9.788306071084826, 5.2675138473672805, 4.979457753373201, 5.337282946406142, 3.3662950764852337, 2.7415559043867397, -0.5020197477651911, -4.415190106308925, -9.077510996102845, -10.07679474048226, -9.243583983924626, -6.852310715684344, -3.00035208754533, -2.846321944075018, -1.2752475242655368, 1.2007042102359542, 15.586570505249936, 4.587077275575228, 4.410943632569758, 4.947768960596517, 6.37324386161536, 9.73386244958624, 14.296278190818178, 18.58501587927873, 11.15720404135357, 7.089081865578977, -0.22542878350847118, -4.190271814300274, 1.0877533860641546, -9.845064185719536, -3.860931072503294, -5.2275338604996255, -1.6675195912017287, 2.5734673790958, 10.14539737464867, 12.887266833337977, 11.269846403274803, 5.582332711382902, 1.8502964811174174, -12.797853790149171], "delta": -4.875852190293403e-22}], [{"inputs": 4, "activation": 27.52662938278124, "output": 0.99999999999889, "weights": [-19.126173071486154, 16.39556692003522, -11.3791787789247, -26.176149222026176, 11.147679771755397], "delta": -8.659647541649379e-29}, {"inputs": 4, "activation": 3.281624163485292, "output": 0.9637930032288243, "weights": [31.535318232420384, -7.561023689461902, -5.239631656628168, 30.009740654099545, 10.850216994512518], "delta": -2.5842602771499187e-18}, {"inputs": 4, "activation": 2.7922916137196103, "output": 0.942257853259654, "weights": [-22.404261659398387, 3.1691695023605315, -36.89539313473415, -20.24079227206234, -0.32310990078347174], "delta": 1.467132477814054e-17}], [{"inputs": 3, "activation": -19.52343007623585, "output": 3.319571662849614e-09, "weights": [7.079665816096358, 6.720411770712426, -24.470483108989733, -10.02267685325033], "delta": -1.1019555988213946e-17}]], "configuration": [80, 4, 3, 1], "name": "L3_Bound"}