{"layers": [[{"inputs": 80, "activation": 55.91531209757261, "output": 1.0, "weights": [16.863799632879584, 0.93245623041931, 2.0851675343598024, -5.971770800280481, -14.775320691791395, -16.69214983948383, -15.130819366218763, 1.9896057840762185, 1.579626015156101, 4.88951647133934, 11.421513400360006, 2.9522439728191046, -2.619047073899934, -6.426579824610898, -2.6765206606159953, -1.7119631676829248, -0.21570030822568886, -0.021800100293373165, 3.860686792496102, -14.838745159410916, -4.140030308576664, -0.616056034312917, -1.861116977975037, -1.1898294684849837, -7.754981613748712, -8.27534805139669, -4.213256951324878, -7.085952009937988, -12.731356145385634, 2.684747847543516, 0.1982164366463659, -0.037559178465176805, 0.22651416552366424, 0.890639904062903, 0.08589026944527983, -2.459696714418802, -5.117099698298647, -11.847915527397225, -8.17146952879074, -8.317407644064675, -3.7506841666983846, -1.4988039329399787, 1.3185561153972194, 7.883275750852408, 8.455911066696814, 9.358089635795443, 6.522122858164637, -1.6149920155633746, 1.3183951678759869, 2.9906422179810925, 5.194927233937138, 7.5240868794813895, 5.844639195894525, 4.718816632347497, 5.426029932270025, 6.663057993010388, 6.400742076538879, -3.4957388581336266, -0.3591048925949568, 2.1643173897185366, 9.897761796154237, 2.470826471184309, 4.146669935975102, 6.359090691362797, 4.924963140087044, 10.555437370690102, 9.95377026953291, 7.765148326796032, 0.1805027780923887, -1.623872082655195, 2.6068097440132685, 0.9064863592073988, 0.1189446369833959, -2.0422420176226006, -1.2164011613759187, -0.19365822468553104, -0.5282193482874113, -3.0860079954716246, 4.974026312865846, 0.6395291580715843, 42.280328421085514], "delta": -0.0}, {"inputs": 80, "activation": -76.6199626293844, "output": 5.301185805466315e-34, "weights": [-1.920669961912981, -2.3918196368662326, 1.185985762727128, -0.39181615496043154, -1.1747945394584116, -0.6329770790262635, -1.0887556306548323, -0.8095089708133366, -0.9005979188997455, -1.3492262208636405, -0.7442948897912731, -0.7708823930365956, -1.0171342121121967, -1.1223990166930917, -0.9782549019606385, -0.8800006141664021, -0.8938052439606127, -1.3624876895657128, -1.116594507034789, -1.1732418419412303, -0.7359637143538603, -1.0107913802777406, -1.0195461439430957, -0.786923267051218, -0.7593909469697393, -0.7599777628210734, -1.2311388231228295, -1.1083027040777893, -0.4105551150530755, -1.2219940739553243, -0.9622269659306234, -0.2932874779255767, -1.1433769445392055, -0.5609497958545886, -0.9359368217493597, -0.46526740519378706, -0.9213080600198233, -0.1047661168563599, -0.174210597860454, -0.0495110868806476, 0.0019989711592101373, -0.21843003200366373, -0.9205218768543423, -0.4530252643863977, -0.6865493268083759, -0.2395044415559213, -0.37952366696869555, -0.2466459967004709, -0.17272039734564787, -0.9995766837150505, -0.9166663912952663, -0.7852615842265621, -1.1916233091071273, -0.8117434028974169, -1.2222535512216612, -0.4824615539876927, -1.021659245971085, -0.4593837295750572, -0.7457727140117641, -0.8946045634564714, -0.5795075309317985, -1.071642717358259, -0.7294908380708722, -1.0233162817822699, -0.935804285841367, -2.5795524931081695, -1.3077590961781405, -1.0537576195634537, -1.3623605034269168, -0.8764943869672208, -1.8715344440066246, -1.909754677105072, -1.703632303737069, -1.2224042608285504, -2.126156492075827, -2.540777111679844, -2.623922289538129, -2.109487149541461, -3.236485606678807, -4.2002606044069495, 5.478767558956449], "delta": 6.336050512541156e-44}, {"inputs": 80, "activation": -4.552938923215395, "output": 0.010426339835937694, "weights": [-11.838325578568531, 1.033405766931132, -5.576928148484581, 1.343825043065264, 5.096348509270043, 7.884367142319476, 7.607485587170411, -12.950395159453398, -9.346154337265904, -11.730863148666543, -13.736518416226296, -3.4627942324867247, 0.5182580065290183, 1.5983030616106446, -1.7661479334988812, 0.030757053468577898, -1.5278303337056238, -3.7209730411052373, -8.263800282654444, 11.106876413172959, 1.6905344519330208, -1.4120037905515248, -0.9017867326737392, -0.00890505995788629, 4.394891712198724, 4.972823995962282, 2.0524773461042862, 2.526961982005001, 9.157971990135502, -3.833169589874934, -0.4704432182248214, -2.3775255472544488, -0.8241480006296745, -0.10937454406585485, 0.3658198284668731, 2.38987738804211, 6.000168694885559, 13.013275935338417, 9.053968126778951, 8.844888140651554, 5.55519983889314, 3.967881730663883, 2.4549619003977137, -1.5972254097405705, -3.0039389094471036, -5.297098409227993, -3.633995707120873, -1.3593096914702765, -6.068376269563725, -9.287408298654787, -9.73373218155123, -10.977110803317318, -4.7815530713779, -1.6248505557858335, -4.544821549834261, -7.003353081913939, -10.885053803157941, -5.875387474208666, -4.451293970690891, -0.9715914933124972, -4.581602782211684, 6.551025003959625, 9.537498784653954, 7.649323392666672, 4.754001242858708, 6.4306031860854125, 5.037301002757876, 5.5469265258907585, 6.173148009752158, 5.622981339823163, 7.935921044380392, 6.373061063159397, 2.951729230060437, 5.16704663124123, 6.093944524051732, 7.430944236610088, 7.572293528196236, 6.188336858780398, 9.639075127513143, 7.7342259756413325, -52.06786432246363], "delta": -2.7658677747907516e-11}, {"inputs": 80, "activation": 20.79013583270714, "output": 0.9999999990646833, "weights": [0.05857788274511495, 6.985004294152085, -8.81461386844859, 2.644071527633319, 1.9159419842920549, -0.40533946400244586, 5.576319645380013, 4.8960428875007125, 4.250244210450826, 1.2484990700745036, 0.33078781202430885, 1.7540149730737018, 2.737189904980757, 2.7786186240462394, 3.8595892671789898, 5.274395157236624, 3.87448504777999, -3.903887268795333, -1.9068351903736513, -0.441309559119548, 0.2564441495408957, -0.41343235409560486, -1.7069837843667781, 2.0998531993653313, 2.0775345287244065, 4.231162519214185, 5.641773251150373, 3.9454329921095064, -1.102944963109053, 6.984938862050995, -3.5490927499234965, -0.6540640570957341, 0.41722896138061155, 1.8896286205458706, 2.6088884527605347, 0.21600902024224233, -3.7625634124395995, -2.168650532364819, -5.2616932820416835, -3.6540698072610245, -1.6019904659625808, -0.998736834212695, -0.8530118766256494, 1.2387457931229957, -2.4018124507134386, -2.666583782279953, -0.3439818054198614, 1.5926499279217008, 5.35804633601007, 7.193376578252018, 7.639728120033636, 5.7469719767744785, 0.8086781034937568, -4.5793353927506475, -6.739962767291307, -7.565077204454231, -7.837172240261057, -3.03302672561339, 0.6278200130278953, 2.8307885220008293, 12.863885034062108, 6.296926524103822, 4.901939826905072, 2.7719231616636506, -4.116970928038263, 4.842937495544493, -10.308444488888618, -8.311779613356581, -11.219409447896181, -8.398576232598188, 3.4191573511210906, -2.746570251413064, -7.267144849795518, -7.59618411833244, -3.551977956538063, 0.41429196558356685, 3.219855061834994, 0.5485281916102407, 11.24531654118189, 1.2547432248862012, -2.695620321745437], "delta": -1.3897779278279787e-18}], [{"inputs": 4, "activation": -20.34574132451609, "output": 1.4586691967554854e-09, "weights": [-8.869545086955002, 0.7787500255341009, -17.195993088780188, -9.614849559976513, -1.6820554187004764], "delta": 1.5595664022336575e-10}, {"inputs": 4, "activation": 53.27919347440005, "output": 1.0, "weights": [12.581503267385505, -21.435598839871552, 9.615366270334212, 41.08625066408534, -0.4888134950236486], "delta": -0.0}, {"inputs": 4, "activation": -27.75096388075026, "output": 8.869712012184383e-13, "weights": [-14.571597239287856, -3.2476241982431233, 1.8672285874919512, 22.902411012637085, -36.1012459924826], "delta": 5.942362481836016e-13}], [{"inputs": 3, "activation": 0.16987349893786075, "output": 0.5423665427369184, "weights": [-0.7942249193115727, 7.2399625899563045, -4.976752815560949, -7.137398154350782], "delta": -0.1346181289905291}]], "configuration": [80, 4, 3, 1], "name": "load_core"}