{"layers": [[{"inputs": 80, "activation": -11.574510556220357, "output": 9.40264092287178e-06, "weights": [-15.780516732948495, 6.104620190135356, 1.7910616955483605, 2.862087036295125, -11.756427146307697, -1.8637123569924234, 10.932031872740469, 0.24692202573292238, 12.345740943615855, 0.3960670638834222, -4.235346110836324, -3.3610965928397865, 1.750906522132831, -4.140736010028623, 7.6960231785843085, -1.644026238449069, -5.066090330669969, 2.3977195043524704, 8.483871537051833, -1.865842907479194, 0.11430988599333892, -3.041524241650385, -6.33671473849291, -9.599877316651957, 2.8071169490298353, -6.49245699796114, -0.7068204181498314, -7.550973179406894, -4.922277893152434, -6.137850262783142, -2.264080442143577, 2.758698996715046, 3.798445896282589, 2.1421303630461135, 5.312869932452196, -1.2530550110615042, 0.6518331112092934, -7.47993872305913, -9.395853247897598, -12.43260150154915, -10.084050767949268, -6.5510293206496195, -5.281137313487967, 3.8448547629716843, 4.4960419396924, 4.534877834727466, 0.906915179027662, -2.087180470856623, 2.340025860869451, -3.713746877063599, -2.3347513953862142, 0.3939577180812963, 4.295267621461151, 14.231858310148324, 2.3756934876917155, 5.4837511865001005, 1.9538093873299998, 3.8369666185249365, 6.215918849114015, -6.1618095019145676, -10.520322927407863, -5.2242885864561375, -2.301387769521199, -6.815260999577603, -1.4467864472657983, -6.864117620844076, -3.4753217967500794, 1.9933093132214095, 5.913404349300154, 7.962398074216502, 4.850141191140278, 1.4253718641143798, -1.3926644830231154, 0.6854181943447428, -3.6221434855697012, 2.4905827659625515, 3.707999031597454, 0.115012372903312, 0.9030988802982741, 1.6092626943997361, -2.3483702878148476], "delta": 2.3661330831473193e-18}, {"inputs": 80, "activation": 4.622287948746053, "output": 0.990265414554813, "weights": [-4.896644421519289, -9.591696529063576, -11.012051934059276, 10.993654463786958, 4.826327589623198, 9.003300198502473, -19.257488441693468, 3.3638922207014463, 1.4677282250909478, -3.95798480397671, -14.922237514914494, 4.430175671568189, 4.3947452819493265, 7.467269009195107, -13.719263002228807, -4.3578230029618465, 3.6938555243789626, 13.788397984684298, 8.062542130205104, -1.351283385001849, 5.9596227975698355, 10.976249727183255, -1.1939535151416028, 0.8854290947888002, 6.10371236781273, 3.087943074484958, 1.1055259671064104, 4.826012938974445, 9.700254318424145, 3.9327011090726334, 3.446869451395534, 4.877458557885782, 2.309542409888251, -6.121667448368768, -4.7722242598251805, -3.346442024691466, -4.615021251678407, 3.165364089788953, 3.2234456805766234, 8.631024879402565, 7.287257426831799, 12.199486897652355, 5.678915303248149, -6.22489698141945, 5.695598173545481, -0.9474698879346581, 5.501086000858646, 9.49629456137283, 9.810547154269146, 3.4972296046004776, 4.1915332497392495, 3.101629474773529, -5.969297444059571, -2.3241917337319986, -6.797800542334921, -7.0259194133865925, -1.8577287004910161, 1.175851166759369, -2.1756869435153665, -4.69796304563276, -1.5845379940306772, -3.3711565326782873, -5.6434917600538865, -11.929172842214529, -8.556455654379901, -9.112504554058578, -7.790030474030685, 0.1757733361465323, 4.224603583753793, 6.4754477587200165, 1.1886100758149314, -3.9802093167652814, -8.927572663344915, -8.00179770775094, -7.545286265938522, 0.5304339549893808, -5.220011457296953, -7.547162790632963, 7.554385586848789, 4.278331693423627, 3.878771869572337], "delta": 3.1442937292155723e-15}, {"inputs": 80, "activation": 16.762971990944543, "output": 0.9999999475272602, "weights": [-4.7039615616913055, -2.7674879250015207, -0.7175145254300562, -1.535657208306843, -0.9428714953314125, 0.5619334512795309, -7.76899157310033, 2.1457269769256744, 1.0994435026644611, -0.8291964659776999, -0.8332416596301219, -1.1850196397787276, 0.318163839545515, 2.012944715749577, -0.6258599499379045, -0.7341748517938859, -0.7916718974275567, 0.7721544624672885, 0.7486014624350252, 0.31522150027169943, 1.5168332719486293, 2.290273014615575, 1.966114145258697, 2.3835643882763575, 2.059786866462201, 2.8530423210613316, 2.430692484819295, 3.3134394785464374, 2.8632447099247598, 2.226060008411537, 2.4896097746908983, 2.5565651237840576, 3.219447832345916, 2.921434921636503, 2.2798122328796664, 2.500489506393609, 1.939743515079072, 2.122270639055755, 1.3065126121837436, 1.6253719852077202, 1.6756881293237589, 1.6140629536769666, 1.9249076341252493, 2.0648191703201615, 2.593437270777487, 2.0603760349037237, 2.5494238749639906, 2.4649686350850155, 2.8563452130184914, 2.70179602472668, 3.2672021664388415, 2.410211197375546, 2.173295160315238, 2.008461117469618, 1.7779053541072654, 2.048775322398074, 2.6631274452905203, 2.316937704226091, 3.2629973647371533, 3.9080264788801697, 5.237553320091548, 4.513151019019726, 3.805724638497535, 1.7170857652196365, -0.3958428267741535, 0.18790000074705118, -0.23823165971791957, 0.10421809172157583, -0.32311504736312807, 0.4983102581912906, 0.7950665391964263, 1.3737919787935853, 0.986071170553422, 1.2258140790469652, 1.7627273186121175, 2.503197736401174, 0.44013010137421826, -1.6866474396896483, -4.201652594831694, -6.505700526268531, -1.7346929925197883], "delta": 6.365873126607584e-21}, {"inputs": 80, "activation": -15.633555151523513, "output": 1.623428607396126e-07, "weights": [-9.579100309697226, 6.258948921749623, 10.600344861799883, -5.12208695845651, -1.9096638975594162, -1.2664727256761987, -3.287972763920676, -7.84228711685971, 1.752797543322984, -4.630766973555407, -2.972544403323238, -10.277825597232802, -6.464199496471472, -11.500043529752281, 8.593551113397734, 1.8559287834031628, -8.214685710330233, -3.540970900281967, 0.9091683514445389, 1.2932192284135382, 11.794594253495823, 13.651876174346038, 10.315751263603635, 8.162578955660502, 12.352139696023517, 8.95806504338686, 9.192242319167498, 8.999927593549181, -1.0051458129935007, -7.3019668443695425, -0.4741756759011811, 0.4547024809109468, 4.176761608881317, 9.765168530273122, 20.142480517602884, 20.26844200682601, 13.281629858759606, 10.251142836837586, 11.160551803276899, 8.838293444967958, 6.675245286638766, 7.759561264517667, 4.644538331990655, 11.39749999227522, 8.453306262717348, 8.534342968150282, -2.052910889110628, -6.0086933750608615, 0.024260963106865034, -6.157223634677514, -8.164817438728619, -12.549701941383585, -14.913401363071332, -8.916012044986626, -11.641181681047112, -3.7336994230800125, 4.787906779852, 5.674499546222854, 4.390487630141762, -2.555065256340894, -3.7835337834825205, 0.2779263030631891, -3.9593249117343934, -7.121866511802152, -8.651638947062981, -7.593671401617893, -3.9021815076000093, -5.213433699912784, -5.801247604044683, -7.493600164531231, -9.663201929886283, -7.985941370016425, -6.889816854512877, -2.5930232945135105, -6.073363842940264, -0.8720681313045339, -4.581243688173758, -6.501359620204843, -0.9952232580071836, -1.6118084037969862, -13.82902245284882], "delta": -8.783621757493902e-21}], [{"inputs": 4, "activation": -8.68383209179856, "output": 0.00016927238778156528, "weights": [-11.486643764963041, -14.827246991071986, -5.3647687708669, 2.3892645575695814, 11.3639539027914], "delta": -2.22026686723796e-14}, {"inputs": 4, "activation": -23.247398277347394, "output": 8.012779827508511e-11, "weights": [15.65297995508359, -12.784898962935586, -19.811585781725096, 26.050473470655685, 9.224478327924045], "delta": -1.0847918496810703e-20}, {"inputs": 4, "activation": 13.26240234159881, "output": 0.9999982613542986, "weights": [-19.39925177018515, -17.3426894413553, 12.634789826341034, -6.0560891221510005, 17.8016621147403], "delta": 1.7454404679930811e-16}], [{"inputs": 3, "activation": -12.7756406982192, "output": 2.828840840922386e-06, "weights": [16.393692306901404, 16.91793709381616, -12.545238046223977, -0.2331994645203696], "delta": -8.002317865922834e-12}]], "configuration": [80, 4, 3, 1], "name": "Mem_Utilization"}