{"layers": [[{"inputs": 80, "activation": -42.22259983959919, "output": 4.602119357521865e-19, "weights": [-2.664493108784822, 0.3446280301522887, -3.6414260839935078, 0.5792909528938641, 0.37018052957672687, 0.7559694168676651, 0.1329576914221472, -1.0876148589974066, -1.8915215040268347, -3.5597709900593486, -3.145807195434084, -3.437723435198401, -2.099108849984569, -3.249287154110337, -3.6195071560834666, -3.5521142208097176, -4.555501627408317, 0.2080147658871563, -1.6156919618548706, -0.7671392982474877, 0.3521516964794334, 1.4503381297358597, 1.8545041752165554, -0.4032509737497091, 0.3077419175969617, 0.9685700812942628, 0.1875203794016786, -2.258513110008731, -3.2169332410286033, -2.2663730746915767, -1.0639718190562846, -1.7587303776289138, -1.4096028459676564, -0.8515552646347935, -0.38003503801594757, -0.7534971819903808, -0.7147009757722924, 1.5599316552780185, 1.145289717345042, 1.812582546321402, 2.9272067875487653, 3.3326688424693356, 4.481823310519246, 3.93453696802773, 3.31730281575533, 3.786557763669026, 5.438005226001255, 5.375152434258847, 4.070287520853516, 2.233260009480425, 2.3231821682176963, -0.3570217700575797, -0.4325981979302706, -1.1295287984451747, -0.9417770046393372, -0.9676114043115325, -1.2036924949480605, -2.395039523138454, -4.821719185564066, -5.162204002605732, -5.553888261218163, -6.718755267655515, -5.201594761558397, -4.653891494233775, -3.2117417198927427, -3.008704424043126, -3.540045315803374, -3.5820427854244605, -1.8386299959431942, -2.9407819996782063, 0.21296044037174877, 0.9982329060783784, 0.5794917142699845, -0.5230709159605842, 0.13512361252193, -1.661625455826353, 0.04972644014486642, -0.20353917048621067, 3.357386403050449, 3.98214093857874, -1.2496008831280856], "delta": 7.801354631649787e-27}, {"inputs": 80, "activation": 44.68996313880983, "output": 1.0, "weights": [0.5178954031280822, 0.8809845239882175, 1.1765435491646827, 0.41187650009812415, 0.3251700781432595, 0.8866322733895354, 0.5075370189376361, 0.9754698581248007, 0.9336572930650227, 0.45402453381916913, 1.059654632269099, 0.9925713886598345, 0.7144410938991352, 0.47903454882579277, 0.7365991363841342, 0.7853333451773622, 0.75474213287623, 0.2930718214951671, 0.5488657739494823, 0.32519928929913333, 0.7424730340129845, 0.4102757913186196, 0.38767477964852604, 0.6481145891859121, 0.6989435571491703, 0.6775935472005571, 0.17437837890894733, 0.2501222952790512, 0.9209235812158725, 0.10716015108036168, 0.36374537857351547, 0.9936399334435009, 0.10849275500987537, 0.7483676996557774, 0.38554844268505273, 0.8797661582846649, 0.3746569376463221, 1.0222267641808966, 0.8838345206566123, 0.9566043705264894, 1.0101617730321095, 0.790525227685494, 0.16279457958793433, 0.7379874299364769, 0.5311452818206045, 1.0230723437330238, 0.9065974098889339, 1.0380888953306426, 1.0671202616269948, 0.19190732017296205, 0.21985721673153785, 0.4040119143738986, 0.13404888171373527, 0.5742365868747046, 0.24949773039778167, 0.886759961812997, 0.3119872994198539, 0.813276071069248, 0.5720554383743979, 0.47858486207310735, 0.8486325446182599, 0.494063987473451, 0.948661722590627, 0.7314720278480961, 0.8418942467158462, 0.4102932347300133, 0.6464653197395283, 0.7947575444222426, 0.37808860148788337, 0.9666156887618037, 1.060605865418588, 0.6985154485360946, 0.5398129255349619, 1.114728361787908, 1.0407772036872704, 0.3035084982157262, 0.26266024768482554, 0.3925154392009623, 0.8977730611380148, 0.5129625451720576, 3.4284218305608603], "delta": -0.0}, {"inputs": 80, "activation": 15.408443615528853, "output": 0.9999997966716787, "weights": [6.52402028916313, 7.588464307332199, -0.5993672731117794, -1.2341642447111012, -0.05052877449733481, 0.9876037275909011, 1.8342827951235319, 2.458466706211351, 0.42902070107898455, -0.3852014032040095, 0.02603366024375477, 0.030055040445005395, 1.06532147606325, 1.2286316559935575, 1.106109151614022, 0.639905390475341, -0.8818945861771001, 0.6151124167072918, 2.10269414175827, 1.8132560429498283, 1.559439785316478, 0.16528963605381963, -0.2547874691734189, -0.12384500957800006, -0.5696783205512826, -1.3011592309765407, -2.2639967831146404, 1.2780674329904034, 2.0014576496941263, 1.2386776265789652, 0.18617571274989128, -0.6475851358275527, 0.5978352843917197, 0.6254617014912164, 0.9727178716091718, 1.0012702283112989, 0.7156113497031821, -1.0917161802869415, -1.884381607741316, -0.8928132827230147, 0.04790839210563761, 0.3553831240802523, -0.39213107582220946, -0.33054531560447736, -0.40866388930942266, -1.1083093473870693, -2.2920931806306966, -3.031294780470341, -3.3541328141303492, -3.265334238167714, -2.4549489852690587, -2.0778090644427314, -1.7517689283999265, -0.8920130832171033, -1.1957775270009476, -1.1941838304089445, -2.3032230858536846, -2.7030671857633632, -1.4390024678030315, -1.3957169786750172, -0.6451668490942835, 0.9819912846313368, 0.9002227038959307, -1.9924796086266567, -3.9791446957067356, -1.2797408146192104, -1.325999204203893, 0.6939224404672074, 0.9894076632419838, 0.7994230438327158, 5.701721797210986, 4.188818735930824, -2.453370984193241, -0.48383801053067244, 5.550454409940927, 5.710029699038553, 3.0803167742795523, 0.040659701379126945, 10.065331147585914, 5.241102342799971, -5.809561830228153], "delta": -1.501577589442571e-15}, {"inputs": 80, "activation": 28.520453184967735, "output": 0.9999999999995892, "weights": [-4.161352615393028, 6.801898346161596, -2.549282586210093, -4.852603026370656, -5.862747963776341, -23.73061239038028, -7.902344993395144, -0.9229523022357914, -1.5836724053153564, 6.503301594498644, -0.7137065491023928, -15.87166779695674, -10.63162888623302, -13.366047523202264, 3.3696656488688075, 2.886133543514682, 0.7057695850114292, 4.6385489269812235, 13.439033585542864, 0.5061260928539217, -5.21235263706477, 0.5018099265748658, -0.7483942193378402, -8.322402341123093, -1.8965861215339876, -3.6214569473176406, 1.1350615624050695, -9.388259724764593, -17.455594502906965, -4.670284063737681, 12.739323612518684, 5.297447725942376, -1.7454950867945025, -3.341802612657764, -2.4074734595453218, -1.5556207484756286, -3.170706944169439, -1.2877261734260461, -4.466071038924628, -5.1861998396066165, -10.680447556429447, -3.6241035330453037, 3.4912076877624076, 7.871647222792003, 6.954720743970915, 9.173948318225534, 4.260581839291595, 11.978023655985012, 9.55969409732407, 12.005902528954126, 17.711076011021635, 18.552253666307042, 24.037845271108004, 25.596522711651836, 18.65970487517028, 13.288809927397834, 7.62326402562901, 9.249803013476786, 4.987968409880309, 3.0954629179797144, -7.648649907255649, -2.062686745658038, 6.698686159222548, 7.736387208377374, 6.834193277850642, 3.938607739815729, -6.711526396538097, -9.172775768425964, -8.904153609667746, -1.9165455604885382, -10.01955369658663, -9.934056504799566, -8.967740984420383, -5.324163874829322, 0.383408880994288, 8.21934761200146, 11.014617661361097, 1.0064247668452317, 5.817302134733582, -19.44542216122909, -10.978767772251826], "delta": 2.9039789479093565e-21}], [{"inputs": 4, "activation": -27.745627710421523, "output": 8.91716881242301e-13, "weights": [-2.2146582636616667, 0.32498685498322666, -15.394374312974938, -13.844044154043333, 1.1678007714962637], "delta": 7.171618720186945e-13}, {"inputs": 4, "activation": 17.743038025589012, "output": 0.9999999803076981, "weights": [-17.28872167291129, 8.332387158726464, 7.514596287362665, -7.2220487824786765, 9.11810488892504], "delta": -9.808019845673908e-10}, {"inputs": 4, "activation": -29.543522615793865, "output": 1.4771042644886326e-13, "weights": [-13.405539362199532, -1.0672837224914995, -13.6022007902163, -15.361537788623105, 0.48749691981834126], "delta": 2.6614396003009077e-13}], [{"inputs": 3, "activation": -0.1649301221119573, "output": 0.4588606830075251, "weights": [-7.05861378862971, 0.408648842125531, -15.813743090811682, -0.63054824256787], "delta": -0.11393857501620931}]], "configuration": [80, 4, 3, 1], "name": "Sys_Utilization"}