{"layers": [[{"inputs": 80, "activation": 37.43220889965429, "output": 1.0, "weights": [3.5551075407472577, -2.4800869026469394, -4.940608066039197, 3.1201438401297983, 1.7940794784873126, 2.8215561849067634, 3.505153635141166, -2.684886251719502, -2.2444158375352474, -1.3323299897411205, 0.23429852696981562, 0.3175429830905649, 0.9432791275075664, 1.0013722284914146, 0.39259025156564764, 1.1469029209467105, 1.2218906516075023, 1.167858191787034, 0.06133319303042029, 1.464073551610895, 0.8400817908483033, 0.6223025487279223, -0.16362211280432276, 0.16974366154431933, 0.5254469629652355, 0.4063367409429263, 0.5649032431705787, 1.3298548699486266, 1.457159064704933, 0.5243400250690157, 1.3814400938786724, 1.3904033195367387, 1.4887633533740827, 1.3328489016517515, 1.740002707650755, 1.2581906001398915, 1.7403862466592719, 1.8016548702279551, 1.5884672214320994, 0.8393449837954564, 0.8545845663229139, -0.122465202600717, -0.11717937835546717, -0.25368336948352316, 0.10003711896234793, -0.2330669008069421, 0.4464808080288918, 0.4602271090863037, 0.925444277786838, 0.5083085378245755, 0.5179689340422234, 0.9437469475111561, 0.08435427846950927, 0.1691329847965015, 0.703039944283952, 0.2773656750925264, 0.7383704714176512, 1.0476932107797248, 1.4652302811242726, 0.905018232672447, 0.8468344072276195, -1.2436292160528903, -1.5441721866385019, -0.19270180310107, 0.7169294453839545, 0.5499282904744753, 1.2633924733858832, 1.1851032117133162, 0.4206653287225963, 1.2907084392750399, 0.5774118010886502, 0.4570932887112082, 0.9058851866543775, 0.5593735922585906, 0.8612432030574078, 1.2005117029543728, 0.9845767572562287, 0.684485871527375, 1.008255741356854, 0.7352599245759953, -0.44231982101645007], "delta": 0.0}, {"inputs": 80, "activation": 35.44935014697146, "output": 0.9999999999999996, "weights": [-3.9547025119902433, 4.927142249404641, 4.430652115695042, -1.9156817226488791, -0.6789785193606847, -0.3113653838060782, -0.7859889746913744, 1.7757058758869195, 1.9974749812008745, 1.558011226195138, 1.4030535819605834, -0.040668483335687906, 0.36647151776245673, 0.5164221244819682, 0.7690409032835589, 1.559765141189935, 0.7542836277617903, 0.8057922351091039, 0.8042796242280112, 2.5298969519666845, 1.871903379667283, 0.3623531901904715, -0.4773051333745802, 0.1369276555644538, 1.3504814519941022, 1.2861710894774614, 0.49858619879657967, 0.141388405324329, 1.2966659130270046, -1.3193724378181328, -1.8168072150094619, -1.877160027885388, -2.28476455424281, -2.0896274722237016, -1.6990862406254466, -1.0501867309506365, -0.4327725621187377, 1.6222994006172609, 0.7710084156589915, 1.1631362975348474, 0.16303763907506966, -0.035181324076109466, 0.4428101529592624, 0.4712808578324567, 0.3405263655265176, -0.6542297523609149, 0.12166998532931506, 0.3678017733955736, 0.8613060629461484, 1.7089400816131226, 1.6533140656629708, 0.9646500205407885, 0.9611019090699513, 0.8224435016515298, -0.08296017458999451, 0.34793931612682294, 1.5528723524371895, 2.171614144425527, 3.8526151573459013, 3.194754423593363, 3.202497734887565, 0.0011961524555929308, -0.9623447184689586, 0.13262536827694468, 0.9616996903368616, 0.6542969308460579, 1.1619713024188487, 0.9816324950848399, -0.8632408216746521, -1.1799148089080405, -1.2645680355765592, 0.4170448244955702, 0.7847712338874963, 1.378963156833778, 1.3122405294222168, 1.81355078454904, 2.16273083357324, 1.4670317486891824, 2.3663255903328784, 1.5742515169393043, -0.4678983973739599], "delta": -4.2053084568140744e-19}, {"inputs": 80, "activation": 21.774348637141212, "output": 0.999999999650441, "weights": [-0.021918558148187973, -0.22738181267029212, 2.189336252638266, -0.33083678363783037, -0.42107713142001285, -3.57944795801251, -3.37164299714276, 2.837480939337066, -0.3125063625290523, -1.3011724303476677, -1.8031172055769193, 0.6049636342464683, 0.30820369742981757, 0.8122589331013703, 3.439498722958562, 4.598422933405211, 4.093619650974833, 3.8479643694560455, 2.7631090696225753, -1.550903194565625, -0.8206306626298762, 0.2375690002672541, -0.04409311330259474, 0.5482952526676123, -3.1094717541245824, -0.9560734216275539, 0.2815107787963304, 2.600537944159738, 0.4871512444552809, 3.321166855207334, 2.982187507218596, 3.3645121740674147, 3.155333833340383, 4.317035556381136, 3.91535302804676, 2.69744462534161, 0.902662080202636, -1.8127704799575868, -1.4850661737323787, -0.6057617906380354, 0.2404833082233651, 1.3867073557429508, 1.4445147501398312, 1.375804995956143, 0.482455620894743, 1.1488094341716815, 0.8662682700572869, 0.590280042424747, 0.33093456610279937, -1.0282547349773936, -1.4128456796875957, -0.9938831103003771, -1.812152456987647, -1.583756425039581, -1.15319349394709, 0.3793289369338373, -0.8037926490371767, -2.087207148389017, -4.270714378623547, -3.3321906144541997, -2.619129992588415, 0.6057905713335837, 1.8645149717001195, 0.4601915116674666, -0.3146117225887458, -1.2975524157632488, -0.9428028275926685, -1.3230721192739816, 1.1845949592482585, 0.3644141018302481, 0.8619152331636348, -0.6502637499430458, -1.2700407552096458, -1.2231629993387618, -0.7686152368671361, -0.7593703072896946, -0.9461599065942103, 0.17983197376558063, -1.5224841188470213, 0.15711362945249446, 1.2824919014199092], "delta": -3.2928020092195464e-13}, {"inputs": 80, "activation": 29.093529146921014, "output": 0.9999999999997684, "weights": [2.2521138842833532, 4.787561926780733, 0.3443698750255333, -2.0331493830492815, -4.065458373816003, 1.0779398252067616, -2.8237451625346583, 0.6357244990151556, 1.3464092979128603, -1.0590505855692498, -3.901537547954203, -0.5253505693184535, 0.47061456011100367, 2.690852685488947, 0.7809459140883271, 0.9627006201639733, -0.40465539364924147, 4.259223662643219, 0.7768494168147722, 4.3078964037415775, 0.7284039226276289, -0.9281603006301884, -0.1322514192379974, -0.3831629913131918, 2.1200519036364858, 0.909947435132676, -0.980731721321769, 1.0192462753990217, 7.724582142327643, 2.652059732129692, 3.3739408516582925, 3.808234861130511, 3.190272169899267, 0.3724020482925497, -4.8931851879203485, -4.690190524982757, -2.119211569704701, 2.1008511321305066, 2.592128790614308, 1.145353640923605, 0.0067585731651136315, 1.8011068713393605, 3.900063666912618, 3.3464211549709515, 2.0201492287341916, 0.4766640250992158, -0.9548904478465045, 0.019748772741048096, 0.1729304632216571, 1.0378592454908873, -0.48489854397346377, -0.2130200515163199, 0.6294498126193391, 1.2197521483052414, 1.270505556334179, -0.015441555129233595, -2.927850899647752, -1.5621762067763962, -0.572169631394127, 1.6959901988676094, 4.771404806962229, 0.4527859468510576, -1.6492641487479203, -4.491361267375448, -5.503629319800736, -5.461728038434484, -3.254581365605185, -1.6837022773621442, -2.807964011313622, -0.8909184042290544, -0.2586195700007883, 1.05197390953326, 3.6997381210402556, 0.8969133255999038, -0.06678967557235684, -0.6375669951543484, -0.9272730116060458, -1.5511774625007562, 1.440002536680929, -0.1124498153745507, -6.7439076646012035], "delta": -5.123012859070166e-16}], [{"inputs": 4, "activation": 12.924563369498431, "output": 0.9999975625686705, "weights": [3.1324993823361087, 8.502656475077528, -14.782721909860433, 17.240554328548686, -1.168424866260097], "delta": 3.640544114651653e-08}, {"inputs": 4, "activation": -2.283810505823416, "output": 0.09247267286696123, "weights": [4.600509735140314, -1.8015270086913049, -1.8296827267607858, -4.31475491257422, 1.0622808991140005], "delta": 0.0005091941536723471}, {"inputs": 4, "activation": 8.46444621297557, "output": 0.9997892118639189, "weights": [-9.077185595254818, 9.937134054240374, 3.2339562991916724, 5.1884037522234445, -0.8178660535362592], "delta": -3.0057942573927077e-06}], [{"inputs": 3, "activation": 3.4516928093380397, "output": 0.9692815837542946, "weights": [16.330273014504332, 6.633825871266111, -15.593753707594152, 2.099166552134759], "delta": 0.0009146345510194635}]], "configuration": [80, 4, 3, 1], "name": "C6res"}