{"layers": [[{"inputs": 80, "activation": -19.54817271724089, "output": 3.238444482307655e-09, "weights": [-10.07930994071075, -5.070845321064801, -5.021154305250017, 5.569165757658444, 6.545152727913929, 25.87233447418226, 3.605552404429319, 5.170816876671089, -2.8824186089063666, 4.520568574226802, -4.454159689433043, 4.265755053889493, 6.524353139385167, 11.05648608436798, -7.668851170180297, -2.4531234762915504, 8.17729051037226, 4.11435855103953, -3.3468113023503605, 10.092322001551178, 2.793099120167496, 0.2005080035313617, 2.22243118748306, 3.5219509494660457, 0.30210478212856606, 3.98036968858568, -2.6236141517032685, -3.2274033904232446, 5.948049685568971, -6.4288145989498515, -5.398628000500379, 1.6459191347095457, 2.7832483565960016, 4.196546804489828, 5.734042885231679, 4.028450875637462, 5.2155207714361715, 5.130916675646597, 5.520068645062404, 6.60108707359464, 10.147105451494564, 5.159159486761186, 0.9293169027071118, -4.478142802976731, -5.32659931312436, -6.241207744194136, 1.1724906463282503, -3.6768769803964996, -6.787031448353774, -5.082580559485492, -3.4466331270828907, -4.6463767210176385, -6.463310457050328, -6.197996027828249, -7.434058046600366, -6.496641653786688, -5.243864239293846, -1.9399190882104127, 1.8487662479320945, 3.52096856451916, 2.4673540994672853, 2.2338412933873255, 1.2940085647984414, 3.6678103754788105, 6.193375331816969, 4.565435912095446, -5.388426108269881, -12.46694609983767, -9.623023422048885, -7.764329914208393, -2.419855206241146, 2.7944463223901312, 4.6499747351785565, 2.77205019935437, -4.001183892342381, -7.3858732641182305, -7.515785721508116, -4.118391667079562, -6.8300204086916985, -3.124516487477761, 7.69406570422076], "delta": -1.8414297580537556e-12}, {"inputs": 80, "activation": 9.611611034040203, "output": 0.9999330575979156, "weights": [-2.0709774412544646, 9.617533890950279, -5.9980788669959155, -2.3756538480451277, 4.107537882980621, -25.717934207877228, -17.806079129431687, -10.503491865201154, -2.2057455925624514, 3.1824726965707426, -4.804368035723082, -8.701387174862404, -4.05485203285145, 5.592179411248349, 1.7058719228981438, 0.7229705543336875, -2.3314218398547153, -10.138770229556306, 1.4005749673332946, 21.909633408252596, 10.135023002715258, -4.183366134049276, -9.157308682872761, -7.599936174763714, -3.322469763389628, 1.7232143984414292, -2.0738191244156523, -4.568685283149718, -2.2452326042456483, -3.096862064825852, -3.689856824570343, -12.598500433415238, -17.77726074976001, -18.85509016516284, -4.986924302838484, 8.36733597042272, 1.2807927140045516, -14.833908518831116, -20.350671876244544, -13.52666981433823, -1.5573442535683257, 3.8985657851252906, -2.938783994292642, -0.7019968971725304, -1.3772442439149386, 5.108297656305945, 9.964667451028085, 7.126985455422108, 7.686423342706307, 7.828943311180334, 13.945154267992091, 13.612033152666255, 5.616911320164702, -0.6003758219615182, -3.032726598099829, 2.629473106446759, 0.21408600842162503, 6.250174067262569, -0.3887435163226374, -4.734633794801284, 7.272128601428627, 3.888090199620214, 12.832820203127723, 7.205139739901541, -4.2650107372771595, -1.4475840213513094, 6.301472838968805, 8.289765364034652, -4.029711232726223, -3.848861190102225, -2.323780632050022, -0.13339379794109277, 3.8841913888343544, 3.1747102946954597, 0.9338796268712721, 6.685421992170036, 6.85684273902385, 12.945120192936189, 11.4449128274604, -18.011654713579333, -5.745270844779878], "delta": -3.7528886838377854e-08}, {"inputs": 80, "activation": 8.40195143311789, "output": 0.9997756214185324, "weights": [-0.9591336363340878, -0.6611084478121785, -14.068107829260109, -11.98532542059204, -15.643617822188608, -17.438774029665343, -26.043088897172524, -11.131907328581882, 0.08645198015685157, 2.2673390969681626, -9.955819446599033, -11.331680129316384, -7.065871899448499, 7.604929292928797, 4.576092786637551, 7.542111112942549, 2.860303438316076, 4.928330674581618, 8.08736834385461, 9.122792903281558, 5.502062286381494, -10.685220791735523, -15.878316430484976, -5.158957896646066, 4.229854995950905, 6.543060296369269, 5.662220701230714, 4.780736171451617, 4.877465960536163, 3.862686227724514, -6.904028933377746, -9.331752089846708, -5.1353215889967485, -7.750493220906396, 1.2340795524808588, 8.843775129557532, 6.255577670404181, -12.052876593611616, -17.220872907975657, -2.5334972534271194, 12.424814177181549, 12.217799537075171, -2.213461626854995, 2.869326410886115, 1.924703204837972, 7.100743946787264, 7.731679577102489, 4.214530339380163, 1.179649581704946, -1.216037862797585, 4.340402620064651, 8.140677284097778, 2.290301183943533, 4.457747641721905, 2.1326755793222114, 3.6805348828286335, -2.4719934118797284, 1.992702251036152, -1.0516628522862403, 2.925809377084877, 15.27021408413156, 8.862405180605684, 13.048915682602315, 7.429004477550685, -6.532848696629695, -6.626064641842483, 3.3933092881380977, 5.79457707444534, -0.8652271183670768, 0.4979839964286868, -0.865701307724397, 1.750657135199621, 4.389827114888908, -2.907040113132243, -4.804244472446337, 3.67333164170811, 5.899647019090632, 17.253805114077448, 8.403099035355767, -6.261511009247536, -8.296002506814132], "delta": -1.2403274229442167e-09}, {"inputs": 80, "activation": 20.908824637205388, "output": 0.99999999916936, "weights": [0.559721882407063, 3.5546530973996786, -4.647020405623524, -1.9343588763900212, 1.2672862469550208, 0.7185845387590708, 0.9720961698209281, 0.966343928182581, 1.3831262410285101, 1.127643445565589, 1.2613808997683955, 1.3785052296052924, 1.5707403031257978, 0.8328747752574102, 1.419958178618801, 0.6184903822592707, 0.8714859609946187, 0.30295284248079274, 0.48166729519890883, 0.7528811800146549, 0.6381900206226437, 0.8416862602616629, 0.7131249266225348, 0.6857204087110558, 0.3508657408576408, 0.9129014062474936, 0.9866877640429181, 0.2874167186252311, 0.3727123757075826, 0.38671994410734295, 0.3146124834734366, 0.16695563631627988, 0.40910095497075577, 0.6403743225435535, 0.42666341546559056, 0.5839814921875787, 0.6656062626654266, 0.34898931992844545, 0.9531860419356539, 0.22893803676012633, 0.8315314079130113, 0.14403960848182137, 0.6061312218743665, 0.5343358094412057, 0.37286996880766565, 0.44639151841537683, 0.2399010077148194, 0.6778965456322757, 0.7351715386150024, 0.973165592496212, 0.571629972619916, 1.2302974869691368, 0.6480670263557167, 0.7201285115926941, 1.5985847454756907, 1.363703424427546, 1.298165543299303, 1.7242593048478934, 1.487081505275511, 1.7017710512595756, 1.3564692707876183, 1.5310872932562225, 1.3839827088115124, 1.7217465268644292, 1.3664786137657579, 3.760293273562356, 1.2245118175510656, 1.5029419304393117, 1.5076090586062616, 1.4658515642700558, 2.256014695803567, 14.68970493916655, 1.4946233414318542, 0.5807320641177302, 4.740079523298816, 2.551040269611246, 2.2554109156763062, 0.509735253938734, 4.311361290232156, 7.423770045028302, -3.270669823661029], "delta": 3.4783556857545916e-13}], [{"inputs": 4, "activation": 2.1121428574046313, "output": 0.8920778102108814, "weights": [-2.7129439731928287, 11.449875839234357, -23.22583034532835, 16.23145823666249, -2.3477964535707945], "delta": 9.29535274127111e-06}, {"inputs": 4, "activation": 1.8742423553207619, "output": 0.8669483906322838, "weights": [-21.35538363152351, -10.545901601919601, -1.1428690945049096, 10.631046377514384, 2.931013764897229], "delta": 9.417380765159131e-06}, {"inputs": 4, "activation": 1.3881054340006438, "output": 0.8002896142280174, "weights": [-14.35972041557542, -23.819226314812784, 9.276777949647382, 7.0380428481883595, 8.8930218304406], "delta": 2.3836533777126788e-05}], [{"inputs": 3, "activation": 5.514382984867292, "output": 0.9959877508302973, "weights": [6.021751901839946, 5.091986702658087, 9.301770743872249, -11.71607568439638], "delta": 1.6033553637290195e-05}]], "configuration": [80, 4, 3, 1], "name": "CPU_Utilization"}