{"layers": [[{"inputs": 80, "activation": -6.889034740960124, "output": 0.0010178597717614166, "weights": [8.821871223014849, 19.054942530188086, 20.360881626109766, -7.324727148331563, 3.087339773001588, 10.793061427090077, 18.826415665981493, 7.426278409500907, 27.00682041055481, 24.268790305985664, 15.315862217486519, 5.561448053674071, -3.8086472345725655, -10.004569698863737, -17.117388584136833, -2.25821383000664, 3.8463134715188025, 10.070758005075929, 6.277951780600518, 4.419275888732448, -2.109052215103139, -1.8845993937367043, 5.50576121758611, -0.07387432541773249, 6.471216070183657, 3.3755477987912688, 4.915371346462662, 11.255952330444131, 5.421701034312838, 9.060487481605907, 3.085487869875529, -2.8855622377811567, -4.652082759332442, -9.405086639571593, -1.4998336844792624, 10.090700134315677, 21.866990648234566, 16.739943604663132, 11.309104886450326, 2.191616922867106, -0.5502584775143045, -1.6472172593446262, 3.3894143660791665, 7.100794922702337, 11.095058151037685, 17.062755192072224, 8.729338932372613, -0.35993018923735526, -6.978871785101087, -2.019130413364803, 6.269392960070751, 6.938899516297389, 2.5492974867014744, -11.128373330978922, -18.7789982961356, -25.35963707794545, -2.6761283930575632, 3.68342801074731, 1.7532883475698933, 2.4216164967578155, 1.8586741664244195, -4.808541916200269, -3.4963270605391163, -4.909670968103427, -4.374025818605637, -16.230244606955175, -20.773710848241404, -13.780897627256955, -11.859744656125033, -4.445822588851288, -13.566032593077558, -12.522923674593558, -15.505352266606117, -12.654657726570337, -14.120800178278238, -3.710437052048307, -3.592723216290688, -5.983008363085804, -11.635872758718156, -15.53320675146891, 0.9058480864623604], "delta": -1.360065725054138e-09}, {"inputs": 80, "activation": -4.7390456966117505, "output": 0.008671143088104256, "weights": [0.19524410846099874, -11.406904767756128, 10.908702348644649, -11.963710246799899, -1.2642190605945431, -0.026465266732252548, 9.690996771739188, 8.320017816467608, 4.054675259338967, 0.8850145277146748, 16.702901337085105, 2.2029065773823007, 0.4873532790318, -0.465622918254194, 14.704531366234509, 5.548599504185024, 5.35398469322714, 0.8924604844223722, -2.3192316882803046, -4.62506819019648, -3.8332342068036342, -6.400437483158548, -8.087853634758497, 6.4417266474208095, -2.214790727248896, 8.226222876007292, 21.075334966721783, 12.820139407392894, 9.112624738748629, 15.477997615566872, -0.814826119426639, 3.930078166044843, 0.20591865770136633, 9.954150502347591, 16.154880156711947, 9.198042035973714, -0.3618784415889225, -8.475740248564009, -11.544179337809403, -3.154101790798095, 1.9901319874285983, 5.819995991404431, 10.097179981261917, 11.05629071991867, 10.789960163973866, -1.2327175390232838, 7.166817920331421, 9.34480150357141, 15.520967174199523, 0.321795922478354, -2.129158485133943, -12.04432298862498, -18.240314742566152, -16.622788612199383, -14.987247400286321, -3.019014925992324, -8.313373053334495, -1.5609922677536936, 11.915608029813088, 3.461012680435048, -12.77626883659801, -13.896358382060287, -7.562420658355253, 3.0807983789440043, -4.425228045586741, -0.03949934341644798, 7.326830198773616, -0.8297517283810344, -8.669153309256709, -14.395635782333658, -12.882731980253757, -6.9843810044359085, 3.8396963726504927, 6.33934211493643, 5.441437045753663, -5.16965409406545, -13.797312877438522, -10.74767724532547, -7.0032234286963275, 3.263369980710955, -2.3152504820002693], "delta": 9.693328963584085e-08}, {"inputs": 80, "activation": -7.642385012657401, "output": 0.0004794530510769184, "weights": [-3.411323472845046, 4.041301495250222, -9.544163981856006, 3.623446561299783, -15.789168525214762, -6.073334505297055, -5.96713651570584, 5.23299869210053, 5.216024444819418, 8.095044473980561, 2.9235794336084897, 10.295091678210124, 4.602880370339598, -0.1495540309908829, 0.3477319834534502, 4.759855386100458, 4.729646364679452, 6.8675575489339975, 4.272763827619769, 12.829982775658914, 10.656849178148562, 8.126367996244836, 0.02158343159965611, 0.7021115503629447, 12.503335581059586, 13.374244032772783, 1.5216961871049635, 9.557318402611466, 10.255041380288258, -6.221090685647085, 4.19090879466826, -1.61805541410799, -0.9379356020166371, -8.307011522899892, -9.533714144364613, -3.454116217922875, 5.924127244597532, 3.981669321150886, 11.016022909480329, 4.913099085639828, 0.25650635628702667, -1.6091815809022365, -6.835565530098665, -1.8349814625407201, 2.516487382272587, 8.230949413158337, 8.16704330431303, 2.410433280572939, 1.7444725932783136, 4.253055283033036, -0.4842128571881827, 6.236942071725186, 7.724744128307308, 5.8442923594137834, 6.748770381067929, 4.733084883225688, 1.3223998815164149, 1.785835599249462, -2.7024037601278805, -0.887215985779532, -6.4136477921128625, -3.4822546218018586, -5.093708578471815, -7.664781953150391, -3.295914668895852, -4.743696658263215, -12.079082351690632, -5.583514975189825, -2.839219244577876, -0.26072179546295865, 2.9088628787405644, 7.865890801711378, 6.401042465587297, 6.911893591000724, 7.530394246938369, 9.900754160384517, 10.36928150282219, 10.550870716664217, 11.336388071926768, 15.842425494645445, -8.947153114956926], "delta": 1.2368768443437501e-09}, {"inputs": 80, "activation": -0.5780237909639429, "output": 0.35938744599353334, "weights": [6.72351158263026, 5.660803134586616, 0.25160003979273865, 0.7979943438478809, 6.001712560603043, 4.9865623040336695, 5.458492977947016, 6.811097475960664, 6.303801539538847, 7.929358578574767, 10.1216930665289, 6.583289577128188, 4.739088156890749, 3.2939316631380064, 7.689127582541955, 8.597547250928132, 9.658806018301098, 7.102869845570152, 6.4385439128617925, 3.175972290455121, 3.3338976585745943, 0.03576589288037211, -1.9351848292000444, -2.557820274895425, -2.5040683696026123, 1.2356422478207032, 1.5206676669057466, -1.7759066326762494, -2.730597476960414, -2.595782600423579, 0.5164171794592936, 3.4228529344954004, 6.873552591193004, 5.899397061159077, -1.263930008202936, -5.729972316841883, -12.33054068804513, -6.898718170864789, -2.384525583083251, 1.8415501032249004, 3.5020939364263186, 0.40667076481226055, -2.819452758613241, -5.633569915339257, -4.374002298630344, -1.631494951040849, 1.8474181634968612, 2.0650289519846616, -0.7502173657825036, -2.6659186932030354, -2.086572750828054, 3.0125671807129226, 5.038250324082896, 3.763562088295708, 0.5130206876840596, -10.65679423632835, -16.58994345668366, -11.827018131078425, -3.744016252382797, 2.5057860705989907, 8.073159517336235, 11.820512767489992, 8.858010048004882, 4.191311063524183, -4.758212931958975, 6.224282554952078, 0.2470517394631572, 0.28874308042172964, 0.11393068679877898, -1.7533031889758386, 11.933297898295919, 8.103629243115348, 2.449990337282291, 1.3663778318539546, 2.4398854316710628, 0.7003691835219075, 0.27608995519110713, -0.7134595223837317, 10.61037796827352, -0.2973334483674914, -2.679831829145356], "delta": 3.926349411625275e-06}], [{"inputs": 4, "activation": 12.795461759357975, "output": 0.9999972266775959, "weights": [1.6119458548878645, -22.674450068939926, -28.143104822116385, 1.4967727558791724, 12.466006385027212], "delta": 4.146585297514546e-11}, {"inputs": 4, "activation": -20.618255196724782, "output": 1.1107224273919354e-09, "weights": [53.35953728111062, -49.68569243850003, 36.59581654066066, -29.344403986027206, -9.71327154775358], "delta": -1.179817472656772e-13}, {"inputs": 4, "activation": 4.747749940049087, "output": 0.9914033591014009, "weights": [-1.7797976444183783, 15.005538362241916, 3.4357569863047726, 22.691629205764222, -3.537287383469622], "delta": 7.515592980712677e-07}], [{"inputs": 3, "activation": 5.532453699843776, "output": 0.9960593207185003, "weights": [0.9666423099711643, -6.867234821399964, 5.701078061633469, -1.0862423278938698], "delta": 1.546775857550347e-05}]], "configuration": [80, 4, 3, 1], "name": "front_end_bound"}