{"layers": [[{"inputs": 80, "activation": 16.477788640902155, "output": 0.9999999302109497, "weights": [0.6547583708108865, 3.3004242318665895, -1.694957739284167, -0.13703313648480345, -5.205913459860906, -0.7952191574147923, -9.670166053217867, -10.70953237503602, -9.96823453171494, -4.5050860722203945, 2.121820416133914, 6.4778613598584425, 6.057713061031741, 6.723269305573229, -1.3114100398357236, 5.385409194381376, 8.52716827009543, 6.5081995979522285, 3.5273351817738807, 7.7558213826728055, 5.891335792591907, 1.0449830153108641, 4.6705919633494375, 7.017272166043686, 3.1019179141662847, 1.3154780847011107, -3.8581954641357834, 0.49884037648688967, 14.649401545343558, 6.530472588614555, 4.124684436373826, 3.0915163434449826, -0.806580800442281, -2.975097584220776, -3.3574478769884015, -1.7847382133059735, 3.076475381741214, 0.4667088270629179, -1.4551834916346533, -1.837198219735133, -2.236260770726921, 1.3379536473478304, 3.175319691318617, -6.192881914539765, -9.312307163082243, -7.8525525422534646, -0.16343264172336378, 4.366911381935298, 2.758728454164655, -0.8392159020561364, -6.680162064916118, -6.303848016573879, -8.849124604837584, -8.462539845827907, -0.3825538230914464, 2.486970655234549, -8.363714037576601, -6.484782089415029, -5.204668947786853, -9.780783669497664, -0.6514539030751796, -11.158353246663898, -5.145569461191276, 3.238988708170176, 7.07397939142958, 19.251469958737477, 15.680065739593807, 9.832707296619676, 5.502799964852137, 0.8283074339390254, 4.812618052325861, -4.339991431249496, -8.022484370198876, -5.085877320477811, 0.5338456649007809, -0.2621406800917195, -2.1716841419600446, -2.833071416596004, -2.000093350255947, 1.8068538723803707, 1.9407032370407442], "delta": -5.4774747892949165e-12}, {"inputs": 80, "activation": 7.68526372725182, "output": 0.9995406615111769, "weights": [2.249163196589389, 4.993095168187969, 0.6865205962863646, 2.386992362289466, 3.4198416902599273, 1.2035307001397135, -0.05960473388682437, -1.7709318555526516, -1.397455050486606, -1.6076062193876453, -0.7781633904665032, -0.4782245143438177, 0.07431191818431607, -0.4054912355115485, -0.2764189211698475, 0.2861066524894208, 0.014066626658357206, 0.3236410049142601, 0.9324538394673764, 0.9587920357641434, 0.8208056871198841, 0.8261212758569383, 0.5804578758219691, 1.103467278699567, 0.46603709369503477, 0.48371747045139074, 0.34299478444271614, 0.7715863569792307, 1.1688210382619055, 1.526132904163487, 1.3974818381648053, 1.5390365246752788, 1.1775020185983656, 1.6219815871306134, 1.6814089444368434, 1.4247046576972304, 1.0019461214103742, 1.2864567201097734, 1.0952335402477702, 1.9074459974782907, 1.288295139178242, 1.3323360250406637, 1.956373775579169, 2.1903970337471192, 1.9862925648719885, 0.9645945565535823, 1.6467290698061154, 1.436278101621029, 1.532106650035453, 1.980064524169222, 1.9563794404780743, 1.3518335993303117, 1.4270338796798239, 1.3702272246448222, 0.5032331309420154, 1.3247438140585144, 1.267194465506047, 0.63329784604471, 1.252901447955733, 0.9555809962277442, 0.8667060378599424, 0.5873791538591165, 0.9306711093901127, 1.8180831288962174, 2.422938550831875, 5.950797271282299, 2.90299824148641, 2.270799381233881, 2.2354404007727275, 0.907159679721484, 3.1141471386472057, 1.0834134671221478, -1.8512223446613583, -0.5700720328240382, 1.7445049320898647, 1.4361715261411676, 2.295496092036033, 1.149482095767141, 4.58160403236708, 3.8283400268166585, -4.94233857070553], "delta": -3.507058434800452e-08}, {"inputs": 80, "activation": -8.750474778867968, "output": 0.00015836102669733015, "weights": [-5.616970816772313, -2.872792633792992, 2.3311115751218123, 5.257368472465595, 2.483510293018216, 10.20099783490947, 20.345814384373785, -24.519437676875746, 6.443137271387935, -3.9670808814489593, 20.155033509866307, 1.3385654044685573, -9.531360659937851, 9.79455274716111, -42.04119426494527, -1.084776668453146, -2.7453203714954126, 11.602903502503413, 3.415366098848332, 22.308853871211806, 2.0794630516492973, -16.358341258572764, -15.635503428783434, -24.39311253720293, 4.833154366780483, -0.010455697456442068, -26.441079963405137, -11.529726565668295, 17.209951736623875, -10.36138049709965, -15.526271443225669, -23.584483812766504, -13.434252790686081, -7.884250249337101, 8.61226875769271, 20.685280874828205, 30.30521520427416, 17.698950691854098, -7.987935825383584, -14.45865691227705, -17.47095153392408, 22.70971020235512, -7.692319297919774, -2.755377080570757, 2.060831575074916, 4.9904465380605885, 3.5777125233303972, 9.774429412056422, 11.30318226793407, 13.691540211254603, 16.60818088741534, 7.858560224556774, 1.0648943843724805, -16.102225270104363, 10.772675704255983, 14.466032797217569, -13.519496770976236, -7.432949150248456, -16.74765802966339, 14.245676530446602, 25.97781967484177, 14.416694213461161, 14.502429148197187, -10.00442795060388, -12.29884076062318, -18.65178890358626, 2.788732634849467, 4.728923488124746, -14.63546005571555, 3.345074341097737, -7.445509310419289, 13.525894830639581, 1.5861375398188107, -14.530073812991684, -13.516688638524348, 7.239983047671968, 4.198480718747276, 9.414227955151953, 15.48104597676567, 7.521650982761901, -4.793126626871142], "delta": -7.526804641789154e-09}, {"inputs": 80, "activation": 2.1680804399615483, "output": 0.8973462793084025, "weights": [2.2172921272126414, 6.0317194845631965, -7.467827393671679, -3.309662953351462, 0.5661683859445137, 1.4090308120483344, 2.719342309363912, 3.396342442301932, 1.1737761830214792, -0.9538728621026016, -2.106673752906314, -1.462622443838894, 1.0190785435072343, 2.75017010414119, 4.631021383302683, 1.7644557162246188, -0.6267416545563057, -2.9191023569737027, -2.998190226981536, -1.9539677242298816, -1.3280256350835165, 0.24777300362804178, 2.9074974839403476, 5.819493702092749, 6.933229768402602, 5.81431460006732, 2.8778681949367355, -0.3747027532509341, -1.5211126696506807, -1.8981901981767357, -2.0802160952115623, -2.432336505016045, -0.8513988191646905, 1.0558798187659248, 2.506158173702106, 3.377914905802937, 2.8701737705482335, 1.9432391024346833, 2.1098894950534866, 1.052966273277815, 0.8883804621493429, 0.41028235996749535, 0.2031531070784156, -0.5438352139792881, -3.9042321072098773, -5.840564193949642, -5.527970926686416, -3.7952532294524794, -2.3368584275864412, -0.3247505318517937, 0.9623753205194938, 4.165016262043248, 4.083495480051793, 1.393241969049018, -1.3363474645663653, -4.057705694035284, 0.24547580463461963, 2.860748323527047, 4.024126453078339, 3.7363165482409757, 0.7201454524310057, 1.3997496575937858, -0.6490890026178566, -1.1222710665565352, -3.582467401143599, 5.667555245642715, -1.708314824278783, -1.2359971147173034, -0.2533409403008053, -0.24919180563994964, 7.776092519977667, 2.5165855135006154, -0.7165654338712811, -1.6119580057018208, 3.8183387081273708, -1.1254174583507204, -1.7546041378894894, -4.223695084877962, 8.37875741789744, 7.5670707713015934, -4.186529520477322], "delta": 6.063452035945809e-06}], [{"inputs": 4, "activation": 22.72786409001297, "output": 0.9999999998652855, "weights": [6.30549738171997, 10.859492461621452, 4.4898351314889355, 14.62268149364929, -7.554456977155384], "delta": 8.759366294765247e-13}, {"inputs": 4, "activation": 8.124075056487353, "output": 0.9997037690973658, "weights": [-18.030043911122082, -2.793545617173033, -24.678571850383168, 25.90449050077633, 5.704991052410356], "delta": 1.002258154307837e-06}, {"inputs": 4, "activation": -7.075390491890958, "output": 0.000844947724696567, "weights": [-12.05035827010349, -14.677229674273486, -4.548175613704453, 7.9506384951299705, 12.511703945336302], "delta": 5.01357783145768e-06}], [{"inputs": 3, "activation": 3.801757347753704, "output": 0.9781563090804491, "weights": [13.931625731603805, 7.25144549529055, 12.724031310852231, -17.38956694222123], "delta": 0.00046672418504581695}]], "configuration": [80, 4, 3, 1], "name": "ips"}