{"layers": [[{"inputs": 80, "activation": 2.5787017733472144, "output": 0.9294782197830603, "weights": [7.6378625213814395, 8.074862316114595, 7.391066911654884, 4.230656712565564, 9.446945528785168, 8.338771125754077, -19.901818472343457, 1.5360113935772053, 1.399581555582009, 1.0058431696330905, 1.9921242588144095, 1.965806716537981, 2.6736505671928312, 1.9007252066010385, 1.4493866347576525, 0.9235692283376892, 1.1802787145304257, 1.2951082828129519, 0.15032964594299048, 0.7886612580052752, 0.9869297166992071, 1.7996037673072993, 1.546352842504156, 2.1713938840498805, 1.9452121510272695, 1.6805134125231302, 1.801844319985556, 2.26275066385164, 1.706449279215981, 0.479947242083279, 1.929283190415942, 0.5958693812781516, 0.27107815313892014, 0.4266249115509443, 0.8566210454966435, 0.10563619234214193, 0.4429955167739576, 0.12776771041320623, 0.7809423096352317, 0.08642993902613749, 0.6851085121967478, -0.037733374175150394, 0.21239349574445496, 0.10191170834126312, 0.6603699128222205, 0.4063183236727688, 1.4005728801983777, 1.6233740297240586, 2.259112537823708, 1.3267731478719964, 4.487940484690525, 7.5023397052731555, 7.566837378821435, 7.167878419432222, 5.948626925452743, 3.8766491670070025, 1.8032482873910778, 1.37193771081746, 0.592404008877538, -1.5033226303218867, -2.513048069223043, -3.0846122323219056, -0.5088246790018187, -1.7702314508036265, -3.5036473516963573, -1.7746320667535669, 0.983173536174658, 3.2932861149716266, 3.705428894917017, 2.8204246074366335, 1.1853278684323103, -0.4462666524679981, -2.2223192393467963, -1.3920750027977618, 0.8658767251781889, 0.7838563745080053, 0.3420661679720931, -0.18170509521129796, 1.8373567732472962, 2.1864822012857283, -1.2608002026559995], "delta": 7.403567449083056e-05}, {"inputs": 80, "activation": -1.8095868712559429, "output": 0.14068806349209573, "weights": [7.297175400521368, 5.251494145829691, 2.332161006101351, 5.983017620276415, -3.2780871718151063, -4.291242885772107, 9.839755789880455, -0.2515484086142569, 1.9905698613551102, 1.4646652507380389, 2.0789763198545965, 0.3965946763574797, 0.03537702871879556, -0.22971060789504782, -0.5668984825750689, 0.3637618488478611, -0.41105643348010623, -0.15959865733200157, 0.5807400569770185, 0.18467449819711979, 1.3860088840465346, 1.871229765934821, -0.308939420779592, -0.03723235241935602, -0.3154993414960147, 0.4281989037738235, 1.1428578227333657, 0.9102754155034883, -0.1764732959599754, -0.6057929191259778, -1.0651947290114026, -1.2698180163087558, -1.7632906165669904, -2.5313247746743937, -0.8969028089776693, -1.029604876521243, -1.92208260654453, -1.7225871524163023, -1.3938019557039432, 1.3892422462922904, 2.6126635446481066, 4.789283837584929, 5.028987020146884, 5.032176739499933, 4.706780547729428, 3.691153830072828, 4.2764861296365675, 3.1393382793574887, 3.577149952724849, 3.5723923903632344, 3.6574807057481817, 3.098977281604563, 3.758874237399743, 3.366755623354014, 3.048473342509589, 3.6623440525297464, 2.8282120768792716, 2.407192751505133, 1.8175652166683476, 2.8009512064347692, 4.150300694237005, 2.3066585318044077, 3.0085148859986717, 4.881811022376009, 5.704128731032071, 5.24866645007578, 2.2376483398189726, 0.20679920495121437, -2.5873975962710825, -2.6318984072612492, -3.718666902022472, -3.9861285634620587, -3.1188812423542993, -0.18128837814117252, 0.021081612689903453, 2.528541724821075, 2.6054751294491902, 3.2717270905902183, 3.0338090940052216, 2.270875170574074, -2.9764439192781964], "delta": 0.0002343354198629933}, {"inputs": 80, "activation": -1.3314475677556048, "output": 0.20892002134165022, "weights": [9.398128208006113, -2.202889117865845, -6.829003006886704, 3.4326442390498513, -4.202384799977802, -7.667416516122778, -23.382260951262616, 9.286028761170764, 3.2627071883400047, 10.0662571008653, 7.001359140989242, -4.5183059690978, -1.6289647260795164, 0.3603145335065806, 8.399449341179192, 6.537834202803338, 2.971536011356605, 0.2117092980067549, 1.338713376175254, 1.0778991070558779, -14.094092402110821, -10.218119480364992, 4.3555574673272295, 0.6947591956930822, 3.250518820638141, 8.218062038225996, 3.53889915237439, 5.241068280157219, 1.42490055199419, 0.36190514506332927, -1.238257846646791, 5.877673969492074, -0.3073028856095752, -4.844035744322897, -9.755262425195593, -3.5032114617364805, 1.2103929120817571, 9.797806823656341, 14.607594786450502, 6.1795608505552675, -2.31189119594115, -5.056778904142085, -3.569988136235323, 0.27721439891399685, -0.9114307894698568, 0.2385274336830151, -3.351837038986624, -4.54407970708438, -2.0237279288219883, 0.5598914638350031, 3.9403041437141235, 9.836791763155073, 7.680150663457172, -3.3271567330841947, 1.447748613520106, 4.4559574829237665, -0.958503916365467, -9.101940463537309, -2.156476154579108, -3.7758248034794644, 2.995562884015085, 0.648722753459046, 0.09899612192077951, 1.2890175546487253, -4.552882496986767, -8.38576782583631, 0.6814028287451923, -2.0351704075050647, -2.0972087025917414, -8.372874860656104, 4.617345173656041, 8.441251554784396, 16.444431939152246, 2.1678374430280067, -6.987705429186542, -11.089100640706135, -10.70187778535585, -6.934712413666223, -2.0925986533006906, -1.0094203404916613, 6.859943768518021], "delta": -0.0007919839161773006}, {"inputs": 80, "activation": -9.676172734387364, "output": 6.275730994017667e-05, "weights": [4.428452238239053, 11.605403961995505, 6.037377063494845, -17.11497337505553, 4.423706330843255, -2.2012034170237804, -2.414997764298294, -3.4011699256651604, -13.430036605128311, 15.667994269169803, 17.750013049515918, 13.374861917920779, -2.5987936537779865, -1.6281395613405434, -3.2724514479440976, -10.17109936588775, -6.824828778588566, 0.06732017222314808, 6.620047739297917, -10.670398588937337, 3.80154658505996, 5.185537856225317, 5.578089525871729, -1.4701550002082118, 6.2156522485073245, -8.36633451597926, -13.713053106169484, 2.955134886136255, -4.230276985805767, 12.484854525320161, 5.880960271996395, 0.7440781290177364, -4.28157158648227, -12.445196614417952, 6.0206214959252105, 13.395817845479304, 13.3385428676915, 4.219041160964991, -0.4529879629766292, 8.321226146012274, 6.7594323094072095, -5.977804106268851, -12.42409773895237, -15.096219901240163, -6.97177255936646, 2.374546858622579, 1.6803443815098476, 13.435547097526308, 11.653523351288463, 2.5521327493184014, -9.240792109335098, -9.381199048462761, -6.671730693514205, 14.07487136289805, 12.740056097945372, -3.2529491694619677, -15.86686828988145, 4.101886661984832, -6.511862809138938, -10.423520350435412, -0.5861518661795515, -8.560588952957477, 5.916570220720144, 9.854110099100426, -3.895714898186271, -5.96926094013675, 0.4672356685724777, -4.763007223540788, -10.936430375694503, -6.029661970484527, -8.405759897652146, 2.1097433467430218, -0.7518008320339428, 0.41368119670071374, -3.3545698859465314, -2.4894925688686236, 9.816354338610797, 6.584514881711681, 7.821718610067249, 3.9712369018446254, -7.926509392164906], "delta": 4.071846693820609e-07}], [{"inputs": 4, "activation": 9.666712561282054, "output": 0.9999366462157302, "weights": [8.480579214016473, 11.893554147702432, -31.315520119079217, 42.06295952462927, 6.650791379849458], "delta": 0.00015402706511304543}, {"inputs": 4, "activation": 12.812225547401157, "output": 0.9999972727813419, "weights": [22.9961928212821, -13.84410174696776, -4.091712618850088, -1.2774338435073984, -5.75961779997175], "delta": -7.686314228381348e-06}, {"inputs": 4, "activation": -24.203483584135917, "output": 3.080070353492986e-11, "weights": [-26.066018266158995, -8.97471669050481, 12.508557038060006, 26.898925248931093, -1.328027925281525], "delta": -1.0680576318440695e-10}], [{"inputs": 3, "activation": -0.22596216839169683, "output": 0.44374859903350145, "weights": [17.74245603288435, -20.492421409234332, -25.255433100491356, 2.628043898019509], "delta": 0.13730274837208484}]], "configuration": [80, 4, 3, 1], "name": "L3_Bound"}