{"layers": [[{"inputs": 80, "activation": -47.4349558367297, "output": 2.5076125273177805e-21, "weights": [1.1183295856370696, 6.159198936304267, 4.599059240768404, 7.702020530241295, 11.897160539769779, 11.394051660345985, 14.74265513245433, 9.602191341868142, 8.35263977607585, 6.421778338114376, 5.760764445382415, 8.914558141849177, 4.465110010018022, 3.351331001138689, -5.8235728635650394, -6.2553461897252305, -4.352474223159741, -3.2060791956025225, -4.349959861165531, 2.685238021651857, 0.07531739236951242, 0.7531171253542688, 0.7796383260083068, 0.5789332539895194, 0.914554199461264, 1.7758875245431303, 1.9405597243093233, 3.778974184686321, 4.621800672013953, 1.654747304630298, 2.9767067576016175, 2.9656129818271615, 3.5957179879025545, 3.0309812479425293, 3.643120912866649, 4.045639285926724, 5.965012357011026, 6.909618413997541, 5.263968257159475, 3.172948222226933, 1.5508817744833863, -0.7108857465918904, -1.4446996919971615, -2.318832254034702, -1.274717688972465, -1.2752153705555627, -0.44352955255604276, -1.5669425499659106, -3.557223169533013, -5.532225861274537, -4.994695872123837, -3.7965421867758935, -3.2164670895248637, -1.726775349917599, -0.8314890832256492, 0.29415981669927305, -3.3284887242578107, -7.935876693992701, -12.012990666843754, -11.122803400077832, -8.909692050819373, 1.9991860375488009, 4.662427172848918, 1.6936935877404247, -1.3390893255033458, -0.9786514765277704, -4.459571416231457, -6.179155487295986, 2.1788583350632913, 2.6458016375684443, 4.865117954071204, 3.186299867550422, -1.3296854445385748, -3.970336577891152, -5.610035049783958, -8.548005790087988, -8.665541909379172, -4.873473456237642, -7.777769774223605, -2.802151922687298, -8.494025865361401], "delta": 2.2235604456294587e-25}, {"inputs": 80, "activation": -14.536995661299636, "output": 4.860296788443819e-07, "weights": [6.829863457693401, 0.9815034030423266, -4.598430266122786, -12.112073908332873, -13.73549301734158, -12.936451182034448, -12.26290907258448, -4.152064902511173, 0.7614469010033896, 8.990746816968993, 12.086802649809256, -1.9307120348505096, -3.129110315566265, -6.697406209357533, -4.4720781430098935, -2.8348969886532625, -3.115894493031701, 2.269232459775965, 6.787459117056053, 2.228533888653723, 8.07075673092351, 5.160651534246363, 0.5787807443803185, 4.019174850285361, 3.932849392733712, 6.6554385787032455, 8.764265447379278, 9.358972826011975, 4.522764626991075, 9.805428683117679, -9.701702944311394, -16.799571267301, -13.370024069102882, -3.335719112350561, -4.59304710790675, -3.3852444778937696, -2.431837218578302, -0.5195589624639626, -3.806323150117937, -0.2494888255063116, 5.418740966958749, 9.564626429622642, 7.997711715789873, 4.645883325592084, 1.2326937422764968, -3.334934846001159, -1.351820290566074, 0.08929189645384639, 2.5152682680949643, 6.08236616705042, 3.29961993964011, 0.7544589022532467, 7.228951768716735, 9.551278334437628, 3.1243964262125017, -3.4505720300896052, -10.46205512463216, -10.625274019054226, -3.81785867085624, 5.11190686484952, 23.950818581520533, 8.426862862348573, 1.0872139155831135, 1.0864807110644836, -8.505496569288901, -4.843800287546197, -2.401018670244825, 2.5864191023989345, 3.4258974599959022, 3.488128287650073, 11.948983446437142, -4.026783113769777, -8.74486174476371, -4.4120462020872555, -1.255194211077446, 7.414702359063757, 8.447092797650546, 4.155089828506394, 10.062713983837343, 0.49201893419436565, -38.74765139700704], "delta": -8.861375398584408e-11}, {"inputs": 80, "activation": -21.06403159131039, "output": 7.112254896565565e-10, "weights": [-0.35776133759459156, -0.2943268198241699, 0.05478496010832486, 0.6923564734174569, 0.7607088756896121, 0.8377955598885144, 0.5607189710808845, 0.5095024605143752, -0.5416109179460743, -0.1258394391581242, -0.8377497149475407, -0.4725750813472922, -0.8235350225825568, -0.20480633627309136, -0.8595832104387069, -0.37345794152858464, -0.5708285835956615, 0.1947900460669855, -0.7044726032724336, 0.3010173465699866, 0.46684501655195104, -0.06600491229556983, -0.24320841408388974, 0.18361841976346657, -0.5959116898716644, 0.1527553416919984, -0.37611437015149746, -0.06841254381346376, 0.27562452822662614, -0.6731646789939743, -0.803637961859355, -0.1992151873950177, -0.21047595190723314, -0.10882340578079532, -0.7105959997489754, -0.15682006503217813, 0.2524803980314318, 0.9012700841097847, 0.9460642318762144, 0.4063064882254121, -0.20617742959494031, 0.1433411960215563, -0.030021924944800302, 0.03611017225207339, -0.5596660708016633, 0.11171006985419167, -0.17263083972048177, 0.1931649618682721, 0.5384518192215373, 0.057282104192912464, 0.07945545936778493, 0.7347716277957406, 0.2905887830175577, 0.4010080340102711, 0.13140138715890884, 0.04760722557161538, -0.2737422658042579, 0.18895632634400578, -0.30590609085387377, 0.048326631770698306, 0.36986102529808806, -0.5845150983914824, -0.9019504150145248, -1.3768442312557807, -0.8035498195978538, -1.3428859541731875, -1.0776132511140413, -0.837692887319769, -0.6029339232393837, -1.0466672546965343, -0.7053856754537733, -0.4935834515621411, -0.2961433196471461, -0.9471341123397837, -0.8315125925857898, -0.8175762335915742, -1.5733723118100083, -1.212992069465282, -0.8861274521370401, -0.5231892909641235, -6.880453973579103], "delta": -3.293767085548591e-14}, {"inputs": 80, "activation": 31.46223534194982, "output": 0.9999999999999782, "weights": [2.8455890035442555, 4.511626044327587, -3.2489752224880335, -1.6254814650429663, 0.29690113106490185, -0.1633099700405913, 0.1712377985848051, 0.20389265975603788, 0.5917849043747433, 0.3024801538896591, 0.36010751960998244, 0.38519117961781046, 0.5505494442327743, -0.22907524429863566, 0.4555379879828382, -0.18091499783656176, 0.24263018063474584, 0.10131178345835778, 0.3047608266187104, 0.5667749755550656, 0.4016909916220456, 0.5729762180647415, 0.473850835498022, 0.4707093076709691, 0.172804522449973, 0.7608979096742009, 0.7852764075773213, 0.13370414002535178, 0.20647227437004287, 0.18967435682331707, 0.18810724931555645, 0.06749021258714041, 0.3575559862881629, 0.6865302197491552, 0.4166369117617624, 0.5685226190523102, 0.4651684488329152, -0.15239739541921388, 0.3251186829350587, -0.3909583249273198, 0.16876151604189307, -0.43916911198009967, 0.09030094462087737, 0.3950795990505657, -0.07528584317590616, -0.14193142387511049, -0.3670418381339256, 0.06109261774395019, 0.3380596532094094, 1.0665421618642426, 0.9304946432999393, 1.9746994894930026, 1.2369598631236745, 0.6053362703077264, 0.8849418204404537, -0.153310248031623, -0.21476921601869298, 0.5453463126981312, 0.6838563798167209, 1.3084573390203167, 1.1074646611588286, 1.4136412851540696, 1.4005654795621956, 1.7508758229796504, 1.1401611307288193, 7.892402316523953, 1.448397263611957, 0.8881400593502744, 0.32009257037596595, 0.16585520097972792, 5.057005997432042, 2.915458659659581, -0.05657341266534441, -0.594917812195791, 1.520189280008756, 0.7966031667433049, 1.0860271821514893, 0.5102321148904251, 7.2117505867405765, 5.170502839623008, -2.8203842038568525], "delta": 1.1768784511167676e-18}], [{"inputs": 4, "activation": 4.672745729166438, "output": 0.9907399783411112, "weights": [7.609146541432174, 9.877681150933192, -0.6718708768489877, 9.766300133887409, -5.093558948769602], "delta": 5.126390032095448e-07}, {"inputs": 4, "activation": -0.21027791102346516, "output": 0.44762337406636477, "weights": [9.674900396400455, -19.142592258609024, -4.423981906688639, 4.633499992597192, -4.843763672479621], "delta": 9.848253037378305e-06}, {"inputs": 4, "activation": 3.5318857835067075, "output": 0.9715815267511, "weights": [-9.792641416949216, 1.0581941759513285, -2.234708856714557, 3.2102197215163284, 0.32166608585279916], "delta": 1.0731734877532482e-06}], [{"inputs": 3, "activation": 5.986717626566598, "output": 0.9974943982971307, "weights": [8.922889075148818, 6.360286230610739, 6.206625109204849, -11.730795490790063], "delta": 6.262309625973831e-06}]], "configuration": [80, 4, 3, 1], "name": "load_core"}