{"layers": [[{"inputs": 80, "activation": -2.7651937786107155, "output": 0.059234276235072034, "weights": [5.721776827593688, 0.29203558825874004, 3.975211528635211, -10.159237114840716, -0.3591591281547637, 7.987621318444376, -4.968429082170836, 8.25435887036799, 4.445499725275214, 2.9810782091091093, -1.2023986564532665, 0.41837857569280135, 3.746067097552867, 8.410881091951538, 3.0696925373530606, 4.194680885712714, 4.2754021652787015, 3.2104637949132564, 2.109874549239174, 1.5001463120085565, 2.175954138657326, 1.231802861456407, -2.8083129178369277, -4.233348930017668, -2.111751229828738, -0.6891285910663527, -1.1163663632094758, 1.2740667289841576, 5.379983938203008, 7.2547461723264055, 5.662813271817177, 6.930769986580333, 6.493736465574834, 1.6364508542403449, 3.6449213981472766, 2.0690424636614493, 1.8010287871544375, 0.03393448022946216, -0.8710654494088569, 3.9373618481733543, 5.883009772629631, 7.219253183442473, 6.64924155904725, 2.845948282950305, 2.6549926419385668, 0.38377827489039107, 4.180321850592092, 5.362503801616457, 5.368160094423455, 4.177279336159036, 4.224340997340144, 1.5252396447581362, -2.8997194574146348, -5.091148790806975, -3.6276814662597956, -3.637516567853817, -1.1937005418023112, 0.27975972577226327, 0.63122934586312, -0.31048438401379075, 1.2818056350377323, -7.249337592333385, -8.542383550938931, -6.678783960758788, -4.498494914011202, -2.7479817951826053, -1.0856543594981318, 1.3365977530021957, 0.03815872883972396, 0.5101672273012361, 0.5775722787128516, 0.2849037209610315, -0.8749951867817063, -1.4093285282924206, -0.171133334719426, 1.102526274942097, -1.9694682537566355, -4.772491998179461, -1.8545109572019096, -2.8707251967765264, 0.8411560859794398], "delta": 3.46081608931015e-19}, {"inputs": 80, "activation": -1.8637264592973233, "output": 0.1342692937499538, "weights": [-6.537188497291108, -3.761730115193884, -1.6199842417891648, 11.264039638221218, -7.466272175077685, -3.9586708183225947, 3.9543754161116946, 8.611607825008328, 8.897117914778951, -3.8758889877640588, -8.346739134920234, -7.463426919538621, -2.1317807461686176, 0.4986178887980903, 9.786960941452904, 0.1743803174725755, -2.024538905100556, -7.168063681721958, 0.30822335417569835, 3.379368131312239, 7.593517854666072, 4.5328546432552175, -1.6528304482685272, -6.152242728247765, -1.3174359846028498, -1.2059416937889225, -5.153589108914946, -7.3287724564656935, -6.701416834081679, -6.208316332596973, -0.48728585015451387, 8.238207445944568, 11.386502449800272, 7.957541117715792, 7.5459726148166055, 4.472658539331771, -1.631584666262058, -9.942435590611685, -14.43974980997183, -6.846971435266397, -5.9010356466673635, -4.346625859268498, -0.9598283451234473, 6.365455762911468, 1.855199558923319, 4.3091163745230014, 1.7483484265368012, -0.7412222071296845, 2.018670802852644, -1.0855813226646605, -0.9357406040780973, -0.3392196451265128, 1.315172323099733, 0.2886526450973126, -1.496506910898141, 2.3929336989849337, 2.1165974033683908, 1.570906828608932, 3.2039727550582024, 2.5359273364360724, -4.1920478738252, 1.1827377396839036, 1.56369479414583, 1.689890273391783, -0.3360788049404707, -2.2840639288860083, -1.7975438264785455, -0.039586509589249974, -0.24761562345414934, 3.675158463011913, -3.3534207187582568, -1.678358660280865, -3.133797903440222, -0.0575368840164527, 0.613185593849652, 4.499898360135903, 2.230418887849795, -1.1011477260095464, -0.8833905466270914, 1.5554025430283032, -2.593550643897853], "delta": 8.403570496233418e-19}, {"inputs": 80, "activation": -1.2942619522285284, "output": 0.21513230482962784, "weights": [3.426508357903722, -10.301868132661552, -11.466916137824708, 10.07844335953364, -0.36502438188110287, 0.6093112940362982, -19.05930257437544, 6.672971406965386, 0.6885191425381187, 4.678081150961247, -15.149118280003286, -4.049441946789896, -2.36455705295868, 12.802474207132056, -5.692070862364085, -1.2903964530057943, -0.9788257174950421, 3.716287034513931, -4.398574518081131, 5.484485218287671, 4.559201127311275, 13.45367251190931, 1.5851845642454578, 5.430134812195216, 6.897321219782344, 10.849588848051297, 0.33106454567047167, 4.397096548965746, 6.020047488788145, 1.7763387495066139, 3.8205236597696297, -1.2546016990273383, -0.6292747055441059, -4.615304283263953, 0.9953019187128574, 4.264881836988795, 3.6943702803787764, 0.7088194318131651, -3.185430084775823, -1.0973006307068496, 0.8645696553456196, 8.878183452642729, 3.7716435305364757, -3.446018363764874, 6.48403360572931, 2.875194721890195, 2.6450827528150223, 6.848624114612084, 13.289948828262387, 2.5560427626316136, 11.665293198915213, 1.40659478381527, -10.76465529977921, -7.959690871503467, -8.5707674935754, -6.246526820852637, -1.522643622815201, 1.1655195518679304, -0.18872025255808095, 0.49325321450167153, 0.8996302129828099, -11.555880997790116, -5.22423669009481, -10.490972887188539, -1.3960097491818413, -5.098404135841206, -4.050070516397482, 2.428464053223075, 3.1981925012264973, 2.2883446276316404, -1.9807399432184423, -3.0256674768700553, -9.616754757875729, -0.9736433280477006, -0.32623562557192193, 11.370263637129469, 0.2750405851821525, -14.780731121254933, 2.8534455978903117, -1.768965550022898, 2.5364723488739442], "delta": 1.357866335454229e-19}, {"inputs": 80, "activation": -19.933644891207148, "output": 2.202561372875545e-09, "weights": [-2.7446013817014667, 1.4909226754671372, 3.9603001118908834, -3.223443424947297, 0.2516758921960066, 0.2797504684356169, 2.0552337129402822, -3.222398177155766, 5.238065506474023, 2.577627159763996, 6.59185333222579, 1.8503737939381304, -0.06810190156745774, -8.749242066010833, -0.29623817230676086, -5.128773309026035, -6.791048005793605, -3.237641424771063, -2.034019998244218, -3.049983312232075, 4.666298695939637, 8.969812701259922, 5.235996743770004, 4.5832323526685705, 7.240425247531904, 1.1392802689696007, 3.1677837394757433, 6.078999404448139, 1.562711716770539, -2.362581601416072, 3.0080124845887957, 2.144457991844712, 1.9283246910170035, 3.615772341604523, 11.94168462605709, 15.153721270350843, 13.243338562789063, 10.564551989340064, 13.145410121520426, 3.2995976789205694, 0.2316569306324245, 3.95160764836591, 1.7547986204603645, 7.592262523154635, 7.888742862305526, 9.51801511564976, 1.1114344969175416, -3.107736364666142, 1.6321860301785884, -2.2829661415071585, -4.107520797605769, -5.180612205338058, -10.243762207514793, -7.73255840144302, -13.80693553395334, -10.741711241786199, -6.75569477149433, -1.5365530932018006, 4.150921206775701, -0.9802063874969146, -2.970390345748586, -1.5801842156109496, -4.406481629284805, -4.585336394905919, -2.07902565927029, -1.86172917539334, -1.1166240372410596, -1.936015463076751, -5.2182818649437, -5.318349013952317, -7.838564263778153, -2.4052633422225647, -3.3456228471096856, -0.03351738908139364, -3.495800698150633, 4.45611946149784, 0.6829415083025211, -3.0215364166848313, -2.5503488850347398, -7.00806779309322, -11.504284357023202], "delta": -8.27252074802758e-27}], [{"inputs": 4, "activation": 14.973665171261988, "output": 0.9999996859348803, "weights": [-18.093204227387282, 8.056512809659312, -24.145650917413114, 21.211000406097586, 20.15817023016038], "delta": 2.0910935072292193e-22}, {"inputs": 4, "activation": -6.961146581759035, "output": 0.0009471111115073076, "weights": [-2.173645570810499, 20.00288970075976, -27.984372565329146, 0.5503124061632123, -3.497823564681575], "delta": -5.691221069996047e-19}, {"inputs": 4, "activation": 5.42983505031468, "output": 0.9956353151352217, "weights": [-5.4668612310801805, -20.442982373011457, 16.604624337878835, 3.7862515126567584, 4.926334311004835], "delta": -9.104266737745316e-19}], [{"inputs": 3, "activation": 19.01959571157429, "output": 0.9999999945059257, "weights": [22.057933777313654, -19.92631486514452, -6.9406913609547845, 3.890938726528946], "delta": 3.0184852320727476e-17}]], "configuration": [80, 4, 3, 1], "name": "Mem_Utilization"}