{"layers": [[{"inputs": 80, "activation": 6.140721475890557, "output": 0.9978512575827103, "weights": [0.18286550553550313, 0.7953863733201774, 0.7507069603874088, 0.21204199275648264, 0.7537994033430662, 0.7276248962724552, 0.40148741908228003, 0.6255849637647731, 0.6049667646984477, 0.04999108635823468, 0.8718341984893565, 0.5524008801438812, 0.9648152047786863, 0.7578433503258944, 0.144788181113373, 0.40772609782531927, 0.7514609189891165, 0.8781146507871097, 0.20181204787230883, 0.6118787233348627, 0.5358929326517957, 0.9796335097954527, 0.5293075629014009, 0.9907905809590504, 0.7218362641093393, 0.3322666323850783, 0.4106376483240506, 0.8924491298396081, 0.3176281012733546, 0.24315916944836463, 0.8630134239483506, 0.4086465720149335, 0.49510320160249427, 0.42690299823898764, 0.8588681787009718, 0.3647746369652056, 0.8824676222531913, 0.6134406029689436, 0.9551550065281745, 0.5059703798543569, 0.9794464898235747, 0.18992516335076776, 0.2893268579159605, 0.19338996703117334, 0.5844425778733693, 0.29062577975234083, 0.9719439417074014, 0.7447657084861679, 0.9370111307958731, 0.22160601112958797, 0.17800307238480992, 0.7810877346743029, 0.0556637222467062, 0.269192103542143, 0.9326882755716895, 0.670996099243866, 0.7132789591513766, 0.5850923634865496, 0.7172964345287408, 0.4755201331644477, 0.6364552901333502, 0.0558379115138687, 0.06753312191475852, 0.7558087874577081, 0.8703634329905707, 0.3073201610173498, 1.0130466207527342, 0.9048795449751567, 0.37445764503559015, 0.9163379929119034, 0.2577070575790512, 0.16991605157111275, 0.7809082308088638, 0.5068483787394277, 0.7176832052627125, 0.8816077638617329, 0.7250896426207094, 0.6146652473484366, -0.029374654616898324, 0.047267608376358614, 1.987885681457606], "delta": -2.1746908629960224e-07}, {"inputs": 80, "activation": 9.886081551603036, "output": 0.9999491246700251, "weights": [2.216719241417825, 5.371506557773965, -3.287248751911063, -1.2311694172117353, 0.8991932334168078, 0.33483086628981407, 0.6983039961796458, 0.6163020484693191, 0.7578047879930297, -0.005891035474360887, 0.3333719269410499, 0.14905048112486582, 0.6593959383560948, 0.025332334635569685, 0.02421817766452801, 0.44814896346395966, 0.07243616657123303, 0.28762422952219563, 0.7569011884749441, 0.7647568894685495, 0.5117377130327866, 0.49242108017802133, 0.16327263843908704, 0.7412372476333489, 0.10759390344001953, 0.19977483454876388, -0.08605450284433018, 0.1242466901999519, 0.3468496834548776, 0.49111627933483704, 0.301175145426499, 0.300752769173492, -0.11576831880754511, 0.418171420927479, 0.6695507555979335, 0.6420668737376235, 0.31711407915046463, 0.44242466731676483, 0.005928038587047542, 0.6388256640047973, -0.10372478158520343, -0.05442236299085493, 0.5767592344853323, 0.7333561382898727, 0.7642805687171357, -0.0937831555393651, 0.8201059009088767, 0.624141748890459, 0.6124560426493435, 0.8360651768570161, 0.7095706418206481, 0.23436655239176823, 0.9206489430838407, 1.7807183994711122, 1.7042820570962811, 3.262491992294258, 3.182231803267245, 2.116724506432777, 2.3907119773210215, 1.9640499532405535, 1.8008708695314608, 1.3576241561261189, 0.8214513871933629, 0.8042168121148592, 0.9308540628398965, 1.4811783641518228, 1.4581001940156941, 1.6728750332074, 1.6431757211955713, 0.8629233567299059, 2.968081145665891, 3.5461251159114866, 0.6785604673663224, 1.154388051029341, 2.954779468459634, 1.7769148734964093, 2.173170767765615, 1.3079643486243417, 5.635868536531369, 4.6925579515911515, -5.221451418381705], "delta": 8.093410462944985e-10}, {"inputs": 80, "activation": 1.0497886288669334, "output": 0.740734308057259, "weights": [5.040328268940383, -2.1711380646653597, -0.7489612400600257, 2.9056894907034048, -0.5535781650678021, -16.495237626697293, -12.460036016494717, -2.462003600330326, 11.101570936797824, 0.3183302327305644, -5.589347224680374, -6.43492984234697, -3.819451483612698, -8.918372447571086, 0.4237672954451458, 4.917350104999864, -0.5034836994828561, 6.280782836516478, 6.7461366632917965, 3.8681200556047464, 8.349451693824998, 1.2050236200031366, 1.8273594266507927, -6.739061316892712, -7.990539109566857, -9.186316574376955, -0.9934027577511504, -4.911739748948981, -2.7369564081861615, -7.171624260613288, -2.1395953190464847, -3.8588745581803656, -2.5451525751828914, -2.664793307123245, -1.9793442720060441, -2.0511931220342525, -4.7652507210090125, -5.615490437040752, -5.931212654797977, -6.585313702583222, -8.2616675396434, -4.800407988826621, -3.1527913601827757, 3.537883257628371, 7.747512132177977, 11.019106318154812, 10.049993771208324, 7.77240866945989, 2.868787566264991, 1.989140458289987, 5.255155910059141, 3.1863589386853493, 5.689603865340765, 7.991944414343949, 5.48667241280535, 3.542499315669423, -0.25381721965881393, 0.4946246287202025, -1.557114446248656, -4.437566069084303, -14.845751307809211, -2.572614823174397, 3.014189903826841, 6.521060836089684, 7.886302368384174, 7.594116863432364, 3.7596301656995808, 2.0254409531077306, -1.5528679043559896, -0.7143613577730217, -5.180138187624846, 0.48119260515925727, 2.923761205740937, 4.799837041521539, 5.84456914968696, 5.225171480179561, 3.094757246583584, 0.6414952099065342, 0.2711914441282182, 4.619060402985999, -10.912246305960238], "delta": 6.935319097933602e-05}, {"inputs": 80, "activation": -8.975400175153657, "output": 0.00012646731653799417, "weights": [1.62643766707848, 3.5084331010447762, -6.849340928524462, 5.73618036071145, -7.771617307154776, -10.96616489437023, -25.02223797163148, -16.08155535095179, -0.24826471580588383, 14.845290400447247, 11.260030886078134, 1.6342995476002042, -5.1821167965395905, -7.652106762015703, -6.628243687348479, 4.711967562305945, 8.506355063689343, 7.275174460713306, 9.36594036254115, 16.783834596213165, 9.345945875496229, -1.5548661159007133, -2.4935464120578463, -6.887239396201798, -7.341763147008911, -10.436859476057611, -5.21881017619542, -1.1987825800668999, 0.4637481640718797, -0.3121850066469922, -2.4138670979664782, -6.0869347157579865, -7.079713107918835, -10.853494597218129, -3.5030073365371774, -2.704598256163204, -5.363055642199978, -11.965076791748977, -11.198311967735847, -6.523668593031315, 5.428164852702504, 9.872487574621015, 4.933155999254894, 4.933877017060828, 3.8264464586154388, 11.236684446381878, 8.732600326118327, 2.3170785574347876, 4.242685159351373, -2.7371294326672633, 0.17998489694873296, 0.7423060764998495, 3.764229037447106, 12.964122920555697, 3.9192698430565778, -0.554846875014285, -3.3637893917485857, 2.2078863280095464, 2.6792094648100275, 0.23594304415579628, -2.3296055345051565, 5.6800556961011575, 12.39461146751839, 12.890537712248793, 8.644218570532606, -8.28471884520592, 5.9507939914141925, 14.441811396113833, -6.576986304184925, 9.423393361976345, -3.052785170489826, -2.7947074215788366, 5.067830435705391, 4.808910335201457, -1.9965754523938564, -4.988036784507429, -2.9084239143532433, -3.3841872245068965, -0.5255750091337599, 5.0951989025034825, -13.165219583159844], "delta": -4.071940724055314e-09}], [{"inputs": 4, "activation": -30.042885201260024, "output": 8.964802714789665e-14, "weights": [-4.307769215991298, -5.630036329954377, -20.58469382134247, 27.489723434842755, -4.870309988941231], "delta": -3.365548654890895e-16}, {"inputs": 4, "activation": -15.604321346739159, "output": 1.6715881073918058e-07, "weights": [1.6053948273037033, -13.986211598174997, -7.554875457988279, -1.8145863941861904, 2.3756183803339157], "delta": -1.505066885687102e-09}, {"inputs": 4, "activation": 4.055093309627456, "output": 0.9829614806629259, "weights": [-5.066378634717665, 0.7936612884026054, 18.03874857629289, -1.6087033151727665, -5.044734067281101], "delta": 2.001884172138801e-05}], [{"inputs": 3, "activation": 3.4931583678494698, "output": 0.9704924759899353, "weights": [-4.442806777142007, -10.655378697582885, 1.4147400000621162, 2.102940587288455], "delta": 0.0008450019498847949}]], "configuration": [80, 4, 3, 1], "name": "Sys_Utilization"}