{"layers": [[{"inputs": 80, "activation": 9.521082055929488, "output": 0.99992671505387, "weights": [4.3536000555931045, 4.48268935095424, -0.43263416542121186, -0.6366342629589178, -0.38848920584025104, -1.018826524909811, -1.3645361181659117, -0.5777318426185181, -1.5026464213590196, -0.8062258278732002, -0.020636644898730645, 0.7459853794224266, 0.5573138033592365, 0.1313346207539838, 0.7847304223679807, 0.9119203716002313, 0.5590194014732087, 1.16350494118724, 1.4834773486601407, 0.7161158442149287, 0.784381040921464, 1.103264748258859, 1.1861260354288299, 1.161694883681589, 0.7079678376019883, 0.7506861451083549, 0.7721431784508078, 0.41587166473454223, 1.296970911061069, 1.0426153526010873, 1.075940707519535, 0.4584247947724076, 1.2023814395636474, 1.1548773304816182, 0.9983254541219175, 0.2584737385902727, 1.0598975011168474, 1.0795989930463576, 1.0054644990363104, 0.6714608110583128, 0.3275952761762475, 1.162274320930985, 0.5581597541385342, 0.7725881371867502, -0.019631352382927875, -0.10215027129087914, -0.28956839302392934, 0.1629791504671775, 0.48198237034052244, 1.6491581951523302, 1.4874801385710437, 2.9104295097728414, 2.804342447663293, 1.909883531692566, 1.59439681488615, 0.6771927895171304, 0.7016566052836201, 1.6425648865076674, 1.6696237712762205, 2.3670370374585663, 2.03678577273385, 2.640742434230292, 2.5821819945307203, 2.3501315614667533, 2.101546822505034, 8.160863200891496, 1.7323794568861888, 1.525702665075195, 0.922332085091599, 0.668572100437006, 3.651329616761859, 2.343073437519502, -0.5527406043641504, -0.10631901809903828, 1.06190039710713, 1.5284580071684903, 1.303175362486941, 1.3483519364666896, 8.577983894017217, 3.608842934359058, -0.9411372699561806], "delta": -4.467160159984937e-08}, {"inputs": 80, "activation": 4.499107588534027, "output": 0.9890033559883638, "weights": [-0.15728504810608113, -0.7265943063898948, 1.5619171984788975, 1.6202650472114577, 1.6161570182392715, 1.7334456992593863, 1.145421829247568, 1.2689373620489075, 1.340544681391909, 0.9829204874658306, 0.7555584311398668, 0.3501266122144021, 0.644710798017477, 0.2686151508528916, 1.0239729855261914, 0.9094197015411483, 0.33067509748169577, -0.37873949167838955, -0.5432924082236253, -0.11014580710948195, 0.29795641974454096, 0.6105246216081144, 0.43678387289927617, -0.16944906491472486, 0.15990996666132104, -0.35391735651764133, 0.17231809317689886, 0.6931990503159529, 0.6170604435066749, 0.9840814560565119, 0.6081927292632734, 0.34105076159704656, 0.4050360728835104, 1.2515008222698125, 0.4281729694067343, 0.31174482012679855, 0.825815255802187, 0.5798406459672791, 0.91525843495647, 0.9819310576574223, 0.5064797657735907, 0.6594748070605011, 1.218343361231123, 1.2591584860973037, 1.2306237876108734, 0.8217297231419118, 0.8721277163126359, 0.8721042967588697, 1.1352564575703838, -0.05973941274712856, -0.0754438067346418, -0.6936565847867462, 0.07930678922919057, 0.06448474433556502, 0.2717560015494919, 0.77794858999627, 0.618995687865907, 0.9093769774372836, -0.13605422157597383, -0.12242314297578505, 0.1504784674570671, -0.17770904419745026, -0.2352676479526032, -0.39456552080537954, -0.4356199838787426, -0.27929604428659205, 0.5986306057313768, 0.8589395335589561, 0.45137755273797026, 1.0858217426238803, 0.11167437818982635, -0.06404767957896554, 0.1773867609639774, 0.23152801413577057, 0.8231197845538785, 0.8163247651370963, 0.06187805098574078, 0.40670126820667385, -0.4100853729985679, 0.44215713088726094, 0.407678023262852], "delta": 3.40739554174134e-06}, {"inputs": 80, "activation": -0.1939345817807494, "output": 0.4516677435354672, "weights": [-11.108760815467074, 6.786733815230119, 5.989476349504691, 5.239855396428746, 2.202863566325794, -1.7600281100206665, -13.63893795402606, -4.2591113062705785, -0.964981165068764, -7.943668992399476, -5.815643885035105, 4.970087554332458, 4.663293766809038, -1.9604469119761008, -0.5804426024815347, 3.989825211637867, 6.725693282901809, 2.1784239375255066, -4.8440714092618995, -5.140100682846953, 5.075998908101545, 8.331804959386435, 5.217456254137421, -2.1227128992214293, -1.0351886702571087, -0.41429108738131615, 0.007902327488138967, 3.0519093200868337, 4.207066733748516, -4.2197648867415225, -0.6251839668907864, 2.5060560801653273, 2.1615043665649214, 1.9740742163274243, -1.4809930440124373, 1.9472201885570608, 6.265215761492271, 2.3086142644445724, 0.8089258577298816, -0.40226452010168073, -0.13600950965577438, 2.389434019314099, 2.4568037964531997, -0.28021300732514615, -1.4818732420829321, -0.717169248796049, 3.7559057634086432, -1.737227969684764, -4.216057689585666, -2.8023551397156634, 4.743854169879212, 6.939148149906778, 1.2670576933089877, 3.52122071300645, 1.0768798932622756, 6.391108719845133, 4.364593501625752, 2.129517834262376, -3.8707131281068747, -8.842560974240163, -1.3861187691147516, 7.619249292620276, 13.42060645093196, 5.000640806727417, 0.01294111035285595, -9.23333243077019, -5.464999052379052, -5.676445805094356, -5.602940575113006, -0.7965960957086665, -4.320952510878741, 5.485099229985671, 6.800673522208748, 2.985280998144967, -4.891021750749415, -4.674579108141806, -5.291895827534867, -9.815398071716768, -9.925936186495093, -5.503949860136401, -0.43396600604326035], "delta": -8.791791079983106e-05}, {"inputs": 80, "activation": 0.981260404449875, "output": 0.7273582365330634, "weights": [5.044613242933867, -3.2145367160487632, -3.285487199386436, -0.20110831032107848, 3.3547607014659877, 6.390629121536426, 6.806110629468259, -3.675795287092787, -2.75314320621721, 3.4255186831606372, 6.454578348961686, -0.15588915848968157, 1.0476967852701202, 4.372154815433627, 1.8109739697781524, -1.2628702224136872, -2.9244518566634317, -4.243021751198133, -1.817905433440943, 3.406297265445445, 6.247256746626033, 3.7225636381994467, 0.43574402811438306, -1.0044544347449411, -2.9822024025053, -5.037439802422994, -4.424899610382441, -2.132377893461843, 0.7415999796399226, -2.4851742979859273, -4.186176233673415, -7.162943639879306, -5.82190760073424, -5.2303435316569775, -3.857503281976828, -4.889450804311962, -3.677814195310573, -4.010713165864947, -0.6020734723180686, -1.2261502707984444, -0.4809732518286504, 3.248630038800838, 4.489507174702752, 6.803698087649551, 5.861766819821295, 4.263771543384929, 2.47948222986234, -1.388086545243628, 2.71971013668018, 0.5100533674591888, 3.3987318531076935, 4.8640789410215906, 4.700359620651097, 4.618502575424828, 2.8255010786023393, 1.0713804916952618, -2.62612067594211, -2.872442669540783, -0.08478986400936545, 5.598199095594655, 5.837626201874442, 1.0767075698027244, -1.5969658761797432, -0.6066638630278557, 2.982623822059492, 3.5199566693793223, 1.0264220343721226, -0.11885852511217433, -1.1923404160061521, -2.3657263566644486, -3.2514702618344185, -5.379518259370452, -5.198643606921333, -3.857527460470923, -1.1861166793649134, -0.8876918256736146, -2.4583887006863243, -0.5811070707503508, 0.601810338582608, 5.373872136650017, -0.37532097084261923], "delta": 0.00010403608672826418}], [{"inputs": 4, "activation": -5.3401675680470095, "output": 0.00477218419928176, "weights": [5.906190473105681, 2.806757261690793, -27.112761371352512, -6.453448120664276, 2.9181592531375844], "delta": -2.212459556830637e-06}, {"inputs": 4, "activation": -2.03856383500629, "output": 0.11521305239161302, "weights": [1.3452341153523826, -1.5240739195495665, 15.203048091450265, -13.811583141724075, 1.3032099652982991], "delta": -2.1061313044653053e-05}, {"inputs": 4, "activation": -0.9716846787540043, "output": 0.274544837381208, "weights": [-12.284392395877603, 6.213055375779008, -2.049470248568542, 4.743759401946758, 2.6409793533456227], "delta": 4.625607675617786e-05}], [{"inputs": 3, "activation": -5.270277984177817, "output": 0.0051158741787534325, "weights": [17.890542739386916, 7.934939864863328, -8.919264917455541, -3.821082313291314], "delta": -2.6038275091227718e-05}]], "configuration": [80, 4, 3, 1], "name": "back_end_bound"}