{"layers": [[{"inputs": 80, "activation": -0.6871160854909689, "output": 0.3346749211560259, "weights": [1.992536102631072, -0.5173380209812994, -1.8517108897300147, 0.8929166793861902, -1.9420850480278253, 2.0620256027249786, 1.5858479414341577, 0.7741057932074069, -0.7546501344226669, 1.3827088607905267, 0.32831128453896535, 0.5359895799199288, -0.585705325957096, 1.0289730486142024, -2.9790671114050293, -1.0913233429018434, -1.1820547450268841, 1.772747647143195, 0.25559983817961385, 3.5916268224069947, -0.7634514028052168, -0.5691258626723837, 0.35019627893285066, -0.9044647664708205, 1.1905137753681965, 0.24224010251076716, -1.0993579743429545, 0.0693980749275732, 3.5792507839435577, -1.1126312607288311, 1.42953139952836, 1.7136990045084368, 1.8140326748300208, 0.12097960061639565, -3.112834591217016, -3.4103062419203987, -0.7466305692419625, 2.065642079908453, 1.7506074181233433, 0.778123646334435, -0.7041659276868458, 1.9255614228076023, 1.6745864276699187, 1.020626835023764, 0.16656116550434616, -0.4870238036764722, -1.2136303334056058, 0.14476452739305626, 0.3736573895946928, 1.4769374568423377, 0.030642640233890905, -0.4488462768700862, -0.1960129391524277, -0.3249448154752194, -0.033713975574484016, 0.5268757915383148, -1.0637483624982826, 0.05316550600839834, 0.6910789050060542, 2.4945722457281314, 3.5609736992647925, -0.35644171542112807, -0.5310068576272698, -1.383014772534547, -0.8420153249653761, -0.10394010620640341, 0.08740481716705557, -0.556714235152524, -4.666657129823335, -4.324630395086968, -1.1363030078063325, 0.9060108782571106, 4.547175184753255, 1.6813328216908345, 0.19021652187728597, -1.5345384831868596, -2.53383833617274, -1.655310763270652, 1.80849927544832, 0.11589879492883413, -1.4813646728469152], "delta": -1.9731308650769536e-06}, {"inputs": 80, "activation": 1.6140774902630102, "output": 0.8339767229700232, "weights": [-0.7870996634753823, 1.5022135737263795, 4.509667124012326, 1.3451650707458698, -1.9709910245437399, 0.0012255920943889914, -0.9273325305058071, 3.3363527862430025, 3.0999870931145237, 1.1672558951266865, 0.32567625261125166, 0.8619497611209403, 0.8888600699110932, 0.32185920878847196, 1.7778082371696502, 1.9510667038024878, 1.4678481910466448, 0.06710004723541285, -0.04094132911428763, -0.5718817140641853, 0.1019910661684519, 0.45187840352450387, 0.11800226040607119, -0.5777837382936911, -0.9978708596982846, -1.0423009392920126, -0.3132752846064917, 0.5529682038911147, 0.24131170952593792, 1.2547375126077847, 0.7021166213125036, 0.4973693983721191, 0.54982293468614, 1.483040043931588, 0.8049030679866255, 0.40645887549745946, 0.6042607210074457, -0.2412261634656136, 0.10587873165629072, 0.5291458822374095, 0.3356829107861282, 0.6703874765122465, 1.178667984547805, 1.0590726211345833, 0.919230363617416, 0.5634742619360745, 0.8307280392459235, 0.8026461105691611, 1.0030900883757143, -0.17293307998002755, -0.09952627492417068, -0.3858324031885826, 0.3383857800763027, -0.10347312700525949, -0.2831521703163713, 0.04760992364490277, -0.5803609404014496, -0.5105465292761445, -1.5346441000804072, -1.003570068787844, 0.09902851960147306, 0.8097229004889901, 0.6102652375199971, -0.4430743302062633, -1.6167600507118796, -0.966904609244367, -1.1214259450996544, -0.9516472668676387, -0.4076096823582693, 0.2030571570492643, -0.11330713515862902, -0.8698971457304678, -1.3785406870317372, -1.3845036646602258, -0.5789105614736216, -0.5208839021506336, -1.195607336670793, -0.5742882468388195, -0.2133531370690537, 0.6146800868247017, -0.060150662540822346], "delta": 7.39519511850903e-07}, {"inputs": 80, "activation": 2.9302694136036354, "output": 0.9493226379019368, "weights": [0.3499427493357248, 2.006002519349133, 1.206478202290607, -1.7047260625570277, -2.5952570477051333, -2.4291518655308444, -1.6359071663671516, 1.7401847078401405, 1.229471847745135, 0.10154888022354573, 0.05620686699698791, 1.4232208440109442, 1.7952390088532508, 1.6743064562923164, 1.3994530976380595, 1.801883726469463, 1.661605918679431, 1.625263684265315, 1.291867167815147, 1.0682421222093674, 1.2027134706036622, 1.5565982645056784, 1.2878888085602658, 1.758188604886783, 0.7128252203994946, 0.5528576099596342, 0.5526091745898246, 1.132719651641654, 0.2531059142500534, 0.3334447380911571, 0.3310157041100558, 0.9843176230408013, 0.6788174894336365, 0.8658108740350842, 0.565675457420244, 1.0485185912940103, 0.5373610161959881, 0.5042833686350144, 0.5055897902747889, 0.5556750110490875, 0.9460793790322575, 0.7816393273224541, 0.5789309552019223, 0.7908680986207889, 0.2500712592230615, 0.4043641982145268, 0.8042136844639971, -0.04972418116839591, 0.5381737916784345, -0.4599015387033865, -0.6528134952785127, -0.7446723403880641, -0.516324775760695, -0.10820101652263801, -0.1524573837182225, -0.051391265138564936, -0.012936475113199368, -0.0951411084845199, -0.520954062667901, 0.2643146306444962, 1.0916063830778728, 1.7431116665361408, 0.9760739427098085, 0.6330373949140121, 0.1457752453826441, -0.5158940560404109, -0.5884877170266481, -0.8878723615446205, -0.0393445638282918, -0.5735431370499011, -0.2099950395649243, -0.1054015302869589, -1.1180809194450176, -0.7304485755016624, -0.8873036266721583, -1.1041133338347107, -0.7401425742478779, 0.0009754947800559477, 0.07095160980033036, 0.39324534910622, 0.16871591601227204], "delta": 1.697051691553155e-07}, {"inputs": 80, "activation": 3.1265994598848605, "output": 0.9579767092623092, "weights": [1.9021720061239051, -0.2879978344494167, -0.9094717506419069, 1.5001298330749762, 1.4369783193664472, 1.3107394314456065, 1.006358422529291, -1.5423375635228571, -1.091716592039967, 0.29843043890035476, 0.5221814691459326, 0.6542670889539215, 0.36338147739519644, 0.2121576800313162, -0.06359123423367961, 0.4181366893695572, 0.28176894902677313, 0.5899400822419046, 0.1471783477222275, 0.8461627397571783, 0.7912886029836068, 0.20914858768797318, 0.5702049010826926, 0.30821439106145126, 0.5055231712444599, 0.20313535982057718, 0.6527670008942922, 0.8007076574053301, 0.49752422596062656, 0.25593105616722367, 0.17873133955356144, 0.4390323083001479, 0.7782952647365691, 0.14972628754427778, 0.4920064133517745, 0.38349613062078125, 0.9902012841912491, 0.49947782390243733, 0.870714263862677, 0.5478810487937553, 0.6691173089966074, 0.094156785565413, 0.22060743233428826, 0.7706187656078219, 0.4738254426185216, -0.09490971529793979, 0.20642373891336893, 0.6344643140833062, 0.24024261024282545, 0.6084498748064981, 0.892973478102576, 0.5255234640654867, 0.46605036429764113, 0.49589341902620054, 0.1487629420772094, 0.19595328447861035, 0.5666197938601707, 0.40289412173048844, 0.2931106280646977, 0.5176259994818362, 0.15885316397862506, -0.4054543708144853, -0.8963440451886553, -0.4929158664580769, 0.48810668572160987, 0.5531358293803523, 0.03193341625350366, 0.3874370910064115, -0.2620244919849383, 0.12791298403536028, 0.22983224365771673, 0.47784561544962467, 0.6492540101164475, 0.6674212148258931, 0.45091166009813605, 1.0833123041374262, 0.7767806352558606, -0.17488841713929693, 0.6661370763276568, -0.5268661629906443, 0.11292875237851506], "delta": -1.5474956703153056e-07}], [{"inputs": 4, "activation": -1.8047541287264979, "output": 0.14127333273167383, "weights": [13.396401881973556, -7.893406505480097, -4.939433084351137, 5.561654690536468, -0.3440973505341142], "delta": -4.846669772407748e-07}, {"inputs": 4, "activation": 1.3194907708788475, "output": 0.7890969715904784, "weights": [-1.5646305449923632, 1.693754187356765, 0.9206456793224271, -0.9338865894982753, 0.45123381660756673], "delta": 1.4050803760365543e-07}, {"inputs": 4, "activation": 1.044335576141008, "output": 0.7396856917201058, "weights": [-5.747068295286857, 3.416617660859026, 2.6858194627516125, -2.7207949671953156, 0.17510509539606026], "delta": 3.7387609300543607e-07}], [{"inputs": 3, "activation": -7.627281865533114, "output": 0.00048674570881674533, "weights": [16.870791895553623, -3.5652925395560926, -8.199542542199675, -1.1322292097414752], "delta": -2.3680606458401506e-07}]], "configuration": [80, 4, 3, 1], "name": "C6res"}