{"layers": [[{"inputs": 80, "activation": 40.237571066358335, "output": 1.0, "weights": [1.828891035383252, 3.841256321235291, -2.9124613251375018, -1.3438311213340266, 0.7603781569802814, 0.4436023547592208, 0.09694974197483747, 0.8265651793445994, 0.0031229082238433286, 0.3805067138479265, 0.7650432327751397, 1.2196146313312937, 0.8473990704522585, 0.23117093959952942, 0.7908710200817323, 0.8133710105881712, 0.4010653263601277, 0.8440990742789688, 1.171299380195711, 0.30705594922243606, 0.4040262798713317, 0.766253752687776, 0.9111945800070043, 0.8829239558809436, 0.34500714456718984, 0.35147833631724634, 0.49486157382378193, 0.21147675239058203, 1.0533591843987322, 0.6935739884711479, 0.6613342007918411, -0.0012504766741595014, 0.6584978977813527, 0.542632261222874, 0.43248755340726536, -0.22782338888192233, 0.6175646356657366, 0.6079938133099179, 0.538917076818208, 0.21913661771903226, -0.08466505428774204, 0.7123995222568944, 0.05427622196814903, 0.07337360241365153, -0.21922985538382403, 0.11369321625164455, -0.05328628015536034, 0.3005338855686954, 0.06784032966538325, 0.3559204377731536, -0.5457615310972216, 0.04551353701886642, 0.19333139034247235, 0.37955697309198516, 1.1939250245532733, 1.559124384336357, 1.603684043942414, 2.0571889818765365, 1.4888156873510292, 1.4432787990839806, 0.6456489592828459, 0.8306537833223119, 0.6105779129628403, 0.33196643087472383, 0.6638359651255652, 2.8878989972901756, 0.5866455433463467, 1.424591916118275, 0.903327148236863, 0.5695013179743701, 1.0202929624210533, 7.709352017206492, -0.3366811408033733, -0.15667583346195113, 2.760674045435791, 1.682022569876068, 1.0722801330560405, 0.905988502326919, 3.7363459768452074, 5.014214133590255, -2.799074922182254], "delta": -0.0}, {"inputs": 80, "activation": 2.8345563257785944, "output": 0.9445148674900703, "weights": [-0.5204201465158128, -4.513438319542761, -3.413624718851315, -1.0287965241112624, -3.216393323765104, -4.007004383406277, -0.17527413245200682, 2.0781195352784323, 0.0575623755203252, 6.319579288477516, -0.2868826589544986, 2.0346661693414494, 3.462297429493984, 5.066059335851315, 3.6095029200476882, 2.63041630159185, 4.016500021933901, -1.3220934747359474, 0.34353924032757166, 3.7936764546438417, 4.379788415708677, -1.4362915005570795, -7.337675027710783, -3.634586299461318, 3.953360857350317, 2.4354736640779104, -3.587538080382865, 2.566318850512918, -0.46958824487210127, -4.944886493512947, -11.625861808140598, -13.485401908587447, -9.330881613024053, -1.8804956028674635, 3.759575100581778, 7.784906908270843, 5.5117672149568495, 2.7108286446224485, -4.4980860820373625, -2.437127282510738, 0.826542433942974, 2.7649965925121434, 0.9303646017783448, 1.641350834553523, 1.095968512527137, 0.7869660445183526, 1.2941767665575363, 3.2293661762198393, 2.117149475630622, -2.970711273500038, -0.49829614129829436, -0.3122726027177068, 1.7340855295881161, 1.9284997776864528, 2.312859755993518, 4.544880251667353, 4.848943881714558, 9.256816156850194, 5.158544468798102, 0.9382876006903722, -0.6586915460331803, -1.6170336401188554, 3.0067288527848213, 0.4664290529740011, -2.740175966754452, 0.4538294434721888, 1.6330806346992466, 3.361895678125139, 1.320777446503737, -2.9540181108309285, -4.227258478256238, -7.276639982471507, -4.605652537889931, -1.2681265187546773, 0.5639546088673922, 1.9761524881565735, -0.5854020998159929, -1.5712021894501436, -2.8099664131495365, -3.1095231420515916, -0.04421830371337278], "delta": 6.839468275638326e-10}, {"inputs": 80, "activation": -21.097438151338608, "output": 6.878583732456276e-10, "weights": [-4.193541671870552, -3.715168024152691, -3.9263015765767095, -0.4660336711825056, -2.589895648374585, -2.1200844308604045, -3.732127600214115, 1.9960526750134626, 0.4586679108936346, 2.5115535645508023, -5.572345157777679, -6.43582697946469, 0.3473824549159806, 8.200938235794135, 0.4645664665790413, -5.109586646064844, 0.6151087984399136, 3.022300642280049, 5.608392330840284, 10.760885165257768, 5.4151994127322824, -6.926234289189867, -6.345290828838462, -6.190393889280497, -1.5363590561737421, -2.2330659559682537, -4.3114882400712, -6.102330794727211, 5.014565255367293, -6.495690196919528, -3.9091288636853965, -4.067301497728349, -2.429219368918379, -2.067477975187965, -0.8682395609599406, 1.4202618084255825, 0.4941601339073042, -4.923953515054441, -3.173107872425721, 1.5347081984503095, -1.9165879117729954, -1.0781735702961364, -1.7058988702278366, 4.3235799804214405, 3.8386575760416326, 5.212537667784955, 0.8366764116276252, -1.2292580629221812, 2.848162288436696, 0.41916960230391775, 0.08188598119046664, -0.9722937821192715, -2.8717365311221226, 3.113662135184722, 7.225406711919862, 4.3018706693938356, 4.109083057502879, 7.752567028234005, 4.387460850324141, 0.23469634648053317, -5.243842482917822, -1.2432803951673201, 4.9169097345755235, 1.0531053729928688, -0.9749648575230898, -1.5213022017257138, 0.0816175882403383, -3.099567624218773, 1.3866879836011534, -2.6651646379966776, -1.4336510021898365, -3.705381259809176, -1.591670028336401, 4.579138558537569, 0.734166211266227, -1.3804703724988838, -0.47825796246031416, -1.8040347547968392, 0.6308134143183354, -1.8978699453318624, -2.6344840831395984], "delta": -1.6890338713223991e-19}, {"inputs": 80, "activation": 4.65789940817106, "output": 0.9906027770443725, "weights": [-4.214146096082709, 4.224329463396896, -0.7741001914806409, -2.2565199811495282, -0.5632791599641724, 11.249612986880786, 3.6320191455015394, 1.1016599889348415, -4.200718982318427, -1.0992093718005311, -2.8185767894566025, 1.0850026701220292, -7.0693957561735346, -2.487020127448303, -7.168335267063804, -1.5363168527325135, -1.5196472197491653, -0.5331318730480992, -6.11264735306483, 6.007936759775335, 12.271976990908962, 5.750610760077421, 2.34742638018285, -4.785449088611485, -4.604132989167252, -1.7773561874606556, -4.019390013521405, 6.101233184032017, 9.93617798972124, 4.2279755587303, 1.1542906332550316, 3.1653177356354685, 1.2899382853214905, -3.367168231706136, 1.2877865172565433, 1.5387053578336067, 1.0056734430120722, 0.6467050188334852, -5.852041811711181, 0.32058764452490035, 5.6219772942365, 3.9170689005842987, 0.9367073578328732, 1.447164387212814, -3.7089869832190168, -9.76849713640789, 2.1060951376945494, -5.363284967826218, -8.217380089075546, 1.2408448899466171, 4.626764457489741, 7.264046591138447, -2.2869692232310195, -10.662140119154387, -10.19387301991201, 5.660664288357663, -3.608673835478304, -13.447712438121243, -11.382263155393149, -8.804550370968858, 8.695280607379388, -1.3424114648285468, 2.037616750143334, -1.6987590950670488, -11.568667375799041, -1.7876313395260979, 3.918239297602087, 7.043558796666892, 4.395354041206099, 3.6245347824581295, 7.289929027828889, 3.489992364790231, 2.3180295422114527, -2.6772750097122655, 1.8790869066174165, 10.434187310834156, 1.8810331411526324, 3.9715455226754135, -3.1816740925835676, 7.542376419929457, 1.8060474562183029], "delta": 9.883910391911628e-11}], [{"inputs": 4, "activation": -4.604324333757191, "output": 0.009909285393344045, "weights": [11.406987608996342, -10.248522918049275, -18.60385357764654, -8.282101712270485, 1.8728417826816668], "delta": -4.1627121171730756e-10}, {"inputs": 4, "activation": 2.0329798230802707, "output": 0.8842164947650012, "weights": [-6.641823900666582, 4.236291757419114, -3.7531565162667615, 3.413977192771096, 1.2916685933972665], "delta": 2.0437016018449705e-09}, {"inputs": 4, "activation": 6.6378819549748584, "output": 0.998691914807853, "weights": [-7.385896810064667, 4.963959305816211, -12.495325846183402, 7.546155925304911, 1.8600025072186803], "delta": 2.5566867770387102e-11}], [{"inputs": 3, "activation": -9.906923703067488, "output": 4.98260045594557e-05, "weights": [17.09104291800312, -8.041215397504873, -7.883507422676368, 4.907086533230046], "delta": -2.4825070307888095e-09}]], "configuration": [80, 4, 3, 1], "name": "CPU_Utilization"}