{"layers": [[{"inputs": 80, "activation": 31.68157266919635, "output": 0.9999999999999827, "weights": [1.8299906000925845, 2.528031280101472, -1.4329684386947599, -1.2181173544094466, 0.9447475370125057, 0.37867196610632914, 0.0737334597880286, 1.4120626392044038, 1.1694357088315466, 0.4136216026056287, 1.1933651677352644, 0.3382038390541952, 0.10541282767692521, 0.5576976804420591, 1.925531552209723, 2.3122195214712784, 1.9605994419611417, 2.1410654551501276, 2.7022327848329, 1.409972663393989, 1.2128884428455595, -0.1864266599526028, 0.4189869130552695, 2.313031811175992, 0.12745194109876262, 0.42611378266456457, 0.2007217759019495, -0.9222947505528594, -0.9683348476589317, -1.454051662367983, -1.0659155467784578, -1.3070051880974811, -0.2596139798758013, 0.3222782461861685, 0.09074701735444661, -1.3427861467170876, -1.7282664693137901, -1.3396175815523497, -0.6655100615545583, -0.0021795466068762594, -0.10548799651209392, 0.7999811492345826, -0.15951375656534694, 0.1977668083675377, -0.5038677824440018, 0.3550961875039426, 1.5407601396328594, 1.6349674599777058, 0.707756144227851, 0.5143188162305613, -0.4168020962579959, 0.9056642319176752, 2.278855694811849, 2.299418978195639, 1.793927601714756, -1.0279394510594375, -2.0761988822929216, -1.1580331581267729, -0.16654688034680226, 2.1703837918320703, 2.7428398037472586, 3.8085143474376046, 3.157499452049341, 2.1490746387434942, 1.5111674566225333, 5.2990130256067705, 2.062840565198933, 0.884112422588017, -0.3535833050041172, -1.4167344689111727, 2.237761927077382, 1.7505511035330252, 0.0736070985883079, 0.7246268443185478, 1.7992423417220593, 1.4408204889928964, 0.5756455758560913, 1.3228872306462265, 4.3469939799838775, 2.2584878224003573, -1.3970387512409372], "delta": -4.084472649088866e-16}, {"inputs": 80, "activation": 20.225748484134098, "output": 0.9999999983553669, "weights": [0.3040531028528186, -0.054489277543771725, 1.4929475844239906, 1.3572836968317494, 1.205482714337392, 0.7171762270753824, 0.46923975223155795, -0.884279937479449, 0.17259286025855466, -0.26818377793818154, -0.9427598398552223, -0.5966230760067139, -0.211372974352668, -0.5402018099575748, -0.2793739278703053, 0.17714991345282619, -0.15416882695816383, -0.023229600948994372, -0.2474042496768947, 0.15644789265996328, 1.1913928147571113, 1.7534469639375772, 0.8380472297285194, -0.5273867915845292, 0.4842925648833358, -0.03992209364303138, -0.033675194799942576, 0.5373688367757917, 0.7104587187713671, -0.3194634268268362, 0.34819126814707835, -0.3934578849307427, -0.3876698065902821, 0.011796948686645993, -0.4813039538930655, -0.13517251882663123, 1.0474766266908009, 0.9183770272579025, 0.9301092499999011, 0.2723425928185177, -0.31197841922268627, 0.008047075953852699, 0.4150639103924805, 0.5622095735386091, 1.0242374497795057, 0.8531367386859527, 0.8184101997365174, 0.8302407076235298, 1.2299785147216429, 0.5932481961065375, 0.4876856251043209, 0.015101440755869815, 1.064629337667541, 0.8233508651563572, 0.9761648520227743, 1.1518727619586557, 1.2209761546107656, 1.237337283267061, -0.3054744691432602, -0.1505104668041378, 0.21595955970786, 0.15474256238788123, 0.23490071808938187, -0.003658677498802249, 0.2128880984796113, 0.6667530229780108, 0.8778253532876064, 1.4041938782857566, 1.1179286743800825, 1.986128762008388, 0.4442580201514894, 0.2326134608901981, 0.9036775924178191, 0.27649443749733416, 1.2448059295899943, 1.449093990205891, 1.0083882567934734, 1.2558367283351262, 0.8168384920914393, 1.4274815783824477, -0.006994251745134964], "delta": 1.2774386060043126e-11}, {"inputs": 80, "activation": 18.389215906817782, "output": 0.9999999896803492, "weights": [-5.204801793531776, -2.5318716279084956, 8.842742318464477, 5.663312802936265, 6.285429490269271, 7.681324113464819, 16.442970002701422, 3.232550057257951, 3.192537474526371, 4.425393263201307, -4.094236133810103, 2.251358936894337, 1.7998311045690731, -0.5550134912854522, -3.2945308593116343, 2.854525306403184, 0.6809521601383707, 1.2143148616983803, -5.955648448976367, 1.0133065907894947, -4.863480721720703, 4.640259860070378, 0.6609299152900652, -14.837035521874176, -0.6593165433598036, 1.4446254136282364, 0.46431236558144273, 2.7735698708174454, -0.5669556778801215, -5.471123720910336, -4.712015523556483, -4.78303280211833, -0.8673734197840106, -7.92451223021033, -10.837857623311704, 1.8701373395284493, 6.865878203133251, 10.276837884459356, 10.260263270808098, 6.345795465581939, 5.890433774952994, 1.8263834074901533, -2.9045349731119274, -7.248685898824892, -4.1976290338846045, -2.945628795087302, -5.355099574256564, -2.9714952894326783, -0.47069033511291924, 5.270517730162666, 9.377260552475626, 10.203067766568388, 7.239406536657094, -1.979071371070277, -2.0100753523855266, -2.886205879495607, 5.460395717713909, 6.2782464674819005, 6.082519804070119, 2.714768893082591, -0.23434960114542736, -0.7413133154304566, 0.2112523471253292, 0.10002167216812081, 2.209255397235049, -6.823610520841173, -8.522978965218206, -2.245731782580335, -2.994888733607155, 1.8205409709950813, -2.46284721992473, -0.8596495606939163, 0.41282341785432725, -4.9052812207284315, -4.97736854821234, 2.767187595920664, 3.786839811544808, 2.9526147276811168, -0.5524923346527201, -4.986219481880576, -0.9647701657463312], "delta": -5.045915162440663e-11}, {"inputs": 80, "activation": 18.376754761379544, "output": 0.99999998955095, "weights": [-2.1370360425733326, 1.4993379957446396, 3.0765338319731357, -1.135786089510957, 2.0998812078196765, -1.3676776302405556, -0.6911485672319255, -5.112484376352317, 1.0453688262360243, -0.4519956028804714, -1.8151160096398276, -0.9505909300432742, -1.9238688202408676, -1.0439621141928406, -3.021640329958765, -1.526087288428163, -0.6170224905987087, 2.399877701188156, 2.261859497643184, 0.764289013440445, 6.368863825500875, 4.456065179136581, 2.217213997198508, 1.8279576623740368, 1.3069785605425543, 0.6336761340565202, -1.1351904557115065, -1.2730420867581365, 1.186928797431565, -4.578608132143788, 1.1098868345581525, -0.5632033944079967, -0.903400615984957, -2.034916068325802, 0.3803336268162642, -0.2323923457405596, 1.6263460394784475, 1.2801364590361155, 0.1385709902874873, -2.109044018351766, -2.113573507060427, -0.8212536325039596, -1.0734724535304843, 0.6197546166443338, 1.1980662199534287, 1.085342705544996, 1.659361308589233, 0.9104151123643011, -0.40430308591134057, -0.6666724645807348, -3.200924371933988, -4.37873527732392, -1.039697012723051, 1.9018606930623863, 3.4248364925514023, 1.5567786678082456, 0.08487098567377777, -2.8774526834091763, -5.144926671407592, -3.156440429248297, -0.10828996605391039, 0.46096656691110205, -0.04579118635462262, -1.1411974151772621, 1.0141086793694638, 3.21533469019608, 3.023182190542498, 4.147363823531159, 4.367834568504073, 4.707137355280808, 2.3845815450259025, 2.1872240799148543, 4.6747718017956155, 2.065369164628521, 3.483486745201358, 3.8920742986853916, 4.332213962883161, 3.7835823295102164, 1.3305809661849013, -0.16672632287820208, -1.3839506524153569], "delta": 4.01017964307844e-11}], [{"inputs": 4, "activation": -14.521627411818264, "output": 4.93556791643835e-07, "weights": [12.317377585966522, 1.4932758233509311, -40.26917856678694, 7.588572332541243, 4.348322392806473], "delta": -1.1215555725583224e-07}, {"inputs": 4, "activation": -10.032539049176124, "output": 4.394450392096785e-05, "weights": [-1.2004940556072425, -2.418040869625708, 10.568251812611804, -19.106041430682456, 2.1237337798592795], "delta": -8.370766274498076e-06}, {"inputs": 4, "activation": -4.016594297430923, "output": 0.017695442192533592, "weights": [-10.500810723901608, 3.4484689606231287, -2.138946225807496, 1.6375466208395244, 3.537571155891106], "delta": 0.002246641152042304}], [{"inputs": 3, "activation": -2.062069290770089, "output": 0.11283851566529314, "weights": [20.117150731584914, 16.864066380313297, -11.442187895773628, -1.8604588507545756], "delta": -0.011295810761999748}]], "configuration": [80, 4, 3, 1], "name": "front_end_bound"}