{"layers": [[{"inputs": 80, "activation": 11.046186442530836, "output": 0.9999840524028702, "weights": [0.07278966169921443, 2.6129598603077335, -5.907918509462911, -3.6411432370092496, -1.0853686937819698, -0.5981146703993402, -0.16080505030623252, 1.3660140169461794, 0.6617555019506046, 0.9868158310361441, 1.3499074396456607, 1.7590891724855953, 1.3542632033190092, 0.6982525649655704, 1.2874401490865302, 1.1631981868758547, 0.5483338093128569, 0.8532644490095442, 0.870030909553082, 0.062480120481259845, 0.16663565908291184, 0.5783562737031217, 0.7516710922171151, 0.7478802628846059, 0.2363370071038568, 0.22530109732024178, 0.3403147089903462, 0.019763010836354494, 0.8461753068787276, 0.4717345816735217, 0.5625623021484258, -0.018408035966201428, 0.7653609832258649, 0.7451991258243729, 0.6168012129978144, -0.007965349906090857, 0.8052695219803337, 0.77399222382519, 0.5673031559370894, 0.17480897184883817, -0.155139729888219, 0.7392395101414101, 0.16691732293249079, 0.4004281147173456, -0.03196700474003013, 0.2857545868717379, 0.1487720956967475, 0.533979792393485, 0.5985625915992546, 1.3063093977308722, 0.7858664823278557, 1.782267436086108, 1.5468583735066583, 0.8955699122646196, 0.8021221319388787, 0.16219202585772108, 0.11553367639969112, 0.8961037097070305, 0.7534835230034012, 1.2240946246975437, 0.7436809838337256, 1.1776145889246115, 1.146784077885729, 0.9010184754171168, 0.9361712023021849, 4.722297664407367, 0.6376237500065772, 0.7904941726387923, 0.44192888705003225, -0.0020677222553471914, 2.436693650379983, 0.3449794252732153, -1.910852334542674, -1.467425841335046, 1.7564465219852796, 0.6049130514083741, 0.36858439085589517, -0.10481580959667056, 4.724240022565856, 4.350728467707635, -1.0685587517246762], "delta": -1.1169126892608413e-11}, {"inputs": 80, "activation": -0.023428079512889846, "output": 0.4941432480046789, "weights": [-0.7974793397991247, -2.542304272035541, 0.4435376838325345, 2.4515207786913105, 3.086516649941209, 0.32990025684803964, -1.1746568948419476, -3.672843391942912, -1.3452753666911887, 2.819016062989814, 3.999967731844675, 2.049993220137965, 1.40396910640867, -3.709989176172821, -5.027247563253434, -0.27861509064161966, -0.8025738102883938, -0.6033889618364839, 1.0445034187646227, 2.2671434497741667, 2.915731307692209, 0.3950325715508684, -1.645489835114814, -1.90026185099366, 0.5390220003265714, -0.4970975889325847, -4.877179475076916, 2.1792314555003673, 5.519558646164007, 3.3334753262254706, 1.289838242112508, -1.0563836749569717, -2.161848218366832, -1.920300551682069, -3.8108391340634387, -1.851627015087936, 2.4904655989302737, 4.739824214149918, 0.2375634493358131, -4.901455054677266, -6.896769032876377, -6.977071251593505, -1.5344287236611114, 3.9010196979063934, 4.589125026272772, 4.374013128792177, 2.606951495891254, 3.522790089462811, 1.307926689639428, -1.1828317827226973, -5.628747582182287, -3.68861193977303, -0.4082062384758644, 0.39915608540957526, 2.9636960711449327, 3.5288608035237914, 1.7554680332946841, -0.38095237244489155, -5.779647085871174, 0.47076130702771873, 3.727346542543174, 0.8958847235793297, -0.6634969752502899, -2.009187765242568, -1.3973969348051654, 4.347253552170536, 8.265543043773516, 1.7811326776196295, -0.17323309748542604, -0.5324198605621842, 1.1435568469031177, -0.24087355289916815, -1.2027233086677291, -4.3796768040888425, -3.5963860710862208, 1.216239973747916, -0.8474263256829062, -0.8692336735339012, 4.086267720791765, -0.32870402832960366, -1.2749578387703542], "delta": 3.461655289338924e-07}, {"inputs": 80, "activation": 0.39124159586007257, "output": 0.5965815524589093, "weights": [-2.0308206808756935, -1.467209728476384, 1.7054142481355545, 0.5666406582184742, 13.237782750162696, 7.656993917188608, -0.710969287741384, 1.9277262396820642, 1.4686899892833258, 1.926052726890498, 4.673451748525407, 3.67450659926179, 3.193203618415561, 2.770251970723925, -1.2717470493110705, -3.617072764508724, -1.0282800820929265, 1.1136088463380525, 0.3628690524150171, 0.05123021902654905, 2.2141951832621545, -0.12486692194215018, 0.16200687386681137, -5.427346422567035, -4.077597229886356, -4.757966250594566, -2.9307933204986187, 0.570230308069893, -1.7934088875298146, -7.094806598043915, -5.735067984340351, 0.22745079972890972, 3.3373265325550903, 4.680847741342207, 2.404175020883442, -0.6260065883998323, -2.1400955910218866, -0.6012710713072028, 2.024001105783746, 4.579289257759928, 5.157627645358719, 6.075582328366239, 0.141603117090317, 0.9559736608837033, 0.6589652963908579, 1.0775548443449485, 4.023486765749394, -0.6779195538665852, -1.7614645298413885, -4.703022495146823, 0.5872382991218627, 1.6238105210290243, 1.7344962540990778, 4.743985416272356, 2.310343299260012, 3.9755992178180373, 2.073937268348194, 1.2353106199417143, 1.1250864764576423, -0.9702909989766128, -1.5933633639626532, -4.040531294472412, -2.491803247600519, 0.18210210744230818, -1.491613304062508, -4.643922669888137, -5.376727399937069, -3.7012512450475, -3.5223171836627225, -5.384698369650585, 0.39612651464103743, 0.41772452590244685, -1.6310683355183224, -0.11410688704540971, -3.9557001225160207, 0.45785578519180353, -3.3536123646402385, -0.5792073012110189, -2.3986132204964896, 0.5943656432266906, -1.1653815088121322], "delta": -2.0887898383893904e-07}, {"inputs": 80, "activation": 11.603192689247182, "output": 0.9999908632135486, "weights": [0.6021085900945486, 0.7027858511739397, 1.1134033835696164, 1.385816019527671, 1.1613328122373372, 1.0229680621656632, 0.43720635419636905, 0.16020584581555436, 0.3222474525820534, 0.721437237227844, 0.4620100014123683, 0.9592274936700308, 0.5164225593775172, 0.41564574602183585, 0.25149962120671165, 0.6914334243164398, 0.6141481152090884, 0.9531347300004971, 0.5244833340698015, 0.9285335220797808, 0.9594462319047817, 0.5401536079963282, 0.9868346562775439, 0.7233250487753894, 0.4898820551740634, 0.09109972087976283, 0.520939127964118, 0.7561452768448998, 0.4312194569619493, 0.4538415317819337, 0.3613904710043951, 0.5944717867726085, 0.9235612521613958, 0.2867160712752031, 0.6381897749490661, 0.37767513617218856, 0.8325884572968493, 0.11613016204094981, 0.5787539408730857, 0.4380106088486611, 0.7588156601806777, 0.33447999541577267, 0.5286341564433247, 1.0981408161750925, 0.8000195599540746, 0.23493751204257807, 0.5201531355989224, 0.892859465928464, 0.35045643405028, 0.5339252688027933, 0.6918586817846603, 0.25602686320182794, 0.2443362353678978, 0.3322677563584044, 0.08543406795930067, 0.28969443332000355, 0.37296836350943186, 0.0948553123424219, 0.07149024623114919, 0.7397443514258285, 0.9508760852366702, 0.8191500326368439, 0.218728912718382, 0.11632535280169104, 0.6453558884808835, 0.9424701806079672, 0.46903471751260634, 0.9842556440265476, 0.641880285167269, 0.8525853930759749, 0.9950925914764601, 0.9548757472827013, 0.9645403589639385, 1.0133180002920403, 0.7175056400089747, 1.4417951683542387, 1.2365031546847876, 0.5597258393411197, 1.430033640354224, 0.2622098346761465, -0.83639441025344], "delta": 4.47279946927704e-12}], [{"inputs": 4, "activation": -8.203569295363213, "output": 0.00027360012019172195, "weights": [-1.9593514277716342, -1.8179676774198532, -4.5603065606590265, -2.702693503697605, 0.07735093390844855], "delta": -4.991703871013646e-11}, {"inputs": 4, "activation": -5.81315998487442, "output": 0.002979071801640335, "weights": [5.267700771770893, 3.4160028805695726, -24.83842272429514, 0.12712265783375226, 1.9222655590497377], "delta": -2.5814866594448216e-09}, {"inputs": 4, "activation": 2.3573559436193285, "output": 0.913517143870566, "weights": [-7.836017033895538, 15.89826341191351, -10.635273985628357, 5.5870070786434, 3.095082208322194], "delta": 8.765609957449086e-08}], [{"inputs": 3, "activation": -8.233391498215063, "output": 0.0002655633612855677, "weights": [2.5883941113534057, 12.327188649571989, -15.736717594240227, 6.1049479704479905], "delta": -7.050517029365746e-08}]], "configuration": [80, 4, 3, 1], "name": "ips"}