{"layers": [[{"inputs": 12, "activation": -1.3587265002457551, "output": 0.20444735732066305, "weights": [3.187287277444658, 0.061190958469814885, 1.5667255756850542, 1.3394261850350306, 0.8614756035356589, 0.6193338345593198, 1.6523408057160736, 1.4709079841749964, 0.05059326520733848, 1.4409554132145976, 0.9684690916904275, 0.41008042552272855, -1.3587265013684822], "delta": -1.1227269183972236e-07}, {"inputs": 12, "activation": -1.5105603466459434, "output": 0.18085576465572437, "weights": [3.441776539359165, 0.6226273252382156, 1.6860835873267954, 1.4631972999868395, 0.8199800486386899, 0.8718153819042245, 1.7047936377547308, 1.2893607079690323, 0.6289199628252208, 2.08855524284821, 1.3222897749608418, 0.18933947351473734, -1.5105603478446679], "delta": -1.198724495130573e-07}, {"inputs": 12, "activation": 0.4385710704024043, "output": 0.6079184928059318, "weights": [-0.0343470085586998, 0.11334161506629437, 0.5259984701585493, -1.1499070739908392, 1.099869302355597, 0.16704783070538584, -4.7575760882138605, 0.7221559729306515, 0.6451676567510154, -1.1159522676870026, 2.306941255381778, 1.9467387597548442, 0.4385710722192357], "delta": 1.8168314307744847e-07}, {"inputs": 12, "activation": -0.22559035316263637, "output": 0.4438403782540581, "weights": [-5.922012225570125, 0.08061387752670783, 0.9655401939082207, -8.299511310119351, 1.8747470030045748, 0.15075887936061882, 1.6323192062513199, 2.106029754468971, 0.24256347159036393, -2.8182310634985908, 2.1809199964558332, -2.509399538373289, -0.22559034964418256], "delta": 3.5184537935686883e-07}], [{"inputs": 4, "activation": -7.900445546163768, "output": 0.00037044111641588507, "weights": [5.03206661203959, 5.898604743219279, -5.556679502906709, -10.390779504960939, -2.0061777462196377], "delta": -1.3717578634886159e-07}]], "configuration": [12, 4, 1], "name": "jobber"}