{"layers": [[{"inputs": 80, "activation": -2.750077672459174, "output": 0.0600822636750863, "weights": [-3.596974801742083, 0.852734406822341, 1.2392877015522554, -4.826768429776595, -1.280038517856655, -0.9758536343910899, 10.086891605069988, -1.3635530638681963, 5.99927765741121, -1.4643195185750215, -3.567003877219745, -6.032983286042135, -2.291758383559997, -3.2888890581017574, 6.644749160829278, 1.0221115518685686, -5.249341009349878, -1.5062410946707059, 3.083052418814484, 1.9948537547899372, 3.876325146451147, 0.819137465094084, -2.2691699890335646, -1.6373241010226698, 3.147015465483217, -0.3662086592817973, 3.8270574130822776, 2.0989022966567545, -0.9770451344851717, -3.5552658350082, -1.1936908870524512, 1.3287674010929833, 2.7637960078626476, 4.047660393637829, 8.326829019125844, 6.480673504177849, 2.5607524707484868, -2.8630471213601583, -1.961705379832478, -2.2841061303789694, -2.73254205884639, -1.149144752388754, -2.319154431272458, 4.086868001321667, 1.9920553362790951, 4.393230700311683, -0.8283315607528984, -4.031779627048589, 0.6795633916145953, -1.2540878952418708, -1.2864368047204733, 1.6697897671245736, -0.6184122774244653, 1.3134277092758933, -2.7966226800543055, -1.8320607529458213, -1.9005219442556607, -0.12985093172006668, 3.3087824833848196, 1.5908113160139836, -0.9995531307970078, -0.1650853928842997, -1.0296726116959536, -3.3362365835018375, -0.5782389996519002, -1.5692681111933917, -0.7362502090985795, 1.8765297663737002, 0.9865048243704234, 2.5076478228803785, -1.7737911707361285, -0.9757396130388231, -2.8712064181751638, -0.42719734958337435, -0.8722338396255512, 4.115309061966828, 0.1468625094855162, -2.2286648203015664, -0.9982786025319349, -2.5966135236299324, -2.82774573196012], "delta": -4.618981266655429e-09}, {"inputs": 80, "activation": 0.27806685756410404, "output": 0.5690722247381766, "weights": [-0.2824170374790231, -1.224889540476067, -0.1630172399392088, 0.14965146539087032, -0.2146332653107244, 0.20485968879271357, -1.9468386819390981, 0.22996539799179255, 0.159086698014629, -0.0895346832489425, -0.23348651215486013, -0.6071607929128395, -0.20939931978295526, -0.35735256006451815, 0.41396624130972737, 0.5023316183281811, 0.15987665233331516, -0.3545520923094011, -0.34871331117057636, -0.001987155282898011, 0.18717613938717112, 0.5755891065828562, 0.4918169625043366, 0.010894477724277495, 0.37970335498182384, -0.05338736822844103, 0.189290576566082, 0.4802128550416408, 0.13052439727901463, 0.4309553954562841, 0.03577921891998121, -0.05813493053417331, -0.014910662349820103, 0.7685741266554688, -0.12060395775996241, -0.21970295861556158, 0.3503912293237313, -0.03359934836709983, 0.3578142325565731, 0.48219527974622906, 0.07038599338999685, 0.3032741283965355, 0.9138712068114563, 0.9818896466351232, 0.955460371649253, 0.5331077889311816, 0.6389178376539578, 0.7021889351048233, 1.0684625989791512, 0.18824977324002137, 0.4451961305320671, 0.19416597027243543, 1.0397302340363452, 0.7779564971094577, 0.7502732494615323, 0.859514058153476, 0.710423255377792, 1.07865919023352, 0.1753038528258426, 0.40593124933756164, 0.8326950564444954, 0.6678356249145168, 0.6546510770299597, 0.5133465178651059, 0.1919670146059499, 0.9611865636399817, 0.8048542532397163, 0.7551040624438169, 0.23093202376865932, 0.8639755640972127, 0.4215783324743179, 0.11105666974475206, 0.07444857572021486, 0.2108322272293153, 0.8961715561577271, 0.9705655711282913, 0.21618459575554125, 0.426123292395863, 0.603065873908271, 0.7130888608128831, 0.1721726254367901], "delta": 1.2421492696356073e-08}, {"inputs": 80, "activation": 0.31218123170744944, "output": 0.5774175855649997, "weights": [0.9330768863079041, -2.8945271225277582, -2.5022029232326104, 1.033566165825612, 0.1573724610702245, -0.3362517181915056, -6.272702456303845, 2.007949335026688, -0.5340465973391494, 0.7835590100190293, 0.836073137332327, -0.3708107512907402, 0.20618036366081896, 1.2837415888984267, -0.9109415295859128, -0.2573640117741462, 0.11215350512387881, 0.6532588919476201, -1.2032361290261295, 2.3629425313571506, 2.943350401108914, 3.202674130671478, 1.9393631006884389, 2.3544988149829815, 0.8009656811292007, 0.6923819218223515, 0.5554100763424556, 3.0503786916492857, 2.8117387284601336, 2.7670145365716596, 2.214441063933978, -0.07397537843220849, -0.5206606596071314, -0.20557284233986658, 1.532005417476795, 2.6839835702310317, 1.4613169323948187, 0.3832772105552001, -0.8880052773848779, -1.0868353620628428, 0.7758876681959072, 4.456183764934275, 1.8546798774665278, -0.1918520567254446, 1.5216624409076283, 1.2791654964287364, 2.2898372610924693, 2.149002051172337, 2.5520844409555727, 1.4660775403050688, 2.2687445106264197, -0.3548430055917953, -1.7197913071940318, -3.0272737655448285, -3.8644928356092576, -3.9257584457293935, -0.044636314270247966, 1.3685440455586089, 0.4230871496138669, -0.4174410732224952, -0.7295901060650763, -0.47176546796772084, -2.437736223439343, -1.2745712240312606, -0.8393745464523784, -1.57880645838172, -1.4801655769085196, -0.9393699903442946, -1.0730605617354174, -1.3944136327671506, -1.866744173431836, -1.3575801301289414, -2.8828627873848034, -0.9569345099925723, -1.3505760861749303, 1.0722477246830266, 0.20327643546133373, 0.33996982301723244, -0.12628856688061546, -1.3507475143522596, 0.09541301553802395], "delta": 5.862998431369164e-08}, {"inputs": 80, "activation": -0.7912092511024368, "output": 0.3119090787503966, "weights": [1.412836056703757, 1.515063842719013, 0.3468840841866507, -0.5827804556251497, -0.5444985568113965, -0.07389567868763951, 2.951665201606265, 0.3592823574645041, 0.8880955909538777, 1.2537382151020864, 1.1039703736206994, 1.7790146428575488, 1.2728120821932525, 1.136210025515115, 0.8357558091096828, 1.2411966253513596, 1.071612118651722, 1.467547292728105, 0.6952508878886835, 1.093400671455484, 1.0001099718630273, 0.3208859607224631, 0.4278607922205139, 0.3233852338566226, 0.3868159053876943, -0.35771924955278017, -0.04421870996881067, -0.05313989719771426, -0.12057146601715593, 0.44389138606121775, 0.6426030231731583, 0.422256506120958, 0.3931427809026883, -0.3353841580841058, -0.06896430202970577, -0.4142783320787541, -0.21679293870923408, -0.5339925626550023, 0.08403422135720993, -0.14907684178295472, 0.33322850284718286, -0.029702065939834005, -0.12388861197362278, 0.49253443437002375, 0.012337770789657901, -0.6655617942866726, -0.34988110568913927, -0.058404663738022944, -0.43389761810766325, -0.17743120296349943, -0.0011427182141522454, -0.12641536235709844, -0.040180813364871816, 0.15386182148797709, -0.45709189365799247, -0.197009781261846, -0.45658784093280097, -0.5487153219938733, -0.277215806778999, 0.4251354139157145, 0.7710092046664039, 0.6824641352489257, 0.12981677957392065, -0.053146033969513555, 0.34460158001074875, 0.4340320995304811, -0.08310833133230687, 0.35635393185292374, -0.21532573388127763, 0.006511869840798821, -0.04238292558915826, 0.03292211574524225, 0.14466493861320823, 0.2946694956245443, 0.1929087137823334, 0.95660304533069, 0.6212353514725869, -0.2880247019731824, 0.31792754954076036, -0.7673534979024108, -0.7928387991343804], "delta": -2.0714022296546496e-08}], [{"inputs": 4, "activation": -5.91827329697786, "output": 0.0026826248918008517, "weights": [14.88850453624735, -2.893124313664126, -12.779357763035682, 7.224296723364975, -0.04070991677075669], "delta": -4.224870751482705e-09}, {"inputs": 4, "activation": 2.080484353328261, "output": 0.8889918408716865, "weights": [0.36494209029568536, 0.9450250129113131, 1.3877323114704951, 0.014988470592008111, 0.7147941891169353], "delta": 2.8988751947398406e-08}, {"inputs": 4, "activation": 1.9396805489135662, "output": 0.8743170442401824, "weights": [-0.6540913607535931, 0.2449190160029445, 3.2419420506940124, -1.474401193594639, 0.4275278650920882], "delta": 4.505343843959104e-08}], [{"inputs": 3, "activation": -8.128749273745445, "output": 0.00029484989338289525, "weights": [18.16963537415638, -3.3798928665954615, -4.717465277800954, -1.0482337338692334], "delta": -8.691082642205232e-08}]], "configuration": [80, 4, 3, 1], "name": "Mem_Utilization"}